{"learner":{"attributes":{"scikit_learn":"{\"_estimator_type\": \"classifier\"}"},"feature_names":["lastEventType_faceoff","lastEventType_hit","lastEventType_giveaway","lastEventType_goal","lastEventType_shot-on-goal","lastEventType_missed-shot","lastEventType_blocked-shot","lastEventType_takeaway","lastEventType_failed-shot-attempt","lastEventType_missing","shotType_wrist","shotType_tip-in","shotType_snap","shotType_slap","shotType_poke","shotType_backhand","shotType_bat","shotType_deflected","shotType_wrap-around","shotType_between-legs","shotType_cradle","shotType_missing","season_20102011","season_20112012","season_20122013","season_20132014","season_20142015","season_20152016","season_20162017","season_20172018","season_20182019","season_20192020","season_20202021","season_20212022","season_20222023","season_20232024","season_20242025","gameType_REG","gameType_POST","homeVenue_10","homeVenue_5","homeVenue_30","homeVenue_21","homeVenue_22","homeVenue_29","homeVenue_1","homeVenue_12","homeVenue_17","homeVenue_9","homeVenue_11","homeVenue_6","homeVenue_7","homeVenue_2","homeVenue_15","homeVenue_14","homeVenue_19","homeVenue_18","homeVenue_16","homeVenue_28","homeVenue_23","homeVenue_27","homeVenue_20","homeVenue_4","homeVenue_26","homeVenue_8","homeVenue_24","homeVenue_25","homeVenue_3","homeVenue_13","homeVenue_52","homeVenue_53","homeVenue_54","homeVenue_55","homeVenue_59","homeVenue_neutral","shotDistance","timeSinceLastEvent","speedFromLastEvent","shotAngle","angleChangeSpeed","manAdvantage","defendingSkaters","distFromLastEvent","xStd","yStd","home"],"feature_types":["float","float","float","float","float","float","float","float","float","float","float","float","float","float","float","float","float","float","float","float","float","float","float","float","float","float","float","float","float","float","float","float","float","float","float","float","float","float","float","float","float","float","float","float","float","float","float","float","float","float","float","float","float","float","float","float","float","float","float","float","float","float","float","float","float","float","float","float","float","float","float","float","float","float","float","float","float","float","float","float","float","float","float","float","float","float"],"gradient_booster":{"model":{"gbtree_model_param":{"num_parallel_tree":"1","num_trees":"100"},"iteration_indptr":[0,1,2,3,4,5,6,7,8,9,10,11,12,13,14,15,16,17,18,19,20,21,22,23,24,25,26,27,28,29,30,31,32,33,34,35,36,37,38,39,40,41,42,43,44,45,46,47,48,49,50,51,52,53,54,55,56,57,58,59,60,61,62,63,64,65,66,67,68,69,70,71,72,73,74,75,76,77,78,79,80,81,82,83,84,85,86,87,88,89,90,91,92,93,94,95,96,97,98,99,100],"tree_info":[0,0,0,0,0,0,0,0,0,0,0,0,0,0,0,0,0,0,0,0,0,0,0,0,0,0,0,0,0,0,0,0,0,0,0,0,0,0,0,0,0,0,0,0,0,0,0,0,0,0,0,0,0,0,0,0,0,0,0,0,0,0,0,0,0,0,0,0,0,0,0,0,0,0,0,0,0,0,0,0,0,0,0,0,0,0,0,0,0,0,0,0,0,0,0,0,0,0,0,0],"trees":[{"base_weights":[1.4831803E-3,4.9233198E-1,-4.9636218E-1,1.3680408E0,2.77449E-1,-2.3351538E-1,-6.220322E-1,4.137132E0,1.3083788E0,8.85798E-1,1.6401717E-1,-6.817908E-2,-4.1235325E-1,-5.2154464E-1,-7.090557E-1,1.9580742E0,4.6740003E0,1.4507332E0,2.4195595E-1,2.041305E0,7.8135645E-1,6.6959314E-2,6.2979007E-1,5.756643E-1,-1.21066585E-1,-3.4020317E-1,-6.803664E-1,-5.267882E-1,1.7814386E0,-7.1558994E-1,5.502186E-1,-4.7923446E-2,2.502078E0,2.4773529E0,5.4437504E0,2.9063087E0,1.3217642E0,-7.6949394E-1,1.314289E0,2.846021E0,1.6575595E0,9.127291E-2,8.633121E-1,1.823906E-2,5.057185E-1,8.9611864E-1,2.6307136E-1,4.349194E-1,1.2380433E0,4.4681005E-2,-2.1826509E-1,2.0898147E-1,-3.6754787E-1,9.8329425E-2,-6.946444E-1,-4.9522147E-1,-7.445821E-1,2.3035545E0,1.3377256E-2,-7.922493E-1,-6.480391E-1,-7.245192E-2,1.3082936E0,2.237588E-1,3.474415E-2,3.0178182E0,5.7732636E-1,4.6505132E-1,1.16001934E-1,3.2342615E0,-5.838769E-1,1.0880803E0,2.0973783E0,-7.940294E-1,5.3968262E-2,1.5897013E0,-8.054446E-1,3.1072016E0,1.7647956E-1,8.468392E-1,1.8814687E0,-9.6065446E-4,1.3054383E0,9.626251E-1,2.6135087E-1,-1.3061713E-1,1.0378426E-1,2.0918021E0,4.6381938E-1,6.525965E-1,1.0651504E0,2.1818039E-1,1.288854E0,7.916316E-1,1.9975887E-1,2.6109157E0,5.0721914E-1,6.431349E-1,-2.1397289E-2,-5.879425E-1,-1.71821E-1,4.83117E-2,1.3959886E0,-4.1858533E-1,-1.05984524E-1,-5.183049E-1,-8.1629676E-1,-1.4351325E-1,-5.149273E-1,6.781954E-2,-7.534196E-1,2.9781088E-2,2.3060554E-1,-7.3634267E-1,-8.462495E-1,-7.6691777E-1,-5.9360677E-1,1.6074847E0,-4.629582E-2,4.6129763E-2,2.9210404E-1,-4.4531345E-2,1.1401964E-1,2.7607262E-1,-2.477789E-2,2.9781088E-2,-5.9799116E-2,4.415167E-2,1.1074795E-1,1.9595057E-1,2.4400072E-2,-6.697982E-2,-2.72643E-2,7.4381895E-2,-5.3340998E-2,7.4887015E-2,2.2447206E-1,2.9781088E-2,-7.87889E-2,2.8425872E-1,8.116119E-2,-1.1360228E-2,3.474415E-2,9.550535E-2,-2.5728151E-2,1.5697162E-1,9.76238E-4,8.7867945E-2,-5.79753E-3,1.5395825E-1,-2.587728E-2,9.966484E-2,6.2451575E-2,3.6450196E-2,-4.450848E-2,-3.0921802E-2,-2.2053197E-3,1.7704103E-2,-1.2978911E-2,1.9430116E-1,-4.4531345E-2,3.3735283E-2,1.4362082E-1,5.518663E-2,-2.8811865E-2,9.1270685E-2,1.584047E-2,2.986309E-2,-9.938419E-4,1.1655484E-1,-4.4531345E-2,-2.5651433E-2,7.800506E-2,1.0147509E-2,1.4389645E-1,2.6890618E-1,1.703542E-2,7.7784896E-2,-4.7616992E-2,3.1282786E-2,1.3001725E-1,8.139625E-3,-1.4255738E-2,5.379494E-3,-5.3183958E-2,-1.5067609E-2,2.5047824E-2,6.416371E-2,-1.31400665E-2,1.784353E-1,-2.3850746E-2,-2.8808177E-2,-4.5054488E-2,-1.5339662E-2,5.253479E-2,-4.462241E-2,3.624731E-2,-6.699625E-2,-4.4268277E-4,-1.7777685E-2,5.0737817E-2,-2.6203286E-2,-4.380544E-2,-6.7042656E-2,-4.6271585E-2,-5.9408635E-2,3.472558E-2,-5.903877E-2,-6.982912E-2,-3.5875347E-2,-6.287504E-2,-3.9810408E-2,-5.250303E-2,5.773223E-2,1.7446525E-1],"categories":[],"categories_nodes":[],"categories_segments":[],"categories_sizes":[],"default_left":[0,0,0,0,0,0,0,0,0,0,0,0,0,0,0,0,0,0,0,0,0,0,0,0,0,0,0,0,0,0,0,0,0,0,0,0,1,0,0,0,0,0,0,0,0,0,0,0,0,0,0,0,0,0,0,0,0,0,0,0,0,0,0,0,0,0,0,0,0,0,0,0,0,1,0,0,0,0,0,0,0,0,0,0,0,0,0,0,0,0,0,1,0,0,0,0,0,0,0,0,0,0,0,0,0,0,0,1,0,0,0,0,0,0,0,0,0,0,0,0,0,0,0,0,0,0,0,0,0,0,0,0,0,0,0,0,0,0,0,0,0,0,0,0,0,0,0,0,0,0,0,0,0,0,0,0,0,0,0,0,0,0,0,0,0,0,0,0,0,0,0,0,0,0,0,0,0,0,0,0,0,0,0,0,0,0,0,0,0,0,0,0,0,0,0,0,0,0,0,0,0,0,0,0,0,0,0,0,0,0,0,0,0,0,0],"id":0,"left_children":[1,3,5,7,9,11,13,15,17,19,21,23,25,27,29,31,33,35,37,39,41,43,45,47,49,51,53,55,57,59,61,-1,63,65,67,69,71,73,75,77,79,81,83,85,87,89,91,93,95,97,99,101,103,-1,105,107,109,111,-1,113,115,-1,117,-1,-1,119,121,-1,-1,123,125,127,129,131,133,135,137,139,141,143,145,147,149,151,153,155,157,159,161,163,165,167,169,171,173,175,177,179,181,183,185,187,189,191,193,195,197,199,201,-1,203,-1,-1,205,207,209,211,213,-1,-1,-1,-1,-1,-1,-1,-1,-1,-1,-1,-1,-1,-1,-1,-1,-1,-1,-1,-1,-1,-1,-1,-1,-1,-1,-1,-1,-1,-1,-1,-1,-1,-1,-1,-1,-1,-1,-1,-1,-1,-1,-1,-1,-1,-1,-1,-1,-1,-1,-1,-1,-1,-1,-1,-1,-1,-1,-1,-1,-1,-1,-1,-1,-1,-1,-1,-1,-1,-1,-1,-1,-1,-1,-1,-1,-1,-1,-1,-1,-1,-1,-1,-1,-1,-1,-1,-1,-1,-1,-1,-1,-1,-1,-1,-1,-1],"loss_changes":[3.6892986E3,1.4301461E3,2.4743811E2,2.4200757E2,4.211713E2,7.170569E1,4.3968384E1,2.7258911E1,2.2242871E2,1.14174194E2,2.326473E2,4.3035515E1,2.2300812E1,2.9399414E1,2.2728516E1,1.24513645E1,2.7518738E1,2.3916138E2,1.89758E2,1.964682E1,4.9769104E1,9.106973E1,8.644394E1,8.407045E0,1.8808088E1,1.3893929E1,7.5647354E0,1.5803345E1,4.3195972E0,1.3472412E1,1.7272907E1,0E0,2.8620224E0,6.604313E0,1.6831055E1,1.215293E2,2.1357446E2,1.864933E0,5.080905E1,1.6241684E1,8.539093E0,1.0604344E1,4.6839417E1,4.885991E1,2.732602E1,2.0450409E1,1.697741E1,6.6096983E0,1.5004032E1,1.7103289E1,1.2530243E1,8.3768635E0,1.1660568E1,0E0,4.831871E0,1.4186066E1,4.8011017E0,3.5561142E0,0E0,3.1825562E0,8.870361E0,0E0,6.573019E0,0E0,0E0,7.3146324E0,3.7130413E0,0E0,0E0,7.454639E1,1.8152604E0,1.4495044E2,1.7254395E2,1.4312973E0,2.858052E0,5.732599E1,2.5681815E0,1.6813156E1,3.249449E-1,6.0185814E0,6.448517E0,7.0755863E0,7.3637543E0,3.385315E1,1.8193024E1,3.6918762E1,7.620728E1,1.0877388E1,2.2583595E1,8.283012E0,1.958368E1,1.2891399E1,5.622244E0,6.78397E0,5.596801E0,9.023914E0,6.660574E0,1.00115185E1,7.551455E0,4.1586857E0,5.3073044E0,6.5458136E0,8.076572E0,5.9983826E0,9.576801E0,4.192526E0,2.4519882E0,6.90812E0,1.1735107E1,0E0,3.879486E0,0E0,0E0,4.9206543E0,1.1842041E0,2.3686523E0,5.6470947E0,2.9420528E0,0E0,0E0,0E0,0E0,0E0,0E0,0E0,0E0,0E0,0E0,0E0,0E0,0E0,0E0,0E0,0E0,0E0,0E0,0E0,0E0,0E0,0E0,0E0,0E0,0E0,0E0,0E0,0E0,0E0,0E0,0E0,0E0,0E0,0E0,0E0,0E0,0E0,0E0,0E0,0E0,0E0,0E0,0E0,0E0,0E0,0E0,0E0,0E0,0E0,0E0,0E0,0E0,0E0,0E0,0E0,0E0,0E0,0E0,0E0,0E0,0E0,0E0,0E0,0E0,0E0,0E0,0E0,0E0,0E0,0E0,0E0,0E0,0E0,0E0,0E0,0E0,0E0,0E0,0E0,0E0,0E0,0E0,0E0,0E0,0E0,0E0,0E0,0E0,0E0,0E0,0E0,0E0,0E0,0E0,0E0,0E0,0E0],"parents":[2147483647,0,0,1,1,2,2,3,3,4,4,5,5,6,6,7,7,8,8,9,9,10,10,11,11,12,12,13,13,14,14,15,15,16,16,17,17,18,18,19,19,20,20,21,21,22,22,23,23,24,24,25,25,26,26,27,27,28,28,29,29,30,30,32,32,33,33,34,34,35,35,36,36,37,37,38,38,39,39,40,40,41,41,42,42,43,43,44,44,45,45,46,46,47,47,48,48,49,49,50,50,51,51,52,52,54,54,55,55,56,56,57,57,59,59,60,60,62,62,65,65,66,66,69,69,70,70,71,71,72,72,73,73,74,74,75,75,76,76,77,77,78,78,79,79,80,80,81,81,82,82,83,83,84,84,85,85,86,86,87,87,88,88,89,89,90,90,91,91,92,92,93,93,94,94,95,95,96,96,97,97,98,98,99,99,100,100,101,101,102,102,103,103,104,104,105,105,106,106,107,107,108,108,110,110,113,113,114,114,115,115,116,116,117,117],"right_children":[2,4,6,8,10,12,14,16,18,20,22,24,26,28,30,32,34,36,38,40,42,44,46,48,50,52,54,56,58,60,62,-1,64,66,68,70,72,74,76,78,80,82,84,86,88,90,92,94,96,98,100,102,104,-1,106,108,110,112,-1,114,116,-1,118,-1,-1,120,122,-1,-1,124,126,128,130,132,134,136,138,140,142,144,146,148,150,152,154,156,158,160,162,164,166,168,170,172,174,176,178,180,182,184,186,188,190,192,194,196,198,200,202,-1,204,-1,-1,206,208,210,212,214,-1,-1,-1,-1,-1,-1,-1,-1,-1,-1,-1,-1,-1,-1,-1,-1,-1,-1,-1,-1,-1,-1,-1,-1,-1,-1,-1,-1,-1,-1,-1,-1,-1,-1,-1,-1,-1,-1,-1,-1,-1,-1,-1,-1,-1,-1,-1,-1,-1,-1,-1,-1,-1,-1,-1,-1,-1,-1,-1,-1,-1,-1,-1,-1,-1,-1,-1,-1,-1,-1,-1,-1,-1,-1,-1,-1,-1,-1,-1,-1,-1,-1,-1,-1,-1,-1,-1,-1,-1,-1,-1,-1,-1,-1,-1,-1,-1],"split_conditions":[3.1320919E1,4E0,3.9849716E1,4.472136E0,9.433981E0,1E0,4.940648E1,-2E0,1E0,5.656854E0,1E0,4E0,6.5E1,1E0,1E0,3E0,2.789727E1,1E0,2E0,4.472136E0,-5.5784298E1,1E0,2.4738634E1,4.5276924E1,3.4713108E1,4E0,4.366778E1,5.8E1,4.1725292E1,1E0,2.9E1,-4.7923446E-2,1E0,1.7923449E1,4E0,1E0,2.25E1,1E0,1E0,1E0,9.715336E-1,1E0,6E0,-3E0,1.20415945E1,-1.4036243E1,2E0,3.4713108E1,4.7801674E1,5E0,-4.5E1,1E0,6.033759E0,9.8329425E-2,3.361547E1,4E0,5.4628155E1,1.3743685E0,1.3377256E-2,5.5154327E1,-1.1309933E1,-7.245192E-2,1E0,2.237588E-1,3.474415E-2,5.710593E0,4.5891174E1,4.6505132E-1,1.16001934E-1,1E0,6.3245554E0,2E0,1E0,5.6523724E1,1.0307764E1,3E0,6.3E1,3E0,1E0,8.089011E-1,1E0,5E0,4.0804413E1,7.81025E0,1E0,1E0,1E1,1E0,1E0,1E0,6.603751E1,3.605551E1,6.2020527E1,-4.0100906E1,1E0,3.6359318E1,1E0,4.632494E1,3.5805027E1,9.219544E0,1E0,8E0,3.231099E1,3.7589893E1,1E0,1E0,1E0,7.5390143E0,6E0,6.781954E-2,1E0,2.9781088E-2,2.3060554E-1,1E0,3.361547E1,5.0159744E1,4E0,2.6516504E0,-4.629582E-2,4.6129763E-2,2.9210404E-1,-4.4531345E-2,1.1401964E-1,2.7607262E-1,-2.477789E-2,2.9781088E-2,-5.9799116E-2,4.415167E-2,1.1074795E-1,1.9595057E-1,2.4400072E-2,-6.697982E-2,-2.72643E-2,7.4381895E-2,-5.3340998E-2,7.4887015E-2,2.2447206E-1,2.9781088E-2,-7.87889E-2,2.8425872E-1,8.116119E-2,-1.1360228E-2,3.474415E-2,9.550535E-2,-2.5728151E-2,1.5697162E-1,9.76238E-4,8.7867945E-2,-5.79753E-3,1.5395825E-1,-2.587728E-2,9.966484E-2,6.2451575E-2,3.6450196E-2,-4.450848E-2,-3.0921802E-2,-2.2053197E-3,1.7704103E-2,-1.2978911E-2,1.9430116E-1,-4.4531345E-2,3.3735283E-2,1.4362082E-1,5.518663E-2,-2.8811865E-2,9.1270685E-2,1.584047E-2,2.986309E-2,-9.938419E-4,1.1655484E-1,-4.4531345E-2,-2.5651433E-2,7.800506E-2,1.0147509E-2,1.4389645E-1,2.6890618E-1,1.703542E-2,7.7784896E-2,-4.7616992E-2,3.1282786E-2,1.3001725E-1,8.139625E-3,-1.4255738E-2,5.379494E-3,-5.3183958E-2,-1.5067609E-2,2.5047824E-2,6.416371E-2,-1.31400665E-2,1.784353E-1,-2.3850746E-2,-2.8808177E-2,-4.5054488E-2,-1.5339662E-2,5.253479E-2,-4.462241E-2,3.624731E-2,-6.699625E-2,-4.4268277E-4,-1.7777685E-2,5.0737817E-2,-2.6203286E-2,-4.380544E-2,-6.7042656E-2,-4.6271585E-2,-5.9408635E-2,3.472558E-2,-5.903877E-2,-6.982912E-2,-3.5875347E-2,-6.287504E-2,-3.9810408E-2,-5.250303E-2,5.773223E-2,1.7446525E-1],"split_indices":[75,76,75,75,75,10,75,84,36,75,12,81,83,17,11,82,79,76,76,75,78,13,75,82,75,81,79,83,82,13,83,0,35,77,84,35,79,41,0,18,77,12,84,84,75,78,80,75,82,76,78,36,77,0,75,81,79,77,0,75,78,0,34,0,0,79,82,0,0,1,75,76,35,79,77,76,83,84,0,77,39,76,82,75,15,10,84,28,51,63,78,82,78,78,41,75,12,82,82,82,50,76,82,75,29,51,62,77,76,0,13,0,0,17,82,75,84,77,0,0,0,0,0,0,0,0,0,0,0,0,0,0,0,0,0,0,0,0,0,0,0,0,0,0,0,0,0,0,0,0,0,0,0,0,0,0,0,0,0,0,0,0,0,0,0,0,0,0,0,0,0,0,0,0,0,0,0,0,0,0,0,0,0,0,0,0,0,0,0,0,0,0,0,0,0,0,0,0,0,0,0,0,0,0,0,0,0,0,0,0,0,0,0,0,0],"split_type":[0,0,0,0,0,0,0,0,0,0,0,0,0,0,0,0,0,0,0,0,0,0,0,0,0,0,0,0,0,0,0,0,0,0,0,0,0,0,0,0,0,0,0,0,0,0,0,0,0,0,0,0,0,0,0,0,0,0,0,0,0,0,0,0,0,0,0,0,0,0,0,0,0,0,0,0,0,0,0,0,0,0,0,0,0,0,0,0,0,0,0,0,0,0,0,0,0,0,0,0,0,0,0,0,0,0,0,0,0,0,0,0,0,0,0,0,0,0,0,0,0,0,0,0,0,0,0,0,0,0,0,0,0,0,0,0,0,0,0,0,0,0,0,0,0,0,0,0,0,0,0,0,0,0,0,0,0,0,0,0,0,0,0,0,0,0,0,0,0,0,0,0,0,0,0,0,0,0,0,0,0,0,0,0,0,0,0,0,0,0,0,0,0,0,0,0,0,0,0,0,0,0,0,0,0,0,0,0,0,0,0,0,0,0,0],"sum_hessian":[1.5095381E4,7.6011074E3,7.494273E3,1.4966144E3,6.104493E3,2.4250295E3,5.0692437E3,3.0124063E1,1.4664904E3,9.5828467E2,5.1462085E3,1.2607981E3,1.1642314E3,2.3558716E3,2.713372E3,6.873378E0,2.3250687E1,1.2934679E3,1.7302245E2,7.7898285E1,8.8038635E2,4.2597124E3,8.8649603E2,9.4954445E1,1.1658438E3,9.1908093E2,2.4515048E2,2.3512893E3,4.582252E0,2.699795E3,1.3577043E1,1.1879913E0,5.6853867E0,7.1279473E0,1.6122738E1,1.0352495E2,1.189943E3,8.91842E1,8.383824E1,2.3080973E1,5.481731E1,9.3681595E1,7.867048E2,3.8349207E3,4.2479172E2,5.1270306E2,3.7379297E2,7.968027E1,1.5274173E1,4.3115598E2,7.3468774E2,4.3276825E1,8.7580414E2,1.1879913E0,2.439625E2,2.0564978E3,2.9479153E2,3.139691E0,1.4425608E0,1.2596101E3,1.4401848E3,4.582252E0,8.994791E0,4.6671085E0,1.0182782E0,5.091391E0,2.0365565E0,1.4340752E1,1.7819868E0,9.4699875E1,8.825078E0,9.162807E2,2.7366226E2,8.6638504E1,2.5456955E0,7.441917E1,9.419073E0,2.0874702E1,2.2062695E0,1.28981905E1,4.191912E1,8.799621E1,5.6853867E0,6.7477905E2,1.1192574E2,1.3993688E3,2.4355518E3,9.673643E0,4.1511807E2,2.1205644E2,3.0064664E2,3.592825E2,1.4510465E1,3.071806E1,4.896221E1,4.412539E0,1.0861634E1,4.2003975E1,3.8915198E2,8.069855E1,6.539892E2,3.9033997E1,4.242826E0,7.3231177E2,1.4349237E2,1.01742966E2,1.4221953E2,1.0954977E2,1.946948E3,1.1031348E0,2.9368842E2,1.1031348E0,2.0365565E0,6.260714E2,6.3353876E2,4.4821213E2,9.919727E2,7.891656E0,1.1031348E0,1.4425608E0,3.6488302E0,1.0182782E0,1.0182782E0,8.926906E1,5.430817E0,1.1031348E0,7.721943E0,3.271219E2,5.891588E2,2.2843375E2,4.5228523E1,7.832256E1,8.315939E0,1.0182782E0,1.5274173E0,4.9556206E1,2.4862959E1,1.1031348E0,8.315939E0,1.6631878E1,4.242826E0,1.1879913E0,1.0182782E0,9.928212E0,2.969978E0,4.0137135E1,1.7819868E0,4.4973955E0,8.349881E1,3.9882562E0,1.6971303E0,2.616975E2,4.1308154E2,9.079647E1,2.1129272E1,4.0094705E2,9.984218E2,1.6894084E3,7.461434E2,8.655365E0,1.0182782E0,4.0366245E2,1.145563E1,2.0484363E2,7.212804E0,2.7620798E2,2.4438677E1,2.1443242E2,1.4485008E2,1.3492187E1,1.0182782E0,4.242826E0,2.6475233E1,4.7859077E1,1.1031348E0,3.0548346E0,1.3577043E0,7.721943E0,3.139691E0,3.4536602E1,7.4673734E0,2.181661E2,1.7098589E2,8.485652E0,7.22129E1,6.330296E2,2.095956E1,7.9765124E0,3.1057486E1,2.630552E0,1.6122738E0,5.239041E2,2.0840761E2,1.2966075E2,1.3831613E1,9.817899E1,3.5639737E0,1.385707E2,3.6488302E0,1.0013069E2,9.419073E0,2.9046387E2,1.6564841E3,1.9542456E2,9.826385E1,6.231014E2,2.969978E0,1.3067903E2,5.028597E2,2.6644947E1,4.2156717E2,3.9543137E2,5.965413E2,3.9882562E0,3.9033997E0],"tree_param":{"num_deleted":"0","num_feature":"86","num_nodes":"215","size_leaf_vector":"1"}},{"base_weights":[9.954292E-4,4.3448192E-1,-4.7543666E-1,1.1481206E0,2.4840505E-1,-2.936329E-1,-6.4430183E-1,1.254796E0,3.2750943E-1,6.8378484E-1,1.3091744E-1,-1.6684783E-1,-4.4268724E-1,-6.4969116E-1,4.8421702E-1,2.26869E0,1.1525698E0,-6.4396757E-1,1.2379074E0,1.4978138E0,6.2396765E-1,3.885237E-2,5.372368E-1,8.2136855E-2,-2.436319E-1,-3.892705E-1,-7.121584E-1,-8.242691E-1,-6.253846E-1,-7.119834E-2,9.7246796E-1,2.4848697E0,-5.947388E-1,9.444258E-1,1.7717748E0,5.64678E-1,-7.2731763E-1,2.469491E0,7.455485E-1,2.1190069E0,1.1907307E0,1.9243856E-1,7.111954E-1,-6.4117475E-3,4.035978E-1,7.62945E-1,1.8191199E-1,7.941818E-1,4.1670636E-3,1.2486266E-1,-2.742867E-1,-2.537618E-1,-4.9929553E-1,-4.8914075E-1,-8.277233E-1,-8.2808584E-1,3.4760308E-2,-5.31843E-1,-6.6876286E-1,5.557731E-1,2.2761846E-1,4.6262234E-1,2.667316E0,1.4012982E-2,-7.394008E-1,5.3360474E-1,1.1554811E0,2.0203183E0,3.889749E-1,-5.3687852E-2,1.046271E0,-7.522865E-1,1.13380566E-1,2.7698743E0,-6.624037E-2,9.634295E-1,-6.881922E-1,1.495561E0,3.2333117E0,1.0891283E0,2.479304E-1,1.5571961E0,1.4094503E-1,7.9572314E-1,2.7061024E-1,-3.533259E-1,2.5310406E-2,8.525388E-1,2.7337155E-1,8.0253977E-1,2.0519774E-2,3.3614042E-1,-1.475679E-1,2.0824534E-1,1.2296467E0,5.412548E-1,-4.9430136E-2,3.3706628E-2,9.882485E-1,-7.57681E-1,-2.526883E-1,2.0034498E-1,-2.7978E-1,3.0962152E-2,-5.184686E-1,4.1352287E-1,-5.3159547E-1,-8.696552E-1,-4.1751823E-1,-7.3978823E-1,-8.8765657E-1,1.4681724E-1,-5.3607243E-1,-7.53189E-1,-5.9774405E-1,2.2987092E-1,1.4857079E-1,-1.5024646E-2,8.804874E-2,1.373083E-1,2.550601E-1,-2.9928135E-2,-7.1417026E-2,2.7656522E-2,1.5361519E-1,9.875752E-2,-1.5347214E-2,1.4021546E-1,2.0437744E-1,-1.5652671E-2,1.3364927E-1,1.2500833E-1,-1.8352676E-2,-6.2194414E-2,-2.4120412E-4,6.984952E-2,-4.964192E-2,1.4789064E-1,3.1854594E-1,5.3178214E-2,-5.506604E-2,3.4966756E-2,1.4595017E-1,4.117108E-2,-7.731833E-2,2.9524187E-2,1.534271E-1,6.487962E-2,2.771588E-1,9.661765E-2,-5.2334737E-2,2.0293677E-2,1.8029895E-1,9.1825195E-2,7.1733976E-3,8.243545E-2,5.4003675E-2,3.515751E-2,-4.2141948E-2,4.854503E-2,-3.2100674E-2,4.8838956E-3,-2.4937376E-2,7.769969E-2,-7.737443E-3,-2.3891129E-2,2.7500458E-2,4.630138E-2,7.627252E-2,-1.4830613E-2,6.310943E-2,6.7013022E-3,4.3334227E-2,-4.7145444E-3,-6.405949E-2,-6.6926545E-3,1.07633844E-1,4.461239E-2,1.344603E-1,1.5840563E-1,3.3362914E-2,-2.5637844E-3,-7.547254E-2,-3.1788424E-2,1.3378762E-2,1.4778095E-1,-1.3124573E-2,-6.413494E-2,2.9551886E-2,-3.4513196E-3,-2.2893842E-2,5.370295E-3,1.12964265E-1,-2.625057E-2,-1.8484284E-3,5.0355427E-2,-2.2016147E-2,-4.3758243E-2,-1.8579107E-2,-3.5691414E-2,1.0894117E-1,-3.7197836E-2,-6.948062E-2,-7.1070105E-2,-2.3164826E-2,7.632722E-3,-4.6280425E-2,-6.099226E-2,2.654678E-3,-7.268367E-2,-3.6756624E-2,-3.107577E-2,-4.68936E-2,-6.062203E-2,-5.7441974E-3,-4.881354E-2,-1.555949E-2,-6.6903704E-3,1.12674855E-1],"categories":[],"categories_nodes":[],"categories_segments":[],"categories_sizes":[],"default_left":[0,0,0,0,0,0,0,0,0,0,0,0,0,0,0,0,1,0,0,0,0,0,0,0,0,0,0,0,0,0,0,0,0,0,0,1,0,0,0,0,0,0,0,0,0,0,1,0,0,0,0,0,0,1,0,0,0,0,0,0,0,0,0,0,0,0,0,0,0,0,1,0,0,0,0,0,0,0,0,0,0,0,0,0,0,0,0,0,0,0,0,0,0,0,1,0,0,0,0,0,0,0,0,0,0,0,0,0,0,0,1,0,0,0,0,0,0,0,0,0,0,0,0,0,0,0,0,0,0,0,0,0,0,0,0,0,0,0,0,0,0,0,0,0,0,0,0,0,0,0,0,0,0,0,0,0,0,0,0,0,0,0,0,0,0,0,0,0,0,0,0,0,0,0,0,0,0,0,0,0,0,0,0,0,0,0,0,0,0,0,0,0,0,0,0,0,0,0,0,0,0,0,0,0,0,0,0,0,0,0,0,0,0,0,0,0,0,0,0],"id":1,"left_children":[1,3,5,7,9,11,13,15,17,19,21,23,25,27,29,31,33,35,37,39,41,43,45,47,49,51,53,55,57,-1,59,61,63,65,67,69,71,73,75,77,79,81,83,85,87,89,91,93,95,97,99,101,103,105,107,109,-1,111,113,115,-1,117,119,-1,121,123,125,127,129,-1,131,133,135,137,139,141,143,145,147,149,-1,151,153,155,157,159,161,163,165,167,169,171,173,175,177,179,181,183,185,187,189,191,193,195,197,199,201,203,205,207,209,-1,211,213,215,217,-1,-1,-1,-1,-1,-1,-1,-1,-1,-1,-1,-1,-1,-1,-1,-1,-1,-1,-1,-1,-1,-1,-1,-1,-1,-1,-1,-1,-1,-1,-1,-1,-1,-1,-1,-1,-1,-1,-1,-1,-1,-1,-1,-1,-1,-1,-1,-1,-1,-1,-1,-1,-1,-1,-1,-1,-1,-1,-1,-1,-1,-1,-1,-1,-1,-1,-1,-1,-1,-1,-1,-1,-1,-1,-1,-1,-1,-1,-1,-1,-1,-1,-1,-1,-1,-1,-1,-1,-1,-1,-1,-1,-1,-1,-1,-1,-1,-1,-1,-1,-1,-1,-1],"loss_changes":[3.1185867E3,1.049621E3,2.2066077E2,1.4270728E2,3.2076004E2,6.5425964E1,2.2992432E1,1.4730737E2,1.683382E2,6.3958923E1,1.8480365E2,3.5857E1,2.2645355E1,1.5233643E1,1.3140671E1,8.284802E1,1.6794092E2,9.709118E0,5.7665024E1,1.4742996E1,4.665857E1,6.652383E1,7.305316E1,2.4567402E1,1.6220886E1,1.9721146E1,6.354004E0,2.5239563E0,1.2880493E1,0E0,9.32582E0,4.3931946E1,1.2470975E0,8.496924E1,1.1261096E2,4.5809793E0,1.9069748E0,2.120192E1,2.3010658E1,1.5074768E1,8.81179E0,1.4567423E1,3.8284485E1,3.9465233E1,2.5773308E1,1.6380463E1,1.8131163E1,1.088755E1,1.153838E1,8.682022E0,1.3623474E1,7.1281548E0,7.4750214E0,3.7437267E0,2.5832214E0,1.7072754E0,0E0,1.1378998E1,1.2888428E1,4.949087E0,0E0,4.9125237E0,5.0049255E1,0E0,1.4984179E-1,8.7100136E1,6.95412E1,3.548694E1,3.8920513E1,0E0,3.7049403E0,1.5879135E0,2.4220169E0,2.0211197E1,2.2306437E0,2.753302E1,3.8516316E0,8.919632E0,2.4661865E0,1.3446526E1,0E0,6.284136E0,1.0422359E1,2.385852E1,2.2841684E1,1.4070652E1,3.959704E1,1.1311371E1,1.404406E1,1.7324799E1,4.7765765E0,1.2543007E1,6.561509E0,6.693013E0,6.595787E0,5.6744413E0,5.6344857E0,5.8912544E0,1.0735814E1,3.0782166E0,8.885498E0,5.235178E0,7.023712E0,5.0373154E0,5.6514435E0,4.433178E0,1.5772762E0,1.420433E0,1.5257854E0,3.2952805E0,1.938324E0,0E0,7.4434814E0,3.1098633E0,5.9596252E0,4.2849183E0,0E0,0E0,0E0,0E0,0E0,0E0,0E0,0E0,0E0,0E0,0E0,0E0,0E0,0E0,0E0,0E0,0E0,0E0,0E0,0E0,0E0,0E0,0E0,0E0,0E0,0E0,0E0,0E0,0E0,0E0,0E0,0E0,0E0,0E0,0E0,0E0,0E0,0E0,0E0,0E0,0E0,0E0,0E0,0E0,0E0,0E0,0E0,0E0,0E0,0E0,0E0,0E0,0E0,0E0,0E0,0E0,0E0,0E0,0E0,0E0,0E0,0E0,0E0,0E0,0E0,0E0,0E0,0E0,0E0,0E0,0E0,0E0,0E0,0E0,0E0,0E0,0E0,0E0,0E0,0E0,0E0,0E0,0E0,0E0,0E0,0E0,0E0,0E0,0E0,0E0,0E0,0E0,0E0,0E0,0E0,0E0,0E0,0E0,0E0,0E0,0E0,0E0,0E0],"parents":[2147483647,0,0,1,1,2,2,3,3,4,4,5,5,6,6,7,7,8,8,9,9,10,10,11,11,12,12,13,13,14,14,15,15,16,16,17,17,18,18,19,19,20,20,21,21,22,22,23,23,24,24,25,25,26,26,27,27,28,28,30,30,31,31,32,32,33,33,34,34,35,35,36,36,37,37,38,38,39,39,40,40,41,41,42,42,43,43,44,44,45,45,46,46,47,47,48,48,49,49,50,50,51,51,52,52,53,53,54,54,55,55,57,57,58,58,59,59,61,61,62,62,64,64,65,65,66,66,67,67,68,68,70,70,71,71,72,72,73,73,74,74,75,75,76,76,77,77,78,78,79,79,81,81,82,82,83,83,84,84,85,85,86,86,87,87,88,88,89,89,90,90,91,91,92,92,93,93,94,94,95,95,96,96,97,97,98,98,99,99,100,100,101,101,102,102,103,103,104,104,105,105,106,106,107,107,108,108,109,109,110,110,112,112,113,113,114,114,115,115],"right_children":[2,4,6,8,10,12,14,16,18,20,22,24,26,28,30,32,34,36,38,40,42,44,46,48,50,52,54,56,58,-1,60,62,64,66,68,70,72,74,76,78,80,82,84,86,88,90,92,94,96,98,100,102,104,106,108,110,-1,112,114,116,-1,118,120,-1,122,124,126,128,130,-1,132,134,136,138,140,142,144,146,148,150,-1,152,154,156,158,160,162,164,166,168,170,172,174,176,178,180,182,184,186,188,190,192,194,196,198,200,202,204,206,208,210,-1,212,214,216,218,-1,-1,-1,-1,-1,-1,-1,-1,-1,-1,-1,-1,-1,-1,-1,-1,-1,-1,-1,-1,-1,-1,-1,-1,-1,-1,-1,-1,-1,-1,-1,-1,-1,-1,-1,-1,-1,-1,-1,-1,-1,-1,-1,-1,-1,-1,-1,-1,-1,-1,-1,-1,-1,-1,-1,-1,-1,-1,-1,-1,-1,-1,-1,-1,-1,-1,-1,-1,-1,-1,-1,-1,-1,-1,-1,-1,-1,-1,-1,-1,-1,-1,-1,-1,-1,-1,-1,-1,-1,-1,-1,-1,-1,-1,-1,-1,-1,-1,-1,-1,-1,-1,-1],"split_conditions":[3.1622776E1,4E0,4.438468E1,1E0,1.029563E1,1E0,1E0,1E0,2E0,5.656854E0,1E0,3.4713108E1,6.5E1,-2.6E1,2.9E1,1E0,2.1725185E1,4.472136E0,7.615773E0,4.472136E0,-5E0,1E0,2.5495098E1,5E0,4E0,3.744329E1,3.361547E1,1E0,4.967897E1,-7.119834E-2,1E0,3E0,5.0990195E0,2E0,1E0,2.2315E0,1E0,8.9E1,1E0,2.2E1,9.334077E0,4E0,6E0,-5.6768288E1,9E0,1E0,4.0804413E1,-3.17983E0,4E0,6.2E1,-5.134019E1,4E0,4E0,1.5713485E-1,1E0,5.1156624E1,3.4760308E-2,1.2275227E1,1E0,1E0,2.2761846E-1,1E0,1E0,1.4012982E-2,9.055386E0,1E0,1E0,2E0,2E0,-5.3687852E-2,4.5E1,1E0,1.2E1,3E0,9E1,3E0,6.4E1,-2E0,-6.224146E1,6.1282587E0,2.479304E-1,1.5653291E0,5E0,7.81025E0,1E0,4E0,5.2431408E1,1E0,-2.2E1,-1.4036243E1,1E0,2.0248457E1,5.044033E1,4.9E1,1.0307764E1,5.6E1,1E0,1.7492855E1,6.4E1,1E0,6E0,1E0,6.228965E0,3.9051247E1,1E0,3.2649654E1,5.717146E1,1E0,-5.9036243E1,-3.3178513E1,1.05076164E2,1.4681724E-1,8E0,1E0,1E0,1E0,1.4857079E-1,-1.5024646E-2,8.804874E-2,1.373083E-1,2.550601E-1,-2.9928135E-2,-7.1417026E-2,2.7656522E-2,1.5361519E-1,9.875752E-2,-1.5347214E-2,1.4021546E-1,2.0437744E-1,-1.5652671E-2,1.3364927E-1,1.2500833E-1,-1.8352676E-2,-6.2194414E-2,-2.4120412E-4,6.984952E-2,-4.964192E-2,1.4789064E-1,3.1854594E-1,5.3178214E-2,-5.506604E-2,3.4966756E-2,1.4595017E-1,4.117108E-2,-7.731833E-2,2.9524187E-2,1.534271E-1,6.487962E-2,2.771588E-1,9.661765E-2,-5.2334737E-2,2.0293677E-2,1.8029895E-1,9.1825195E-2,7.1733976E-3,8.243545E-2,5.4003675E-2,3.515751E-2,-4.2141948E-2,4.854503E-2,-3.2100674E-2,4.8838956E-3,-2.4937376E-2,7.769969E-2,-7.737443E-3,-2.3891129E-2,2.7500458E-2,4.630138E-2,7.627252E-2,-1.4830613E-2,6.310943E-2,6.7013022E-3,4.3334227E-2,-4.7145444E-3,-6.405949E-2,-6.6926545E-3,1.07633844E-1,4.461239E-2,1.344603E-1,1.5840563E-1,3.3362914E-2,-2.5637844E-3,-7.547254E-2,-3.1788424E-2,1.3378762E-2,1.4778095E-1,-1.3124573E-2,-6.413494E-2,2.9551886E-2,-3.4513196E-3,-2.2893842E-2,5.370295E-3,1.12964265E-1,-2.625057E-2,-1.8484284E-3,5.0355427E-2,-2.2016147E-2,-4.3758243E-2,-1.8579107E-2,-3.5691414E-2,1.0894117E-1,-3.7197836E-2,-6.948062E-2,-7.1070105E-2,-2.3164826E-2,7.632722E-3,-4.6280425E-2,-6.099226E-2,2.654678E-3,-7.268367E-2,-3.6756624E-2,-3.107577E-2,-4.68936E-2,-6.062203E-2,-5.7441974E-3,-4.881354E-2,-1.555949E-2,-6.6903704E-3,1.12674855E-1],"split_indices":[75,76,75,36,75,10,11,76,76,75,12,75,83,84,83,35,79,75,75,75,84,13,75,76,81,75,75,17,75,0,26,82,75,76,35,77,41,83,0,76,77,81,84,78,76,46,82,78,81,83,78,81,81,77,29,75,0,79,13,6,0,85,4,0,75,5,0,76,76,0,79,67,77,76,83,76,83,84,78,77,0,77,76,75,15,81,78,29,84,78,4,82,78,82,77,83,15,82,83,56,76,31,77,75,30,75,78,57,78,78,82,0,76,17,59,30,0,0,0,0,0,0,0,0,0,0,0,0,0,0,0,0,0,0,0,0,0,0,0,0,0,0,0,0,0,0,0,0,0,0,0,0,0,0,0,0,0,0,0,0,0,0,0,0,0,0,0,0,0,0,0,0,0,0,0,0,0,0,0,0,0,0,0,0,0,0,0,0,0,0,0,0,0,0,0,0,0,0,0,0,0,0,0,0,0,0,0,0,0,0,0,0,0,0,0,0,0,0,0],"split_type":[0,0,0,0,0,0,0,0,0,0,0,0,0,0,0,0,0,0,0,0,0,0,0,0,0,0,0,0,0,0,0,0,0,0,0,0,0,0,0,0,0,0,0,0,0,0,0,0,0,0,0,0,0,0,0,0,0,0,0,0,0,0,0,0,0,0,0,0,0,0,0,0,0,0,0,0,0,0,0,0,0,0,0,0,0,0,0,0,0,0,0,0,0,0,0,0,0,0,0,0,0,0,0,0,0,0,0,0,0,0,0,0,0,0,0,0,0,0,0,0,0,0,0,0,0,0,0,0,0,0,0,0,0,0,0,0,0,0,0,0,0,0,0,0,0,0,0,0,0,0,0,0,0,0,0,0,0,0,0,0,0,0,0,0,0,0,0,0,0,0,0,0,0,0,0,0,0,0,0,0,0,0,0,0,0,0,0,0,0,0,0,0,0,0,0,0,0,0,0,0,0,0,0,0,0,0,0,0,0,0,0,0,0,0,0,0,0,0,0],"sum_hessian":[1.5098148E4,7.9054155E3,7.192733E3,1.6339086E3,6.271507E3,3.4649905E3,3.7277427E3,1.4454749E3,1.8843375E2,1.3317083E3,4.939799E3,1.8735098E3,1.5914807E3,3.7104475E3,1.7295174E1,1.3045102E2,1.3150238E3,9.13005E1,9.713324E1,8.951351E1,1.2421947E3,4.0281777E3,9.11621E2,4.4157202E2,1.4319377E3,1.3302355E3,2.6124533E2,4.4944754E2,3.261E3,4.318327E0,1.2976846E1,1.2141666E2,9.034365E0,9.8608075E2,3.2894302E2,5.5174932E0,8.5783005E1,2.6594442E1,7.0538795E1,2.7660057E1,6.1853455E1,2.0941129E2,1.0327834E3,3.58435E3,4.4382767E2,5.56791E2,3.5482996E2,4.267397E1,3.9889804E2,1.0973721E2,1.3222006E3,5.9756744E2,7.3266797E2,9.0954216E1,1.7029109E2,4.4843E2,1.017537E0,1.037334E3,2.2236658E3,1.167573E1,1.3011158E0,1.0340252E1,1.1107641E2,1.3956711E0,7.6386933E0,3.3585812E2,6.5022266E2,2.7843607E2,5.050695E1,1.4368961E0,4.0805974E0,8.3410866E1,2.3721454E0,2.369517E1,2.899273E0,6.1518116E1,9.02068E0,1.9238434E1,8.421622E0,6.021817E1,1.6352861E0,6.5508327E0,2.0286046E2,8.658594E2,1.6692409E2,2.994475E2,3.2849026E3,9.8547874E1,3.452798E2,5.28523E2,2.8267982E1,2.416801E2,1.1314986E2,1.882387E1,2.3850101E1,3.536938E1,3.6352866E2,1.0019743E2,9.539777E0,5.5092545E1,1.267108E3,3.2019394E1,5.6554803E2,2.5545898E1,7.071221E2,3.6930485E0,8.726117E1,1.5348187E2,1.6809225E1,1.8606183E2,2.623682E2,1.0780565E0,1.036256E3,1.01154724E3,1.2121187E3,1.0278346E1,1.3973839E0,5.469598E0,4.870654E0,4.083226E1,7.024415E1,3.2751265E0,4.363567E0,2.9687717E2,3.898095E1,6.1429297E2,3.59297E1,1.8837727E2,9.00588E1,3.526693E1,1.5240023E1,2.7447405E0,1.3358569E0,8.066632E1,2.7445433E0,1.0723537E0,1.2997917E0,1.4896905E1,8.7982645E0,1.3014655E0,1.5978074E0,3.9113525E1,2.240459E1,1.535318E0,7.485362E0,5.75631E0,1.3482124E1,1.1264502E0,7.2951727E0,5.6670288E1,3.5478826E0,2.756476E0,3.7943566E0,8.794287E0,1.9406616E2,2.9144772E2,5.744116E2,1.381232E2,2.8800882E1,1.3683955E1,2.8576358E2,2.9707085E3,3.1419403E2,8.7573395E1,1.0974477E1,3.7475365E1,3.078044E2,2.1478305E2,3.1374E2,2.2892075E1,5.3759074E0,1.09111916E2,1.3256819E2,1.0059E2,1.255986E1,1.5716115E1,3.1077547E0,1.0477896E1,1.3372206E1,1.6235572E0,3.3745827E1,3.57611E2,5.9176807E0,2.322983E1,7.6967606E1,5.119915E0,4.4198623E0,5.3300198E1,1.7923496E0,1.7489677E2,1.0922112E3,2.9798698E1,2.2206955E0,4.7566443E2,8.988361E1,8.288288E0,1.7257612E1,6.422417E2,6.4880356E1,2.2147164E0,1.478332E0,7.484173E1,1.2419436E1,1.4816866E2,5.313218E0,4.112758E0,1.2696467E1,1.807862E2,5.275631E0,2.4909454E2,1.3273634E1,2.647769E2,7.714791E2,1.0046728E3,6.874412E0,1.1753885E3,3.673011E1,8.852583E0,1.4257632E0],"tree_param":{"num_deleted":"0","num_feature":"86","num_nodes":"219","size_leaf_vector":"1"}},{"base_weights":[-1.4121368E-3,3.837307E-1,-4.5042118E-1,9.6336395E-1,2.2405866E-1,-2.7408704E-1,-6.175011E-1,2.6412802E0,9.2241126E-1,6.021248E-1,1.18606456E-1,-1.4808556E-1,-4.2536736E-1,-6.237549E-1,6.1286634E-1,2.776812E0,5.138416E-1,1.0155333E0,1.1501353E-1,1.3506697E0,5.446463E-1,3.6452983E-2,4.676387E-1,6.198206E-2,-2.401768E-1,-3.7627724E-1,-6.787107E-1,-8.156058E-1,-5.9762055E-1,-6.916589E-2,1.0557878E0,2.2002592E0,3.4056194E0,-2.270405E-2,9.443805E-2,1.124503E0,3.341881E-1,-7.35164E-1,8.214418E-1,1.457149E0,-7.874503E-2,5.908476E-1,-2.1915641E-1,-8.135625E-3,3.8066068E-1,6.6562194E-1,2.2188127E-1,6.9475347E-1,-5.3962413E-4,-2.0505166E-1,-5.871351E-1,1.12786286E-1,-3.987087E-1,7.488205E-2,-6.922594E-1,-8.1954026E-1,2.7502274E-2,-5.7261884E-1,-7.784486E-1,1.2818509E0,-5.1371206E-2,-2.6135733E-2,2.4146924E0,2.8349805E-1,1.0020444E-1,1.91087E0,1.0321296E0,-4.5277008E-1,9.8937297E-1,-7.6289433E-1,1.9834764E-1,-3.0251712E-1,1.1091307E0,1.771028E0,8.964017E-1,-6.4382344E-2,4.237295E-1,1.4475114E0,5.5349755E-1,6.839707E-1,-2.9683107E-1,-3.376778E-1,2.1373322E-2,3.4429443E-1,1.4149185E0,6.344211E-1,1.7255905E0,8.7624633E-1,1.8115583E-1,7.944481E-1,-4.5156932E-1,4.9015585E-1,-5.889093E-2,-9.019137E-2,-2.9826596E-1,5.904548E-1,-6.251118E-1,-8.2045454E-1,2.4576202E-1,-2.8576544E-1,-4.8544323E-1,-4.8981395E-1,-7.9818827E-1,-7.0516163E-1,-8.696863E-1,-4.7584927E-1,-6.1801255E-1,-4.0237814E-1,-7.944418E-1,1.5119982E0,-4.8024744E-2,2.3292188E-1,5.485211E-2,1.6148539E-1,-3.0988818E-2,6.6952996E-2,1.2607773E-1,2.0465298E-2,-4.1410226E-2,1.1197786E-1,1.1795782E-2,-6.3152604E-2,-3.8266385E-3,7.1397744E-2,-4.5841902E-2,-5.4466236E-2,1.4123976E-2,1.0540453E-1,-5.123101E-2,1.5598765E-1,5.6377392E-2,-2.5503957E-4,8.211865E-2,-3.3385545E-2,8.602035E-2,6.303233E-2,1.4875929E-1,1.8942071E-2,5.088345E-2,1.2960094E-1,-2.4184244E-2,-2.7709045E-2,7.094242E-2,-3.0811364E-2,3.3947457E-2,4.4266004E-3,-2.4639431E-2,-1.8282153E-2,3.279891E-2,1.337475E-1,-2.8703524E-2,4.8029814E-2,1.2213891E-1,1.5974718E-1,1.2694781E-2,9.4327725E-2,-6.284928E-3,1.900169E-2,-2.1268608E-2,1.5274096E-1,5.1771913E-2,-6.250624E-2,1.68835E-2,4.8705652E-2,-3.1558227E-2,-2.1583135E-3,-4.1897472E-2,2.340643E-2,-1.0011831E-2,3.5495277E-2,-2.5604423E-2,9.659267E-2,-4.6448603E-2,-5.214817E-2,4.423627E-2,-4.0608463E-3,-7.461417E-2,4.1400544E-2,-9.804542E-3,-2.425032E-2,2.5385283E-2,-4.0262733E-2,-4.3866117E-3,-4.2816877E-2,3.6462743E-2,-1.0744256E-2,-6.598837E-2,-5.896238E-2,9.940184E-3,-7.061561E-2,-3.8750485E-2,-2.2562176E-2,-4.217375E-2,-5.6366477E-2,-4.406058E-2,-4.3989558E-2,2.5313787E-2,-5.7644185E-2,-6.9190025E-2,1.3697496E-1,-1.2990578E-2],"categories":[],"categories_nodes":[],"categories_segments":[],"categories_sizes":[],"default_left":[0,0,0,0,0,0,0,0,0,0,0,0,0,0,0,0,0,0,0,0,0,0,0,0,0,0,0,0,0,0,0,0,0,0,0,0,0,0,0,0,0,0,0,0,0,0,0,0,0,0,0,0,0,0,0,0,0,0,0,0,0,0,0,0,0,0,1,0,0,0,0,0,0,0,0,0,0,0,0,0,0,0,0,0,0,0,0,0,1,0,0,0,0,0,0,0,0,0,0,0,0,0,0,0,0,0,0,0,0,0,0,0,0,0,0,0,0,0,0,0,0,0,0,0,0,0,0,0,0,0,0,0,0,0,0,0,0,0,0,0,0,0,0,0,0,0,0,0,0,0,0,0,0,0,0,0,0,0,0,0,0,0,0,0,0,0,0,0,0,0,0,0,0,0,0,0,0,0,0,0,0,0,0,0,0,0,0,0,0,0,0,0,0,0,0,0,0,0,0,0,0],"id":2,"left_children":[1,3,5,7,9,11,13,15,17,19,21,23,25,27,29,31,33,35,37,39,41,43,45,47,49,51,53,55,57,-1,59,61,63,-1,-1,65,67,69,71,73,75,77,79,81,83,85,87,89,91,93,95,97,99,-1,101,103,-1,105,107,109,-1,-1,111,-1,-1,113,115,117,119,121,123,125,127,129,131,-1,133,135,137,139,141,143,145,147,149,151,153,155,157,159,161,163,165,167,169,171,173,175,177,179,181,183,185,187,189,191,193,195,197,199,-1,-1,-1,-1,-1,-1,-1,-1,-1,-1,-1,-1,-1,-1,-1,-1,-1,-1,-1,-1,-1,-1,-1,-1,-1,-1,-1,-1,-1,-1,-1,-1,-1,-1,-1,-1,-1,-1,-1,-1,-1,-1,-1,-1,-1,-1,-1,-1,-1,-1,-1,-1,-1,-1,-1,-1,-1,-1,-1,-1,-1,-1,-1,-1,-1,-1,-1,-1,-1,-1,-1,-1,-1,-1,-1,-1,-1,-1,-1,-1,-1,-1,-1,-1,-1,-1,-1,-1,-1,-1,-1],"loss_changes":[2.6134504E3,7.5267065E2,2.0540771E2,1.1827002E2,2.542536E2,6.468233E1,2.794458E1,1.048587E1,1.2892627E2,5.9113068E1,1.4304364E2,3.5894512E1,1.8933838E1,1.7384644E1,1.3097322E1,6.50589E0,2.3032365E0,1.1386597E2,1.07874794E2,1.5109665E1,4.5775238E1,6.2003006E1,4.6099655E1,2.2394869E1,1.5596207E1,1.4248947E1,6.099945E0,2.2185974E0,1.3754028E1,0E0,6.49448E0,1.3235138E1,5.105896E-1,0E0,0E0,9.435571E1,1.10570496E2,2.263279E0,3.203167E1,1.4559387E1,3.1788197E0,3.823407E1,5.4297876E0,3.4795155E1,1.6938774E1,1.6298248E1,1.1182751E1,6.1759186E0,1.4807926E1,1.2527748E1,5.6470413E0,7.344811E0,1.1990723E1,0E0,4.9210434E0,1.8155518E0,0E0,1.1843506E1,1.9582367E0,6.7005177E0,0E0,0E0,1.6294312E1,0E0,0E0,3.4994995E1,1.2490198E2,4.623287E0,4.0167534E1,1.468277E0,2.196539E0,3.8831458E0,2.938137E1,9.645493E0,4.092884E0,0E0,3.3267763E0,1.221711E1,3.0454498E1,6.216604E0,4.370263E0,1.0799541E1,3.6751984E1,1.6985325E1,7.62496E0,1.4652924E1,5.8274956E0,7.227556E0,1.018966E1,6.5137978E0,1.194101E0,6.009947E0,6.841897E0,7.0846353E0,1.0599663E1,3.7365134E0,3.977417E0,5.926504E-1,5.1830893E0,5.753666E0,5.3418884E0,4.0076866E0,2.7399673E0,3.6428223E0,1.0265503E0,8.671066E0,1.0543152E1,2.0267072E0,1.262085E0,4.3674335E0,0E0,0E0,0E0,0E0,0E0,0E0,0E0,0E0,0E0,0E0,0E0,0E0,0E0,0E0,0E0,0E0,0E0,0E0,0E0,0E0,0E0,0E0,0E0,0E0,0E0,0E0,0E0,0E0,0E0,0E0,0E0,0E0,0E0,0E0,0E0,0E0,0E0,0E0,0E0,0E0,0E0,0E0,0E0,0E0,0E0,0E0,0E0,0E0,0E0,0E0,0E0,0E0,0E0,0E0,0E0,0E0,0E0,0E0,0E0,0E0,0E0,0E0,0E0,0E0,0E0,0E0,0E0,0E0,0E0,0E0,0E0,0E0,0E0,0E0,0E0,0E0,0E0,0E0,0E0,0E0,0E0,0E0,0E0,0E0,0E0,0E0,0E0,0E0,0E0,0E0,0E0],"parents":[2147483647,0,0,1,1,2,2,3,3,4,4,5,5,6,6,7,7,8,8,9,9,10,10,11,11,12,12,13,13,14,14,15,15,16,16,17,17,18,18,19,19,20,20,21,21,22,22,23,23,24,24,25,25,26,26,27,27,28,28,30,30,31,31,32,32,35,35,36,36,37,37,38,38,39,39,40,40,41,41,42,42,43,43,44,44,45,45,46,46,47,47,48,48,49,49,50,50,51,51,52,52,54,54,55,55,57,57,58,58,59,59,62,62,65,65,66,66,67,67,68,68,69,69,70,70,71,71,72,72,73,73,74,74,76,76,77,77,78,78,79,79,80,80,81,81,82,82,83,83,84,84,85,85,86,86,87,87,88,88,89,89,90,90,91,91,92,92,93,93,94,94,95,95,96,96,97,97,98,98,99,99,100,100,101,101,102,102,103,103,104,104,105,105,106,106,107,107,108,108,109,109],"right_children":[2,4,6,8,10,12,14,16,18,20,22,24,26,28,30,32,34,36,38,40,42,44,46,48,50,52,54,56,58,-1,60,62,64,-1,-1,66,68,70,72,74,76,78,80,82,84,86,88,90,92,94,96,98,100,-1,102,104,-1,106,108,110,-1,-1,112,-1,-1,114,116,118,120,122,124,126,128,130,132,-1,134,136,138,140,142,144,146,148,150,152,154,156,158,160,162,164,166,168,170,172,174,176,178,180,182,184,186,188,190,192,194,196,198,200,-1,-1,-1,-1,-1,-1,-1,-1,-1,-1,-1,-1,-1,-1,-1,-1,-1,-1,-1,-1,-1,-1,-1,-1,-1,-1,-1,-1,-1,-1,-1,-1,-1,-1,-1,-1,-1,-1,-1,-1,-1,-1,-1,-1,-1,-1,-1,-1,-1,-1,-1,-1,-1,-1,-1,-1,-1,-1,-1,-1,-1,-1,-1,-1,-1,-1,-1,-1,-1,-1,-1,-1,-1,-1,-1,-1,-1,-1,-1,-1,-1,-1,-1,-1,-1,-1,-1,-1,-1,-1,-1],"split_conditions":[3.1622776E1,4E0,4.438468E1,4.472136E0,1.029563E1,1E0,1E0,8.9E1,1E0,5.656854E0,1E0,3.5510563E1,6.5E1,-2.6E1,2.9E1,2E0,9E1,1E0,2E0,1E0,8.7E1,1E0,2.4186773E1,4E0,6.4E1,4E0,4.366778E1,1E0,2.8E1,-6.916589E-2,1E0,6.4973083E0,1E0,-2.270405E-2,9.443805E-2,1E0,2E0,1E0,-7E0,1E0,1.2E1,4E0,1.17046995E1,-5.6768288E1,1E0,1E0,4E0,1E0,5E0,3.9661064E1,6.708204E0,-1.8E1,3.7202152E1,7.488205E-2,3.361547E1,4.9193497E1,2.7502274E-2,4.967897E1,4.4911022E1,1E0,-5.1371206E-2,-2.6135733E-2,1E0,2.8349805E-1,1.0020444E-1,1E0,2.1725185E1,5.656854E0,1.56205E1,1E0,1.0307764E1,3E0,1E0,1E0,1.3928389E1,-6.4382344E-2,1.8856181E0,8.2E1,-4E0,1E0,1E0,2E0,5.2431408E1,-2.2E1,6.033759E0,1E0,1.2E1,1.7E1,6.723094E1,5.6E1,2.9614185E1,1E0,7.2E1,4E0,4.6E1,6.7E1,1E0,1.0101526E0,3.0463093E1,1E0,1E0,1E0,6.0827627E0,1E0,1E0,7E0,1E0,1E0,3.2E1,1E0,-4.8024744E-2,2.3292188E-1,5.485211E-2,1.6148539E-1,-3.0988818E-2,6.6952996E-2,1.2607773E-1,2.0465298E-2,-4.1410226E-2,1.1197786E-1,1.1795782E-2,-6.3152604E-2,-3.8266385E-3,7.1397744E-2,-4.5841902E-2,-5.4466236E-2,1.4123976E-2,1.0540453E-1,-5.123101E-2,1.5598765E-1,5.6377392E-2,-2.5503957E-4,8.211865E-2,-3.3385545E-2,8.602035E-2,6.303233E-2,1.4875929E-1,1.8942071E-2,5.088345E-2,1.2960094E-1,-2.4184244E-2,-2.7709045E-2,7.094242E-2,-3.0811364E-2,3.3947457E-2,4.4266004E-3,-2.4639431E-2,-1.8282153E-2,3.279891E-2,1.337475E-1,-2.8703524E-2,4.8029814E-2,1.2213891E-1,1.5974718E-1,1.2694781E-2,9.4327725E-2,-6.284928E-3,1.900169E-2,-2.1268608E-2,1.5274096E-1,5.1771913E-2,-6.250624E-2,1.68835E-2,4.8705652E-2,-3.1558227E-2,-2.1583135E-3,-4.1897472E-2,2.340643E-2,-1.0011831E-2,3.5495277E-2,-2.5604423E-2,9.659267E-2,-4.6448603E-2,-5.214817E-2,4.423627E-2,-4.0608463E-3,-7.461417E-2,4.1400544E-2,-9.804542E-3,-2.425032E-2,2.5385283E-2,-4.0262733E-2,-4.3866117E-3,-4.2816877E-2,3.6462743E-2,-1.0744256E-2,-6.598837E-2,-5.896238E-2,9.940184E-3,-7.061561E-2,-3.8750485E-2,-2.2562176E-2,-4.217375E-2,-5.6366477E-2,-4.406058E-2,-4.3989558E-2,2.5313787E-2,-5.7644185E-2,-6.9190025E-2,1.3697496E-1,-1.2990578E-2],"split_indices":[75,76,75,75,75,10,11,83,36,75,12,75,83,84,83,76,83,35,76,18,83,13,75,81,83,81,79,17,84,0,34,79,34,0,0,76,76,41,84,10,76,81,82,78,51,40,81,27,76,75,82,84,75,0,75,75,0,75,75,36,0,0,36,0,0,1,79,75,75,67,77,76,0,15,82,0,77,83,84,10,51,80,78,84,77,48,84,84,82,83,82,35,83,81,83,83,58,77,82,51,7,51,82,39,68,76,13,4,84,2,0,0,0,0,0,0,0,0,0,0,0,0,0,0,0,0,0,0,0,0,0,0,0,0,0,0,0,0,0,0,0,0,0,0,0,0,0,0,0,0,0,0,0,0,0,0,0,0,0,0,0,0,0,0,0,0,0,0,0,0,0,0,0,0,0,0,0,0,0,0,0,0,0,0,0,0,0,0,0,0,0,0,0,0,0,0,0,0,0,0,0],"split_type":[0,0,0,0,0,0,0,0,0,0,0,0,0,0,0,0,0,0,0,0,0,0,0,0,0,0,0,0,0,0,0,0,0,0,0,0,0,0,0,0,0,0,0,0,0,0,0,0,0,0,0,0,0,0,0,0,0,0,0,0,0,0,0,0,0,0,0,0,0,0,0,0,0,0,0,0,0,0,0,0,0,0,0,0,0,0,0,0,0,0,0,0,0,0,0,0,0,0,0,0,0,0,0,0,0,0,0,0,0,0,0,0,0,0,0,0,0,0,0,0,0,0,0,0,0,0,0,0,0,0,0,0,0,0,0,0,0,0,0,0,0,0,0,0,0,0,0,0,0,0,0,0,0,0,0,0,0,0,0,0,0,0,0,0,0,0,0,0,0,0,0,0,0,0,0,0,0,0,0,0,0,0,0,0,0,0,0,0,0,0,0,0,0,0,0,0,0,0,0,0,0],"sum_hessian":[1.5110536E4,8.133809E3,6.9767266E3,1.7556189E3,6.3781904E3,3.3956445E3,3.581082E3,4.0315464E1,1.7153035E3,1.3900145E3,4.988176E3,1.8536866E3,1.5419578E3,3.5634624E3,1.7619658E1,3.7613968E1,2.701496E0,1.5376941E3,1.7760936E2,9.751919E1,1.2924954E3,4.0386768E3,9.494992E2,5.6506165E2,1.288625E3,1.2937535E3,2.4820425E2,4.2360355E2,3.1398586E3,3.8443139E0,1.3775344E1,2.196937E1,1.5644598E1,1.4913459E0,1.2101499E0,1.325114E3,2.1258008E2,8.05853E1,9.702406E1,9.0740395E1,6.7787933E0,1.218987E3,7.3508286E1,3.5763706E3,4.6230606E2,5.2491614E2,4.2458304E2,4.99018E1,5.1515985E2,1.1716057E3,1.17019264E2,5.6560574E1,1.237193E3,1.4987279E0,2.4670552E2,4.22463E2,1.1405333E0,2.7621274E3,3.7773135E2,1.2373039E1,1.4023042E0,1.6775076E0,2.0291862E1,1.4094612E1,1.5499861E0,1.3722676E2,1.1878872E3,9.671833E1,1.15861755E2,7.8438034E1,2.1472628E0,1.9762663E1,7.72614E1,5.6792427E1,3.3947968E1,2.5265317E0,4.2522616E0,4.934946E1,1.1696376E3,5.2033305E0,6.8304955E1,2.93069E2,3.2833015E3,4.4789035E2,1.4415703E1,5.1145956E2,1.3456576E1,2.3674335E1,4.009087E2,4.6191525E1,3.7102747E0,5.396343E1,4.611964E2,5.2574335E2,6.458624E2,3.2014117E0,1.1381785E2,6.409303E0,5.015127E1,5.3926794E2,6.97925E2,8.6677086E1,1.6002844E2,1.3335481E2,2.8910822E2,8.8563214E2,1.8764952E3,1.6475668E1,3.6125568E2,1.1200171E1,1.172868E0,1.5231324E1,5.060538E0,1.3120026E2,6.026497E0,8.759835E2,3.1190372E2,7.8634934E0,8.8854836E1,7.745033E1,3.8411423E1,7.553341E1,2.9046276E0,1.0475887E0,1.0996741E0,1.0807226E1,8.955437E0,6.925744E1,8.003965E0,4.7926655E1,8.865769E0,4.4119887E0,2.9535978E1,2.0130732E0,2.2391887E0,2.0092497E1,2.9256962E1,2.4261378E2,9.2702386E2,2.3399756E0,2.8633547E0,6.624029E1,2.0646684E0,2.7635046E2,1.6718552E1,2.9771733E3,3.0612833E2,4.5825138E1,4.0206522E2,1.2641931E1,1.7737727E0,4.9427222E2,1.7187342E1,1.1236948E1,2.2196286E0,1.7795101E1,5.8792334E0,3.5643353E2,4.4475163E1,3.9948957E0,4.219663E1,2.3577468E0,1.3525277E0,4.7855824E1,6.107603E0,4.3255786E2,2.8638552E1,4.3378757E1,4.8236456E2,1.787375E1,6.2798865E2,2.0764394E0,1.1249725E0,1.11728455E2,2.0893931E0,1.00038E0,5.408923E0,2.862601E1,2.1525259E1,5.2465967E2,1.4608294E1,6.699971E2,2.7927927E1,8.312056E1,3.5565205E0,6.4127803E0,1.5361566E2,1.2852785E2,4.8269634E0,2.784173E2,1.0690921E1,1.8677274E2,6.988594E2,8.1630334E2,1.0601919E3,1.3865591E1,2.6100764E0,1.8178333E2,1.7947237E2,9.983914E0,1.2162565E0],"tree_param":{"num_deleted":"0","num_feature":"86","num_nodes":"201","size_leaf_vector":"1"}},{"base_weights":[-3.570789E-3,3.4607184E-1,-4.2650086E-1,8.3607805E-1,2.0436575E-1,-1.9250366E-1,-5.4674983E-1,8.7636584E-1,-4.708943E-1,6.0481083E-1,1.2054057E-1,-5.317108E-2,-3.523528E-1,-4.50029E-1,-6.333921E-1,1.685188E0,8.195107E-1,-6.611453E-1,4.2279786E-1,1.1070676E0,5.2767396E-1,4.552259E-2,4.486228E-1,4.3725872E-1,-9.931564E-2,-2.7505615E-1,-6.5910435E-1,-4.1463402E-1,-7.0265865E-1,-7.156678E-1,-5.624564E-1,-2.1384342E-1,1.8229815E0,8.8353723E-1,1.7935467E-1,-8.947678E-1,-2.922255E-1,1.1149063E0,-6.651371E-1,6.9882655E-1,1.3447429E0,1.4061153E0,4.8813802E-1,5.677096E-1,2.0249322E-2,6.090547E-1,1.9507733E-1,3.1681365E-1,1.114634E0,1.7628483E0,-1.07299514E-1,-2.5646117E-1,-8.621113E-1,8.759482E-2,-6.7486984E-1,-4.1986805E-1,1.4126483E0,-8.2112104E-1,-4.6655032E-1,-7.295611E-1,2.91478E-1,-6.7324173E-1,-5.069424E-1,5.01371E-1,-7.44604E-1,1.0066228E0,2.192064E0,1.5204638E0,8.118455E-1,-6.9134605E-1,8.651332E-1,-9.572426E-1,8.238329E-3,-4.042461E-1,6.516259E-2,1.5551459E0,-4.6192273E-2,-6.506968E-2,-4.9943915E-3,9.920709E-1,1.7673688E-1,9.121285E-1,1.808558E0,1.5204582E0,-5.7920985E-2,5.4498446E-1,4.358063E-3,6.098452E-1,-4.8587564E-1,-3.050007E-1,4.950641E-2,6.28671E-1,-6.102424E-1,6.2259287E-1,1.1546555E-1,1.359373E-1,6.608121E-1,1.3320736E0,-2.8876232E-2,1.5495959E-1,2.449529E-1,-4.609074E-1,-8.118946E-2,-2.9713473E-1,-5.0693825E-3,-9.272528E-1,2.083535E-3,-5.091306E-1,-7.936096E-1,-4.250526E-1,9.6340734E-1,1.9070144E0,-1.3423317E-2,-6.881301E-1,-9.472443E-1,7.542329E-2,-5.0934535E-1,-8.8027096E-1,-7.0231014E-1,-6.822994E-2,7.168783E-1,-7.10483E-1,-3.7430418E-1,-3.8035375E-1,-5.836878E-1,7.4222185E-2,-3.544101E-3,-6.924515E-2,-1.6473543E-2,1.0966425E-1,-3.688145E-3,1.8083923E-1,6.253779E-3,1.303728E-1,-5.5871595E-2,5.597406E-2,9.154929E-2,-5.7946276E-2,2.3295078E-2,-7.5640646E-3,9.006696E-2,-8.178406E-2,-2.377339E-2,-7.55586E-2,-7.817681E-3,1.6537185E-1,8.913504E-3,5.087007E-2,1.5809435E-1,-2.0901863E-2,6.921368E-2,5.2239593E-2,1.3233994E-1,1.5485354E-1,2.876207E-2,1.2645279E-1,-1.443852E-2,-6.3619814E-3,4.6421792E-2,-3.7915986E-3,8.34613E-2,3.699037E-2,8.081729E-2,8.708785E-3,-7.0951775E-2,-2.9940628E-2,1.0137001E-2,2.4392657E-2,8.801385E-4,5.286322E-2,-2.6218933E-3,-1.6979417E-2,-7.2949916E-2,-4.9259894E-2,6.0265362E-2,7.518077E-3,1.14176355E-1,1.1122981E-1,3.0494726E-3,3.8194373E-2,2.1635996E-1,1.3631019E-1,1.7167175E-2,7.1315564E-2,-4.8491344E-2,2.2965737E-2,-4.3144796E-2,7.157911E-4,-1.3418165E-2,-1.8510545E-2,-3.5622913E-2,9.731258E-3,-5.376211E-2,-8.013109E-2,-4.693782E-3,-4.2828888E-2,7.503498E-2,-6.547076E-2,4.7464687E-3,-2.7277835E-2,-3.9775237E-2,1.20020255E-1,-3.0118823E-2,1.948391E-1,2.3561103E-2,-5.8574356E-2,-6.1717867E-3,-7.898639E-2,-2.4840554E-2,-4.4181865E-2,6.0300957E-2,-7.2751276E-2,-1.876585E-2,-5.368668E-2,-6.756464E-2,2.684729E-2,1.5573283E-1,-3.1727623E-2,-5.8656797E-2,6.623663E-2,-3.5813846E-2,-4.4765882E-2,-1.9889567E-2,-1.2823085E-3,-4.7918167E-2],"categories":[],"categories_nodes":[],"categories_segments":[],"categories_sizes":[],"default_left":[0,0,0,0,0,0,0,0,0,0,0,0,0,0,0,0,0,0,0,0,0,0,0,0,0,0,0,0,0,0,0,0,0,0,0,0,0,0,0,0,0,0,0,0,0,0,0,0,0,0,0,0,0,0,0,0,0,0,0,0,0,0,0,0,0,0,0,0,1,0,0,0,0,0,0,0,0,0,0,0,0,0,0,1,0,0,0,0,0,0,0,0,0,0,0,0,0,0,0,0,0,0,0,0,0,0,0,0,0,0,0,0,0,0,0,0,0,0,0,0,0,0,0,0,0,0,0,0,0,0,0,0,0,0,0,0,0,0,0,0,0,0,0,0,0,0,0,0,0,0,0,0,0,0,0,0,0,0,0,0,0,0,0,0,0,0,0,0,0,0,0,0,0,0,0,0,0,0,0,0,0,0,0,0,0,0,0,0,0,0,0,0,0,0,0,0,0,0,0,0,0,0,0,0,0,0,0,0,0,0,0,0,0,0,0,0,0,0,0,0,0,0,0,0,0],"id":3,"left_children":[1,3,5,7,9,11,13,15,17,19,21,23,25,27,29,31,33,35,37,39,41,43,45,47,49,51,53,55,57,59,61,63,65,67,69,71,73,75,77,79,81,83,85,87,89,91,93,95,97,99,101,103,105,-1,107,109,111,113,115,117,119,121,123,125,127,129,131,133,135,137,139,141,-1,143,-1,145,-1,-1,-1,147,149,151,153,155,-1,157,159,161,163,165,167,169,171,173,175,177,179,181,-1,183,-1,185,187,189,191,193,-1,195,197,199,201,203,-1,205,207,-1,209,211,213,-1,215,217,219,221,223,-1,-1,-1,-1,-1,-1,-1,-1,-1,-1,-1,-1,-1,-1,-1,-1,-1,-1,-1,-1,-1,-1,-1,-1,-1,-1,-1,-1,-1,-1,-1,-1,-1,-1,-1,-1,-1,-1,-1,-1,-1,-1,-1,-1,-1,-1,-1,-1,-1,-1,-1,-1,-1,-1,-1,-1,-1,-1,-1,-1,-1,-1,-1,-1,-1,-1,-1,-1,-1,-1,-1,-1,-1,-1,-1,-1,-1,-1,-1,-1,-1,-1,-1,-1,-1,-1,-1,-1,-1,-1,-1,-1,-1,-1,-1,-1,-1,-1,-1,-1],"loss_changes":[2.233431E3,5.7394446E2,1.92229E2,9.805603E1,2.1525403E2,5.1693375E1,3.7547607E1,8.136084E1,9.818565E0,4.2424713E1,1.305625E2,2.8143932E1,2.545311E1,1.8814423E1,1.3481384E1,3.1064728E1,6.882532E1,3.7588787E0,8.615422E0,1.331221E1,3.2801575E1,5.699277E1,4.0040604E1,8.374128E0,1.7074375E1,9.224152E0,6.7363586E0,1.8540436E1,6.9207916E0,1.5573059E1,7.5441895E0,3.7235332E0,3.0756104E1,6.861902E1,9.272264E1,1.8486214E0,2.7556882E0,5.9379196E0,3.6843133E-1,8.418186E0,1.6761002E1,1.1086159E1,2.5415314E1,9.14679E0,3.923E1,1.4835007E1,1.3000382E1,5.648057E0,5.5347996E0,9.772798E0,1.0412402E1,8.588543E0,1.5366001E0,0E0,3.8382568E0,1.3834625E1,4.6866703E0,2.242775E0,5.8818645E0,3.829956E0,8.230708E0,4.465103E0,8.1154785E0,1.054898E0,1.7808056E-1,1.3830616E1,1.0597931E1,3.8359894E1,5.0565613E1,2.4318237E0,2.181112E1,8.349762E-1,0E0,2.9613907E0,0E0,3.938056E0,0E0,0E0,0E0,1.126643E1,6.680424E0,8.43734E0,7.272537E0,4.3024597E0,0E0,1.8272385E1,5.3288593E0,1.0877121E1,2.0577648E0,1.0220377E1,3.7187088E1,1.2665222E1,1.0158436E0,1.0187647E1,9.027573E0,7.5177574E0,1.0521735E1,5.427046E0,0E0,2.3596742E0,0E0,4.7062836E0,8.232397E0,6.9408913E0,1.0054929E1,1.5165997E0,0E0,4.023281E0,2.6646576E0,1.1146271E1,5.813022E0,2.9794874E0,0E0,2.3026123E0,1.8863907E0,0E0,5.1645927E0,2.8309555E0,3.52948E0,0E0,4.951636E0,2.3970032E0,4.709641E0,7.5760727E0,4.6112976E0,0E0,0E0,0E0,0E0,0E0,0E0,0E0,0E0,0E0,0E0,0E0,0E0,0E0,0E0,0E0,0E0,0E0,0E0,0E0,0E0,0E0,0E0,0E0,0E0,0E0,0E0,0E0,0E0,0E0,0E0,0E0,0E0,0E0,0E0,0E0,0E0,0E0,0E0,0E0,0E0,0E0,0E0,0E0,0E0,0E0,0E0,0E0,0E0,0E0,0E0,0E0,0E0,0E0,0E0,0E0,0E0,0E0,0E0,0E0,0E0,0E0,0E0,0E0,0E0,0E0,0E0,0E0,0E0,0E0,0E0,0E0,0E0,0E0,0E0,0E0,0E0,0E0,0E0,0E0,0E0,0E0,0E0,0E0,0E0,0E0,0E0,0E0,0E0,0E0,0E0,0E0,0E0,0E0,0E0,0E0,0E0,0E0,0E0,0E0,0E0],"parents":[2147483647,0,0,1,1,2,2,3,3,4,4,5,5,6,6,7,7,8,8,9,9,10,10,11,11,12,12,13,13,14,14,15,15,16,16,17,17,18,18,19,19,20,20,21,21,22,22,23,23,24,24,25,25,26,26,27,27,28,28,29,29,30,30,31,31,32,32,33,33,34,34,35,35,36,36,37,37,38,38,39,39,40,40,41,41,42,42,43,43,44,44,45,45,46,46,47,47,48,48,49,49,50,50,51,51,52,52,54,54,55,55,56,56,57,57,58,58,59,59,60,60,61,61,62,62,63,63,64,64,65,65,66,66,67,67,68,68,69,69,70,70,71,71,73,73,75,75,79,79,80,80,81,81,82,82,83,83,85,85,86,86,87,87,88,88,89,89,90,90,91,91,92,92,93,93,94,94,95,95,96,96,97,97,99,99,101,101,102,102,103,103,104,104,105,105,107,107,108,108,109,109,110,110,111,111,113,113,114,114,116,116,117,117,118,118,120,120,121,121,122,122,123,123,124,124],"right_children":[2,4,6,8,10,12,14,16,18,20,22,24,26,28,30,32,34,36,38,40,42,44,46,48,50,52,54,56,58,60,62,64,66,68,70,72,74,76,78,80,82,84,86,88,90,92,94,96,98,100,102,104,106,-1,108,110,112,114,116,118,120,122,124,126,128,130,132,134,136,138,140,142,-1,144,-1,146,-1,-1,-1,148,150,152,154,156,-1,158,160,162,164,166,168,170,172,174,176,178,180,182,-1,184,-1,186,188,190,192,194,-1,196,198,200,202,204,-1,206,208,-1,210,212,214,-1,216,218,220,222,224,-1,-1,-1,-1,-1,-1,-1,-1,-1,-1,-1,-1,-1,-1,-1,-1,-1,-1,-1,-1,-1,-1,-1,-1,-1,-1,-1,-1,-1,-1,-1,-1,-1,-1,-1,-1,-1,-1,-1,-1,-1,-1,-1,-1,-1,-1,-1,-1,-1,-1,-1,-1,-1,-1,-1,-1,-1,-1,-1,-1,-1,-1,-1,-1,-1,-1,-1,-1,-1,-1,-1,-1,-1,-1,-1,-1,-1,-1,-1,-1,-1,-1,-1,-1,-1,-1,-1,-1,-1,-1,-1,-1,-1,-1,-1,-1,-1,-1,-1,-1],"split_conditions":[3.1320919E1,4E0,3.9849716E1,1E0,9.433981E0,1E0,4.940648E1,5.656854E0,2.5942244E1,6E0,1E0,4E0,6.5E1,5.8E1,1E0,-7.596375E1,1E0,1E0,1.372953E1,-2E0,4E0,4E0,2.5E1,1E0,3.4481243E1,1E0,4.366778E1,1E0,1E0,1E0,-9.462322E0,9E1,2.7652424E1,1E0,2E0,1E0,2.3E1,1E0,2.3021729E1,1E0,2.8284271E1,1E0,8.6E1,1E0,-5.6768288E1,8.7E1,8E0,3.9661064E1,1E0,1.372953E1,-2.7E1,7.017834E0,1E0,8.759482E-2,3.361547E1,1E0,4.1725292E1,4.4777225E1,3E0,-2.5E1,2.9E1,1E0,4E0,6.033759E0,1E0,1.421267E1,1E0,1E0,2.3367853E1,1E0,-7E0,1E0,8.238329E-3,1.3038404E1,6.516259E-2,1E0,-4.6192273E-2,-6.506968E-2,-4.9943915E-3,1E0,2.2E1,2.6874192E0,1E0,6.335526E0,-5.7920985E-2,6.0827627E0,1E0,1E0,2.2803509E1,1E0,1.118034E1,1E0,8.8E1,8.062258E0,1E0,5.3851647E0,1E0,3.7202152E1,-2.8876232E-2,5.5839972E0,2.449529E-1,9.219544E0,3.5510563E1,3.744329E1,3.4159695E1,1E0,2.083535E-3,1.5570805E2,1E0,4.438468E1,4.7169907E1,2.489553E0,-1.3423317E-2,1E0,1E0,7.542329E-2,6.4E1,1E0,2.7E1,-6.822994E-2,1E0,1.8973665E1,-3.7146687E1,2.2000632E0,4E0,7.4222185E-2,-3.544101E-3,-6.924515E-2,-1.6473543E-2,1.0966425E-1,-3.688145E-3,1.8083923E-1,6.253779E-3,1.303728E-1,-5.5871595E-2,5.597406E-2,9.154929E-2,-5.7946276E-2,2.3295078E-2,-7.5640646E-3,9.006696E-2,-8.178406E-2,-2.377339E-2,-7.55586E-2,-7.817681E-3,1.6537185E-1,8.913504E-3,5.087007E-2,1.5809435E-1,-2.0901863E-2,6.921368E-2,5.2239593E-2,1.3233994E-1,1.5485354E-1,2.876207E-2,1.2645279E-1,-1.443852E-2,-6.3619814E-3,4.6421792E-2,-3.7915986E-3,8.34613E-2,3.699037E-2,8.081729E-2,8.708785E-3,-7.0951775E-2,-2.9940628E-2,1.0137001E-2,2.4392657E-2,8.801385E-4,5.286322E-2,-2.6218933E-3,-1.6979417E-2,-7.2949916E-2,-4.9259894E-2,6.0265362E-2,7.518077E-3,1.14176355E-1,1.1122981E-1,3.0494726E-3,3.8194373E-2,2.1635996E-1,1.3631019E-1,1.7167175E-2,7.1315564E-2,-4.8491344E-2,2.2965737E-2,-4.3144796E-2,7.157911E-4,-1.3418165E-2,-1.8510545E-2,-3.5622913E-2,9.731258E-3,-5.376211E-2,-8.013109E-2,-4.693782E-3,-4.2828888E-2,7.503498E-2,-6.547076E-2,4.7464687E-3,-2.7277835E-2,-3.9775237E-2,1.20020255E-1,-3.0118823E-2,1.948391E-1,2.3561103E-2,-5.8574356E-2,-6.1717867E-3,-7.898639E-2,-2.4840554E-2,-4.4181865E-2,6.0300957E-2,-7.2751276E-2,-1.876585E-2,-5.368668E-2,-6.756464E-2,2.684729E-2,1.5573283E-1,-3.1727623E-2,-5.8656797E-2,6.623663E-2,-3.5813846E-2,-4.4765882E-2,-1.9889567E-2,-1.2823085E-3,-4.7918167E-2],"split_indices":[75,76,75,0,75,10,75,75,82,75,12,81,83,83,13,78,36,10,77,84,81,81,75,5,79,65,79,17,13,11,78,79,79,76,76,43,84,36,75,0,82,43,83,56,78,83,76,82,28,77,84,77,32,0,75,11,82,82,76,84,83,6,84,77,36,77,18,35,79,41,84,33,0,82,0,10,0,0,0,11,76,77,1,77,0,82,52,13,75,13,75,39,83,82,70,82,32,75,0,79,0,82,75,75,78,2,0,82,62,75,82,78,0,1,32,0,76,58,84,0,26,82,78,77,81,0,0,0,0,0,0,0,0,0,0,0,0,0,0,0,0,0,0,0,0,0,0,0,0,0,0,0,0,0,0,0,0,0,0,0,0,0,0,0,0,0,0,0,0,0,0,0,0,0,0,0,0,0,0,0,0,0,0,0,0,0,0,0,0,0,0,0,0,0,0,0,0,0,0,0,0,0,0,0,0,0,0,0,0,0,0,0,0,0,0,0,0,0,0,0,0,0,0,0,0],"split_type":[0,0,0,0,0,0,0,0,0,0,0,0,0,0,0,0,0,0,0,0,0,0,0,0,0,0,0,0,0,0,0,0,0,0,0,0,0,0,0,0,0,0,0,0,0,0,0,0,0,0,0,0,0,0,0,0,0,0,0,0,0,0,0,0,0,0,0,0,0,0,0,0,0,0,0,0,0,0,0,0,0,0,0,0,0,0,0,0,0,0,0,0,0,0,0,0,0,0,0,0,0,0,0,0,0,0,0,0,0,0,0,0,0,0,0,0,0,0,0,0,0,0,0,0,0,0,0,0,0,0,0,0,0,0,0,0,0,0,0,0,0,0,0,0,0,0,0,0,0,0,0,0,0,0,0,0,0,0,0,0,0,0,0,0,0,0,0,0,0,0,0,0,0,0,0,0,0,0,0,0,0,0,0,0,0,0,0,0,0,0,0,0,0,0,0,0,0,0,0,0,0,0,0,0,0,0,0,0,0,0,0,0,0,0,0,0,0,0,0,0,0,0,0,0,0],"sum_hessian":[1.510157E4,8.267163E3,6.8344067E3,1.8533962E3,6.413767E3,2.3208242E3,4.5135825E3,1.7982927E3,5.5103428E1,1.1091207E3,5.3046465E3,1.2407002E3,1.0801241E3,2.1356736E3,2.3779087E3,1.16225685E2,1.682067E3,4.5646347E1,9.457079E0,1.458838E2,9.6323694E2,4.318365E3,9.8628143E2,1.0596938E2,1.1347308E3,8.642445E2,2.158796E2,1.8755403E3,2.6013342E2,1.0967454E3,1.2811633E3,7.8254557E0,1.0840023E2,1.5287825E3,1.5328458E2,2.7075268E1,1.8571081E1,5.764868E0,3.692211E0,5.513017E1,9.075364E1,3.9996555E1,9.232404E2,1.9836464E2,4.1200005E3,6.032013E2,3.8308014E2,9.121757E1,1.4751816E1,3.9059372E0,1.1308248E3,8.391028E2,2.5141737E1,1.3132923E0,2.145663E2,1.8709514E3,4.588892E0,1.715727E2,8.856072E1,1.0820938E3,1.4651558E1,4.2396332E2,8.572E2,3.357076E0,4.4683795E0,3.4910496E1,7.348974E1,1.5262413E2,1.3761583E3,6.7533E1,8.575158E1,2.551803E1,1.5572382E0,1.7440578E1,1.1305017E0,4.6390986E0,1.1257695E0,2.6828444E0,1.0093665E0,3.4725533E1,2.0404634E1,4.8491096E1,4.2262547E1,3.823059E1,1.7659621E0,8.260492E2,9.7191216E1,1.9114156E2,7.2230725E0,3.3924136E2,3.780759E3,5.9412726E2,9.07405E0,5.9067436E1,3.240127E2,6.0697594E1,3.0519974E1,1.2941971E1,1.8098441E0,2.2456794E0,1.6602576E0,7.6612404E1,1.0542124E3,7.220912E2,1.17011604E2,2.3382717E1,1.75902E0,9.176575E1,1.2280056E2,1.8646553E3,6.2960973E0,3.3380919E0,1.2507999E0,8.665505E1,8.491764E1,1.9901452E0,8.657058E1,1.609063E2,9.211875E2,3.6982281E0,1.095333E1,3.757733E2,4.8190044E1,3.2578534E2,5.314147E2,1.4914004E0,1.8656756E0,3.1534653E0,1.3149142E0,2.571313E1,9.197365E0,7.111829E1,2.371446E0,1.4571846E2,6.9056706E0,1.0313541E3,3.4480426E2,6.559389E1,1.9391057E0,1.8454725E1,6.729685E1,2.2729048E1,2.7889817E0,5.5600276E0,1.1880552E1,3.1058338E0,1.5332646E0,2.670565E1,8.019883E0,1.2849644E1,7.554991E0,3.7334534E1,1.115656E1,3.8545444E1,3.7171025E0,3.699204E1,1.2385542E0,4.411262E1,7.819366E2,9.348848E1,3.7027338E0,1.4126527E2,4.987628E1,3.202357E0,4.0207157E0,2.9245728E2,4.678409E1,4.9441068E2,3.2863484E3,5.6661383E2,2.7513369E1,4.6465816E0,4.4274683E0,5.2857366E0,5.3781696E1,3.1984448E2,4.1682167E0,3.4348707E0,5.7262722E1,2.9138916E1,1.3810571E0,9.31724E0,3.6247313E0,1.0542608E0,1.1914186E0,7.016054E0,6.9596344E1,5.168071E2,5.3740533E2,5.0189923E2,2.2019194E2,9.901762E1,1.799399E1,2.139707E1,1.9856489E0,9.075077E1,1.0149728E0,1.1937369E2,3.4268682E0,8.637014E2,1.00095386E3,4.409636E0,1.8864611E0,2.129724E0,1.2083678E0,8.064268E1,6.012377E0,7.93703E1,5.5473404E0,8.426936E1,2.301215E0,1.5357205E2,7.334245E0,7.600555E2,1.6113205E2,9.332672E0,1.6206573E0,2.6616482E1,3.491568E2,2.1801462E0,4.60099E1,1.3664153E2,1.8914381E2,1.3991457E1,5.174232E2],"tree_param":{"num_deleted":"0","num_feature":"86","num_nodes":"225","size_leaf_vector":"1"}},{"base_weights":[-5.95011E-3,3.0955184E-1,-4.0814608E-1,7.2774696E-1,1.8432908E-1,-2.4432366E-1,-5.7385314E-1,1.4560025E0,6.753548E-1,6.1644524E-1,1.2637243E-1,-1.3312891E-1,-3.8200715E-1,-5.7970583E-1,4.7336227E-1,-2.3372805E-1,1.5532995E0,7.0809394E-1,-4.0544432E-1,8.6306095E-2,6.766734E-1,6.9916174E-2,3.8233596E-1,-8.692067E-3,-2.8481576E-1,-3.305591E-1,-6.541167E-1,-6.4850324E-1,-5.169095E-1,-6.547909E-2,7.8538644E-1,3.5827798E-1,-6.87991E-1,1.0469072E0,1.8590413E0,3.135174E-1,8.064758E-1,-6.121018E-1,5.138834E-1,-6.0205698E-2,1.018937E0,1.3649391E0,6.368228E-1,5.495367E-1,4.599877E-2,5.0729054E-1,1.4438388E-1,4.5523724E-1,-5.494149E-2,-2.573939E-1,-7.819763E-1,-2.3291731E-1,-4.232422E-1,-4.8171648E-1,-7.810207E-1,-5.244841E-1,-7.167562E-1,-6.3365483E-1,-4.5525932E-1,1.8867605E0,4.136118E-1,7.634786E-2,-2.6375443E-2,-7.638176E-3,-6.640988E-2,1.2855837E0,1.2729435E-1,2.048745E0,7.1153325E-1,-3.519604E-2,6.2572604E-1,8.6347765E-1,-5.5234797E-2,-8.7062067E-1,-2.3460454E-1,1.9702848E0,-1.3040903E-1,-1.2329344E-1,1.2791108E-1,1.1912097E0,-1.3666976E-2,1.4412966E0,-4.8547883E-2,6.912132E-1,2.1069282E-1,3.022026E-1,6.82702E-1,-2.6776662E-1,7.28949E-2,5.41847E-1,-1.7003655E-1,8.509491E-1,9.929735E-2,5.376412E-1,-4.0604493E-1,3.18724E-1,-9.744519E-2,2.7958253E-1,-2.7024293E-1,1.9596554E-1,-8.391081E-1,-3.8263685E-1,-1.5549538E-1,1.3214937E-1,-4.4524673E-1,-5.0499636E-1,7.493599E-2,-1.5407261E-1,-8.068429E-1,1.2724547E-1,-5.3218144E-1,-7.222409E-1,7.4171424E-2,-6.598589E-1,-4.226865E-1,-3.193705E-1,-5.2775043E-1,2.1736206E-1,-7.6465853E-3,1.3438478E0,9.083651E-2,5.6013126E-2,1.3289608E-1,-5.58391E-2,5.3723164E-2,2.2541921E-1,1.3567697E-1,7.635043E-3,1.6753799E-1,5.045281E-3,-6.3651405E-2,1.00280985E-1,3.3019174E-2,7.3558584E-2,-3.5043927E-3,8.491902E-2,-1.42977405E-2,-7.498002E-2,1.16461385E-2,-7.136431E-2,-3.4532777E-4,2.632556E-2,2.1648744E-1,2.8196672E-2,-5.071606E-2,2.0123709E-3,-4.8433546E-2,1.19752884E-1,1.1604723E-2,8.8498875E-2,1.7455108E-1,6.3265815E-2,3.8834102E-2,3.1569496E-2,-2.7118716E-2,1.8471481E-2,1.4466746E-1,5.888974E-2,-2.6925143E-2,-2.6881408E-2,1.4495574E-2,8.374886E-3,-1.8769596E-2,8.748811E-2,3.96074E-2,-3.0989718E-2,5.3038403E-2,9.8884374E-2,1.232843E-2,1.3488209E-2,-2.244747E-2,-4.2589296E-2,4.8202142E-2,-6.19892E-2,3.0572347E-2,1.9803435E-2,1.4523278E-1,-6.687767E-3,-8.035773E-2,1.46522E-1,-1.49180265E-2,-2.2768596E-2,9.573639E-3,-6.1179316E-3,2.9479364E-2,-5.6464565E-3,-6.8613134E-2,-7.907974E-3,-3.799761E-2,-7.1483897E-3,-3.2779563E-2,6.419892E-2,-1.5442672E-2,-3.303912E-2,-5.8368772E-2,-4.3237556E-2,1.9397372E-2,-4.93543E-2,4.5199107E-2,-6.6360414E-2,-1.046747E-2,-4.3255355E-2,8.825643E-2,-7.600932E-2,-5.650773E-2,1.296111E-1,-4.7251057E-2,-4.3302182E-2,-5.7659153E-2,-3.8215533E-2,3.3374503E-2,-3.8555764E-2,-1.5747666E-2,-4.467433E-2,-2.1506304E-2,1.4268935E-1,2.4378445E-2,-1.2909325E-2,8.494265E-2],"categories":[],"categories_nodes":[],"categories_segments":[],"categories_sizes":[],"default_left":[0,0,0,0,0,0,0,0,0,0,0,0,0,0,0,0,0,0,0,0,0,0,0,0,0,0,0,0,0,0,0,0,0,0,0,0,0,0,0,0,0,0,0,0,0,0,0,0,0,0,0,0,0,1,0,0,0,0,0,0,0,0,0,0,0,0,0,0,1,0,0,0,1,0,0,0,0,0,0,0,0,0,0,0,0,0,0,0,0,0,0,0,1,0,0,0,0,0,0,0,0,0,0,0,0,0,0,0,0,0,0,0,0,0,0,0,1,0,0,0,0,0,0,0,0,0,0,0,0,0,0,0,0,0,0,0,0,0,0,0,0,0,0,0,0,0,0,0,0,0,0,0,0,0,0,0,0,0,0,0,0,0,0,0,0,0,0,0,0,0,0,0,0,0,0,0,0,0,0,0,0,0,0,0,0,0,0,0,0,0,0,0,0,0,0,0,0,0,0,0,0,0,0,0,0,0,0,0,0,0,0,0,0,0,0,0,0,0,0],"id":4,"left_children":[1,3,5,7,9,11,13,15,17,19,21,23,25,27,29,31,33,35,37,39,41,43,45,47,49,51,53,55,57,-1,59,61,63,65,67,69,71,73,75,77,79,81,83,85,87,89,91,93,95,97,99,101,103,105,107,109,111,113,115,117,119,-1,-1,-1,-1,121,123,125,127,129,131,133,135,137,139,141,143,145,-1,147,-1,149,-1,151,153,155,157,159,161,163,165,167,169,171,173,175,177,179,181,183,185,187,189,191,193,195,-1,197,199,-1,201,203,205,207,209,211,213,-1,-1,215,217,-1,-1,-1,-1,-1,-1,-1,-1,-1,-1,-1,-1,-1,-1,-1,-1,-1,-1,-1,-1,-1,-1,-1,-1,-1,-1,-1,-1,-1,-1,-1,-1,-1,-1,-1,-1,-1,-1,-1,-1,-1,-1,-1,-1,-1,-1,-1,-1,-1,-1,-1,-1,-1,-1,-1,-1,-1,-1,-1,-1,-1,-1,-1,-1,-1,-1,-1,-1,-1,-1,-1,-1,-1,-1,-1,-1,-1,-1,-1,-1,-1,-1,-1,-1,-1,-1,-1,-1,-1,-1,-1,-1,-1,-1,-1,-1,-1,-1],"loss_changes":[1.9107742E3,4.417704E2,1.7955786E2,7.3197266E1,1.6259105E2,5.0937347E1,2.0439697E1,2.1672821E1,6.4530334E1,2.4459717E1,8.275342E1,3.480375E1,2.0607437E1,1.380188E1,8.235486E0,2.3781056E0,1.7049408E1,6.8168396E1,1.0576771E1,1.0922242E1,1.803955E1,5.382657E1,3.0698853E1,2.1782282E1,1.112748E1,1.12404175E1,4.776001E0,1.2808655E1,1.20598755E1,0E0,5.640831E0,1.9955544E0,3.2728314E-1,1.0476807E1,1.4915009E1,3.849697E1,6.93136E1,4.1442013E0,1.0069603E1,7.485983E0,2.4267998E0,6.4238815E0,1.5001862E1,7.134903E0,3.7764156E1,1.5966003E1,1.1312019E1,6.750103E0,1.4690098E1,5.519558E0,2.563984E0,7.038986E0,7.899666E0,3.8562737E0,2.0456238E0,9.908752E0,4.4000244E0,2.9847107E0,1.092659E1,6.311351E0,3.7828271E0,0E0,0E0,0E0,0E0,7.276146E0,5.454034E0,1.2586548E1,1.0194762E1,1.2595149E1,2.4421135E1,6.7250854E1,1.2384813E1,1.902153E0,2.9455185E0,3.057701E0,2.2142963E0,4.8831005E0,0E0,2.853238E0,0E0,6.4647217E0,0E0,1.1487335E1,7.758073E0,8.153169E0,8.09333E0,1.0887884E1,4.0305344E1,1.611087E1,6.354793E0,5.5326853E0,8.930996E0,6.182287E0,2.7979398E0,9.618192E0,1.0334891E1,1.4033918E1,4.352932E0,1.7770645E-1,5.2082443E-1,5.4045334E0,6.779563E0,5.6527853E0,5.3616486E0,2.8210793E0,0E0,2.524622E0,1.8600159E0,0E0,8.326248E0,2.9332886E0,8.980827E0,3.388092E0,3.3411798E0,7.7605896E0,5.672104E0,0E0,0E0,9.542637E-1,2.7982512E0,0E0,0E0,0E0,0E0,0E0,0E0,0E0,0E0,0E0,0E0,0E0,0E0,0E0,0E0,0E0,0E0,0E0,0E0,0E0,0E0,0E0,0E0,0E0,0E0,0E0,0E0,0E0,0E0,0E0,0E0,0E0,0E0,0E0,0E0,0E0,0E0,0E0,0E0,0E0,0E0,0E0,0E0,0E0,0E0,0E0,0E0,0E0,0E0,0E0,0E0,0E0,0E0,0E0,0E0,0E0,0E0,0E0,0E0,0E0,0E0,0E0,0E0,0E0,0E0,0E0,0E0,0E0,0E0,0E0,0E0,0E0,0E0,0E0,0E0,0E0,0E0,0E0,0E0,0E0,0E0,0E0,0E0,0E0,0E0,0E0,0E0,0E0,0E0,0E0,0E0,0E0,0E0,0E0,0E0,0E0,0E0,0E0,0E0],"parents":[2147483647,0,0,1,1,2,2,3,3,4,4,5,5,6,6,7,7,8,8,9,9,10,10,11,11,12,12,13,13,14,14,15,15,16,16,17,17,18,18,19,19,20,20,21,21,22,22,23,23,24,24,25,25,26,26,27,27,28,28,30,30,31,31,32,32,33,33,34,34,35,35,36,36,37,37,38,38,39,39,40,40,41,41,42,42,43,43,44,44,45,45,46,46,47,47,48,48,49,49,50,50,51,51,52,52,53,53,54,54,55,55,56,56,57,57,58,58,59,59,60,60,65,65,66,66,67,67,68,68,69,69,70,70,71,71,72,72,73,73,74,74,75,75,76,76,77,77,79,79,81,81,83,83,84,84,85,85,86,86,87,87,88,88,89,89,90,90,91,91,92,92,93,93,94,94,95,95,96,96,97,97,98,98,99,99,100,100,101,101,102,102,103,103,104,104,105,105,107,107,108,108,110,110,111,111,112,112,113,113,114,114,115,115,116,116,119,119,120,120],"right_children":[2,4,6,8,10,12,14,16,18,20,22,24,26,28,30,32,34,36,38,40,42,44,46,48,50,52,54,56,58,-1,60,62,64,66,68,70,72,74,76,78,80,82,84,86,88,90,92,94,96,98,100,102,104,106,108,110,112,114,116,118,120,-1,-1,-1,-1,122,124,126,128,130,132,134,136,138,140,142,144,146,-1,148,-1,150,-1,152,154,156,158,160,162,164,166,168,170,172,174,176,178,180,182,184,186,188,190,192,194,196,-1,198,200,-1,202,204,206,208,210,212,214,-1,-1,216,218,-1,-1,-1,-1,-1,-1,-1,-1,-1,-1,-1,-1,-1,-1,-1,-1,-1,-1,-1,-1,-1,-1,-1,-1,-1,-1,-1,-1,-1,-1,-1,-1,-1,-1,-1,-1,-1,-1,-1,-1,-1,-1,-1,-1,-1,-1,-1,-1,-1,-1,-1,-1,-1,-1,-1,-1,-1,-1,-1,-1,-1,-1,-1,-1,-1,-1,-1,-1,-1,-1,-1,-1,-1,-1,-1,-1,-1,-1,-1,-1,-1,-1,-1,-1,-1,-1,-1,-1,-1,-1,-1,-1,-1,-1,-1,-1,-1,-1],"split_conditions":[3.1320919E1,4E0,4.438468E1,5.656854E0,8.485281E0,1E0,1E0,-7.596375E1,1E0,-5E0,1E0,3.8418747E1,6.5E1,1E0,2.9E1,9E1,3.5782524E1,1.6845034E1,2.5942244E1,1E0,4.472136E0,4E0,2.5495098E1,4E0,6.4E1,3.7589893E1,3.4058773E1,4.967897E1,-8E0,-6.547909E-2,2.879236E1,1E0,8.335466E0,1E0,6.603751E1,2E0,8.7E1,1E0,6.6E1,1E0,5E0,1E0,1E0,2E0,-5.6768288E1,1E0,4E0,1E0,5E0,4.6E1,9.848858E0,1.2578641E0,4E0,1.255638E1,6.0827627E0,5.4628155E1,1E0,1E0,3.5763345E0,5.2153618E1,3.3E1,7.634786E-2,-2.6375443E-2,-7.638176E-3,-6.640988E-2,-1E0,-1.1070203E1,6.1282587E0,4.045767E1,1E0,2.5079873E0,1E0,1.8012341E0,1E0,-1.8434948E1,-8.130102E0,3.231099E1,4.1382365E0,1.2791108E-1,2.1E1,-1.3666976E-2,1E0,-4.8547883E-2,1E0,3.8927544E1,1.2986917E2,6.5386643E0,1E0,5.2431408E1,1.0816654E1,3.7405357E1,6.8E1,5.60803E1,-2.6E1,2.1E1,1E0,1E0,6E0,1E0,1.3E1,4.2432934E-1,4.2432934E-1,1.8E1,3.9051247E1,5E0,1E0,7.493599E-2,4.0655783E-1,1E0,1.2724547E-1,1E0,2.9E1,8E0,5.0159744E1,1E0,2.2315E0,9.804336E0,2.1736206E-1,-7.6465853E-3,-1.3019527E0,4.8E1,5.6013126E-2,1.3289608E-1,-5.58391E-2,5.3723164E-2,2.2541921E-1,1.3567697E-1,7.635043E-3,1.6753799E-1,5.045281E-3,-6.3651405E-2,1.00280985E-1,3.3019174E-2,7.3558584E-2,-3.5043927E-3,8.491902E-2,-1.42977405E-2,-7.498002E-2,1.16461385E-2,-7.136431E-2,-3.4532777E-4,2.632556E-2,2.1648744E-1,2.8196672E-2,-5.071606E-2,2.0123709E-3,-4.8433546E-2,1.19752884E-1,1.1604723E-2,8.8498875E-2,1.7455108E-1,6.3265815E-2,3.8834102E-2,3.1569496E-2,-2.7118716E-2,1.8471481E-2,1.4466746E-1,5.888974E-2,-2.6925143E-2,-2.6881408E-2,1.4495574E-2,8.374886E-3,-1.8769596E-2,8.748811E-2,3.96074E-2,-3.0989718E-2,5.3038403E-2,9.8884374E-2,1.232843E-2,1.3488209E-2,-2.244747E-2,-4.2589296E-2,4.8202142E-2,-6.19892E-2,3.0572347E-2,1.9803435E-2,1.4523278E-1,-6.687767E-3,-8.035773E-2,1.46522E-1,-1.49180265E-2,-2.2768596E-2,9.573639E-3,-6.1179316E-3,2.9479364E-2,-5.6464565E-3,-6.8613134E-2,-7.907974E-3,-3.799761E-2,-7.1483897E-3,-3.2779563E-2,6.419892E-2,-1.5442672E-2,-3.303912E-2,-5.8368772E-2,-4.3237556E-2,1.9397372E-2,-4.93543E-2,4.5199107E-2,-6.6360414E-2,-1.046747E-2,-4.3255355E-2,8.825643E-2,-7.600932E-2,-5.650773E-2,1.296111E-1,-4.7251057E-2,-4.3302182E-2,-5.7659153E-2,-3.8215533E-2,3.3374503E-2,-3.8555764E-2,-1.5747666E-2,-4.467433E-2,-2.1506304E-2,1.4268935E-1,2.4378445E-2,-1.2909325E-2,8.494265E-2],"split_indices":[75,76,75,75,75,10,11,78,0,84,12,75,83,13,83,79,79,79,82,6,75,81,75,81,83,75,75,75,84,0,82,10,77,36,78,76,83,10,83,40,81,59,15,80,78,39,81,28,76,83,82,77,81,79,82,79,17,6,78,75,83,0,0,0,0,84,78,77,79,35,77,1,77,43,78,78,82,77,0,76,0,36,0,10,78,82,77,13,78,75,78,83,82,84,76,64,15,76,54,76,77,77,84,75,81,51,0,77,70,0,17,83,76,75,36,77,77,0,0,78,83,0,0,0,0,0,0,0,0,0,0,0,0,0,0,0,0,0,0,0,0,0,0,0,0,0,0,0,0,0,0,0,0,0,0,0,0,0,0,0,0,0,0,0,0,0,0,0,0,0,0,0,0,0,0,0,0,0,0,0,0,0,0,0,0,0,0,0,0,0,0,0,0,0,0,0,0,0,0,0,0,0,0,0,0,0,0,0,0,0,0,0,0,0,0,0,0,0,0],"split_type":[0,0,0,0,0,0,0,0,0,0,0,0,0,0,0,0,0,0,0,0,0,0,0,0,0,0,0,0,0,0,0,0,0,0,0,0,0,0,0,0,0,0,0,0,0,0,0,0,0,0,0,0,0,0,0,0,0,0,0,0,0,0,0,0,0,0,0,0,0,0,0,0,0,0,0,0,0,0,0,0,0,0,0,0,0,0,0,0,0,0,0,0,0,0,0,0,0,0,0,0,0,0,0,0,0,0,0,0,0,0,0,0,0,0,0,0,0,0,0,0,0,0,0,0,0,0,0,0,0,0,0,0,0,0,0,0,0,0,0,0,0,0,0,0,0,0,0,0,0,0,0,0,0,0,0,0,0,0,0,0,0,0,0,0,0,0,0,0,0,0,0,0,0,0,0,0,0,0,0,0,0,0,0,0,0,0,0,0,0,0,0,0,0,0,0,0,0,0,0,0,0,0,0,0,0,0,0,0,0,0,0,0,0,0,0,0,0,0,0],"sum_hessian":[1.5056084E4,8.437518E3,6.6185664E3,1.9431947E3,6.494323E3,3.329454E3,3.2891125E3,1.2861707E2,1.8145776E3,7.668876E2,5.7274355E3,1.8429962E3,1.4864579E3,3.2712764E3,1.7836193E1,6.9263825E0,1.2169069E2,1.7615619E3,5.3015682E1,7.848466E1,6.8840295E2,4.6934946E3,1.033941E3,1.0130194E3,8.2997675E2,1.2519628E3,2.3449507E2,1.5565973E3,1.714679E3,3.1541474E0,1.4682046E1,3.0989966E0,3.827386E0,4.7478085E1,7.42126E1,3.523983E2,1.4091636E3,4.3558308E1,9.457373E0,6.863749E1,9.847172E0,3.5857136E1,6.5254584E2,2.218911E2,4.4716035E3,6.771964E2,3.5674463E2,9.1031975E1,9.219874E2,7.8802924E2,4.194754E1,6.113828E2,6.4057996E2,1.0145861E2,1.3303647E2,5.5564575E2,1.00095154E3,5.8935474E2,1.1253242E3,2.6768692E0,1.2005177E1,1.4529461E0,1.6460505E0,1.0639213E0,2.7634645E0,3.737882E1,1.0099267E1,6.3010464E1,1.1202138E1,1.6688625E2,1.8551205E2,1.3217296E3,8.743396E1,2.507801E1,1.8480299E1,2.269403E0,7.1879697E0,6.701491E1,1.6225832E0,8.60064E0,1.2465317E0,3.4779346E1,1.0777894E0,5.7813214E2,7.441364E1,7.880057E1,1.4309053E2,3.523379E2,4.1192656E3,6.445141E2,3.268235E1,2.0326584E1,3.3641806E2,8.342589E1,7.606088E0,9.349961E1,8.284878E2,1.7930567E1,7.700987E2,2.181203E0,3.9766335E1,2.0704816E2,4.0433466E2,2.4221699E1,6.163583E2,1.0045387E2,1.0047355E0,5.538221E0,1.27498245E2,1.2691566E0,5.5437665E2,9.941445E2,6.8070774E0,5.223471E2,6.700764E1,3.933578E2,7.319664E2,1.6254625E0,1.0514066E0,2.2776346E0,9.727542E0,1.5728751E1,2.1650066E1,3.9011493E0,6.198118E0,1.7618496E1,4.5391968E1,8.488766E0,2.7133727E0,1.4860158E2,1.828467E1,4.5756725E1,1.3975533E2,1.2448728E3,7.6856834E1,7.9494247E0,7.9484535E1,2.3607792E1,1.470218E0,4.048522E0,1.4431777E1,1.150482E0,1.1189209E0,3.8224766E0,3.3654928E0,5.1963123E1,1.5051783E1,6.322293E0,2.278347E0,2.5662685E1,9.11666E0,3.8765024E2,1.9048192E2,5.5968323E1,1.8445322E1,7.633953E1,2.4610379E0,1.3622858E2,6.861953E0,3.0606198E2,4.6275913E1,3.73391E3,3.8535553E2,4.8599216E1,5.9591486E2,2.6344118E1,6.338231E0,1.2593235E1,7.733348E0,2.8498337E2,5.1434673E1,4.3578153E0,7.906807E1,5.19304E0,2.4130485E0,9.036722E1,3.1323922E0,8.1710474E2,1.1383053E1,3.4644268E0,1.4466141E1,7.429965E2,2.710215E1,1.0615811E0,1.1196218E0,1.0507684E0,3.871557E1,5.133628E1,1.5571188E2,3.219372E2,8.2397446E1,7.4324737E0,1.6789225E1,5.557654E2,6.059293E1,9.6166916E1,4.28696E0,3.4557858E0,2.0824354E0,1.2314291E2,4.3553433E0,5.521725E2,2.204116E0,6.0988026E1,9.3315643E2,1.614854E0,5.1922235E0,1.8055576E2,3.4179135E2,6.3293427E1,3.714215E0,1.6778818E2,2.2556961E2,6.533917E2,7.857467E1,1.0969267E0,1.180708E0,8.383687E0,1.3438551E0],"tree_param":{"num_deleted":"0","num_feature":"86","num_nodes":"219","size_leaf_vector":"1"}},{"base_weights":[-4.298487E-3,2.750781E-1,-3.8722786E-1,6.446643E-1,1.6198952E-1,-2.2646275E-1,-5.4856306E-1,6.731825E-1,-4.0846187E-1,4.1277087E-1,7.7842206E-2,-1.2163981E-1,-3.588704E-1,-4.893496E-1,-6.552259E-1,3.537817E-1,7.561625E-1,-6.015947E-1,3.7075412E-1,6.8024E-2,4.7611758E-1,6.524393E-3,3.5195044E-1,-2.0461682E-2,-2.4144152E-1,-3.143696E-1,-6.0574186E-1,-4.9805906E-1,4.0311506E-1,-5.9549767E-1,-8.208696E-1,4.187782E-2,6.34427E-1,8.0141735E-1,-6.580495E-2,-6.5301925E-1,3.640943E-2,1.3762801E0,-3.173905E-1,3.1343587E-2,9.038587E-1,6.67525E-1,3.5783488E-1,-3.218253E-2,2.8387976E-1,4.6581843E-1,1.628871E-1,3.2185894E-1,-5.4952756E-2,4.1202575E-1,-2.569217E-1,1.4853758E-1,-3.375392E-1,-4.164579E-1,-7.33777E-1,-2.545126E-1,-5.261531E-1,-6.644621E-2,7.029718E-1,-5.457134E-1,-7.504985E-1,-8.350954E-1,-2.2994316E-1,1.293919E-1,-6.688073E-1,1.1837364E0,4.462891E-1,-3.7856165E-2,8.371063E-1,1.9104813E-1,-3.714352E-1,-7.0548695E-1,2.479694E-2,2.8605207E-3,1.6609131E-1,-6.350106E-1,5.8693804E-2,8.8951975E-1,-1.160812E-2,1.4890264E0,2.7964053E-1,6.2705237E-1,1.4177767E0,4.1165686E-1,4.7082603E-3,-5.515995E-3,-3.9423013E-1,6.1997604E-1,1.8702425E-1,4.4358647E-1,1.1431539E0,2.7426854E-1,-8.6395554E-2,-1.6859937E-2,5.280999E-1,2.6825863E-1,-9.235469E-2,1.6079822E0,-2.6790079E-2,-4.0539345E-1,-2.0218237E-1,4.4752648E-1,-2.3976281E-1,-2.3031564E-1,-4.328053E-1,-8.0898295E-5,-5.1913077E-1,-7.6212084E-1,2.7806867E-2,-1.4635733E-1,-6.5444064E-1,-6.1335725E-1,-4.787777E-1,8.6796844E-1,-5.1590927E-2,-5.735198E-1,-2.424679E-1,-7.690585E-1,9.164586E-2,-5.040452E-1,-8.511637E-1,-6.1154383E-1,6.175145E-2,1.906574E-2,-4.542753E-2,-5.9340242E-2,2.6158253E-2,1.0095491E-1,-5.9134074E-2,3.0529572E-2,1.6877258E-1,1.0850978E-2,-6.81685E-2,7.4815E-2,3.9965156E-2,1.1522913E-3,8.371406E-2,-4.0606912E-2,4.3434363E-2,-7.353369E-2,-3.1976603E-2,-6.973643E-2,-6.7575043E-3,-5.0673977E-2,9.108464E-2,-5.3236783E-3,4.6200812E-2,6.297233E-3,1.6573834E-1,-6.277222E-2,8.489442E-2,1.7732503E-2,5.525085E-2,1.3763611E-1,2.9575527E-2,3.8266532E-2,1.3228809E-2,-9.723237E-3,9.7533956E-2,1.9760826E-3,-2.1587562E-2,-1.704522E-2,-5.2984342E-2,3.9285444E-2,1.3277768E-1,1.21630095E-2,9.15254E-2,3.37034E-2,8.714101E-2,2.7553337E-2,1.3753638E-1,-1.3888285E-2,3.0873157E-2,2.485519E-2,-1.6762268E-2,7.352523E-2,-2.8037228E-2,5.754848E-2,-1.3564221E-2,3.6202285E-2,-2.3381693E-2,-6.444522E-3,-7.8349076E-2,-6.0997996E-3,1.637341E-1,9.717646E-2,-1.7810335E-2,-3.3608973E-2,9.278796E-2,-1.7813988E-2,2.4699342E-2,1.7700769E-2,1.1491262E-1,-2.8101971E-2,7.4461736E-2,-2.1129774E-2,1.1374459E-2,-3.1205531E-2,-5.1136106E-2,-2.0017015E-2,1.2846209E-1,7.948409E-3,-4.7503643E-2,-6.2887445E-2,3.3968627E-5,5.322258E-2,-3.9934438E-2,-5.2751354E-3,-6.432194E-2,-5.967505E-2,4.422472E-2,-4.956351E-2,6.482034E-2,-3.0139966E-2,-4.319402E-2,8.660171E-2,-3.311299E-2,-1.9480461E-2,-4.7974423E-2,3.330747E-6,-4.0549003E-2,-6.5276384E-2,-3.1104522E-2,-4.1874867E-2,7.989871E-2,4.1007202E-2,-5.6408808E-2,-2.5577469E-2,-6.8691045E-2,5.6722844E-3,-6.868603E-2],"categories":[],"categories_nodes":[],"categories_segments":[],"categories_sizes":[],"default_left":[0,0,0,0,0,0,0,0,0,0,0,0,0,0,0,0,0,0,0,0,0,0,0,0,0,0,0,0,0,0,0,0,0,0,0,0,0,0,0,0,0,0,0,0,0,0,1,0,0,0,0,0,0,0,1,0,0,0,0,0,0,1,0,0,0,0,0,0,0,0,0,0,0,0,0,0,0,0,0,0,0,0,0,0,0,0,0,0,0,0,0,0,0,0,0,1,0,0,0,0,0,0,0,0,0,0,0,0,0,0,0,0,0,0,0,0,0,0,0,0,0,0,0,0,0,0,0,0,0,0,0,0,0,0,0,0,0,0,0,0,0,0,0,0,0,0,0,0,0,0,0,0,0,0,0,0,0,0,0,0,0,0,0,0,0,0,0,0,0,0,0,0,0,0,0,0,0,0,0,0,0,0,0,0,0,0,0,0,0,0,0,0,0,0,0,0,0,0,0,0,0,0,0,0,0,0,0,0,0,0,0,0,0,0,0,0,0,0,0,0,0,0,0,0,0,0,0,0,0,0,0],"id":5,"left_children":[1,3,5,7,9,11,13,15,17,19,21,23,25,27,29,31,33,35,37,39,41,43,45,47,49,51,53,55,57,59,61,63,65,67,69,71,-1,73,75,77,79,81,83,85,87,89,91,93,95,97,99,101,103,105,107,109,111,-1,113,115,117,119,121,123,125,127,129,131,133,135,137,139,-1,-1,-1,141,-1,143,145,147,149,151,153,155,157,159,161,163,165,167,169,171,173,175,177,179,181,183,185,187,189,191,193,195,197,199,201,203,205,207,209,211,213,215,-1,217,219,221,223,225,227,229,-1,-1,-1,-1,-1,-1,-1,-1,-1,-1,-1,-1,-1,-1,-1,-1,-1,-1,-1,-1,-1,-1,-1,-1,-1,-1,-1,-1,-1,-1,-1,-1,-1,-1,-1,-1,-1,-1,-1,-1,-1,-1,-1,-1,-1,-1,-1,-1,-1,-1,-1,-1,-1,-1,-1,-1,-1,-1,-1,-1,-1,-1,-1,-1,-1,-1,-1,-1,-1,-1,-1,-1,-1,-1,-1,-1,-1,-1,-1,-1,-1,-1,-1,-1,-1,-1,-1,-1,-1,-1,-1,-1,-1,-1,-1,-1,-1,-1,-1,-1,-1,-1,-1,-1,-1,-1,-1,-1,-1],"loss_changes":[1.6109833E3,3.6379156E2,1.6462903E2,6.1529358E1,1.4067836E2,4.413916E1,1.9698792E1,5.2373535E1,8.409278E0,3.6547577E1,9.762274E1,2.1549929E1,1.5256744E1,1.6074188E1,1.0676544E1,3.599122E1,5.866504E1,2.6867476E0,8.341064E0,7.978894E0,3.1793427E1,4.2563587E1,2.2120667E1,1.1413302E1,8.341175E0,1.284996E1,4.872711E0,1.3706879E1,8.089479E0,6.019165E0,2.3000183E0,1.2273808E1,2.1847923E1,4.4767456E1,6.59835E0,2.3580856E0,0E0,4.4559402E0,3.0012312E0,9.270651E0,3.5810509E0,1.5484436E1,1.6658974E1,3.3589226E1,1.5689785E1,9.174728E0,1.0827042E1,6.190647E0,1.0634652E1,1.0131583E1,6.386364E0,6.7922325E0,1.1512802E1,3.784504E0,2.7441635E0,9.037294E0,7.1952515E0,0E0,4.3100796E0,5.2089233E0,3.1944275E0,1.1087952E0,3.6637845E0,1.3449826E1,1.8148823E0,9.1480255E0,1.6716263E1,8.856736E0,4.6963135E1,6.911282E0,5.0447464E0,2.2763119E0,0E0,0E0,0E0,7.562039E-1,0E0,5.267725E0,7.8138127E0,4.2888384E0,6.2612424E0,1.308107E1,7.8678627E0,1.2412369E1,1.8079569E1,2.5898499E1,1.1450264E1,1.3685619E1,1.2494745E1,8.525528E0,8.517454E0,1.3526407E1,5.9774575E0,1.1081052E1,7.464917E0,9.561037E0,8.161106E0,3.9807262E0,3.9288373E0,5.4034996E0,6.1779346E0,7.0391674E0,3.6815505E0,6.7997437E0,5.0504684E0,7.8373876E0,3.3383942E0,2.2241287E0,2.1767612E0,8.805218E0,5.345392E0,6.09079E0,7.153015E0,4.6974983E0,0E0,4.8632965E0,3.5268073E0,3.1718903E0,3.4259136E0,3.5981722E0,8.1489563E-1,1.1741886E0,0E0,0E0,0E0,0E0,0E0,0E0,0E0,0E0,0E0,0E0,0E0,0E0,0E0,0E0,0E0,0E0,0E0,0E0,0E0,0E0,0E0,0E0,0E0,0E0,0E0,0E0,0E0,0E0,0E0,0E0,0E0,0E0,0E0,0E0,0E0,0E0,0E0,0E0,0E0,0E0,0E0,0E0,0E0,0E0,0E0,0E0,0E0,0E0,0E0,0E0,0E0,0E0,0E0,0E0,0E0,0E0,0E0,0E0,0E0,0E0,0E0,0E0,0E0,0E0,0E0,0E0,0E0,0E0,0E0,0E0,0E0,0E0,0E0,0E0,0E0,0E0,0E0,0E0,0E0,0E0,0E0,0E0,0E0,0E0,0E0,0E0,0E0,0E0,0E0,0E0,0E0,0E0,0E0,0E0,0E0,0E0,0E0,0E0,0E0,0E0,0E0,0E0,0E0,0E0,0E0,0E0,0E0,0E0,0E0],"parents":[2147483647,0,0,1,1,2,2,3,3,4,4,5,5,6,6,7,7,8,8,9,9,10,10,11,11,12,12,13,13,14,14,15,15,16,16,17,17,18,18,19,19,20,20,21,21,22,22,23,23,24,24,25,25,26,26,27,27,28,28,29,29,30,30,31,31,32,32,33,33,34,34,35,35,37,37,38,38,39,39,40,40,41,41,42,42,43,43,44,44,45,45,46,46,47,47,48,48,49,49,50,50,51,51,52,52,53,53,54,54,55,55,56,56,58,58,59,59,60,60,61,61,62,62,63,63,64,64,65,65,66,66,67,67,68,68,69,69,70,70,71,71,75,75,77,77,78,78,79,79,80,80,81,81,82,82,83,83,84,84,85,85,86,86,87,87,88,88,89,89,90,90,91,91,92,92,93,93,94,94,95,95,96,96,97,97,98,98,99,99,100,100,101,101,102,102,103,103,104,104,105,105,106,106,107,107,108,108,109,109,110,110,111,111,112,112,113,113,115,115,116,116,117,117,118,118,119,119,120,120,121,121],"right_children":[2,4,6,8,10,12,14,16,18,20,22,24,26,28,30,32,34,36,38,40,42,44,46,48,50,52,54,56,58,60,62,64,66,68,70,72,-1,74,76,78,80,82,84,86,88,90,92,94,96,98,100,102,104,106,108,110,112,-1,114,116,118,120,122,124,126,128,130,132,134,136,138,140,-1,-1,-1,142,-1,144,146,148,150,152,154,156,158,160,162,164,166,168,170,172,174,176,178,180,182,184,186,188,190,192,194,196,198,200,202,204,206,208,210,212,214,216,-1,218,220,222,224,226,228,230,-1,-1,-1,-1,-1,-1,-1,-1,-1,-1,-1,-1,-1,-1,-1,-1,-1,-1,-1,-1,-1,-1,-1,-1,-1,-1,-1,-1,-1,-1,-1,-1,-1,-1,-1,-1,-1,-1,-1,-1,-1,-1,-1,-1,-1,-1,-1,-1,-1,-1,-1,-1,-1,-1,-1,-1,-1,-1,-1,-1,-1,-1,-1,-1,-1,-1,-1,-1,-1,-1,-1,-1,-1,-1,-1,-1,-1,-1,-1,-1,-1,-1,-1,-1,-1,-1,-1,-1,-1,-1,-1,-1,-1,-1,-1,-1,-1,-1,-1,-1,-1,-1,-1,-1,-1,-1,-1,-1,-1],"split_conditions":[3.1827662E1,4E0,4.438468E1,1E0,1.0816654E1,1E0,1E0,1.7918827E1,2.5942244E1,-5E0,1E0,3.8418747E1,6.5E1,1E0,5.3235325E1,2E0,1E0,3.1144823E1,6.9E1,1E0,8E0,1E0,2.5495098E1,4E0,4.6E1,4E0,3.4058773E1,5E0,2.9E1,5.622277E1,1E0,1E0,2.5079873E0,-7.330076E1,2.0024984E1,1E0,3.640943E-2,1E0,1E0,5E0,1.9039433E0,2E0,8.3E1,1E0,2.2803509E1,1E0,4.0804413E1,2.2803509E1,5E0,6E0,-3.0256437E1,3.0463093E1,3.7589893E1,7E0,2.0024984E1,5.4589375E1,-8E0,-6.644621E-2,1E0,4.924429E1,1E0,1.2578641E0,3E1,1E0,1E0,1.6763054E1,1E0,1E0,1.8439089E1,1E0,1E0,1E0,2.479694E-2,2.8605207E-3,1.6609131E-1,1E0,5.8693804E-2,-8E0,1E0,-7E0,3.596371E0,1.3038404E1,2.9674156E0,1E0,1E0,5E0,1.6763054E1,2E0,1E0,1E0,1E0,5.0206184E-1,1.9039433E0,7.28011E0,6.4E1,1.7923449E1,1E0,2.745906E1,1.8248287E1,1E0,1E0,2.7202942E1,1E0,7.3736015E1,5.9E1,1E0,5E0,1E0,4.8012787E1,1E0,1E0,1E0,5E0,1E0,-5.1590927E-2,1E0,5.1264023E1,3.8E1,3.952847E0,4.7E1,0E0,5.9008472E1,6.175145E-2,1.906574E-2,-4.542753E-2,-5.9340242E-2,2.6158253E-2,1.0095491E-1,-5.9134074E-2,3.0529572E-2,1.6877258E-1,1.0850978E-2,-6.81685E-2,7.4815E-2,3.9965156E-2,1.1522913E-3,8.371406E-2,-4.0606912E-2,4.3434363E-2,-7.353369E-2,-3.1976603E-2,-6.973643E-2,-6.7575043E-3,-5.0673977E-2,9.108464E-2,-5.3236783E-3,4.6200812E-2,6.297233E-3,1.6573834E-1,-6.277222E-2,8.489442E-2,1.7732503E-2,5.525085E-2,1.3763611E-1,2.9575527E-2,3.8266532E-2,1.3228809E-2,-9.723237E-3,9.7533956E-2,1.9760826E-3,-2.1587562E-2,-1.704522E-2,-5.2984342E-2,3.9285444E-2,1.3277768E-1,1.21630095E-2,9.15254E-2,3.37034E-2,8.714101E-2,2.7553337E-2,1.3753638E-1,-1.3888285E-2,3.0873157E-2,2.485519E-2,-1.6762268E-2,7.352523E-2,-2.8037228E-2,5.754848E-2,-1.3564221E-2,3.6202285E-2,-2.3381693E-2,-6.444522E-3,-7.8349076E-2,-6.0997996E-3,1.637341E-1,9.717646E-2,-1.7810335E-2,-3.3608973E-2,9.278796E-2,-1.7813988E-2,2.4699342E-2,1.7700769E-2,1.1491262E-1,-2.8101971E-2,7.4461736E-2,-2.1129774E-2,1.1374459E-2,-3.1205531E-2,-5.1136106E-2,-2.0017015E-2,1.2846209E-1,7.948409E-3,-4.7503643E-2,-6.2887445E-2,3.3968627E-5,5.322258E-2,-3.9934438E-2,-5.2751354E-3,-6.432194E-2,-5.967505E-2,4.422472E-2,-4.956351E-2,6.482034E-2,-3.0139966E-2,-4.319402E-2,8.660171E-2,-3.311299E-2,-1.9480461E-2,-4.7974423E-2,3.330747E-6,-4.0549003E-2,-6.5276384E-2,-3.1104522E-2,-4.1874867E-2,7.989871E-2,4.1007202E-2,-5.6408808E-2,-2.5577469E-2,-6.8691045E-2,5.6722844E-3,-6.868603E-2],"split_indices":[75,76,75,0,75,10,10,79,82,84,12,75,83,11,82,76,1,75,83,40,75,13,75,81,83,81,75,76,83,75,47,36,77,78,77,43,0,85,15,76,77,80,83,15,75,69,82,82,76,76,78,82,75,76,77,82,84,0,34,82,44,77,76,35,14,75,54,6,75,12,26,10,0,0,0,10,0,84,12,84,77,82,77,4,12,81,75,80,51,40,85,77,77,82,83,77,15,82,82,17,43,82,2,82,83,31,82,70,78,36,32,17,84,5,0,37,82,76,77,76,83,82,0,0,0,0,0,0,0,0,0,0,0,0,0,0,0,0,0,0,0,0,0,0,0,0,0,0,0,0,0,0,0,0,0,0,0,0,0,0,0,0,0,0,0,0,0,0,0,0,0,0,0,0,0,0,0,0,0,0,0,0,0,0,0,0,0,0,0,0,0,0,0,0,0,0,0,0,0,0,0,0,0,0,0,0,0,0,0,0,0,0,0,0,0,0,0,0,0,0,0,0,0,0,0,0,0,0,0,0,0],"split_type":[0,0,0,0,0,0,0,0,0,0,0,0,0,0,0,0,0,0,0,0,0,0,0,0,0,0,0,0,0,0,0,0,0,0,0,0,0,0,0,0,0,0,0,0,0,0,0,0,0,0,0,0,0,0,0,0,0,0,0,0,0,0,0,0,0,0,0,0,0,0,0,0,0,0,0,0,0,0,0,0,0,0,0,0,0,0,0,0,0,0,0,0,0,0,0,0,0,0,0,0,0,0,0,0,0,0,0,0,0,0,0,0,0,0,0,0,0,0,0,0,0,0,0,0,0,0,0,0,0,0,0,0,0,0,0,0,0,0,0,0,0,0,0,0,0,0,0,0,0,0,0,0,0,0,0,0,0,0,0,0,0,0,0,0,0,0,0,0,0,0,0,0,0,0,0,0,0,0,0,0,0,0,0,0,0,0,0,0,0,0,0,0,0,0,0,0,0,0,0,0,0,0,0,0,0,0,0,0,0,0,0,0,0,0,0,0,0,0,0,0,0,0,0,0,0,0,0,0,0,0,0],"sum_hessian":[1.5056527E4,8.705484E3,6.351042E3,2.038555E3,6.6669297E3,3.1823457E3,3.1686965E3,1.9851587E3,5.3396408E1,1.674015E3,4.9929146E3,1.777262E3,1.4050836E3,2.0411486E3,1.127548E3,4.1047025E2,1.5746884E3,4.2973217E1,1.0423191E1,2.6017245E2,1.4138425E3,3.9628733E3,1.0300414E3,9.641571E2,8.1310486E2,1.1924138E3,2.126699E2,2.0218594E3,1.9289204E1,8.321018E2,2.954462E2,1.9495271E2,2.1551753E2,1.4925392E3,8.214925E1,4.134329E1,1.6299297E0,3.8286827E0,6.594508E0,2.5022873E2,9.943731E0,5.38228E2,8.7561456E2,3.4783313E3,4.8454202E2,6.419484E2,3.88093E2,8.749051E1,8.766666E2,1.8223354E1,7.9488153E2,5.6580322E1,1.1358335E3,8.7526146E1,1.2514376E2,2.1014824E2,1.811711E3,3.4255674E0,1.5863637E1,6.3323566E2,1.9886615E2,2.8809744E2,7.348748E0,1.7430647E2,2.0646238E1,5.3632874E1,1.6188464E2,6.087686E1,1.4316622E3,4.484022E1,3.730903E1,3.946068E1,1.8826102E0,1.6737845E0,2.1548982E0,5.3681498E0,1.2263583E0,1.0987545E1,2.392412E2,4.417324E0,5.526407E0,5.124211E2,2.5806932E1,7.596642E2,1.15950356E2,3.2406567E3,2.376746E2,1.0718847E2,3.7735358E2,6.231499E2,1.8798553E1,2.681716E2,1.19921394E2,3.3458443E1,5.4032066E1,9.028555E1,7.8638104E2,4.176441E0,1.4046913E1,2.1239305E2,5.8248846E2,3.188022E1,2.4700102E1,5.35988E2,5.9984546E2,1.7511444E1,7.00147E1,1.20652725E2,4.4910307E0,1.6648935E2,4.3658897E1,6.3356256E2,1.1781486E3,1.4450708E1,1.4129287E0,5.792312E2,5.4004433E1,1.9466277E2,4.203384E0,1.483457E1,2.7326288E2,5.6038227E0,1.7449259E0,1.5132329E2,2.298319E1,1.9474735E1,1.1715033E0,5.18673E1,1.7655753E0,1.5700975E2,4.8748937E0,5.0871105E1,1.0005755E1,1.1079492E3,3.2371307E2,3.8008007E1,6.832215E0,3.286084E1,4.448187E0,2.2047495E1,1.7413181E1,3.34617E0,2.0219798E0,1.3272889E0,9.660255E0,2.1964534E2,1.9595846E1,1.6233736E0,2.7939506E0,2.338236E0,3.188171E0,7.0081215E1,4.4233984E2,1.9526403E1,6.28053E0,5.9708545E2,1.6257875E2,1.05847046E2,1.010331E1,2.9090156E3,3.31641E2,1.4289844E2,9.477616E1,9.667496E1,1.0513505E1,3.6516315E2,1.2190409E1,6.0394916E2,1.9200699E1,8.546328E0,1.0252225E1,5.340008E1,2.147715E2,2.8024197E1,9.18972E1,8.330998E0,2.5127445E1,4.2382202E1,1.1649864E1,6.8093124E1,2.2192427E1,7.7713513E2,9.245909E0,1.0337753E0,3.1426659E0,1.2050554E0,1.2841858E1,2.111392E2,1.253845E0,5.60569E2,2.1919504E1,2.6939838E1,4.9403825E0,2.3190723E1,1.5093789E0,4.9165768E2,4.4330296E1,4.9934216E2,1.0050329E2,1.5881842E1,1.6296029E0,7.5062203E0,6.250848E1,1.1694542E2,3.7073076E0,1.9136904E0,2.5773401E0,1.4932986E2,1.715948E1,4.09383E1,2.720596E0,6.3138354E2,2.179E0,4.441762E2,7.3397235E2,1.2512044E1,1.9386644E0,4.3300816E1,5.359304E2,2.8689518E1,2.5314917E1,1.7227086E2,2.2391905E1,2.7569141E0,1.4464695E0,2.1936321E0,1.2640938E1,4.397082E0,2.688658E2,1.678843E0,3.9249794E0],"tree_param":{"num_deleted":"0","num_feature":"86","num_nodes":"231","size_leaf_vector":"1"}},{"base_weights":[-3.0666885E-3,2.3318185E-1,-4.1049603E-1,5.822565E-1,1.306035E-1,-2.6785538E-1,-5.251899E-1,6.4060336E-1,6.666885E-2,3.956851E-1,5.913839E-2,-1.7007592E-1,-3.9672777E-1,-7.242106E-1,-4.988617E-1,7.0983666E-1,1.9728667E-1,-6.859454E-1,5.914031E-1,1.1789011E-1,4.6720433E-1,1.2446749E-3,2.7981427E-1,1.638157E-1,-2.005589E-1,-3.1329268E-1,-5.9617716E-1,-7.30393E-1,2.370368E-1,-4.725516E-1,-6.9478196E-1,1.4667264E0,6.7073405E-1,-4.8307982E-1,7.1551555E-1,1.10283226E-1,-7.5744075E-1,1.0584757E0,4.417313E-2,1.1635214E0,6.9066726E-2,6.350558E-1,3.513535E-1,3.9663053E-1,-2.1248294E-2,4.2794704E-1,1.16278864E-1,1.1237898E-1,1.0059621E0,1.673629E-1,-2.043691E-1,-2.2533423E-1,-4.5680758E-1,-4.4604802E-1,-7.19794E-1,-7.446821E-1,-3.00283E-1,-5.152849E-3,3.34525E-2,-3.038746E-1,-5.0394297E-1,-7.0237875E-1,4.825858E-2,1.6683309E0,7.359155E-1,1.1344873E0,6.126979E-1,2.3765463E-1,-6.0193783E-1,8.859068E-1,-3.4001732E-1,5.83362E-1,-6.581354E-2,-8.939678E-1,-5.7433575E-1,1.1802776E0,-7.21521E-2,2.8172863E-1,-7.749647E-1,1.5579925E0,-2.4922073E-2,4.4196624E-2,1.6637746E0,5.9062934E-1,1.3217207E0,4.1041958E-1,6.2163077E-2,7.4526536E-1,2.898688E-1,7.597048E-3,-2.7701253E-1,4.5149124E-1,-4.3405944E-1,2.1484347E-1,-3.7945725E-2,3.22317E-1,-1.0648201E-1,-5.275121E-2,1.8256006E0,-5.5517876E-1,-1.7862165E-1,-2.6516166E-1,1.639028E-1,-4.743383E-1,4.433252E-1,-5.1542753E-1,1.7139165E-1,-7.4723065E-1,-7.2125524E-2,-7.49166E-1,2.1033084E-2,-4.7507367E-1,6.1367195E-2,-3.1496313E-1,1.5292223E-1,-8.9833266E-1,-4.9331832E-1,-4.354568E-1,-7.3072326E-1,6.32207E-2,1.4710115E-1,-5.231911E-2,8.203103E-2,2.5712756E-2,1.05851114E-1,4.0129676E-2,7.454853E-2,6.611415E-2,-3.6839783E-2,-5.353564E-2,-1.9532239E-2,4.160393E-2,1.2793131E-1,5.166853E-2,-4.0135372E-2,-4.6276585E-3,8.48974E-2,-7.444084E-2,-3.4067964E-3,7.375327E-2,-5.289689E-2,1.4136371E-1,6.2634185E-2,-1.6370786E-2,8.25738E-2,-2.0754004E-2,-7.446235E-2,1.456938E-1,-1.7105537E-2,5.2284617E-2,-5.8157824E-2,9.447122E-4,8.034737E-2,2.756073E-2,1.5846665E-1,5.1848248E-2,9.108168E-3,-5.5072334E-2,1.1625793E-1,5.7121674E-3,3.7742913E-2,1.745576E-2,-5.5112507E-2,3.5043612E-2,1.06705196E-1,-1.3205075E-2,2.8287755E-2,-8.247522E-3,5.333899E-3,-1.6488642E-2,-4.8503187E-2,3.9055094E-2,-5.028314E-3,-5.6483038E-2,1.1830174E-2,1.2459618E-2,6.2833495E-2,2.6872544E-2,-7.812198E-3,1.2330333E-2,7.960988E-2,1.8229444E-2,-3.17813E-2,5.5616166E-2,-5.4815188E-2,2.0573358E-1,1.897471E-2,-4.753052E-2,2.7358681E-2,7.1069866E-4,-1.7572062E-2,-1.8414214E-2,-5.1028363E-2,1.44641E-1,2.9772727E-3,-3.9837576E-2,7.7368086E-3,-4.7388233E-2,6.655715E-2,-2.1642195E-2,-4.723363E-2,4.822924E-2,-4.5979645E-2,-6.153518E-2,5.950869E-4,4.9676064E-2,-5.224737E-2,-6.0739335E-2,-2.4369115E-2,5.1352695E-2,-5.4675482E-2,-1.79687E-2,-3.971263E-2,-7.571171E-2,-2.1678628E-2,-4.702214E-2,-3.613051E-2,-6.3506894E-2,-1.1761324E-4,-6.02259E-2,-4.0079355E-2],"categories":[],"categories_nodes":[],"categories_segments":[],"categories_sizes":[],"default_left":[0,0,0,0,0,0,0,0,0,0,0,0,0,0,0,0,0,0,0,0,0,0,0,0,0,0,0,0,0,0,0,0,0,0,0,0,1,0,0,0,0,0,0,0,0,0,1,0,0,0,0,0,0,0,0,0,0,0,0,0,0,0,0,0,1,0,1,0,1,0,0,0,0,0,0,0,0,0,0,0,0,0,0,0,0,0,0,0,0,0,0,0,0,0,0,0,1,0,0,0,0,0,0,0,1,0,0,0,0,0,0,0,0,0,0,0,0,1,0,0,0,0,0,0,0,0,0,0,0,0,0,0,0,0,0,0,0,0,0,0,0,0,0,0,0,0,0,0,0,0,0,0,0,0,0,0,0,0,0,0,0,0,0,0,0,0,0,0,0,0,0,0,0,0,0,0,0,0,0,0,0,0,0,0,0,0,0,0,0,0,0,0,0,0,0,0,0,0,0,0,0,0,0,0,0,0,0,0,0,0,0,0,0,0,0,0,0,0,0,0,0],"id":6,"left_children":[1,3,5,7,9,11,13,15,17,19,21,23,25,27,29,31,33,35,37,39,41,43,45,47,49,51,53,55,57,59,61,63,65,67,69,71,73,75,77,79,81,83,85,87,89,91,93,95,97,-1,99,101,103,105,107,109,111,-1,-1,113,115,117,-1,119,121,123,125,127,129,131,133,135,-1,137,139,141,-1,143,145,147,149,151,153,155,157,159,161,163,165,167,169,171,173,175,177,179,181,183,185,187,189,191,193,195,197,199,201,203,205,207,-1,209,-1,211,-1,213,215,217,219,-1,-1,-1,-1,-1,-1,-1,-1,-1,-1,-1,-1,-1,-1,-1,-1,-1,-1,-1,-1,-1,-1,-1,-1,-1,-1,-1,-1,-1,-1,-1,-1,-1,-1,-1,-1,-1,-1,-1,-1,-1,-1,-1,-1,-1,-1,-1,-1,-1,-1,-1,-1,-1,-1,-1,-1,-1,-1,-1,-1,-1,-1,-1,-1,-1,-1,-1,-1,-1,-1,-1,-1,-1,-1,-1,-1,-1,-1,-1,-1,-1,-1,-1,-1,-1,-1,-1,-1,-1,-1,-1,-1,-1,-1,-1,-1,-1,-1,-1,-1,-1,-1],"loss_changes":[1.4474655E3,3.4075946E2,9.015576E1,6.498279E1,1.393674E2,3.0956451E1,1.5663879E1,5.945459E1,8.7628624E1,3.0983902E1,7.405715E1,1.4298637E1,1.7475708E1,2.2834167E0,1.3611145E1,4.8709106E1,9.3308266E1,5.2748184E0,3.3351562E1,1.6317434E1,2.3930115E1,4.0856045E1,2.9134018E1,4.990082E0,1.1650768E1,9.370125E0,5.4680634E0,1.9463501E0,1.9205202E-1,1.2487122E1,3.559723E0,1.08003845E1,4.23244E1,9.959736E0,2.7291107E1,4.181441E0,1.5816116E0,1.7887291E1,1.2130113E1,6.7266655E0,1.2139411E1,1.4654526E1,1.2565353E1,8.987854E0,3.2070698E1,1.3017403E1,8.732889E0,5.1874275E0,5.8717422E0,0E0,1.14948845E1,7.2869263E0,4.6947784E0,6.235283E0,2.9571457E0,1.7378235E0,2.7950943E0,0E0,0E0,9.865185E0,7.9839478E0,2.0774536E0,0E0,8.004547E0,8.492403E0,2.6664108E1,4.997168E1,7.343617E0,2.2106094E0,3.295665E1,3.763729E0,1.9457567E0,0E0,1.3981247E0,5.6262646E0,1.4183113E1,0E0,1.7798656E1,8.8540554E-1,5.3911476E0,2.6373296E0,9.44893E0,1.28409E0,1.299794E1,8.914326E0,1.2696884E1,1.4939584E1,9.782616E0,5.594187E0,2.5556925E1,1.0161186E1,1.1647194E1,2.8435168E0,1.1690308E1,5.0471E0,6.3522468E0,5.5021057E0,2.3098927E0,3.8689117E0,3.2538033E0,9.213039E0,5.3848095E0,9.095268E0,3.8164597E0,2.8860874E0,2.2140045E0,5.2546353E0,2.6978683E0,3.6240466E0,1.2907104E0,0E0,3.1880534E0,0E0,6.0537376E0,0E0,1.2975998E0,7.454712E0,5.111372E0,1.0686646E0,0E0,0E0,0E0,0E0,0E0,0E0,0E0,0E0,0E0,0E0,0E0,0E0,0E0,0E0,0E0,0E0,0E0,0E0,0E0,0E0,0E0,0E0,0E0,0E0,0E0,0E0,0E0,0E0,0E0,0E0,0E0,0E0,0E0,0E0,0E0,0E0,0E0,0E0,0E0,0E0,0E0,0E0,0E0,0E0,0E0,0E0,0E0,0E0,0E0,0E0,0E0,0E0,0E0,0E0,0E0,0E0,0E0,0E0,0E0,0E0,0E0,0E0,0E0,0E0,0E0,0E0,0E0,0E0,0E0,0E0,0E0,0E0,0E0,0E0,0E0,0E0,0E0,0E0,0E0,0E0,0E0,0E0,0E0,0E0,0E0,0E0,0E0,0E0,0E0,0E0,0E0,0E0,0E0,0E0,0E0,0E0,0E0,0E0,0E0,0E0,0E0,0E0],"parents":[2147483647,0,0,1,1,2,2,3,3,4,4,5,5,6,6,7,7,8,8,9,9,10,10,11,11,12,12,13,13,14,14,15,15,16,16,17,17,18,18,19,19,20,20,21,21,22,22,23,23,24,24,25,25,26,26,27,27,28,28,29,29,30,30,31,31,32,32,33,33,34,34,35,35,36,36,37,37,38,38,39,39,40,40,41,41,42,42,43,43,44,44,45,45,46,46,47,47,48,48,50,50,51,51,52,52,53,53,54,54,55,55,56,56,59,59,60,60,61,61,63,63,64,64,65,65,66,66,67,67,68,68,69,69,70,70,71,71,73,73,74,74,75,75,77,77,78,78,79,79,80,80,81,81,82,82,83,83,84,84,85,85,86,86,87,87,88,88,89,89,90,90,91,91,92,92,93,93,94,94,95,95,96,96,97,97,98,98,99,99,100,100,101,101,102,102,103,103,104,104,105,105,106,106,107,107,108,108,109,109,111,111,113,113,115,115,116,116,117,117,118,118],"right_children":[2,4,6,8,10,12,14,16,18,20,22,24,26,28,30,32,34,36,38,40,42,44,46,48,50,52,54,56,58,60,62,64,66,68,70,72,74,76,78,80,82,84,86,88,90,92,94,96,98,-1,100,102,104,106,108,110,112,-1,-1,114,116,118,-1,120,122,124,126,128,130,132,134,136,-1,138,140,142,-1,144,146,148,150,152,154,156,158,160,162,164,166,168,170,172,174,176,178,180,182,184,186,188,190,192,194,196,198,200,202,204,206,208,-1,210,-1,212,-1,214,216,218,220,-1,-1,-1,-1,-1,-1,-1,-1,-1,-1,-1,-1,-1,-1,-1,-1,-1,-1,-1,-1,-1,-1,-1,-1,-1,-1,-1,-1,-1,-1,-1,-1,-1,-1,-1,-1,-1,-1,-1,-1,-1,-1,-1,-1,-1,-1,-1,-1,-1,-1,-1,-1,-1,-1,-1,-1,-1,-1,-1,-1,-1,-1,-1,-1,-1,-1,-1,-1,-1,-1,-1,-1,-1,-1,-1,-1,-1,-1,-1,-1,-1,-1,-1,-1,-1,-1,-1,-1,-1,-1,-1,-1,-1,-1,-1,-1,-1,-1,-1,-1,-1,-1],"split_conditions":[3.420526E1,4E0,4.438468E1,1E0,1.029563E1,1E0,-2.6E1,1E0,2E0,-4E0,1E0,4E0,6E1,1E0,2.8E1,5.656854E0,2E0,4.472136E0,1.1401754E1,4E0,8E0,4E0,2.4738634E1,1E0,8.130102E0,4.0792156E1,2.0603151E0,1E0,1.6E1,6E0,1E0,1E0,1E0,5.656854E0,2.5E1,8.7E1,1.0685311E1,9E1,2.8160255E1,1E0,1E0,1E0,3.7405357E1,-4.163354E1,5E0,1E0,3.605551E1,3.88973E1,-8.530766E0,1.673629E-1,-2.8E1,1E0,1E0,1E0,1E0,1E0,6.2433964E1,-5.152849E-3,3.34525E-2,1E0,2.9E1,1.8027756E1,4.825858E-2,-5.5784298E1,2.2315E0,5.8309517E0,2.3100916E1,8.69227E0,4.6097466E1,3E0,6E1,1E0,-6.581354E-2,1.8E1,1.1802434E1,5.755432E0,-7.21521E-2,3E0,3.0413813E1,1E0,1E0,1E0,8.3E1,1E0,6.4031243E0,1.43178215E1,1E0,-4.9085617E1,-1.2E1,-1.6699244E1,4.270939E1,1E0,4.0311287E1,3.306055E1,8E0,4.4777225E1,1.9235384E0,-1.3E1,1.5255118E1,1E0,1.5811388E1,5E0,4E0,1E0,7.662625E-1,1.4E1,3.4E1,1E0,4.58939E0,6.4E1,2.1033084E-2,2.0518284E1,6.1367195E-2,1E0,1.5292223E-1,1E0,-8E0,1E0,1E0,6.32207E-2,1.4710115E-1,-5.231911E-2,8.203103E-2,2.5712756E-2,1.05851114E-1,4.0129676E-2,7.454853E-2,6.611415E-2,-3.6839783E-2,-5.353564E-2,-1.9532239E-2,4.160393E-2,1.2793131E-1,5.166853E-2,-4.0135372E-2,-4.6276585E-3,8.48974E-2,-7.444084E-2,-3.4067964E-3,7.375327E-2,-5.289689E-2,1.4136371E-1,6.2634185E-2,-1.6370786E-2,8.25738E-2,-2.0754004E-2,-7.446235E-2,1.456938E-1,-1.7105537E-2,5.2284617E-2,-5.8157824E-2,9.447122E-4,8.034737E-2,2.756073E-2,1.5846665E-1,5.1848248E-2,9.108168E-3,-5.5072334E-2,1.1625793E-1,5.7121674E-3,3.7742913E-2,1.745576E-2,-5.5112507E-2,3.5043612E-2,1.06705196E-1,-1.3205075E-2,2.8287755E-2,-8.247522E-3,5.333899E-3,-1.6488642E-2,-4.8503187E-2,3.9055094E-2,-5.028314E-3,-5.6483038E-2,1.1830174E-2,1.2459618E-2,6.2833495E-2,2.6872544E-2,-7.812198E-3,1.2330333E-2,7.960988E-2,1.8229444E-2,-3.17813E-2,5.5616166E-2,-5.4815188E-2,2.0573358E-1,1.897471E-2,-4.753052E-2,2.7358681E-2,7.1069866E-4,-1.7572062E-2,-1.8414214E-2,-5.1028363E-2,1.44641E-1,2.9772727E-3,-3.9837576E-2,7.7368086E-3,-4.7388233E-2,6.655715E-2,-2.1642195E-2,-4.723363E-2,4.822924E-2,-4.5979645E-2,-6.153518E-2,5.950869E-4,4.9676064E-2,-5.224737E-2,-6.0739335E-2,-2.4369115E-2,5.1352695E-2,-5.4675482E-2,-1.79687E-2,-3.971263E-2,-7.571171E-2,-2.1678628E-2,-4.702214E-2,-3.613051E-2,-6.3506894E-2,-1.1761324E-4,-6.02259E-2,-4.0079355E-2],"split_indices":[75,76,75,36,75,10,84,35,76,84,12,81,83,11,84,75,76,75,75,81,75,81,75,40,79,75,77,65,76,76,11,34,76,75,75,83,79,83,75,11,13,32,78,78,81,63,82,75,78,0,84,30,45,29,70,17,75,0,0,17,83,82,0,78,77,82,79,77,79,76,83,85,0,84,79,77,0,76,75,30,0,40,83,15,82,82,15,78,84,78,78,45,82,82,76,82,77,84,78,48,82,81,81,54,77,76,76,62,77,76,0,82,0,10,0,28,84,77,27,0,0,0,0,0,0,0,0,0,0,0,0,0,0,0,0,0,0,0,0,0,0,0,0,0,0,0,0,0,0,0,0,0,0,0,0,0,0,0,0,0,0,0,0,0,0,0,0,0,0,0,0,0,0,0,0,0,0,0,0,0,0,0,0,0,0,0,0,0,0,0,0,0,0,0,0,0,0,0,0,0,0,0,0,0,0,0,0,0,0,0,0,0,0,0,0,0,0,0,0,0,0],"split_type":[0,0,0,0,0,0,0,0,0,0,0,0,0,0,0,0,0,0,0,0,0,0,0,0,0,0,0,0,0,0,0,0,0,0,0,0,0,0,0,0,0,0,0,0,0,0,0,0,0,0,0,0,0,0,0,0,0,0,0,0,0,0,0,0,0,0,0,0,0,0,0,0,0,0,0,0,0,0,0,0,0,0,0,0,0,0,0,0,0,0,0,0,0,0,0,0,0,0,0,0,0,0,0,0,0,0,0,0,0,0,0,0,0,0,0,0,0,0,0,0,0,0,0,0,0,0,0,0,0,0,0,0,0,0,0,0,0,0,0,0,0,0,0,0,0,0,0,0,0,0,0,0,0,0,0,0,0,0,0,0,0,0,0,0,0,0,0,0,0,0,0,0,0,0,0,0,0,0,0,0,0,0,0,0,0,0,0,0,0,0,0,0,0,0,0,0,0,0,0,0,0,0,0,0,0,0,0,0,0,0,0,0,0,0,0,0,0,0,0,0,0],"sum_hessian":[1.5035891E4,9.517552E3,5.5183394E3,2.1605413E3,7.3570103E3,2.4610068E3,3.0573325E3,1.9406803E3,2.1986095E2,1.5612853E3,5.795725E3,1.4006276E3,1.0603793E3,3.5409985E2,2.7032327E3,1.6780205E3,2.6265973E2,9.019258E1,1.2966835E2,3.2020255E2,1.2410828E3,4.5920254E3,1.2036997E3,1.1680824E2,1.2838193E3,7.4943933E2,3.1093994E2,3.520756E2,2.024256E0,2.3862021E3,3.1703058E2,8.063814E1,1.5973823E3,1.135938E2,1.4906592E2,7.386639E0,8.280595E1,6.9453804E1,6.0214554E1,1.326567E1,3.069369E2,5.0497037E2,7.3611237E2,2.4627748E2,4.345748E3,6.307449E2,5.729549E2,1.1115269E2,5.6555557E0,1.2207727E0,1.2825986E3,4.6625046E2,2.8318887E2,1.424937E2,1.6844626E2,3.4004718E2,1.2028414E1,1.0016043E0,1.0226517E0,3.7607837E2,2.0101237E3,3.1564212E2,1.388458E0,6.2197292E1,1.844085E1,1.7560638E2,1.421776E3,1.5939562E1,9.765424E1,1.2848561E2,2.0580309E1,5.149938E0,2.2367013E0,4.5212357E1,3.759359E1,6.5765594E1,3.688206E0,4.718628E1,1.3028274E1,9.726331E0,3.5393395E0,3.0323553E2,3.7013628E0,4.7603177E2,2.8938597E1,6.1091583E2,1.2519654E2,5.633443E1,1.8994305E2,3.9061758E3,4.3957205E2,6.144388E2,1.6306095E1,3.4931522E2,2.2363966E2,5.649157E1,5.4661114E1,2.8761377E0,2.779418E0,8.629293E1,1.1963057E3,4.2326044E2,4.2990017E1,2.7824292E2,4.9459386E0,1.2824812E2,1.4245575E1,1.6145302E2,6.9932323E0,3.3879596E2,1.2512091E0,1.0812668E1,1.2157454E0,3.7505896E2,1.0194104E0,5.0539345E1,1.9595844E3,3.1871319E1,2.8377078E2,1.1026355E1,5.1170937E1,2.9615746E0,1.5479275E1,3.358043E1,1.4202596E2,1.056614E3,3.6516196E2,8.547482E0,7.392081E0,8.146901E1,1.6185234E1,8.6066475E1,4.2419132E1,2.4775739E0,1.8102734E1,2.5744176E0,2.5755205E0,4.326252E1,1.9498376E0,1.5355158E0,3.605807E1,2.5161873E1,4.0603725E1,2.9072E1,1.8114279E1,3.6422436E0,9.386029E0,8.444195E0,1.2821361E0,1.8350112E0,1.7043284E0,2.943198E2,8.915726E0,1.121487E0,2.5798757E0,4.245004E2,5.1531372E1,1.5168948E0,2.7421701E1,9.396658E1,5.169492E2,1.04248505E2,2.0948038E1,3.8159584E1,1.8174849E1,2.3143053E1,1.6679999E2,1.3590326E3,2.5471433E3,3.630262E2,7.654584E1,5.7356683E2,4.087193E1,1.0967147E1,5.3389487E0,3.176836E2,3.1631628E1,3.0161036E1,1.9347862E2,4.617728E1,1.031429E1,2.5526525E1,2.9134588E1,1.2722598E0,1.6038779E0,1.4699687E0,1.3094493E0,8.30259E1,3.267029E0,2.1491512E2,9.8139056E2,3.8841797E2,3.484247E1,2.126131E0,4.0863888E1,2.67309E2,1.0933936E1,1.2065232E0,3.7394154E0,3.1145441E1,9.710269E1,9.147694E0,5.0978813E0,1.5686925E2,4.5837746E0,3.1575468E0,3.8356855E0,3.305952E2,8.20077E0,1.3728393E0,9.439829E0,2.518718E2,1.2318716E2,4.647049E1,4.0688562E0,5.960024E2,1.3635819E3,1.7002087E1,1.4869231E1,2.5679025E2,2.6980536E1],"tree_param":{"num_deleted":"0","num_feature":"86","num_nodes":"221","size_leaf_vector":"1"}},{"base_weights":[-2.273731E-3,2.0832697E-1,-3.881317E-1,5.043603E-1,1.1994499E-1,-2.4967675E-1,-4.986042E-1,5.5472076E-1,3.861672E-2,3.3835083E-1,5.292036E-2,-2.1586344E-1,-5.789939E-1,-7.019066E-1,-4.718923E-1,5.862131E-1,-1.5587091E-1,-6.0259956E-1,4.5589536E-1,3.8771632E-1,-3.9197113E-2,-1.0343939E-3,2.4931419E-1,-1.3318913E-1,-3.2976618E-1,4.3262535E-1,-6.013878E-1,-7.083104E-1,2.1704175E-2,-3.6526194E-1,-5.231678E-1,1.0070757E0,5.368706E-1,4.82932E-2,-5.519287E-1,4.0292558E-1,-6.968521E-1,1.4329046E0,2.6324862E-1,5.399562E-1,2.9799014E-1,1.2693734E-1,-5.618314E-1,-4.094195E-2,2.1873896E-1,3.1962472E-1,3.632313E-2,6.520733E-2,-1.6649908E-1,-2.9684043E-1,-6.53242E-1,-3.4119603E-1,1.366673E-1,-5.4671264E-1,-8.878546E-1,-6.027775E-1,-7.835061E-1,1.4792743E0,-3.7250888E-1,-9.5118684E-1,-5.0994855E-1,1.0838755E0,-6.8052363E-1,3.7044948E-1,6.5628684E-1,-7.386839E-2,8.879849E-1,-6.812894E-1,-1.1358101E-1,8.9298636E-1,-6.1855745E-2,-7.2209924E-1,2.9276598E-2,1.6125927E0,-3.0596392E-2,4.0067238E-1,-7.048825E-1,7.16828E-3,5.9264064E-1,2.6397824E-1,7.3939353E-1,-3.8744086E-1,2.3121929E-1,-6.2779665E-1,7.174677E-2,3.0841243E-2,-1.6389082E-1,5.792503E-1,1.4816913E-1,7.672498E-1,2.9445592E-1,9.476141E-2,-6.238389E-1,-6.355421E-3,1.05442E0,-7.961191E-2,-2.5917163E-1,8.060289E-2,-3.166346E-1,-7.231564E-1,-8.608956E-2,-5.9040226E-2,3.5446636E-2,-4.2208365E-1,-6.8240815E-1,-9.623892E-1,-3.94634E-1,2.9378346E-1,-6.51079E-1,-8.177557E-1,-9.577485E-2,1.5748163E-1,2.403933E-2,-3.7780574E-1,9.908823E-2,-9.878153E-1,1.7547768E-2,-5.1630145E-1,4.1205806E-1,6.38228E-2,1.20009266E-1,-6.776724E-2,9.385294E-3,3.9858587E-2,-3.3856638E-2,4.2630818E-2,8.5252576E-2,-2.3371687E-2,3.5027824E-2,-2.2574527E-2,9.803364E-2,2.9818498E-2,-6.0117763E-2,-5.768395E-2,5.9791837E-2,-2.8219214E-2,1.0888881E-1,-5.9899364E-2,2.5174217E-3,7.350431E-2,-5.4086685E-2,5.932808E-2,1.4981279E-1,8.336343E-3,7.3627196E-2,-6.657017E-2,-2.2460798E-2,6.258135E-2,-1.8583914E-2,5.6571025E-2,3.020429E-2,2.4367819E-2,-7.0470856E-3,7.8652196E-2,-2.2864904E-2,-4.3928433E-2,1.30572E-1,-1.0280373E-2,3.1278007E-2,-5.4250162E-2,5.0474253E-2,-9.796903E-3,7.895308E-3,-9.687302E-3,-5.0097883E-2,5.462248E-2,-8.072967E-3,1.5276391E-2,-2.4200732E-2,1.1874142E-1,4.4785812E-2,7.676634E-3,2.9492697E-2,-6.4856587E-3,1.9459002E-2,-5.7174444E-2,2.769551E-2,2.4750765E-2,-2.0183064E-2,1.0511737E-1,-5.0023403E-2,-7.875323E-3,3.065615E-2,-1.6253734E-2,-4.1194633E-2,-1.8976508E-4,1.1399594E-1,-2.6222507E-2,2.2615857E-2,-6.1318602E-2,-1.5304086E-2,6.0716208E-2,-4.1615535E-2,-3.68283E-2,7.6051615E-2,-5.746861E-2,2.7912986E-2,-7.965704E-2,-3.637438E-3,3.3498164E-2,-6.566292E-2,-3.676774E-2,9.152853E-2,-5.4151926E-2,1.9006604E-2,-6.726004E-2,-2.0726305E-2,3.3934865E-2,-3.6291428E-2,-3.069621E-2,5.5538792E-2,-8.048308E-2,-1.4848089E-2,-4.8368495E-2,-3.5906076E-2,7.970219E-3,1.20930724E-1],"categories":[],"categories_nodes":[],"categories_segments":[],"categories_sizes":[],"default_left":[0,0,0,0,0,0,0,0,0,0,0,0,0,0,0,0,0,0,0,0,0,0,0,0,0,0,0,0,0,0,0,0,0,0,0,0,0,0,0,0,0,0,0,0,0,0,0,0,0,0,0,0,0,0,0,0,1,0,0,0,0,0,0,0,1,0,0,0,0,0,0,0,0,0,0,0,0,0,0,0,0,1,0,0,0,0,0,0,0,0,0,0,0,0,0,0,0,0,0,0,0,0,0,0,1,0,0,0,0,0,0,0,0,0,0,0,0,0,0,0,0,0,0,0,0,0,0,0,0,0,0,0,0,0,0,0,0,0,0,0,0,0,0,0,0,0,0,0,0,0,0,0,0,0,0,0,0,0,0,0,0,0,0,0,0,0,0,0,0,0,0,0,0,0,0,0,0,0,0,0,0,0,0,0,0,0,0,0,0,0,0,0,0,0,0,0,0,0,0,0,0,0,0,0,0,0,0,0,0,0,0,0,0,0,0,0,0],"id":7,"left_children":[1,3,5,7,9,11,13,15,17,19,21,23,25,27,29,31,33,35,37,39,41,43,45,47,49,51,53,55,-1,57,59,61,63,65,67,69,71,73,75,77,79,81,83,85,87,89,91,93,95,97,99,101,-1,103,105,107,109,111,113,115,117,119,121,123,125,127,129,131,133,135,-1,137,139,141,-1,143,145,147,149,151,153,155,157,159,-1,161,163,165,167,169,171,173,175,177,179,181,183,185,187,189,191,-1,-1,193,195,197,199,201,203,205,207,-1,-1,209,-1,211,-1,213,215,-1,-1,-1,-1,-1,-1,-1,-1,-1,-1,-1,-1,-1,-1,-1,-1,-1,-1,-1,-1,-1,-1,-1,-1,-1,-1,-1,-1,-1,-1,-1,-1,-1,-1,-1,-1,-1,-1,-1,-1,-1,-1,-1,-1,-1,-1,-1,-1,-1,-1,-1,-1,-1,-1,-1,-1,-1,-1,-1,-1,-1,-1,-1,-1,-1,-1,-1,-1,-1,-1,-1,-1,-1,-1,-1,-1,-1,-1,-1,-1,-1,-1,-1,-1,-1,-1,-1,-1,-1,-1,-1,-1,-1,-1,-1,-1,-1,-1],"loss_changes":[1.2200698E3,2.5406561E2,8.0960266E1,5.2348694E1,1.09493576E2,2.6094849E1,1.5675903E1,4.517993E1,5.8857174E1,3.275264E1,6.067003E1,2.0079803E1,5.2137604E0,2.3126984E0,1.4069946E1,3.952899E1,7.0045457E0,8.501732E0,2.4693872E1,2.1059555E1,1.7785782E1,3.9411472E1,1.8467567E1,8.2049465E0,9.371231E0,5.8319187E0,2.8718033E0,2.2124023E0,0E0,1.1917099E1,9.467621E0,2.6832901E1,3.412207E1,6.000922E0,1.5916481E0,5.3404236E0,1.4818039E0,7.699787E0,1.5248399E1,1.6131119E1,1.4512291E1,8.437324E0,5.3158503E0,3.356895E1,1.7483128E1,