{"learner":{"attributes":{"scikit_learn":"{\"_estimator_type\": \"classifier\"}"},"feature_names":["lastEventType_faceoff","lastEventType_hit","lastEventType_giveaway","lastEventType_goal","lastEventType_shot-on-goal","lastEventType_missed-shot","lastEventType_blocked-shot","lastEventType_takeaway","lastEventType_failed-shot-attempt","lastEventType_missing","shotType_wrist","shotType_tip-in","shotType_snap","shotType_slap","shotType_poke","shotType_backhand","shotType_bat","shotType_deflected","shotType_wrap-around","shotType_between-legs","shotType_cradle","shotType_missing","season_20102011","season_20112012","season_20122013","season_20132014","season_20142015","season_20152016","season_20162017","season_20172018","season_20182019","season_20192020","season_20202021","season_20212022","season_20222023","season_20232024","season_20242025","gameType_REG","gameType_POST","homeVenue_10","homeVenue_5","homeVenue_30","homeVenue_21","homeVenue_22","homeVenue_29","homeVenue_1","homeVenue_12","homeVenue_17","homeVenue_9","homeVenue_11","homeVenue_6","homeVenue_7","homeVenue_2","homeVenue_15","homeVenue_14","homeVenue_19","homeVenue_18","homeVenue_16","homeVenue_28","homeVenue_23","homeVenue_27","homeVenue_20","homeVenue_4","homeVenue_26","homeVenue_8","homeVenue_24","homeVenue_25","homeVenue_3","homeVenue_13","homeVenue_52","homeVenue_53","homeVenue_54","homeVenue_55","homeVenue_59","homeVenue_neutral","shotDistance","timeSinceLastEvent","speedFromLastEvent","shotAngle","angleChangeSpeed","manAdvantage","defendingSkaters","distFromLastEvent","xStd","yStd","home"],"feature_types":["float","float","float","float","float","float","float","float","float","float","float","float","float","float","float","float","float","float","float","float","float","float","float","float","float","float","float","float","float","float","float","float","float","float","float","float","float","float","float","float","float","float","float","float","float","float","float","float","float","float","float","float","float","float","float","float","float","float","float","float","float","float","float","float","float","float","float","float","float","float","float","float","float","float","float","float","float","float","float","float","float","float","float","float","float","float"],"gradient_booster":{"model":{"gbtree_model_param":{"num_parallel_tree":"1","num_trees":"100"},"iteration_indptr":[0,1,2,3,4,5,6,7,8,9,10,11,12,13,14,15,16,17,18,19,20,21,22,23,24,25,26,27,28,29,30,31,32,33,34,35,36,37,38,39,40,41,42,43,44,45,46,47,48,49,50,51,52,53,54,55,56,57,58,59,60,61,62,63,64,65,66,67,68,69,70,71,72,73,74,75,76,77,78,79,80,81,82,83,84,85,86,87,88,89,90,91,92,93,94,95,96,97,98,99,100],"tree_info":[0,0,0,0,0,0,0,0,0,0,0,0,0,0,0,0,0,0,0,0,0,0,0,0,0,0,0,0,0,0,0,0,0,0,0,0,0,0,0,0,0,0,0,0,0,0,0,0,0,0,0,0,0,0,0,0,0,0,0,0,0,0,0,0,0,0,0,0,0,0,0,0,0,0,0,0,0,0,0,0,0,0,0,0,0,0,0,0,0,0,0,0,0,0,0,0,0,0,0,0],"trees":[{"base_weights":[8.3255125E-3,7.8292435E-1,-6.2199324E-1,1.5441027E0,3.8682663E-1,-2.5800425E-1,-8.901363E-1,1.7702546E0,3.397955E-1,8.906715E-1,1.4247076E-1,-3.9286253E-1,2.6695415E-1,-7.561421E-1,-9.805531E-1,6.705465E-2,2.1262248E-1,1.7310919E-1,1.5429178E-2,1.5212452E-1,6.833309E-2,-1.8187426E-3,9.739368E-2,-2.9583627E-2,-9.16405E-2,-7.0920706E-2,4.4228923E-2,-7.783079E-2,1.752403E-3,-7.939498E-2,-1.0132189E-1],"categories":[],"categories_nodes":[],"categories_segments":[],"categories_sizes":[],"default_left":[0,0,0,0,0,0,0,0,0,0,0,0,0,0,0,0,0,0,0,0,0,0,0,0,0,0,0,0,0,0,0],"id":0,"left_children":[1,3,5,7,9,11,13,15,17,19,21,23,25,27,29,-1,-1,-1,-1,-1,-1,-1,-1,-1,-1,-1,-1,-1,-1,-1,-1],"loss_changes":[8.447728E2,2.3344714E2,9.287836E1,7.166974E1,6.2897987E1,2.8852514E1,5.9086E0,8.593561E1,1.0879736E1,2.079393E1,4.6225555E1,1.6160736E1,1.4620685E1,3.881134E0,1.17276E0,0E0,0E0,0E0,0E0,0E0,0E0,0E0,0E0,0E0,0E0,0E0,0E0,0E0,0E0,0E0,0E0],"parents":[2147483647,0,0,1,1,2,2,3,3,4,4,5,5,6,6,7,7,8,8,9,9,10,10,11,11,12,12,13,13,14,14],"right_children":[2,4,6,8,10,12,14,16,18,20,22,24,26,28,30,-1,-1,-1,-1,-1,-1,-1,-1,-1,-1,-1,-1,-1,-1,-1,-1],"split_conditions":[2.6019224E1,6E0,3.8327538E1,8E0,1.2206555E1,1E0,4.7801674E1,-6E0,2.6995838E1,8.062258E0,1E0,7E1,-2E1,1E0,-2.6003345E1,6.705465E-2,2.1262248E-1,1.7310919E-1,1.5429178E-2,1.5212452E-1,6.833309E-2,-1.8187426E-3,9.739368E-2,-2.9583627E-2,-9.16405E-2,-7.0920706E-2,4.4228923E-2,-7.783079E-2,1.752403E-3,-7.939498E-2,-1.0132189E-1],"split_indices":[75,76,75,84,75,12,75,84,78,75,12,83,84,63,78,0,0,0,0,0,0,0,0,0,0,0,0,0,0,0,0],"split_type":[0,0,0,0,0,0,0,0,0,0,0,0,0,0,0,0,0,0,0,0,0,0,0,0,0,0,0,0,0,0,0],"sum_hessian":[1.7282289E3,7.752643E2,9.529646E2,2.6435562E2,5.1090866E2,4.0506888E2,5.478957E2,2.2216602E2,4.2189594E1,1.659945E2,3.4491415E2,3.224781E2,8.2590805E1,2.2452344E2,3.2337228E2,5.503344E1,1.6713257E2,3.983218E0,3.8206375E1,3.950702E1,1.26487495E2,2.898807E2,5.503344E1,2.733788E2,4.909926E1,1.2112234E1,7.047857E1,2.1826408E2,6.2593427E0,5.1944416E1,2.7142786E2],"tree_param":{"num_deleted":"0","num_feature":"86","num_nodes":"31","size_leaf_vector":"1"}},{"base_weights":[-6.613062E-3,6.816122E-1,-5.68813E-1,1.2738609E0,3.3259115E-1,-1.0198617E-1,-8.043255E-1,8.913378E-1,1.6604764E0,5.133188E-1,-2.1819109E-1,4.7823496E-2,-7.3491603E-1,-5.7211E-1,-8.915732E-1,1.4343143E-1,6.3097894E-2,1.8173926E-1,6.516222E-3,-2.8916797E-2,7.226623E-2,-1.8102741E-3,-8.081933E-2,-1.1152889E-2,5.849688E-2,-2.8162038E-2,-8.594739E-2,-2.3299139E-2,-6.766761E-2,-8.31109E-2,-1.0701426E-1],"categories":[],"categories_nodes":[],"categories_segments":[],"categories_sizes":[],"default_left":[0,0,0,0,0,0,0,0,0,0,0,0,0,0,0,0,0,0,0,0,0,0,0,0,0,0,0,0,0,0,0],"id":1,"left_children":[1,3,5,7,9,11,13,15,17,19,21,23,25,27,29,-1,-1,-1,-1,-1,-1,-1,-1,-1,-1,-1,-1,-1,-1,-1,-1],"loss_changes":[6.721384E2,1.6102286E2,1.0503598E2,4.1297577E1,4.9164547E1,3.054346E1,1.2362396E1,1.9954727E1,3.5603455E1,6.2591553E1,1.4440863E1,2.241516E1,3.23835E0,6.094387E0,4.077759E0,0E0,0E0,0E0,0E0,0E0,0E0,0E0,0E0,0E0,0E0,0E0,0E0,0E0,0E0,0E0,0E0],"parents":[2147483647,0,0,1,1,2,2,3,3,4,4,5,5,6,6,7,7,8,8,9,9,10,10,11,11,12,12,13,13,14,14],"right_children":[2,4,6,8,10,12,14,16,18,20,22,24,26,28,30,-1,-1,-1,-1,-1,-1,-1,-1,-1,-1,-1,-1,-1,-1,-1,-1],"split_conditions":[2.4596748E1,6E0,3.4058773E1,2.2455511E1,6E0,7E1,4.0311287E1,9.848858E0,1E1,-4.251045E1,5.7994617E1,1E0,2.5806976E1,5.5E1,6.8154236E1,1.4343143E-1,6.3097894E-2,1.8173926E-1,6.516222E-3,-2.8916797E-2,7.226623E-2,-1.8102741E-3,-8.081933E-2,-1.1152889E-2,5.849688E-2,-2.8162038E-2,-8.594739E-2,-2.3299139E-2,-6.766761E-2,-8.31109E-2,-1.0701426E-1],"split_indices":[75,76,75,77,84,83,75,75,84,78,78,12,75,83,75,0,0,0,0,0,0,0,0,0,0,0,0,0,0,0,0],"split_type":[0,0,0,0,0,0,0,0,0,0,0,0,0,0,0,0,0,0,0,0,0,0,0,0,0,0,0,0,0,0,0],"sum_hessian":[1.735148E3,7.800392E2,9.5510876E2,2.882545E2,4.9178467E2,3.2075314E2,6.343556E2,1.4655565E2,1.4169885E2,3.7033505E2,1.2144964E2,2.6011124E2,6.0641907E1,1.7531102E2,4.590446E2,4.6036945E1,1.0051871E2,1.2888266E2,1.2816187E1,7.6541916E1,2.9379312E2,9.14625E1,2.9987133E1,2.0121121E2,5.8900024E1,1.3774434E1,4.6867474E1,4.20775E1,1.3323352E2,3.4715195E2,1.11892624E2],"tree_param":{"num_deleted":"0","num_feature":"86","num_nodes":"31","size_leaf_vector":"1"}},{"base_weights":[-9.343246E-3,4.1238394E-1,-7.212244E-1,7.6050544E-1,9.02666E-2,-4.567172E-1,-8.5750383E-1,5.3818804E-1,1.264178E0,2.593647E-1,-3.890498E-1,-8.5826105E-1,-3.2953194E-1,-7.911139E-1,-1.0592457E-1,9.9772565E-2,2.8507927E-2,-3.887007E-2,1.3466613E-1,9.169471E-3,5.9063215E-2,-8.78384E-4,-6.37044E-2,-4.8892368E-2,-1.0274803E-1,-4.1687023E-2,2.2994613E-2,-6.961533E-2,-8.990052E-2],"categories":[],"categories_nodes":[],"categories_segments":[],"categories_sizes":[],"default_left":[0,0,0,0,0,0,0,0,0,0,0,0,0,0,0,0,0,0,0,0,0,0,0,0,0,0,0,0,0],"id":2,"left_children":[1,3,5,7,9,11,13,15,17,19,21,23,25,27,-1,-1,-1,-1,-1,-1,-1,-1,-1,-1,-1,-1,-1,-1,-1],"loss_changes":[5.193141E2,1.217422E2,2.2804962E1,5.776306E1,4.59231E1,1.1001331E1,4.835022E0,4.203531E1,2.2212692E1,2.3191494E1,1.3935808E1,2.7805061E0,8.374664E0,2.6796722E0,0E0,0E0,0E0,0E0,0E0,0E0,0E0,0E0,0E0,0E0,0E0,0E0,0E0,0E0,0E0],"parents":[2147483647,0,0,1,1,2,2,3,3,4,4,5,5,6,6,7,7,8,8,9,9,10,10,11,11,12,12,13,13],"right_children":[2,4,6,8,10,12,14,16,18,20,22,24,26,28,-1,-1,-1,-1,-1,-1,-1,-1,-1,-1,-1,-1,-1,-1,-1],"split_conditions":[3.2526913E1,1.6643316E1,4.0311287E1,1.8922539E1,7.3E1,-3.2347443E1,6.8154236E1,9.848858E0,-6.138954E1,1.5964467E1,1.9235384E1,3.4828148E1,1E0,1.4036243E1,-1.0592457E-1,9.9772565E-2,2.8507927E-2,-3.887007E-2,1.3466613E-1,9.169471E-3,5.9063215E-2,-8.78384E-4,-6.37044E-2,-4.8892368E-2,-1.0274803E-1,-4.1687023E-2,2.2994613E-2,-6.961533E-2,-8.990052E-2],"split_indices":[75,75,75,77,83,78,75,75,78,77,75,75,7,78,0,0,0,0,0,0,0,0,0,0,0,0,0,0,0],"split_type":[0,0,0,0,0,0,0,0,0,0,0,0,0,0,0,0,0,0,0,0,0,0,0,0,0,0,0,0,0],"sum_hessian":[1.7277898E3,1.0852783E3,6.4251154E2,5.209316E2,5.6434674E2,2.1995267E2,4.2255884E2,3.628436E2,1.5808795E2,4.1751166E2,1.4683508E2,5.1526695E1,1.6842598E2,3.2163538E2,1.0092346E2,1.2782536E2,2.3501823E2,7.337603E0,1.5075035E2,2.780529E2,1.3945877E2,5.836918E1,8.846591E1,1.7412188E1,3.4114506E1,1.4590424E2,2.2521738E1,1.750326E2,1.466028E2],"tree_param":{"num_deleted":"0","num_feature":"86","num_nodes":"29","size_leaf_vector":"1"}},{"base_weights":[3.8650096E-4,4.495269E-1,-5.9693575E-1,8.031101E-1,2.3330386E-1,-1.6316243E-1,-7.5189143E-1,8.8921815E-1,-2.4268475E-1,5.9259504E-1,5.82254E-2,-3.2735756E-1,3.8617873E-1,-5.948702E-1,-9.372004E-1,-1.5976503E-4,9.986223E-2,-8.591636E-2,1.5215364E-3,-4.0168058E-2,6.653245E-2,1.5823163E-2,-6.992274E-2,-3.922563E-3,-4.8246294E-2,1.404915E-1,1.2564868E-2,-3.751897E-2,-7.1776114E-2,-9.502459E-2,-3.5231676E-2],"categories":[],"categories_nodes":[],"categories_segments":[],"categories_sizes":[],"default_left":[0,0,0,0,0,0,0,0,0,0,0,0,0,0,0,0,0,0,0,0,0,0,0,0,0,0,0,0,0,0,0],"id":3,"left_children":[1,3,5,7,9,11,13,15,17,19,21,23,25,27,29,-1,-1,-1,-1,-1,-1,-1,-1,-1,-1,-1,-1,-1,-1,-1,-1],"loss_changes":[4.6354688E2,7.521434E1,4.972345E1,3.3880646E1,3.855154E1,1.7847422E1,1.5333221E1,3.3684967E1,4.6595616E0,1.4792496E1,3.1436615E1,6.765005E0,1.1944367E1,7.7854843E0,1.5632782E0,0E0,0E0,0E0,0E0,0E0,0E0,0E0,0E0,0E0,0E0,0E0,0E0,0E0,0E0,0E0,0E0],"parents":[2147483647,0,0,1,1,2,2,3,3,4,4,5,5,6,6,7,7,8,8,9,9,10,10,11,11,12,12,13,13,14,14],"right_children":[2,4,6,8,10,12,14,16,18,20,22,24,26,28,30,-1,-1,-1,-1,-1,-1,-1,-1,-1,-1,-1,-1,-1,-1,-1,-1],"split_conditions":[2.8600698E1,6E0,3.4539833E1,1.2E1,1.2529964E1,1E0,4.8466484E1,-1E1,2.9068884E1,-7E0,8E1,1.006479E2,5.9E1,1E0,1.3410443E2,-1.5976503E-4,9.986223E-2,-8.591636E-2,1.5215364E-3,-4.0168058E-2,6.653245E-2,1.5823163E-2,-6.992274E-2,-3.922563E-3,-4.8246294E-2,1.404915E-1,1.2564868E-2,-3.751897E-2,-7.1776114E-2,-9.502459E-2,-3.5231676E-2],"split_indices":[75,76,75,84,75,12,75,84,82,84,83,82,83,10,82,0,0,0,0,0,0,0,0,0,0,0,0,0,0,0,0],"split_type":[0,0,0,0,0,0,0,0,0,0,0,0,0,0,0,0,0,0,0,0,0,0,0,0,0,0,0,0,0,0,0],"sum_hessian":[1.7258369E3,9.852512E2,7.405857E2,3.7284097E2,6.124102E2,1.954653E2,5.451204E2,3.4461594E2,2.8225042E1,1.99866E2,4.1254422E2,1.5079698E2,4.4668324E1,2.9736166E2,2.4775874E2,3.7801907E1,3.0681403E2,7.637395E0,2.0587646E1,1.331502E1,1.8655098E2,3.6512762E2,4.741658E1,5.3207954E1,9.758902E1,8.202402E0,3.646592E1,1.0812668E2,1.89235E2,2.4174214E2,6.0165954E0],"tree_param":{"num_deleted":"0","num_feature":"86","num_nodes":"31","size_leaf_vector":"1"}},{"base_weights":[-2.4377704E-3,3.150294E-1,-7.0592606E-1,5.5997586E-1,5.825573E-2,-4.2171723E-1,-8.3193964E-1,3.5171938E-1,1.0093654E0,1.8369094E-1,-3.9954484E-1,-1.6062161E-1,-6.689736E-1,-7.6542616E-1,-1.0413011E-1,4.9253818E-2,-1.1480923E-2,1.0801744E-1,-4.2006403E-2,2.421642E-2,-5.0018467E-2,-4.3920726E-2,1.68932E-1,4.683401E-3,-5.5446453E-2,-3.4390442E-2,-8.16979E-2,-7.822805E-2,-1.29172355E-2],"categories":[],"categories_nodes":[],"categories_segments":[],"categories_sizes":[],"default_left":[0,0,0,0,0,0,0,0,0,0,1,0,0,0,0,0,0,0,0,0,0,0,0,0,0,0,0,0,0],"id":4,"left_children":[1,3,5,7,9,11,13,15,17,19,21,23,25,27,-1,-1,-1,-1,-1,-1,-1,-1,-1,-1,-1,-1,-1,-1,-1],"loss_changes":[3.852208E2,7.4720215E1,1.885791E1,5.6560883E1,3.3457977E1,1.0659763E1,4.363159E0,2.7458591E1,1.9892166E1,1.8396572E1,1.1126982E1,6.761566E0,3.825241E0,2.9550934E0,0E0,0E0,0E0,0E0,0E0,0E0,0E0,0E0,0E0,0E0,0E0,0E0,0E0,0E0,0E0],"parents":[2147483647,0,0,1,1,2,2,3,3,4,4,5,5,6,6,7,7,8,8,9,9,10,10,11,11,12,12,13,13],"right_children":[2,4,6,8,10,12,14,16,18,20,22,24,26,28,-1,-1,-1,-1,-1,-1,-1,-1,-1,-1,-1,-1,-1,-1,-1],"split_conditions":[3.361547E1,1.720465E1,4.0311287E1,1.8922539E1,7.3E1,5.8E1,6.8154236E1,5E0,1E0,1E0,3.6589294E1,1.6E1,3.5E1,1.468741E2,-1.0413011E-1,4.9253818E-2,-1.1480923E-2,1.0801744E-1,-4.2006403E-2,2.421642E-2,-5.0018467E-2,-4.3920726E-2,1.68932E-1,4.683401E-3,-5.5446453E-2,-3.4390442E-2,-8.16979E-2,-7.822805E-2,-1.29172355E-2],"split_indices":[75,75,75,77,83,83,75,84,36,15,79,76,75,82,0,0,0,0,0,0,0,0,0,0,0,0,0,0,0],"split_type":[0,0,0,0,0,0,0,0,0,0,0,0,0,0,0,0,0,0,0,0,0,0,0,0,0,0,0,0,0],"sum_hessian":[1.7228647E3,1.1875187E3,5.353461E2,6.071519E2,5.803667E2,1.6578474E2,3.695614E2,4.1610358E2,1.9104837E2,4.560185E2,1.24348175E2,8.143809E1,8.434666E1,2.8399356E2,8.556785E1,3.195835E2,9.652007E1,1.8226399E2,8.784381E0,4.206939E2,3.532459E1,1.2280613E2,1.542047E0,5.3918015E1,2.7520073E1,2.7428373E1,5.6918278E1,2.7644116E2,7.55239E0],"tree_param":{"num_deleted":"0","num_feature":"86","num_nodes":"29","size_leaf_vector":"1"}},{"base_weights":[-1.897026E-2,2.5398833E-1,-6.719147E-1,4.6037033E-1,-7.2762193E-3,-3.982248E-1,-7.9875374E-1,5.621756E-1,-3.29963E-2,1.2491471E-1,-4.6754396E-1,-5.164005E-1,3.96138E-2,-7.26632E-1,-1.032764E0,7.3995874E-3,6.6014916E-2,1.3089088E-2,-5.551244E-2,-8.896404E-3,3.0794686E-2,-5.0128054E-2,1.2893994E-1,-3.0706925E-2,-7.259854E-2,3.930883E-2,-4.3820698E-2,-7.470571E-2,-4.6572047E-3,-1.0449177E-1,-4.818146E-2],"categories":[],"categories_nodes":[],"categories_segments":[],"categories_sizes":[],"default_left":[0,0,0,0,0,0,0,0,0,0,1,0,0,0,0,0,0,0,0,0,0,0,0,0,0,0,0,0,0,0,0],"id":5,"left_children":[1,3,5,7,9,11,13,15,17,19,21,23,25,27,29,-1,-1,-1,-1,-1,-1,-1,-1,-1,-1,-1,-1,-1,-1,-1,-1],"loss_changes":[3.0780762E2,6.567642E1,1.7356232E1,3.419664E1,3.2822334E1,8.466061E0,5.1043854E0,2.6932678E1,1.0113444E1,1.6435173E1,7.7805786E0,5.4193077E0,6.1885295E0,3.6954803E0,2.7908325E-2,0E0,0E0,0E0,0E0,0E0,0E0,0E0,0E0,0E0,0E0,0E0,0E0,0E0,0E0,0E0,0E0],"parents":[2147483647,0,0,1,1,2,2,3,3,4,4,5,5,6,6,7,7,8,8,9,9,10,10,11,11,12,12,13,13,14,14],"right_children":[2,4,6,8,10,12,14,16,18,20,22,24,26,28,30,-1,-1,-1,-1,-1,-1,-1,-1,-1,-1,-1,-1,-1,-1,-1,-1],"split_conditions":[3.361547E1,1.8439089E1,4.0311287E1,6E0,7.2E1,1E0,6.8154236E1,-4.383086E1,1E0,9.375E0,2.4730425E1,5.8E1,1.2322337E2,1E0,1E0,7.3995874E-3,6.6014916E-2,1.3089088E-2,-5.551244E-2,-8.896404E-3,3.0794686E-2,-5.0128054E-2,1.2893994E-1,-3.0706925E-2,-7.259854E-2,3.930883E-2,-4.3820698E-2,-7.470571E-2,-4.6572047E-3,-1.0449177E-1,-4.818146E-2],"split_indices":[75,75,75,84,83,12,75,78,15,77,79,83,82,52,70,0,0,0,0,0,0,0,0,0,0,0,0,0,0,0,0],"split_type":[0,0,0,0,0,0,0,0,0,0,0,0,0,0,0,0,0,0,0,0,0,0,0,0,0,0,0,0,0,0,0],"sum_hessian":[1.7250983E3,1.2169658E3,5.0813254E2,6.7946814E2,5.374977E2,1.6222574E2,3.459068E2,5.6312823E2,1.1633986E2,4.181358E2,1.1936185E2,1.2760486E2,3.4620876E1,2.675525E2,7.835432E1,9.441842E1,4.6870984E2,8.911689E1,2.7222971E1,1.9305684E2,2.2507898E2,1.17814285E2,1.547565E0,6.5074356E1,6.25305E1,2.0001686E1,1.4619191E1,2.596554E2,7.8970885E0,7.578593E1,2.568385E0],"tree_param":{"num_deleted":"0","num_feature":"86","num_nodes":"31","size_leaf_vector":"1"}},{"base_weights":[-1.1672789E-2,2.2605798E-1,-6.535574E-1,-3.692414E-1,3.0011097E-1,-4.9939573E-1,-8.62851E-1,-4.133415E-1,8.554208E-1,4.3227965E-1,-1.3882491E-1,-2.6112935E-1,-6.4087296E-1,-7.5369394E-1,-1.0384486E-1,-7.8278415E-2,-2.8923323E-2,-3.195041E-2,1.5335451E-1,3.589361E-2,9.8036274E-2,2.0832827E-3,-5.1332593E-2,3.331197E-2,-3.645537E-2,5.0166894E-2,-6.547815E-2,-5.8828223E-2,-9.4913855E-2],"categories":[],"categories_nodes":[],"categories_segments":[],"categories_sizes":[],"default_left":[0,0,0,0,0,0,0,0,0,0,0,0,0,0,0,0,0,0,0,0,0,0,0,0,0,0,0,0,0],"id":6,"left_children":[1,3,5,7,9,11,13,15,17,19,21,23,25,27,-1,-1,-1,-1,-1,-1,-1,-1,-1,-1,-1,-1,-1,-1,-1],"loss_changes":[2.6268524E2,5.549019E1,1.4580246E1,7.8838882E0,6.490773E1,8.943672E0,2.973465E0,5.975292E0,4.610858E0,3.419284E1,1.5523485E1,6.4139457E0,3.0124664E0,3.4662323E0,0E0,0E0,0E0,0E0,0E0,0E0,0E0,0E0,0E0,0E0,0E0,0E0,0E0,0E0,0E0],"parents":[2147483647,0,0,1,1,2,2,3,3,4,4,5,5,6,6,7,7,8,8,9,9,10,10,11,11,12,12,13,13],"right_children":[2,4,6,8,10,12,14,16,18,20,22,24,26,28,-1,-1,-1,-1,-1,-1,-1,-1,-1,-1,-1,-1,-1,-1,-1],"split_conditions":[3.4058773E1,-1.3E1,4.8466484E1,1E0,8E0,1E0,6.8154236E1,-5.9858616E1,-4.704541E1,1E0,4.976364E1,3.9357338E1,4.3E1,1.3570435E1,-1.0384486E-1,-7.8278415E-2,-2.8923323E-2,-3.195041E-2,1.5335451E-1,3.589361E-2,9.8036274E-2,2.0832827E-3,-5.1332593E-2,3.331197E-2,-3.645537E-2,5.0166894E-2,-6.547815E-2,-5.8828223E-2,-9.4913855E-2],"split_indices":[75,84,75,40,84,10,75,78,78,12,78,82,83,78,0,0,0,0,0,0,0,0,0,0,0,0,0,0,0],"split_type":[0,0,0,0,0,0,0,0,0,0,0,0,0,0,0,0,0,0,0,0,0,0,0,0,0,0,0,0,0],"sum_hessian":[1.7194774E3,1.2552327E3,4.642448E2,1.3843013E2,1.1168025E3,2.6928253E2,1.9496227E2,1.3425798E2,4.172149E0,8.5835657E2,2.5844595E2,1.0138406E2,1.6789848E2,1.2348943E2,7.147283E1,3.242593E1,1.0183205E2,1.72033E0,2.4518194E0,7.585091E2,9.9847496E1,1.8185968E2,7.658627E1,1.4700125E1,8.6683945E1,1.5975362E0,1.6630095E2,6.9055374E1,5.443406E1],"tree_param":{"num_deleted":"0","num_feature":"86","num_nodes":"29","size_leaf_vector":"1"}},{"base_weights":[-1.3105889E-2,2.1628281E-1,-5.8930635E-1,-3.2985306E-1,2.840496E-1,-4.3216157E-1,-8.499626E-1,-4.8645726E-1,1.1924688E-1,4.1524434E-1,-6.6512346E-2,-1.525378E-1,-5.2552664E-1,-7.401667E-1,-1.031955E-1,-5.4166704E-2,6.0778905E-2,-5.036818E-2,5.428779E-2,6.9172494E-2,2.7761748E-2,-1.0290632E-2,8.78591E-2,-3.164729E-2,3.594492E-2,-3.782966E-2,-6.588864E-2,-5.622391E-2,-9.555652E-2],"categories":[],"categories_nodes":[],"categories_segments":[],"categories_sizes":[],"default_left":[0,0,0,0,0,0,0,1,0,0,0,0,0,0,0,0,0,0,0,0,0,0,0,0,0,0,0,0,0],"id":7,"left_children":[1,3,5,7,9,11,13,15,17,19,21,23,25,27,-1,-1,-1,-1,-1,-1,-1,-1,-1,-1,-1,-1,-1,-1,-1],"loss_changes":[2.2702391E2,4.5562992E1,1.9665726E1,9.628707E0,5.0319336E1,7.9388695E0,2.8912811E0,6.436634E0,9.77004E0,3.0090729E1,1.0362721E1,6.685329E0,4.2640114E0,3.97081E0,0E0,0E0,0E0,0E0,0E0,0E0,0E0,0E0,0E0,0E0,0E0,0E0,0E0,0E0,0E0],"parents":[2147483647,0,0,1,1,2,2,3,3,4,4,5,5,6,6,7,7,8,8,9,9,10,10,11,11,12,12,13,13],"right_children":[2,4,6,8,10,12,14,16,18,20,22,24,26,28,-1,-1,-1,-1,-1,-1,-1,-1,-1,-1,-1,-1,-1,-1,-1],"split_conditions":[3.2526913E1,-1.2E1,4.8466484E1,-3.6027374E1,6E0,6E0,6.8154236E1,3.334E1,1.1414027E2,5E0,1E0,1E0,3.8327538E1,1.3570435E1,-1.031955E-1,-5.4166704E-2,6.0778905E-2,-5.036818E-2,5.428779E-2,6.9172494E-2,2.7761748E-2,-1.0290632E-2,8.78591E-2,-3.164729E-2,3.594492E-2,-3.782966E-2,-6.588864E-2,-5.622391E-2,-9.555652E-2],"split_indices":[75,84,75,78,84,76,75,77,82,76,13,12,75,78,0,0,0,0,0,0,0,0,0,0,0,0,0,0,0],"split_type":[0,0,0,0,0,0,0,0,0,0,0,0,0,0,0,0,0,0,0,0,0,0,0,0,0,0,0,0,0],"sum_hessian":[1.7156511E3,1.2275723E3,4.880789E2,1.350809E2,1.0924913E3,3.0615915E2,1.8191974E2,1.00094185E2,3.498671E1,7.9484357E2,2.9764777E2,7.72958E1,2.2886334E2,1.1662624E2,6.529349E1,9.576727E1,4.326917E0,1.4085584E1,2.0901125E1,2.628248E2,5.3201874E2,2.8746906E2,1.0178721E1,5.8838078E1,1.8457722E1,1.1059853E2,1.1826481E2,6.584549E1,5.078075E1],"tree_param":{"num_deleted":"0","num_feature":"86","num_nodes":"29","size_leaf_vector":"1"}},{"base_weights":[-1.3924645E-2,1.9213912E-1,-5.646428E-1,4.1588873E-1,5.095627E-2,-4.1696727E-1,-8.226737E-1,5.062954E-1,-4.6068802E-2,-1.6498389E-2,4.4052213E-1,-7.585713E-1,-3.4185955E-1,-4.8089278E-1,-8.896168E-1,1.0772492E-2,5.8303516E-2,7.174664E-3,-7.949216E-2,5.3899568E-2,-8.002072E-3,3.0634359E-2,1.1153247E-1,-8.069541E-2,4.4102814E-2,2.7858347E-2,-3.972202E-2,-8.667763E-2,-2.3958918E-2,-7.621875E-2,-9.905127E-2],"categories":[],"categories_nodes":[],"categories_segments":[],"categories_sizes":[],"default_left":[0,0,0,0,0,0,0,0,0,0,0,0,0,0,0,0,0,0,0,0,0,0,0,0,0,0,0,0,0,0,0],"id":8,"left_children":[1,3,5,7,9,11,13,15,17,19,21,23,25,27,29,-1,-1,-1,-1,-1,-1,-1,-1,-1,-1,-1,-1,-1,-1,-1,-1],"loss_changes":[1.9415414E2,3.9309906E1,1.7407883E1,2.0134521E1,2.0097382E1,7.394352E0,3.4283066E0,1.2257668E1,7.0914855E0,2.307252E1,9.878649E0,3.4288807E0,8.572672E0,2.5653534E0,1.0419159E0,0E0,0E0,0E0,0E0,0E0,0E0,0E0,0E0,0E0,0E0,0E0,0E0,0E0,0E0,0E0,0E0],"parents":[2147483647,0,0,1,1,2,2,3,3,4,4,5,5,6,6,7,7,8,8,9,9,10,10,11,11,12,12,13,13,14,14],"right_children":[2,4,6,8,10,12,14,16,18,20,22,24,26,28,30,-1,-1,-1,-1,-1,-1,-1,-1,-1,-1,-1,-1,-1,-1,-1,-1],"split_conditions":[3.2526913E1,6E0,4.8466484E1,2.4596748E1,1E0,-3.6528854E1,-2.6003345E1,6.576473E0,7.1E1,8.246211E0,1E0,1E0,2.6305893E1,-3.3E1,6.041523E1,1.0772492E-2,5.8303516E-2,7.174664E-3,-7.949216E-2,5.3899568E-2,-8.002072E-3,3.0634359E-2,1.1153247E-1,-8.069541E-2,4.4102814E-2,2.7858347E-2,-3.972202E-2,-8.667763E-2,-2.3958918E-2,-7.621875E-2,-9.905127E-2],"split_indices":[75,76,75,75,12,78,78,77,83,75,36,63,82,84,75,0,0,0,0,0,0,0,0,0,0,0,0,0,0,0,0],"split_type":[0,0,0,0,0,0,0,0,0,0,0,0,0,0,0,0,0,0,0,0,0,0,0,0,0,0,0,0,0,0,0],"sum_hessian":[1.7089086E3,1.2440645E3,4.64844E2,4.805433E2,7.635212E2,2.973064E2,1.6753761E2,4.018115E2,7.873182E1,6.516444E2,1.1187681E2,5.1946083E1,2.4536032E2,2.8780607E1,1.38757E2,6.526136E1,3.3655014E2,6.881024E1,9.92158E0,6.610244E1,5.8554193E2,9.453361E1,1.7343199E1,5.024682E1,1.6992663E0,1.9769175E1,2.2559114E2,1.0075767E1,1.870484E1,6.509614E1,7.3660866E1],"tree_param":{"num_deleted":"0","num_feature":"86","num_nodes":"31","size_leaf_vector":"1"}},{"base_weights":[-1.3891887E-2,1.592719E-1,-5.638736E-1,4.872618E-1,8.632427E-2,-4.093404E-1,-8.083159E-1,1.2917942E-1,6.489968E-1,-4.1489282E-1,1.4385322E-1,-1.3121614E-1,-5.8123755E-1,-8.424335E-1,-1.5561059E-1,2.611266E-2,-8.964426E-2,-3.477574E-3,7.331512E-2,1.2800795E-2,-5.5431724E-2,2.3168987E-2,-1.9349104E-2,-2.385336E-4,-5.0282937E-2,-8.5294664E-2,-4.6668943E-2,-8.634342E-2,-1.7515194E-2,5.862564E-2,-6.877994E-2],"categories":[],"categories_nodes":[],"categories_segments":[],"categories_sizes":[],"default_left":[0,0,0,0,0,0,0,0,0,0,0,0,0,0,0,0,0,0,0,0,0,0,0,0,0,0,0,0,0,0,0],"id":9,"left_children":[1,3,5,7,9,11,13,15,17,19,21,23,25,27,29,-1,-1,-1,-1,-1,-1,-1,-1,-1,-1,-1,-1,-1,-1,-1,-1],"loss_changes":[1.6188159E2,3.0889896E1,1.5044144E1,1.3526199E1,3.0589952E1,1.194276E1,3.35672E0,1.0297983E1,9.326416E0,8.342258E0,2.8210371E1,4.657993E0,4.42857E0,1.9314041E0,3.9592216E0,0E0,0E0,0E0,0E0,0E0,0E0,0E0,0E0,0E0,0E0,0E0,0E0,0E0,0E0,0E0,0E0],"parents":[2147483647,0,0,1,1,2,2,3,3,4,4,5,5,6,6,7,7,8,8,9,9,10,10,11,11,12,12,13,13,14,14],"right_children":[2,4,6,8,10,12,14,16,18,20,22,24,26,28,30,-1,-1,-1,-1,-1,-1,-1,-1,-1,-1,-1,-1,-1,-1,-1,-1],"split_conditions":[3.361547E1,9.486833E0,4.8466484E1,5.782529E0,-4.383086E1,1E0,1.27738014E2,6E0,4.8120956E1,4E0,1E1,6E1,-2.6565052E1,1E0,-5.710593E0,2.611266E-2,-8.964426E-2,-3.477574E-3,7.331512E-2,1.2800795E-2,-5.5431724E-2,2.3168987E-2,-1.9349104E-2,-2.385336E-4,-5.0282937E-2,-8.5294664E-2,-4.6668943E-2,-8.634342E-2,-1.7515194E-2,5.862564E-2,-6.877994E-2],"split_indices":[75,75,75,77,78,10,82,84,79,76,84,83,78,52,78,0,0,0,0,0,0,0,0,0,0,0,0,0,0,0,0],"split_type":[0,0,0,0,0,0,0,0,0,0,0,0,0,0,0,0,0,0,0,0,0,0,0,0,0,0,0,0,0,0,0],"sum_hessian":[1.6978348E3,1.2918131E3,4.0602176E2,2.340025E2,1.0578107E3,2.5039806E2,1.556237E2,7.3366745E1,1.6063576E2,1.0827345E2,9.495372E2,9.6319466E1,1.540786E2,1.4761693E2,8.006777E0,6.566436E1,7.702383E0,1.7667803E1,1.4296796E2,2.2141022E1,8.613243E1,7.536241E2,1.959131E2,7.227099E1,2.4048473E1,4.3781734E1,1.1029687E2,1.4282788E2,4.789038E0,3.302092E0,4.704685E0],"tree_param":{"num_deleted":"0","num_feature":"86","num_nodes":"31","size_leaf_vector":"1"}},{"base_weights":[-5.5389768E-3,1.4847016E-1,-5.2719283E-1,-2.7713442E-1,2.0029913E-1,-3.74863E-1,-7.5912046E-1,-4.9396068E-1,-3.416554E-2,9.1527395E-2,4.1200083E-1,-2.7206048E-1,-6.54814E-1,-6.3374174E-1,-9.9591786E-1,-5.431372E-2,6.9122106E-2,-1.3965599E-2,5.1716216E-2,6.865324E-2,5.1619075E-3,4.534283E-2,-3.694844E-2,2.8898607E-3,-4.1800395E-2,-7.039004E-2,3.2572504E-2,-4.3843653E-2,-8.819742E-2,-1.014879E-1,-2.2617739E-2],"categories":[],"categories_nodes":[],"categories_segments":[],"categories_sizes":[],"default_left":[0,0,0,0,0,0,0,0,0,0,0,0,0,0,0,0,0,0,0,0,0,0,0,0,0,0,0,0,0,0,0],"id":10,"left_children":[1,3,5,7,9,11,13,15,17,19,21,23,25,27,29,-1,-1,-1,-1,-1,-1,-1,-1,-1,-1,-1,-1,-1,-1,-1,-1],"loss_changes":[1.3611401E2,2.8910069E1,1.3358925E1,7.4861937E0,2.6827206E1,6.586872E0,3.8850632E0,4.757469E0,4.0408387E0,1.8295528E1,1.2977989E1,7.638811E0,3.233801E0,4.568363E0,5.134926E-1,0E0,0E0,0E0,0E0,0E0,0E0,0E0,0E0,0E0,0E0,0E0,0E0,0E0,0E0,0E0,0E0],"parents":[2147483647,0,0,1,1,2,2,3,3,4,4,5,5,6,6,7,7,8,8,9,9,10,10,11,11,12,12,13,13,14,14],"right_children":[2,4,6,8,10,12,14,16,18,20,22,24,26,28,30,-1,-1,-1,-1,-1,-1,-1,-1,-1,-1,-1,-1,-1,-1,-1,-1],"split_conditions":[3.361547E1,-1.2E1,4.7801674E1,-4.251045E1,1.775176E1,6E1,6.8154236E1,1E0,1E0,7.071068E0,1E0,7E0,1E0,1.3570435E1,1E0,-5.431372E-2,6.9122106E-2,-1.3965599E-2,5.1716216E-2,6.865324E-2,5.1619075E-3,4.534283E-2,-3.694844E-2,2.8898607E-3,-4.1800395E-2,-7.039004E-2,3.2572504E-2,-4.3843653E-2,-8.819742E-2,-1.014879E-1,-2.2617739E-2],"split_indices":[75,84,75,78,77,83,75,43,4,75,36,76,62,78,70,0,0,0,0,0,0,0,0,0,0,0,0,0,0,0,0],"split_type":[0,0,0,0,0,0,0,0,0,0,0,0,0,0,0,0,0,0,0,0,0,0,0,0,0,0,0,0,0,0,0],"sum_hessian":[1.692262E3,1.3070839E3,3.8517816E2,1.414218E2,1.1656621E3,2.3406248E2,1.5111568E2,7.418543E1,6.723637E1,7.7097144E2,3.946906E2,1.7263863E2,6.1423862E1,1.0120584E2,4.990984E1,7.1750046E1,2.4353833E0,5.706441E1,1.0171951E1,4.7441998E1,7.235295E2,3.7521957E2,1.9471039E1,5.6639915E1,1.159987E2,5.8764225E1,2.6596377E0,5.8189514E1,4.3016323E1,4.839915E1,1.51069E0],"tree_param":{"num_deleted":"0","num_feature":"86","num_nodes":"31","size_leaf_vector":"1"}},{"base_weights":[-1.1634061E-2,1.3135836E-1,-5.263312E-1,-2.4323295E-1,1.9141999E-1,-3.6109436E-1,-7.859714E-1,-2.911605E-1,9.497938E-1,2.932138E-1,-7.178539E-2,-1.0269466E-1,-5.256327E-1,-4.6994263E-1,-8.496847E-1,-6.61317E-2,-2.0226104E-2,-2.7758637E-2,1.3221447E-1,4.4218145E-2,1.786716E-2,4.8181964E-3,-3.8317632E-2,-3.2929648E-3,-9.0677835E-2,-8.3162375E-2,-4.4365577E-2,-9.341007E-2,-1.9105889E-2,-8.7845676E-2,-1.1815622E-3],"categories":[],"categories_nodes":[],"categories_segments":[],"categories_sizes":[],"default_left":[0,0,0,0,0,0,0,0,0,0,0,0,0,0,0,0,0,0,0,0,0,0,0,0,0,0,0,0,0,0,0],"id":11,"left_children":[1,3,5,7,9,11,13,15,17,19,21,23,25,27,29,-1,-1,-1,-1,-1,-1,-1,-1,-1,-1,-1,-1,-1,-1,-1,-1],"loss_changes":[1.24601105E2,2.9856703E1,1.5507652E1,1.077058E1,3.063034E1,9.588055E0,2.4659271E0,5.697545E0,3.713663E0,1.3981499E1,1.19509E1,4.989102E0,3.1005173E0,3.2016935E0,2.814659E0,0E0,0E0,0E0,0E0,0E0,0E0,0E0,0E0,0E0,0E0,0E0,0E0,0E0,0E0,0E0,0E0],"parents":[2147483647,0,0,1,1,2,2,3,3,4,4,5,5,6,6,7,7,8,8,9,9,10,10,11,11,12,12,13,13,14,14],"right_children":[2,4,6,8,10,12,14,16,18,20,22,24,26,28,30,-1,-1,-1,-1,-1,-1,-1,-1,-1,-1,-1,-1,-1,-1,-1,-1],"split_conditions":[3.361547E1,-1E1,4.7801674E1,1E0,6E0,1E0,-2.6565052E1,-5.9858616E1,1.8248287E1,6E0,4.8814075E1,1E0,-3.3111343E1,-3.3E1,1E0,-6.61317E-2,-2.0226104E-2,-2.7758637E-2,1.3221447E-1,4.4218145E-2,1.786716E-2,4.8181964E-3,-3.8317632E-2,-3.2929648E-3,-9.0677835E-2,-8.3162375E-2,-4.4365577E-2,-9.341007E-2,-1.9105889E-2,-8.7845676E-2,-1.1815622E-3],"split_indices":[75,84,75,40,84,10,78,78,75,76,78,15,78,84,70,0,0,0,0,0,0,0,0,0,0,0,0,0,0,0,0],"split_type":[0,0,0,0,0,0,0,0,0,0,0,0,0,0,0,0,0,0,0,0,0,0,0,0,0,0,0,0,0,0,0],"sum_hessian":[1.691061E3,1.3239797E3,3.6708133E2,1.8253001E2,1.1414497E3,2.257825E2,1.4129883E2,1.7620717E2,6.322836E0,8.2303107E2,3.1841858E2,8.846949E1,1.3731302E2,2.5112501E1,1.16186325E2,3.287684E1,1.4333034E2,1.5309312E0,4.791905E0,3.5651105E2,4.6652005E2,2.3047168E2,8.794691E1,8.236424E1,6.1052465E0,2.7081757E1,1.1023126E2,8.5436E0,1.6568901E1,1.12282166E2,3.9041603E0],"tree_param":{"num_deleted":"0","num_feature":"86","num_nodes":"31","size_leaf_vector":"1"}},{"base_weights":[-7.303395E-3,1.0206437E-1,-5.8573306E-1,-6.592409E-1,1.2689811E-1,-5.0736386E-1,-9.828698E-1,3.5435669E-4,-7.361951E-1,2.723546E-1,9.062564E-3,-5.3904223E-1,3.673567E-1,-1.00484334E-1,-2.6481394E-2,-5.505671E-2,8.1512555E-2,-8.308201E-2,-8.299384E-3,-9.585343E-3,3.3175196E-2,4.7099977E-3,-7.157719E-2,-4.1845337E-2,-6.897477E-2,-1.7697595E-2,1.6905308E-1],"categories":[],"categories_nodes":[],"categories_segments":[],"categories_sizes":[],"default_left":[0,0,0,0,0,0,0,0,0,0,0,0,0,0,0,0,0,0,0,0,0,0,0,0,0,0,0],"id":12,"left_children":[1,3,5,7,9,11,13,15,17,19,21,23,25,-1,-1,-1,-1,-1,-1,-1,-1,-1,-1,-1,-1,-1,-1],"loss_changes":[1.06698044E2,2.6901573E1,7.848274E0,2.2829018E0,2.3556587E1,6.4619637E0,4.144783E-1,3.0064776E0,2.4202633E0,1.3484936E1,2.0998232E1,3.6833649E0,6.417889E0,0E0,0E0,0E0,0E0,0E0,0E0,0E0,0E0,0E0,0E0,0E0,0E0,0E0,0E0],"parents":[2147483647,0,0,1,1,2,2,3,3,4,4,5,5,6,6,7,7,8,8,9,9,10,10,11,11,12,12],"right_children":[2,4,6,8,10,12,14,16,18,20,22,24,26,-1,-1,-1,-1,-1,-1,-1,-1,-1,-1,-1,-1,-1,-1],"split_conditions":[3.8013157E1,-2E1,6.8154236E1,2.045403E0,7E0,1E0,1E0,4.0112343E1,8.2E1,6.477659E0,5.7994617E1,1.4036243E1,2.2203604E1,-1.00484334E-1,-2.6481394E-2,-5.505671E-2,8.1512555E-2,-8.308201E-2,-8.299384E-3,-9.585343E-3,3.3175196E-2,4.7099977E-3,-7.157719E-2,-4.1845337E-2,-6.897477E-2,-1.7697595E-2,1.6905308E-1],"split_indices":[75,84,75,77,76,52,70,82,83,77,78,78,77,0,0,0,0,0,0,0,0,0,0,0,0,0,0],"split_type":[0,0,0,0,0,0,0,0,0,0,0,0,0,0,0,0,0,0,0,0,0,0,0,0,0,0,0],"sum_hessian":[1.6846724E3,1.4174825E3,2.6718985E2,4.397058E1,1.373512E3,2.250559E2,4.2133957E1,4.698015E0,3.9272568E1,6.1412427E2,7.593877E2,2.1756061E2,7.4952908E0,4.049535E1,1.638607E0,2.9962902E0,1.701725E0,3.406576E1,5.2068043E0,8.522091E1,5.289033E2,7.224124E2,3.6975292E1,1.22954025E2,9.4606575E1,5.924355E0,1.570936E0],"tree_param":{"num_deleted":"0","num_feature":"86","num_nodes":"27","size_leaf_vector":"1"}},{"base_weights":[-1.1602272E-2,1.6966194E-1,-3.005812E-1,1.2060063E-1,5.4918116E-1,-1.5021595E-1,-6.060192E-1,6.397071E-1,7.847542E-2,-6.3816017E-1,6.373045E-1,-2.4683529E-1,1.5585315E-1,-5.1962364E-1,-9.7582394E-1,8.3466664E-2,-6.5665334E-2,1.1460352E-2,-4.0245276E-2,-9.886568E-2,-1.857697E-2,1.763684E-1,5.6186527E-2,-1.9108081E-2,-7.9040684E-2,1.3776342E-3,7.8513876E-2,-3.5709575E-2,-7.262451E-2,-9.997861E-2,-2.2150753E-2],"categories":[],"categories_nodes":[],"categories_segments":[],"categories_sizes":[],"default_left":[0,0,0,0,0,0,0,0,0,0,0,0,0,0,0,0,0,0,0,0,0,0,0,0,0,0,0,0,0,0,0],"id":13,"left_children":[1,3,5,7,9,11,13,15,17,19,21,23,25,27,29,-1,-1,-1,-1,-1,-1,-1,-1,-1,-1,-1,-1,-1,-1,-1,-1],"loss_changes":[8.848821E1,1.9264172E1,2.9814915E1,2.0081142E1,1.2812122E1,1.2981552E1,6.3455276E0,1.7976774E1,1.4860888E1,1.1944327E0,8.430088E0,9.942562E0,9.4330015E0,5.6511154E0,4.921341E-1,0E0,0E0,0E0,0E0,0E0,0E0,0E0,0E0,0E0,0E0,0E0,0E0,0E0,0E0,0E0,0E0],"parents":[2147483647,0,0,1,1,2,2,3,3,4,4,5,5,6,6,7,7,8,8,9,9,10,10,11,11,12,12,13,13,14,14],"right_children":[2,4,6,8,10,12,14,16,18,20,22,24,26,28,30,-1,-1,-1,-1,-1,-1,-1,-1,-1,-1,-1,-1,-1,-1,-1,-1],"split_conditions":[2.4596748E1,1E0,4.0311287E1,7.071068E0,8.602325E0,1E0,6.8154236E1,1E0,4.8814075E1,1.208139E2,1.2649111E1,1E0,1E0,1.4036243E1,1E0,8.3466664E-2,-6.5665334E-2,1.1460352E-2,-4.0245276E-2,-9.886568E-2,-1.857697E-2,1.763684E-1,5.6186527E-2,-1.9108081E-2,-7.9040684E-2,1.3776342E-3,7.8513876E-2,-3.5709575E-2,-7.262451E-2,-9.997861E-2,-2.2150753E-2],"split_indices":[75,12,75,75,75,12,75,18,78,82,82,26,7,78,70,0,0,0,0,0,0,0,0,0,0,0,0,0,0,0,0],"split_type":[0,0,0,0,0,0,0,0,0,0,0,0,0,0,0,0,0,0,0,0,0,0,0,0,0,0,0,0,0,0,0],"sum_hessian":[1.687328E3,1.0371688E3,6.501591E2,9.1960693E2,1.17561905E2,4.366774E2,2.1348174E2,6.795955E1,8.516474E2,7.691244E0,1.0987067E2,3.3205E2,1.04627396E2,1.7500204E2,3.8479694E1,5.938482E1,8.57473E0,7.92849E2,5.8798386E1,3.6657453E0,4.025499E0,5.4919386E0,1.0437872E2,3.0238565E2,2.9664358E1,8.6189804E1,1.8437592E1,9.9479774E1,7.552227E1,3.6979557E1,1.5001386E0],"tree_param":{"num_deleted":"0","num_feature":"86","num_nodes":"31","size_leaf_vector":"1"}},{"base_weights":[-6.2135323E-3,8.564591E-2,-4.9129003E-1,1.7477922E-1,-8.335942E-2,-4.1456825E-1,-9.68773E-1,2.3581864E-1,-1.2536305E-1,-1.8322389E-1,2.258882E-1,-2.7033845E-1,-6.021018E-1,-9.9470586E-2,-2.316751E-2,-2.0144371E-2,2.8328285E-2,-2.1744845E-3,-5.2748233E-2,-1.3293068E-2,-6.9527514E-2,1.6528888E-2,1.2973796E-1,-4.2600144E-2,2.0158686E-2,-6.400964E-2,4.651026E-2],"categories":[],"categories_nodes":[],"categories_segments":[],"categories_sizes":[],"default_left":[0,0,0,0,0,0,0,0,0,0,0,1,0,0,0,0,0,0,0,0,0,0,0,0,0,0,0],"id":14,"left_children":[1,3,5,7,9,11,13,15,17,19,21,23,25,-1,-1,-1,-1,-1,-1,-1,-1,-1,-1,-1,-1,-1,-1],"loss_changes":[7.465634E1,2.123595E1,9.370804E0,1.693281E1,1.5084635E1,6.10104E0,4.6116638E-1,1.597691E1,6.5126634E0,9.40404E0,7.535209E0,9.835615E0,4.346916E0,0E0,0E0,0E0,0E0,0E0,0E0,0E0,0E0,0E0,0E0,0E0,0E0,0E0,0E0],"parents":[2147483647,0,0,1,1,2,2,3,3,4,4,5,5,6,6,7,7,8,8,9,9,10,10,11,11,12,12],"right_children":[2,4,6,8,10,12,14,16,18,20,22,24,26,-1,-1,-1,-1,-1,-1,-1,-1,-1,-1,-1,-1,-1,-1],"split_conditions":[3.667424E1,2.1633308E1,6.8154236E1,6E0,1E0,1.4036243E1,1E0,-5.3471146E1,1E0,1E0,1E0,1.5823736E1,1E0,-9.9470586E-2,-2.316751E-2,-2.0144371E-2,2.8328285E-2,-2.1744845E-3,-5.2748233E-2,-1.3293068E-2,-6.9527514E-2,1.6528888E-2,1.2973796E-1,-4.2600144E-2,2.0158686E-2,-6.400964E-2,4.651026E-2],"split_indices":[75,75,75,84,12,78,70,78,15,15,62,77,70,0,0,0,0,0,0,0,0,0,0,0,0,0,0],"split_type":[0,0,0,0,0,0,0,0,0,0,0,0,0,0,0,0,0,0,0,0,0,0,0,0,0,0,0],"sum_hessian":[1.6735106E3,1.4077474E3,2.6576315E2,9.2164056E2,4.861069E2,2.3058163E2,3.518153E1,7.6606213E2,1.5557841E2,3.67756E2,1.1835089E2,1.3171939E2,9.886223E1,3.3648216E1,1.5333128E0,7.469479E1,6.913674E2,1.2454079E2,3.1037632E1,3.3601273E2,3.174326E1,1.131082E2,5.2426944E0,9.9121735E1,3.259766E1,9.585E1,3.012234E0],"tree_param":{"num_deleted":"0","num_feature":"86","num_nodes":"27","size_leaf_vector":"1"}},{"base_weights":[-9.861565E-3,6.485951E-2,-5.8018935E-1,1.4106974E-1,-1.2438201E-1,-4.9177262E-1,-9.916889E-2,-3.2651538E-1,1.6982949E-1,-6.5210186E-2,-7.362893E-1,-5.253035E-1,2.177354E-1,-8.351561E-3,-5.969155E-2,8.350714E-2,1.4644473E-2,3.748594E-4,-8.1117526E-2,-8.971843E-2,1.7718283E-2,-5.5981454E-2,3.4026258E-2,1.051869E-1,-3.218907E-2],"categories":[],"categories_nodes":[],"categories_segments":[],"categories_sizes":[],"default_left":[0,0,0,0,0,0,0,0,0,0,0,0,0,0,0,0,0,0,0,0,0,0,0,0,0],"id":15,"left_children":[1,3,5,7,9,11,-1,13,15,17,19,21,23,-1,-1,-1,-1,-1,-1,-1,-1,-1,-1,-1,-1],"loss_changes":[7.101339E1,2.126805E1,6.5353165E0,1.4187653E1,1.5288021E1,3.9415894E0,0E0,3.9737206E0,1.5289114E1,1.9926483E1,5.6336594E0,4.7878723E0,3.9245064E0,0E0,0E0,0E0,0E0,0E0,0E0,0E0,0E0,0E0,0E0,0E0,0E0],"parents":[2147483647,0,0,1,1,2,2,3,3,4,4,5,5,7,7,8,8,9,9,10,10,11,11,12,12],"right_children":[2,4,6,8,10,12,-1,14,16,18,20,22,24,-1,-1,-1,-1,-1,-1,-1,-1,-1,-1,-1,-1],"split_conditions":[4.0311287E1,2.4596748E1,6.8154236E1,-5.8392498E1,1E0,1.4302448E2,-9.916889E-2,1.1703845E2,6.0827627E0,7.2E1,3.5E1,1E0,8.004821E0,-8.351561E-3,-5.969155E-2,8.350714E-2,1.4644473E-2,3.748594E-4,-8.1117526E-2,-8.971843E-2,1.7718283E-2,-5.5981454E-2,3.4026258E-2,1.051869E-1,-3.218907E-2],"split_indices":[75,75,75,78,26,82,0,82,75,83,76,52,77,0,0,0,0,0,0,0,0,0,0,0,0],"split_type":[0,0,0,0,0,0,0,0,0,0,0,0,0,0,0,0,0,0,0,0,0,0,0,0,0],"sum_hessian":[1.6644916E3,1.472464E3,1.9202753E2,1.0499065E3,4.2255756E2,1.598718E2,3.215573E1,6.0234913E1,9.896716E2,3.8630792E2,3.624965E1,1.5290521E2,6.9665804E0,3.2414196E1,2.782072E1,3.2429104E1,9.5724243E2,3.5452936E2,3.177856E1,3.0836138E1,5.413511E0,1.4738217E2,5.5230384E0,2.3636634E0,4.6029167E0],"tree_param":{"num_deleted":"0","num_feature":"86","num_nodes":"25","size_leaf_vector":"1"}},{"base_weights":[-1.085271E-2,6.330319E-2,-4.940765E-1,1.3769534E-2,3.3567876E-1,-4.2058793E-1,-9.5241874E-2,2.8455377E-1,-6.3252054E-2,5.923104E-1,2.0364869E-1,-2.7443236E-1,-6.17403E-1,2.5287895E-2,1.2786745E-1,-3.4535825E-2,-7.019887E-4,8.367073E-2,-2.6633525E-2,1.6180469E-2,1.271721E-1,-3.8134295E-2,4.704028E-2,-6.536262E-2,3.014106E-2],"categories":[],"categories_nodes":[],"categories_segments":[],"categories_sizes":[],"default_left":[0,0,0,0,0,0,0,0,0,0,0,1,0,0,0,0,0,0,0,0,0,0,0,0,0],"id":16,"left_children":[1,3,5,7,9,11,-1,13,15,17,19,21,23,-1,-1,-1,-1,-1,-1,-1,-1,-1,-1,-1,-1],"loss_changes":[5.9480457E1,1.941251E1,7.0378304E0,2.5437025E1,7.3814754E0,5.3567734E0,0E0,8.181068E0,1.5062998E1,1.5896637E1,6.3962336E0,9.101549E0,2.8951244E0,0E0,0E0,0E0,0E0,0E0,0E0,0E0,0E0,0E0,0E0,0E0,0E0],"parents":[2147483647,0,0,1,1,2,2,3,3,4,4,5,5,7,7,8,8,9,9,10,10,11,11,12,12],"right_children":[2,4,6,8,10,12,-1,14,16,18,20,22,24,-1,-1,-1,-1,-1,-1,-1,-1,-1,-1,-1,-1],"split_conditions":[3.8013157E1,1E0,6.8154236E1,1E1,1.8973665E1,1.4036243E1,-9.5241874E-2,1E0,-1E1,8.1E1,1E0,2.2203604E1,1E0,2.5287895E-2,1.2786745E-1,-3.4535825E-2,-7.019887E-4,8.367073E-2,-2.6633525E-2,1.6180469E-2,1.271721E-1,-3.8134295E-2,4.704028E-2,-6.536262E-2,3.014106E-2],"split_indices":[75,12,75,75,75,78,0,51,84,83,41,77,70,0,0,0,0,0,0,0,0,0,0,0,0],"split_type":[0,0,0,0,0,0,0,0,0,0,0,0,0,0,0,0,0,0,0,0,0,0,0,0,0],"sum_hessian":[1.6580209E3,1.4381849E3,2.1983598E2,1.2177737E3,2.2041124E2,1.9111162E2,2.8724358E1,2.6907925E2,9.486944E2,7.369038E1,1.4672087E2,1.11044174E2,8.006745E1,2.619862E2,7.0930715E0,1.568194E2,7.91875E2,5.7382977E1,1.6307398E1,1.4229755E2,4.423319E0,9.753274E1,1.3511433E1,7.730828E1,2.7591705E0],"tree_param":{"num_deleted":"0","num_feature":"86","num_nodes":"25","size_leaf_vector":"1"}},{"base_weights":[-4.0848744E-3,5.5344883E-2,-5.092903E-1,-2.6522306E-1,9.156527E-2,-4.252353E-1,-9.453334E-1,-1.11909226E-1,-4.9487716E-1,1.3549976E-1,-2.3030068E-1,-4.570958E-1,6.1436576E-1,-9.780323E-2,-4.2999983E-2,-1.6228462E-2,1.1929758E-1,-6.3881524E-2,-1.135437E-2,1.6308082E-2,-3.2547954E-2,1.2797862E-1,-2.7175749E-2,-3.436812E-2,-6.795931E-2,1.376382E-1,-3.444921E-2],"categories":[],"categories_nodes":[],"categories_segments":[],"categories_sizes":[],"default_left":[0,0,0,0,0,0,0,0,0,0,0,0,0,0,0,0,0,0,0,0,0,0,0,0,0,0,0],"id":17,"left_children":[1,3,5,7,9,11,13,15,17,19,21,23,25,-1,-1,-1,-1,-1,-1,-1,-1,-1,-1,-1,-1,-1,-1],"loss_changes":[5.010783E1,1.7363321E1,6.036152E0,5.2913E0,1.9014969E1,5.2189083E0,4.4044495E-2,6.264468E0,3.2482138E0,1.5079531E1,1.0464924E1,3.4311619E0,4.025031E0,0E0,0E0,0E0,0E0,0E0,0E0,0E0,0E0,0E0,0E0,0E0,0E0,0E0,0E0],"parents":[2147483647,0,0,1,1,2,2,3,3,4,4,5,5,6,6,7,7,8,8,9,9,10,10,11,11,12,12],"right_children":[2,4,6,8,10,12,14,16,18,20,22,24,26,-1,-1,-1,-1,-1,-1,-1,-1,-1,-1,-1,-1,-1,-1],"split_conditions":[4.0311287E1,-1.3E1,6.8154236E1,1.3201515E2,4.0601295E1,1E0,1E0,1E0,2.6E1,1E0,1E0,1E0,4.632494E1,-9.780323E-2,-4.2999983E-2,-1.6228462E-2,1.1929758E-1,-6.3881524E-2,-1.135437E-2,1.6308082E-2,-3.2547954E-2,1.2797862E-1,-2.7175749E-2,-3.436812E-2,-6.795931E-2,1.376382E-1,-3.444921E-2],"split_indices":[75,84,75,82,78,63,7,63,76,11,76,0,75,0,0,0,0,0,0,0,0,0,0,0,0,0,0],"split_type":[0,0,0,0,0,0,0,0,0,0,0,0,0,0,0,0,0,0,0,0,0,0,0,0,0,0,0],"sum_hessian":[1.666974E3,1.4923162E3,1.7465791E2,1.5085489E2,1.3414612E3,1.4808679E2,2.6571121E1,9.135492E1,5.949997E1,1.1808544E3,1.6060681E2,1.44227E2,3.859788E0,2.414144E1,2.4296808E0,8.880232E1,2.5526016E0,4.2705242E1,1.6794727E1,1.1148005E3,6.6053925E1,3.4932408E0,1.5711357E2,9.7216835E1,4.7010162E1,1.908021E0,1.951767E0],"tree_param":{"num_deleted":"0","num_feature":"86","num_nodes":"27","size_leaf_vector":"1"}},{"base_weights":[-5.3998693E-3,4.7678363E-2,-4.7828904E-1,-5.2944267E-1,6.598609E-2,-3.9410567E-1,-9.3723196E-1,-6.0118586E-1,9.389653E-2,1.1187763E-1,-1.9738583E-1,-2.657505E-1,-6.614568E-1,-9.722755E-2,-4.379895E-2,-6.548729E-2,5.580152E-2,1.3583857E-2,-2.9718949E-2,-2.6624952E-2,3.910731E-2,-2.7210168E-3,-5.2447923E-2,-7.166851E-2,-1.36696715E-2],"categories":[],"categories_nodes":[],"categories_segments":[],"categories_sizes":[],"default_left":[0,0,0,0,0,0,0,0,0,0,0,0,0,0,0,0,0,0,0,0,0,0,0,0,0],"id":18,"left_children":[1,3,5,7,9,11,13,15,-1,17,19,21,23,-1,-1,-1,-1,-1,-1,-1,-1,-1,-1,-1,-1],"loss_changes":[4.1792683E1,1.5852994E1,6.1224213E0,5.425523E0,1.757127E1,4.7557163E0,1.709938E-2,3.1412373E0,0E0,1.2166389E1,8.849806E0,6.081272E0,1.2335415E0,0E0,0E0,0E0,0E0,0E0,0E0,0E0,0E0,0E0,0E0,0E0,0E0],"parents":[2147483647,0,0,1,1,2,2,3,3,4,4,5,5,6,6,7,7,9,9,10,10,11,11,12,12],"right_children":[2,4,6,8,10,12,14,16,-1,18,20,22,24,-1,-1,-1,-1,-1,-1,-1,-1,-1,-1,-1,-1],"split_conditions":[4.0311287E1,-2E1,6.8154236E1,1E0,1.1E1,1E0,1E0,1E0,9.389653E-2,1E0,1E0,2.726311E0,1.3152946E2,-9.722755E-2,-4.379895E-2,-6.548729E-2,5.580152E-2,1.3583857E-2,-2.9718949E-2,-2.6624952E-2,3.910731E-2,-2.7210168E-3,-5.2447923E-2,-7.166851E-2,-1.36696715E-2],"split_indices":[75,84,75,66,84,0,7,62,0,11,36,78,82,0,0,0,0,0,0,0,0,0,0,0,0],"split_type":[0,0,0,0,0,0,0,0,0,0,0,0,0,0,0,0,0,0,0,0,0,0,0,0,0],"sum_hessian":[1.6631305E3,1.4961034E3,1.6702711E2,4.5142467E1,1.4509609E3,1.4270891E2,2.4318197E1,4.360272E1,1.5397468E0,1.236143E3,2.148179E2,9.776566E1,4.4943253E1,2.1837826E1,2.4803715E0,4.2088505E1,1.5142136E0,1.1683739E3,6.7769104E1,1.9280293E2,2.201497E1,5.144242E1,4.6323242E1,4.0332706E1,4.610548E0],"tree_param":{"num_deleted":"0","num_feature":"86","num_nodes":"25","size_leaf_vector":"1"}},{"base_weights":[-9.4783185E-3,3.9787244E-2,-4.6567443E-1,-3.499473E-2,1.9301985E-1,-3.8481027E-1,-9.287186E-1,1.935294E-1,-8.8153884E-2,2.3591693E-1,-5.7883817E-1,-4.2016968E-1,4.6061572E-1,-9.669205E-2,-3.9582357E-2,1.4614043E-2,1.4381568E-1,-1.3138922E-2,3.144973E-2,2.9359827E-2,-3.1276453E-2,-8.177572E-2,1.8873263E-2,-4.5676447E-2,3.944318E-2,1.0975893E-1,-6.654094E-2],"categories":[],"categories_nodes":[],"categories_segments":[],"categories_sizes":[],"default_left":[0,0,0,0,0,0,0,0,0,1,0,0,0,0,0,0,0,0,0,0,0,0,0,0,0,0,0],"id":19,"left_children":[1,3,5,7,9,11,13,15,17,19,21,23,25,-1,-1,-1,-1,-1,-1,-1,-1,-1,-1,-1,-1,-1,-1],"loss_changes":[3.713033E1,1.7094978E1,5.6718674E0,1.2201742E1,1.6335411E1,4.3424873E0,9.0213776E-2,1.0972746E1,1.4219136E1,1.4782797E1,4.9312086E0,4.1670017E0,5.0688376E0,0E0,0E0,0E0,0E0,0E0,0E0,0E0,0E0,0E0,0E0,0E0,0E0,0E0,0E0],"parents":[2147483647,0,0,1,1,2,2,3,3,4,4,5,5,6,6,7,7,8,8,9,9,10,10,11,11,12,12],"right_children":[2,4,6,8,10,12,14,16,18,20,22,24,26,-1,-1,-1,-1,-1,-1,-1,-1,-1,-1,-1,-1,-1,-1],"split_conditions":[4.0311287E1,1.804008E1,6.8154236E1,9.848858E0,1E0,1E0,1E0,1E0,1E0,4.523826E1,2.5641006E1,1E0,5.2E1,-9.669205E-2,-3.9582357E-2,1.4614043E-2,1.4381568E-1,-1.3138922E-2,3.144973E-2,2.9359827E-2,-3.1276453E-2,-8.177572E-2,1.8873263E-2,-4.5676447E-2,3.944318E-2,1.0975893E-1,-6.654094E-2],"split_indices":[75,77,75,75,36,39,7,51,36,77,78,52,83,0,0,0,0,0,0,0,0,0,0,0,0,0,0],"split_type":[0,0,0,0,0,0,0,0,0,0,0,0,0,0,0,0,0,0,0,0,0,0,0,0,0,0,0],"sum_hessian":[1.6502659E3,1.4902441E3,1.6002177E2,1.0020071E3,4.88237E2,1.3778978E2,2.2231997E1,1.8860005E2,8.1340704E2,4.63189E2,2.5048012E1,1.3274097E2,5.048801E0,1.998487E1,2.2471268E0,1.8275896E2,5.841099E0,7.351435E2,7.8263535E1,4.19548E2,4.3641E1,1.9052292E1,5.99572E0,1.27454544E2,5.2864294E0,3.2407923E0,1.8080088E0],"tree_param":{"num_deleted":"0","num_feature":"86","num_nodes":"27","size_leaf_vector":"1"}},{"base_weights":[-6.6706063E-3,3.7430406E-2,-4.3719202E-1,-1.9301187E-1,7.577012E-2,-3.5024124E-1,-9.661089E-2,-3.1618598E-1,8.295483E-2,1.0795523E-1,-3.151491E-1,-3.8426694E-1,6.547201E-1,-4.0970135E-2,1.6572922E-2,-2.5560547E-2,3.8538925E-2,1.3068184E-3,1.9319324E-2,-2.906971E-3,-5.141885E-2,-4.20784E-2,3.9565936E-2,1.4659391E-1,-3.4311093E-2],"categories":[],"categories_nodes":[],"categories_segments":[],"categories_sizes":[],"default_left":[0,0,0,0,0,0,0,0,0,0,0,0,0,0,0,0,0,0,0,0,0,0,0,0,0],"id":20,"left_children":[1,3,5,7,9,11,-1,13,15,17,19,21,23,-1,-1,-1,-1,-1,-1,-1,-1,-1,-1,-1,-1],"loss_changes":[3.1384516E1,1.3263221E1,6.7252865E0,7.306637E0,1.6218758E1,4.815733E0,0E0,6.7509203E0,6.947303E0,9.616154E0,5.571395E0,3.8614159E0,4.340661E0,0E0,0E0,0E0,0E0,0E0,0E0,0E0,0E0,0E0,0E0,0E0,0E0],"parents":[2147483647,0,0,1,1,2,2,3,3,4,4,5,5,7,7,8,8,9,9,10,10,11,11,12,12],"right_children":[2,4,6,8,10,12,-1,14,16,18,20,22,24,-1,-1,-1,-1,-1,-1,-1,-1,-1,-1,-1,-1],"split_conditions":[4.0311287E1,-1E1,6.8154236E1,-3.2735226E1,4.8814075E1,1E0,-9.661089E-2,1E0,1.1414027E2,1.1482172E1,1.2727922E1,1E0,1E0,-4.0970135E-2,1.6572922E-2,-2.5560547E-2,3.8538925E-2,1.3068184E-3,1.9319324E-2,-2.906971E-3,-5.141885E-2,-4.20784E-2,3.9565936E-2,1.4659391E-1,-3.4311093E-2],"split_indices":[75,84,75,78,78,63,0,4,82,77,75,39,10,0,0,0,0,0,0,0,0,0,0,0,0],"split_type":[0,0,0,0,0,0,0,0,0,0,0,0,0,0,0,0,0,0,0,0,0,0,0,0,0],"sum_hessian":[1.6511351E3,1.498543E3,1.525921E2,2.1318033E2,1.2853627E3,1.3247603E2,2.0116087E1,1.4729251E2,6.588781E1,1.1882552E3,9.710747E1,1.2873499E2,3.741041E0,1.2348095E2,2.3811562E1,3.1160275E1,3.472754E1,5.628468E2,6.254084E2,4.0312428E1,5.6795036E1,1.2341695E2,5.318037E0,1.8047143E0,1.9363266E0],"tree_param":{"num_deleted":"0","num_feature":"86","num_nodes":"25","size_leaf_vector":"1"}},{"base_weights":[-5.8776923E-3,4.0205654E-2,-3.3228382E-1,1.853022E-1,-2.718997E-2,-2.6957768E-1,-9.0957475E-1,-6.267652E-2,2.7379462E-1,-3.3782409E-3,-6.3140655E-1,-1.3907348E-1,-5.227646E-1,-9.553086E-2,-3.0975988E-2,5.733162E-3,-8.1300065E-2,8.615014E-2,2.2254026E-2,-3.521379E-3,3.136677E-2,-7.348266E-2,4.693648E-2,1.1876231E-1,-1.7246595E-2,-5.853433E-2,7.3221415E-2],"categories":[],"categories_nodes":[],"categories_segments":[],"categories_sizes":[],"default_left":[0,0,0,0,0,0,0,0,0,0,0,0,0,0,0,0,0,0,0,0,0,0,0,0,0,0,0],"id":21,"left_children":[1,3,5,7,9,11,13,15,17,19,21,23,25,-1,-1,-1,-1,-1,-1,-1,-1,-1,-1,-1,-1,-1,-1],"loss_changes":[2.4714886E1,1.408572E1,7.1132584E0,1.0041733E1,1.4156378E1,6.032751E0,2.3887634E-1,1.0938287E1,9.955427E0,9.577322E0,4.5919285E0,5.6669016E0,5.3359337E0,0E0,0E0,0E0,0E0,0E0,0E0,0E0,0E0,0E0,0E0,0E0,0E0,0E0,0E0],"parents":[2147483647,0,0,1,1,2,2,3,3,4,4,5,5,6,6,7,7,8,8,9,9,10,10,11,11,12,12],"right_children":[2,4,6,8,10,12,14,16,18,20,22,24,26,-1,-1,-1,-1,-1,-1,-1,-1,-1,-1,-1,-1,-1,-1],"split_conditions":[3.667424E1,5E0,6.8154236E1,2E0,1E0,1.6E1,1E0,1E0,7.615773E0,1E0,1E0,1.7534798E0,1E0,-9.553086E-2,-3.0975988E-2,5.733162E-3,-8.1300065E-2,8.615014E-2,2.2254026E-2,-3.521379E-3,3.136677E-2,-7.348266E-2,4.693648E-2,1.1876231E-1,-1.7246595E-2,-5.853433E-2,7.3221415E-2],"split_indices":[75,76,75,76,65,76,30,35,75,35,30,77,70,0,0,0,0,0,0,0,0,0,0,0,0,0,0],"split_type":[0,0,0,0,0,0,0,0,0,0,0,0,0,0,0,0,0,0,0,0,0,0,0,0,0,0,0],"sum_hessian":[1.6411826E3,1.4389084E3,2.0227414E2,4.5582022E2,9.8308826E2,1.8377881E2,1.8495333E1,1.1995814E2,3.358621E2,9.4678186E2,3.6306385E1,1.2229277E2,6.1486042E1,1.6634348E1,1.8609843E0,1.0421362E2,1.5744517E1,2.5673168E1,3.101889E2,8.6119556E2,8.5586334E1,3.349216E1,2.8142233E0,2.1538503E0,1.20138916E2,5.907394E1,2.4120994E0],"tree_param":{"num_deleted":"0","num_feature":"86","num_nodes":"27","size_leaf_vector":"1"}},{"base_weights":[-5.049345E-3,2.9482178E-2,-3.6618906E-1,-1.3028842E-2,2.565156E-1,-2.8732902E-1,-9.000174E-1,2.196692E-1,-7.516502E-2,-6.576269E-1,2.8598726E-1,-3.3143464E-1,4.820519E-1,-9.489735E-2,-3.034083E-2,3.0301077E-2,-9.652562E-3,-4.035771E-2,-3.9863545E-3,-8.8373505E-2,1.537008E-2,2.0745968E-2,6.0703564E-2,-4.1591585E-2,1.5107389E-2,1.0669082E-1,-1.3223E-3],"categories":[],"categories_nodes":[],"categories_segments":[],"categories_sizes":[],"default_left":[0,0,0,0,0,0,0,0,0,0,0,0,0,0,0,0,0,0,0,0,0,0,0,0,0,0,0],"id":22,"left_children":[1,3,5,7,9,11,13,15,17,19,21,23,25,-1,-1,-1,-1,-1,-1,-1,-1,-1,-1,-1,-1,-1,-1],"loss_changes":[2.050798E1,1.4491165E1,5.78323E0,1.8311632E1,6.567629E0,4.4529514E0,2.37916E-1,7.0631475E0,1.1570316E1,1.5481634E0,5.6750393E0,4.9645214E0,2.1190557E0,0E0,0E0,0E0,0E0,0E0,0E0,0E0,0E0,0E0,0E0,0E0,0E0,0E0,0E0],"parents":[2147483647,0,0,1,1,2,2,3,3,4,4,5,5,6,6,7,7,8,8,9,9,10,10,11,11,12,12],"right_children":[2,4,6,8,10,12,14,16,18,20,22,24,26,-1,-1,-1,-1,-1,-1,-1,-1,-1,-1,-1,-1,-1,-1],"split_conditions":[4.0311287E1,1E0,6.8154236E1,9.486833E0,-2.2E1,1.4302448E2,1E0,4E0,-4.251045E1,1E0,1E0,1E0,8.004821E0,-9.489735E-2,-3.034083E-2,3.0301077E-2,-9.652562E-3,-4.035771E-2,-3.9863545E-3,-8.8373505E-2,1.537008E-2,2.0745968E-2,6.0703564E-2,-4.1591585E-2,1.5107389E-2,1.0669082E-1,-1.3223E-3],"split_indices":[75,12,75,75,84,82,7,84,78,2,7,31,77,0,0,0,0,0,0,0,0,0,0,0,0,0,0],"split_type":[0,0,0,0,0,0,0,0,0,0,0,0,0,0,0,0,0,0,0,0,0,0,0,0,0,0,0],"sum_hessian":[1.6426268E3,1.5001075E3,1.425192E2,1.2643131E3,2.3579453E2,1.25515594E2,1.7003605E1,2.659191E2,9.98394E2,6.6988235E0,2.290957E2,1.1924875E2,6.266847E0,1.5168322E1,1.8352842E0,2.1048251E2,5.543659E1,9.5890045E1,9.025039E2,5.169027E0,1.5297962E0,1.8539484E2,4.370088E1,1.0159819E2,1.7650558E1,2.3443255E0,3.9225216E0],"tree_param":{"num_deleted":"0","num_feature":"86","num_nodes":"27","size_leaf_vector":"1"}},{"base_weights":[-1.416637E-2,5.5819005E-2,-2.1946575E-1,4.5861185E-2,7.132656E-1,-2.8361818E-1,1.4314131E-1,7.0470914E-2,-2.842131E-1,2.70486E-1,1.5881432E0,-2.4539928E-1,-9.1406536E-1,-7.161506E-1,2.8040284E-1,-1.7988738E-2,1.0516006E-2,-3.7312724E-2,5.353594E-2,-6.1759096E-2,5.9109963E-2,2.0449345E-1,1.4388581E-2,7.045456E-3,-2.9972842E-2,-9.59708E-2,-2.115627E-2,-8.9804314E-2,-1.4564613E-2,1.4397973E-2,1.2111539E-1],"categories":[],"categories_nodes":[],"categories_segments":[],"categories_sizes":[],"default_left":[0,0,0,0,0,0,0,0,0,0,0,0,1,0,0,0,0,0,0,0,0,0,0,0,0,0,0,0,0,0,0],"id":23,"left_children":[1,3,5,7,9,11,13,15,17,19,21,23,25,27,29,-1,-1,-1,-1,-1,-1,-1,-1,-1,-1,-1,-1,-1,-1,-1,-1],"loss_changes":[2.3692621E1,8.01932E0,9.792248E0,9.87042E0,6.652521E0,8.366177E0,7.7119255E0,9.826653E0,6.345617E0,4.1644773E0,3.623313E0,5.812887E0,4.385929E-1,8.0860186E-1,6.889175E0,0E0,0E0,0E0,0E0,0E0,0E0,0E0,0E0,0E0,0E0,0E0,0E0,0E0,0E0,0E0,0E0],"parents":[2147483647,0,0,1,1,2,2,3,3,4,4,5,5,6,6,7,7,8,8,9,9,10,10,11,11,12,12,13,13,14,14],"right_children":[2,4,6,8,10,12,14,16,18,20,22,24,26,28,30,-1,-1,-1,-1,-1,-1,-1,-1,-1,-1,-1,-1,-1,-1,-1,-1],"split_conditions":[2.8319605E1,1E0,1E0,1.2E1,2.112472E1,6.356886E1,-3.5537678E1,-4.3090847E1,1E0,3.40147E1,1.6E1,2.5736077E0,2.32912E1,7E0,1E0,-1.7988738E-2,1.0516006E-2,-3.7312724E-2,5.353594E-2,-6.1759096E-2,5.9109963E-2,2.0449345E-1,1.4388581E-2,7.045456E-3,-2.9972842E-2,-9.59708E-2,-2.115627E-2,-8.9804314E-2,-1.4564613E-2,1.4397973E-2,1.2111539E-1],"split_indices":[75,13,7,84,78,75,78,78,31,82,84,77,77,76,30,0,0,0,0,0,0,0,0,0,0,0,0,0,0,0,0],"split_type":[0,0,0,0,0,0,0,0,0,0,0,0,0,0,0,0,0,0,0,0,0,0,0,0,0,0,0,0,0,0,0],"sum_hessian":[1.647138E3,1.2289307E3,4.1820728E2,1.2116486E3,1.7282122E1,3.5552554E2,6.268174E1,1.1283103E3,8.3338234E1,1.2343957E1,4.938164E0,3.3651462E2,1.901091E1,8.052655E0,5.4629086E1,1.3680151E2,9.9150885E2,7.567329E1,7.664946E0,3.0286193E0,9.315337E0,3.4356318E0,1.5025322E0,4.9344303E1,2.8717032E2,1.7507309E1,1.5036017E0,5.6705933E0,2.3820624E0,4.865261E1,5.976474E0],"tree_param":{"num_deleted":"0","num_feature":"86","num_nodes":"31","size_leaf_vector":"1"}},{"base_weights":[-4.2254743E-3,2.5418304E-2,-3.4595588E-1,-1.1507503E-1,8.785397E-2,-2.4009904E-1,-8.3962905E-1,-1.9986068E-1,2.409967E-1,2.3359466E-1,1.1719996E-2,-1.1901211E-1,-5.882171E-1,-8.379538E-3,-9.18352E-1,-1.211253E-2,-4.7110897E-2,7.7197514E-2,7.4143596E-3,1.3146198E-2,5.099685E-2,-2.808363E-3,3.8028505E-2,-2.1085344E-2,5.7571955E-2,-7.487105E-2,1.4851639E-2,-9.62964E-2,-2.2835704E-2],"categories":[],"categories_nodes":[],"categories_segments":[],"categories_sizes":[],"default_left":[0,0,0,0,0,0,0,0,0,0,0,0,1,0,0,0,0,0,0,0,0,0,0,0,0,0,0,0,0],"id":24,"left_children":[1,3,5,7,9,11,13,15,17,19,21,23,25,-1,27,-1,-1,-1,-1,-1,-1,-1,-1,-1,-1,-1,-1,-1,-1],"loss_changes":[1.6540155E1,1.3190284E1,6.609233E0,1.4017887E1,1.1546153E1,4.5127296E0,1.2684488E0,7.936472E0,7.8672276E0,1.0012695E1,1.0055892E1,5.3479767E0,3.3986435E0,0E0,4.0737534E-1,0E0,0E0,0E0,0E0,0E0,0E0,0E0,0E0,0E0,0E0,0E0,0E0,0E0,0E0],"parents":[2147483647,0,0,1,1,2,2,3,3,4,4,5,5,6,6,7,7,8,8,9,9,10,10,11,11,12,12,14,14],"right_children":[2,4,6,8,10,12,14,16,18,20,22,24,26,-1,28,-1,-1,-1,-1,-1,-1,-1,-1,-1,-1,-1,-1,-1,-1],"split_conditions":[1.8E1,-5E0,4.9658836E1,1E0,5E0,7.2E1,2.1045785E0,1E0,2.0024984E1,1E0,1E0,1E0,2.1246176E1,-8.379538E-3,1.2851459E2,-1.211253E-2,-4.7110897E-2,7.7197514E-2,7.4143596E-3,1.3146198E-2,5.099685E-2,-2.808363E-3,3.8028505E-2,-2.1085344E-2,5.7571955E-2,-7.487105E-2,1.4851639E-2,-9.62964E-2,-2.2835704E-2],"split_indices":[84,84,75,12,76,83,77,15,75,2,35,31,77,0,82,0,0,0,0,0,0,0,0,0,0,0,0,0,0],"split_type":[0,0,0,0,0,0,0,0,0,0,0,0,0,0,0,0,0,0,0,0,0,0,0,0,0,0,0,0,0],"sum_hessian":[1.6308921E3,1.501563E3,1.2932912E2,4.617302E2,1.0398328E3,1.0771785E2,2.1611258E1,3.732846E2,8.844557E1,3.5609808E2,6.837347E2,8.091487E1,2.6802984E1,2.2333055E0,1.9377953E1,2.9042834E2,8.2856255E1,2.0280394E1,6.816518E1,2.610894E2,9.5008705E1,6.179249E2,6.580974E1,7.208231E1,8.832557E0,2.1995195E1,4.80779E0,1.7829561E1,1.5483904E0],"tree_param":{"num_deleted":"0","num_feature":"86","num_nodes":"29","size_leaf_vector":"1"}},{"base_weights":[-5.4948423E-3,2.0279448E-2,-3.612564E-1,-3.6710152E-1,4.2304553E-2,-2.0749764E-1,-6.817496E-1,-4.0701625E-1,5.950538E-2,-5.008156E-2,1.2695825E-1,-3.4681618E-1,2.6556152E-1,-7.535224E-1,4.7705304E-2,1.5017386E-2,-4.8898313E-2,-9.042464E-3,3.2880787E-2,1.5618674E-2,-3.3770908E-2,-1.8096209E-2,-7.146884E-2,4.235455E-2,-7.032631E-2,-8.480008E-2,-1.3279498E-2],"categories":[],"categories_nodes":[],"categories_segments":[],"categories_sizes":[],"default_left":[0,0,0,0,0,0,0,0,0,0,1,0,0,0,0,0,0,0,0,0,0,0,0,0,0,0,0],"id":25,"left_children":[1,3,5,7,9,11,13,15,-1,17,19,21,23,25,-1,-1,-1,-1,-1,-1,-1,-1,-1,-1,-1,-1,-1],"loss_changes":[1.5019034E1,1.3048208E1,5.3111305E0,3.4020376E0,1.1316898E1,5.114931E0,3.3067112E0,3.7086296E0,0E0,1.0610992E1,1.0306383E1,3.4891858E0,3.0383704E0,1.867073E0,0E0,0E0,0E0,0E0,0E0,0E0,0E0,0E0,0E0,0E0,0E0,0E0,0E0],"parents":[2147483647,0,0,1,1,2,2,3,3,4,4,5,5,6,6,7,7,9,9,10,10,11,11,12,12,13,13],"right_children":[2,4,6,8,10,12,14,16,-1,18,20,22,24,26,-1,-1,-1,-1,-1,-1,-1,-1,-1,-1,-1,-1,-1],"split_conditions":[1.9E1,-2E1,4.3011627E1,1E0,1.1384993E1,1E0,1E0,2.3647065E0,5.950538E-2,1E0,4.523826E1,7.2E1,1E0,1E0,4.7705304E-2,1.5017386E-2,-4.8898313E-2,-9.042464E-3,3.2880787E-2,1.5618674E-2,-3.3770908E-2,-1.8096209E-2,-7.146884E-2,4.235455E-2,-7.032631E-2,-8.480008E-2,-1.3279498E-2],"split_indices":[84,84,75,63,77,12,70,77,0,36,77,83,5,31,0,0,0,0,0,0,0,0,0,0,0,0,0],"split_type":[0,0,0,0,0,0,0,0,0,0,0,0,0,0,0,0,0,0,0,0,0,0,0,0,0,0,0],"sum_hessian":[1.6361348E3,1.5264865E3,1.0964823E2,8.1278595E1,1.4452079E3,7.5212135E1,3.4436092E1,7.859508E1,2.6835191E0,6.9123865E2,7.5396924E2,5.830721E1,1.6904928E1,3.275696E1,1.6791294E0,9.9724865E0,6.862259E1,6.2540826E2,6.5830376E1,7.099743E2,4.399493E1,4.1216698E1,1.7090511E1,1.5018691E1,1.8862377E0,2.8112011E1,4.644953E0],"tree_param":{"num_deleted":"0","num_feature":"86","num_nodes":"27","size_leaf_vector":"1"}},{"base_weights":[-2.5066731E-2,1.5163107E-2,-2.4162385E-1,-1.4318895E-1,7.090378E-2,-1.8376504E-1,-7.210612E-1,-8.084092E-2,-5.035998E-1,4.7605895E-2,6.6844314E-1,-3.5471088E-1,-1.2119696E-2,-8.142153E-1,1.8317834E-2,1.1221572E-2,-1.9569397E-2,-1.6879393E-2,-7.549364E-2,7.0817596E-3,-2.8951216E-2,3.366403E-2,1.09735765E-1,-4.011732E-2,7.6214045E-2,-6.5440387E-3,1.2290186E-1,-2.3408636E-2,-8.790446E-2],"categories":[],"categories_nodes":[],"categories_segments":[],"categories_sizes":[],"default_left":[0,0,0,0,0,0,0,0,0,0,0,0,0,0,0,0,0,0,0,0,0,0,0,0,0,0,0,0,0],"id":26,"left_children":[1,3,5,7,9,11,13,15,17,19,21,23,25,27,-1,-1,-1,-1,-1,-1,-1,-1,-1,-1,-1,-1,-1,-1,-1],"loss_changes":[1.4170464E1,1.2122947E1,6.9360123E0,7.9953218E0,1.4107851E1,6.706766E0,2.4316998E0,6.8084774E0,4.294608E0,7.6784434E0,5.0440006E0,6.2502947E0,7.701593E0,7.250843E-1,0E0,0E0,0E0,0E0,0E0,0E0,0E0,0E0,0E0,0E0,0E0,0E0,0E0,0E0,0E0],"parents":[2147483647,0,0,1,1,2,2,3,3,4,4,5,5,6,6,7,7,8,8,9,9,10,10,11,11,12,12,13,13],"right_children":[2,4,6,8,10,12,14,16,18,20,22,24,26,28,-1,-1,-1,-1,-1,-1,-1,-1,-1,-1,-1,-1,-1,-1,-1],"split_conditions":[1.1E1,-7E0,4.7801674E1,1E0,1E0,1E0,1E0,2.433105E1,1.0473777E1,1E0,1.1815244E2,1E0,1E0,2.1045785E0,1.8317834E-2,1.1221572E-2,-1.9569397E-2,-1.6879393E-2,-7.549364E-2,7.0817596E-3,-2.8951216E-2,3.366403E-2,1.09735765E-1,-4.011732E-2,7.6214045E-2,-6.5440387E-3,1.2290186E-1,-2.3408636E-2,-8.790446E-2],"split_indices":[84,84,75,15,61,85,30,75,77,11,82,68,58,77,0,0,0,0,0,0,0,0,0,0,0,0,0,0,0],"split_type":[0,0,0,0,0,0,0,0,0,0,0,0,0,0,0,0,0,0,0,0,0,0,0,0,0,0,0,0,0],"sum_hessian":[1.6251141E3,1.371298E3,2.5381618E2,3.566194E2,1.0146785E3,2.2771828E2,2.6097897E1,3.0506927E2,5.1550102E1,9.7764026E2,3.7038242E1,1.1355726E2,1.1416102E2,2.3750679E1,2.3472188E0,1.1380212E2,1.9126718E2,2.2821339E1,2.8728762E1,9.1540173E2,6.2238533E1,2.1889595E1,1.5148648E1,1.0963703E2,3.920226E0,1.10366806E2,3.794208E0,2.8508132E0,2.0899866E1],"tree_param":{"num_deleted":"0","num_feature":"86","num_nodes":"29","size_leaf_vector":"1"}},{"base_weights":[-5.9013134E-3,1.7781466E-2,-3.4991115E-1,3.5319465E-1,-8.543748E-4,-3.824583E-1,7.326058E-2,4.8464227E-1,-6.0100514E-1,-4.3141376E-2,2.0736814E-1,-2.8201386E-1,-7.7005655E-1,5.554968E-2,-7.4978605E-2,2.0699352E-2,-9.168594E-2,-5.1154274E-2,-2.746914E-3,2.2792818E-2,-6.9342E-2,-9.0606E-3,-6.1829455E-2,3.2891878E-3,-8.527198E-2],"categories":[],"categories_nodes":[],"categories_segments":[],"categories_sizes":[],"default_left":[0,0,0,0,0,0,0,0,0,0,1,0,0,0,0,0,0,0,0,0,0,0,0,0,0],"id":27,"left_children":[1,3,5,7,9,11,-1,13,15,17,19,21,23,-1,-1,-1,-1,-1,-1,-1,-1,-1,-1,-1,-1],"loss_changes":[1.3249973E1,9.512792E0,3.9708462E0,1.033872E1,1.2712252E1,3.7675276E0,0E0,6.6230392E0,2.7789958E0,8.795107E0,4.671604E0,5.2776046E0,1.3878508E0,0E0,0E0,0E0,0E0,0E0,0E0,0E0,0E0,0E0,0E0,0E0,0E0],"parents":[2147483647,0,0,1,1,2,2,3,3,4,4,5,5,7,7,8,8,9,9,10,10,11,11,12,12],"right_children":[2,4,6,8,10,12,-1,14,16,18,20,22,24,-1,-1,-1,-1,-1,-1,-1,-1,-1,-1,-1,-1],"split_conditions":[1.9E1,7.071068E0,6E1,1E0,1E0,4.7801674E1,7.326058E-2,1E0,-7.675948E1,-2.4E1,1.1277422E1,1.3201515E2,2.1045785E0,5.554968E-2,-7.4978605E-2,2.0699352E-2,-9.168594E-2,-5.1154274E-2,-2.746914E-3,2.2792818E-2,-6.9342E-2,-9.0606E-3,-6.1829455E-2,3.2891878E-3,-8.527198E-2],"split_indices":[84,75,76,18,12,75,0,12,78,84,79,82,77,0,0,0,0,0,0,0,0,0,0,0,0],"split_type":[0,0,0,0,0,0,0,0,0,0,0,0,0,0,0,0,0,0,0,0,0,0,0,0,0],"sum_hessian":[1.6245768E3,1.5208263E3,1.0375042E2,7.910577E1,1.4417206E3,1.0134991E2,2.400508E0,6.996034E1,9.145424E0,1.1990114E3,2.4270918E2,8.1863045E1,1.9486866E1,6.668283E1,3.2775104E0,2.667148E0,6.478276E0,3.779449E1,1.1612169E3,2.3802338E2,4.685798E0,5.297793E1,2.8885117E1,1.8751094E0,1.7611755E1],"tree_param":{"num_deleted":"0","num_feature":"86","num_nodes":"25","size_leaf_vector":"1"}},{"base_weights":[-2.511324E-3,-8.868998E-1,6.3308724E-3,-9.408191E-2,-3.094287E-2,1.6849849E-3,1.0828118E0,1.9991301E-2,-2.838754E-1,3.7290436E-1,1.6648157E-1,5.1227445E-4,4.262435E-2,-3.323603E-2,5.700298E-2,-1.44953495E-2,8.2545556E-2],"categories":[],"categories_nodes":[],"categories_segments":[],"categories_sizes":[],"default_left":[0,0,1,0,0,0,0,0,0,0,0,0,0,0,0,0,0],"id":28,"left_children":[1,3,5,-1,-1,7,9,11,13,15,-1,-1,-1,-1,-1,-1,-1],"loss_changes":[1.2738823E1,2.1099186E-1,8.066E0,0E0,0E0,8.407638E0,2.2427244E0,9.126954E0,4.200992E0,1.1533802E0,0E0,0E0,0E0,0E0,0E0,0E0,0E0],"parents":[2147483647,0,0,1,1,2,2,5,5,6,6,7,7,8,8,9,9],"right_children":[2,4,6,-1,-1,8,10,12,14,16,-1,-1,-1,-1,-1,-1,-1],"split_conditions":[3E1,1E0,6.2500862E1,-9.408191E-2,-3.094287E-2,1.9E1,2.5495098E1,1E0,1E0,-2.6003345E1,1.6648157E-1,5.1227445E-4,4.262435E-2,-3.323603E-2,5.700298E-2,-1.44953495E-2,8.2545556E-2],"split_indices":[83,4,79,0,0,84,82,13,68,78,0,0,0,0,0,0,0],"split_type":[0,0,0,0,0,0,0,0,0,0,0,0,0,0,0,0,0],"sum_hessian":[1.6273007E3,1.5125829E1,1.6121748E3,1.3258645E1,1.8671837E0,1.6062441E3,5.9306803E0,1.5103507E3,9.58935E1,3.4109051E0,2.5197752E0,1.4580015E3,5.234926E1,9.131916E1,4.5743423E0,1.9076563E0,1.5032488E0],"tree_param":{"num_deleted":"0","num_feature":"86","num_nodes":"17","size_leaf_vector":"1"}},{"base_weights":[-4.277043E-4,1.5636876E-2,-4.8865476E-1,-2.3977032E-1,3.567775E-2,-2.698503E-1,-7.3410404E-1,-3.3056608E-1,9.474955E-2,3.92755E-1,2.4155736E-2,2.8054452E-2,-9.0387665E-2,-7.984967E-1,-3.3229066E-3,1.1887732E-2,-4.3110188E-2,-7.587435E-2,3.714137E-2,5.8870226E-2,-6.525774E-2,3.3348107E-3,-4.518865E-2,1.1020555E-1,-2.7214617E-2,-8.6634144E-2,-2.9674774E-2],"categories":[],"categories_nodes":[],"categories_segments":[],"categories_sizes":[],"default_left":[0,0,0,0,0,0,0,0,0,0,0,0,0,0,0,0,0,0,0,0,0,0,0,0,0,0,0],"id":29,"left_children":[1,3,5,7,9,11,13,15,17,19,21,23,-1,25,-1,-1,-1,-1,-1,-1,-1,-1,-1,-1,-1,-1,-1],"loss_changes":[1.2723493E1,8.04774E0,2.5772696E0,3.506032E0,5.985741E0,5.484546E0,1.046442E0,4.127036E0,6.2321796E0,9.700775E0,6.196994E0,6.9525414E0,0E0,4.8264885E-1,0E0,0E0,0E0,0E0,0E0,0E0,0E0,0E0,0E0,0E0,0E0,0E0,0E0],"parents":[2147483647,0,0,1,1,2,2,3,3,4,4,5,5,6,6,7,7,8,8,9,9,10,10,11,11,13,13],"right_children":[2,4,6,8,10,12,14,16,18,20,22,24,-1,26,-1,-1,-1,-1,-1,-1,-1,-1,-1,-1,-1,-1,-1],"split_conditions":[2.4E1,-1.7E1,1.2E1,1E0,6.0827627E0,4.7801674E1,1E0,4.9497475E1,3.0413813E1,1E0,8.7E1,3.9805573E1,-9.0387665E-2,1.4637282E2,-3.3229066E-3,1.1887732E-2,-4.3110188E-2,-7.587435E-2,3.714137E-2,5.8870226E-2,-6.525774E-2,3.3348107E-3,-4.518865E-2,1.1020555E-1,-2.7214617E-2,-8.6634144E-2,-2.9674774E-2],"split_indices":[84,84,76,12,75,75,34,82,75,18,83,78,0,82,0,0,0,0,0,0,0,0,0,0,0,0,0],"split_type":[0,0,0,0,0,0,0,0,0,0,0,0,0,0,0,0,0,0,0,0,0,0,0,0,0,0,0],"sum_hessian":[1.6202657E3,1.5695881E3,5.067762E1,1.1340137E2,1.4561868E3,2.7903028E1,2.277459E1,8.9201904E1,2.4199463E1,4.4484543E1,1.4117023E3,1.9633669E1,8.26936E0,2.073068E1,2.0439107E0,1.627269E1,7.292921E1,5.4975047E0,1.8701958E1,3.7830124E1,6.6544194E0,1.3858711E3,2.5831211E1,3.7055583E0,1.5928112E1,1.7621344E1,3.1093366E0],"tree_param":{"num_deleted":"0","num_feature":"86","num_nodes":"27","size_leaf_vector":"1"}},{"base_weights":[-7.590342E-3,5.283035E-3,-4.925111E-1,-8.240101E-3,3.612419E-1,-5.751107E-1,3.2444528E-1,-4.3122057E-2,1.5978228E-1,5.0096077E-1,-4.8949042E-1,-6.8457615E-1,8.75389E-2,1.3613945E-1,-6.7080244E-2,7.0961113E-3,-1.1165362E-2,1.0376973E-2,5.1895555E-2,3.273888E-2,1.2078301E-1,-6.4842924E-2,1.5741868E-2,-7.317125E-2,1.7174734E-2,1.2500001E-1,-7.804378E-2],"categories":[],"categories_nodes":[],"categories_segments":[],"categories_sizes":[],"default_left":[0,0,0,0,0,1,0,0,0,0,0,0,0,0,0,0,0,0,0,0,0,0,0,0,0,0,0],"id":30,"left_children":[1,3,5,7,9,11,13,15,17,19,21,23,25,-1,-1,-1,-1,-1,-1,-1,-1,-1,-1,-1,-1,-1,-1],"loss_changes":[1.0105064E1,7.5963492E0,3.0114298E0,8.919631E0,7.11048E0,2.8437996E0,5.5399613E0,9.859433E0,5.2098956E0,5.7519903E0,9.9181056E-1,1.459733E0,7.360111E0,0E0,0E0,0E0,0E0,0E0,0E0,0E0,0E0,0E0,0E0,0E0,0E0,0E0,0E0],"parents":[2147483647,0,0,1,1,2,2,3,3,4,4,5,5,6,6,7,7,8,8,9,9,10,10,11,11,12,12],"right_children":[2,4,6,8,10,12,14,16,18,20,22,24,26,-1,-1,-1,-1,-1,-1,-1,-1,-1,-1,-1,-1,-1,-1],"split_conditions":[5.315073E1,1E0,1E0,1E0,1E0,1.9275957E1,6.1351448E1,1.2206555E1,1E0,1E0,2.3E1,5.3E1,2.4186773E1,1.3613945E-1,-6.7080244E-2,7.0961113E-3,-1.1165362E-2,1.0376973E-2,5.1895555E-2,3.273888E-2,1.2078301E-1,-6.4842924E-2,1.5741868E-2,-7.317125E-2,1.7174734E-2,1.2500001E-1,-7.804378E-2],"split_indices":[75,13,34,12,26,77,75,75,36,4,76,76,77,0,0,0,0,0,0,0,0,0,0,0,0,0,0],"split_type":[0,0,0,0,0,0,0,0,0,0,0,0,0,0,0,0,0,0,0,0,0,0,0,0,0,0,0],"sum_hessian":[1.6173185E3,1.5764568E3,4.0861694E1,1.5196992E3,5.675762E1,3.7378517E1,3.4831777E0,1.2590582E3,2.6064096E2,4.9104202E1,7.6534214E0,3.2050835E1,5.327683E0,1.5256778E0,1.9574999E0,4.724854E2,7.865728E2,2.2659303E2,3.4047935E1,4.0598404E1,8.505798E0,6.1420374E0,1.511384E0,3.0516567E1,1.5342675E0,2.0893428E0,3.2383401E0],"tree_param":{"num_deleted":"0","num_feature":"86","num_nodes":"27","size_leaf_vector":"1"}},{"base_weights":[-1.6764851E-2,-4.086352E-3,-4.948421E-1,1.0240049E-2,-3.9704466E-1,-5.486803E-1,5.523411E-2,-3.9148346E-1,2.4131E-2,-1.532024E-1,-8.678855E-1,-2.3458004E-2,-6.9814056E-1,-4.5092583E-2,8.7116264E-2,3.6875792E-3,-3.4868356E-2,-3.2939598E-2,1.0459063E-1,-9.622709E-2,7.7883676E-3,-3.1225845E-2,9.4455734E-2,-7.683667E-2,-4.67781E-3],"categories":[],"categories_nodes":[],"categories_segments":[],"categories_sizes":[],"default_left":[0,0,0,0,0,0,0,0,0,0,0,0,1,0,0,0,0,0,0,0,0,0,0,0,0],"id":31,"left_children":[1,3,5,7,9,11,-1,13,15,17,19,21,23,-1,-1,-1,-1,-1,-1,-1,-1,-1,-1,-1,-1],"loss_changes":[9.872861E0,8.94449E0,2.6755009E0,8.565203E0,6.2834463E0,3.1648026E0,0E0,4.2432675E0,7.05877E0,8.379983E0,1.757947E0,3.0939507E0,1.4055243E0,0E0,0E0,0E0,0E0,0E0,0E0,0E0,0E0,0E0,0E0,0E0,0E0],"parents":[2147483647,0,0,1,1,2,2,3,3,4,4,5,5,7,7,8,8,9,9,10,10,11,11,12,12],"right_children":[2,4,6,8,10,12,-1,14,16,18,20,22,24,-1,-1,-1,-1,-1,-1,-1,-1,-1,-1,-1,-1],"split_conditions":[5.2153618E1,5.7994617E1,1E0,-2.1E1,1.4447145E2,-2.6003345E1,5.523411E-2,5.0159744E1,1E0,1E0,1E0,1.1610771E2,2.2727076E1,-4.5092583E-2,8.7116264E-2,3.6875792E-3,-3.4868356E-2,-3.2939598E-2,1.0459063E-1,-9.622709E-2,7.7883676E-3,-3.1225845E-2,9.4455734E-2,-7.683667E-2,-4.67781E-3],"split_indices":[75,78,70,84,82,78,0,75,65,29,2,82,77,0,0,0,0,0,0,0,0,0,0,0,0],"split_type":[0,0,0,0,0,0,0,0,0,0,0,0,0,0,0,0,0,0,0,0,0,0,0,0,0],"sum_hessian":[1.6281687E3,1.587088E3,4.108066E1,1.5322013E3,5.488677E1,3.9524647E1,1.5560148E0,5.030176E1,1.4818995E3,3.703316E1,1.7853607E1,9.012062E0,3.0512583E1,4.8654114E1,1.6476477E0,1.4337861E3,4.8113377E1,3.2921127E1,4.112036E0,1.6217674E1,1.6359317E0,7.462964E0,1.5490979E0,2.7380905E1,3.131678E0],"tree_param":{"num_deleted":"0","num_feature":"86","num_nodes":"25","size_leaf_vector":"1"}},{"base_weights":[-3.0758453E-3,1.0164021E-2,-4.3173754E-1,-4.5581087E-2,9.393335E-2,-4.9162748E-1,6.2629305E-2,-7.952015E-2,2.658822E-1,-4.8092896E-1,1.18918784E-1,-6.161125E-1,1.08505584E-1,2.2391412E-2,-1.3237769E-2,-9.85873E-2,3.3896E-2,-6.445129E-2,7.6715015E-2,9.358331E-3,6.943591E-2,-6.97209E-2,3.6880217E-2,-1.990277E-2,9.4809346E-2],"categories":[],"categories_nodes":[],"categories_segments":[],"categories_sizes":[],"default_left":[0,0,0,0,0,0,0,0,0,0,0,0,0,0,0,0,0,0,0,0,0,0,0,0,0],"id":32,"left_children":[1,3,5,7,9,11,-1,13,15,17,19,21,23,-1,-1,-1,-1,-1,-1,-1,-1,-1,-1,-1,-1],"loss_changes":[9.181745E0,7.33372E0,3.3792963E0,9.990375E0,9.069651E0,3.5358725E0,0E0,1.36817875E1,8.832081E0,5.87098E0,8.713584E0,3.3408146E0,2.4679554E0,0E0,0E0,0E0,0E0,0E0,0E0,0E0,0E0,0E0,0E0,0E0,0E0],"parents":[2147483647,0,0,1,1,2,2,3,3,4,4,5,5,7,7,8,8,9,9,10,10,11,11,12,12],"right_children":[2,4,6,8,10,12,-1,14,16,18,20,22,24,-1,-1,-1,-1,-1,-1,-1,-1,-1,-1,-1,-1],"split_conditions":[2.4E1,1.5407486E1,1E0,1E0,6.4653824E1,1E0,6.2629305E-2,4E0,2E0,1E0,1E0,1E0,1E0,2.2391412E-2,-1.3237769E-2,-9.85873E-2,3.3896E-2,-6.445129E-2,7.6715015E-2,9.358331E-3,6.943591E-2,-6.97209E-2,3.6880217E-2,-1.990277E-2,9.4809346E-2],"split_indices":[84,77,70,36,79,13,0,76,76,28,50,27,31,0,0,0,0,0,0,0,0,0,0,0,0],"split_type":[0,0,0,0,0,0,0,0,0,0,0,0,0,0,0,0,0,0,0,0,0,0,0,0,0],"sum_hessian":[1.6160347E3,1.5685635E3,4.747117E1,9.4209393E2,6.2646954E2,4.5434673E1,2.0364969E0,8.5019574E2,9.189817E1,2.533421E1,6.011353E2,3.760722E1,7.827452E0,1.2565035E2,7.245454E2,4.380116E0,8.751805E1,2.282603E1,2.5081787E0,5.768983E2,2.4237047E1,3.5016148E1,2.591071E0,6.2873864E0,1.5400654E0],"tree_param":{"num_deleted":"0","num_feature":"86","num_nodes":"25","size_leaf_vector":"1"}},{"base_weights":[3.9347564E-3,1.8352192E-2,-3.901895E-1,-1.7142439E-1,3.926665E-2,-1.9969638E-1,-7.9085964E-1,-2.1337967E-1,8.820165E-1,8.716952E-2,-6.4573504E-2,-3.444245E-1,5.1817375E-1,-1.0547672E-2,-8.847736E-1,-5.3346988E-2,-1.3169332E-2,-6.224686E-3,1.8411231E-1,4.555823E-3,2.6100745E-2,-1.0737158E-2,3.4421362E-2,-4.1144244E-2,2.9378224E-2,1.4242858E-1,-7.4526556E-2,-9.405349E-2,-2.438512E-2],"categories":[],"categories_nodes":[],"categories_segments":[],"categories_sizes":[],"default_left":[0,0,0,0,0,1,0,0,0,0,0,0,0,0,0,0,0,0,0,0,0,0,0,0,0,0,0,0,0],"id":33,"left_children":[1,3,5,7,9,11,13,15,17,19,21,23,25,-1,27,-1,-1,-1,-1,-1,-1,-1,-1,-1,-1,-1,-1,-1,-1],"loss_changes":[9.212571E0,6.213611E0,4.2090473E0,7.057348E0,7.0162783E0,4.346424E0,1.0716572E0,3.8589072E0,5.6821694E0,6.9677877E0,7.8310604E0,1.5745201E0,9.22415E0,0E0,3.3469868E-1,0E0,0E0,0E0,0E0,0E0,0E0,0E0,0E0,0E0,0E0,0E0,0E0,0E0,0E0],"parents":[2147483647,0,0,1,1,2,2,3,3,4,4,5,5,6,6,7,7,8,8,9,9,10,10,11,11,12,12,14,14],"right_children":[2,4,6,8,10,12,14,16,18,20,22,24,26,-1,28,-1,-1,-1,-1,-1,-1,-1,-1,-1,-1,-1,-1,-1,-1],"split_conditions":[4.7801674E1,-1.3E1,1.4E1,1E0,5E0,1.9275957E1,2.1045785E0,-2.3E1,1E0,2E0,1E0,1E0,2.7760134E1,-1.0547672E-2,1.27738014E2,-5.3346988E-2,-1.3169332E-2,-6.224686E-3,1.8411231E-1,4.555823E-3,2.6100745E-2,-1.0737158E-2,3.4421362E-2,-4.1144244E-2,2.9378224E-2,1.4242858E-1,-7.4526556E-2,-9.405349E-2,-2.438512E-2],"split_indices":[75,84,84,63,84,77,77,84,12,84,36,7,77,0,82,0,0,0,0,0,0,0,0,0,0,0,0,0,0],"split_type":[0,0,0,0,0,0,0,0,0,0,0,0,0,0,0,0,0,0,0,0,0,0,0,0,0,0,0,0,0],"sum_hessian":[1.619026E3,1.5628104E3,5.6215633E1,1.544196E2,1.4083907E3,3.911659E1,1.7099043E1,1.49272E2,5.147596E0,9.63894E2,4.444968E2,3.2986477E1,6.1301126E0,2.3164856E0,1.47825575E1,2.9224459E1,1.2004755E2,3.0650654E0,2.0825305E0,7.787484E2,1.8514561E2,4.0303796E2,4.145883E1,3.0173302E1,2.8131764E0,3.4957361E0,2.6343768E0,1.31693325E1,1.6132247E0],"tree_param":{"num_deleted":"0","num_feature":"86","num_nodes":"29","size_leaf_vector":"1"}},{"base_weights":[8.228672E-3,1.36171365E-2,-8.165854E-1,2.6148032E-2,-3.497427E-1,-8.921337E-2,-2.7873382E-2,4.3794137E-1,1.5106384E-2,-1.6484272E-1,-8.6201227E-1,-4.405851E-2,7.511129E-2,1.1890008E-3,1.1721196E-1,-2.6855959E-2,1.19169E-1,-9.9794164E-2,-1.96113E-2],"categories":[],"categories_nodes":[],"categories_segments":[],"categories_sizes":[],"default_left":[0,0,1,0,0,0,0,0,1,0,0,0,0,0,0,0,0,0,0],"id":34,"left_children":[1,3,5,7,9,-1,-1,11,13,15,17,-1,-1,-1,-1,-1,-1,-1,-1],"loss_changes":[7.218247E0,7.3491645E0,1.7966938E-1,7.0830526E0,4.954683E0,0E0,0E0,1.1523545E1,5.6409307E0,6.0568886E0,1.074646E0,0E0,0E0,0E0,0E0,0E0,0E0,0E0,0E0],"parents":[2147483647,0,0,1,1,2,2,3,3,4,4,7,7,8,8,9,9,10,10],"right_children":[2,4,6,8,10,-1,-1,12,14,16,18,-1,-1,-1,-1,-1,-1,-1,-1],"split_conditions":[6.8154236E1,5.7994617E1,1.5106617E1,6.0827627E0,1.5125145E2,-8.921337E-2,-2.7873382E-2,-5.4462322E1,7.170548E1,1E0,2.5495098E1,-4.405851E-2,7.511129E-2,1.1890008E-3,1.1721196E-1,-2.6855959E-2,1.19169E-1,-9.9794164E-2,-1.96113E-2],"split_indices":[75,78,77,75,82,0,0,78,79,67,75,0,0,0,0,0,0,0,0],"split_type":[0,0,0,0,0,0,0,0,0,0,0,0,0,0,0,0,0,0,0],"sum_hessian":[1.6205902E3,1.6110488E3,9.541402E0,1.5582391E3,5.2809685E1,7.7886806E0,1.7527214E0,3.9681267E1,1.5185579E3,3.9774982E1,1.3034703E1,1.0321095E1,2.936017E1,1.5153556E3,3.2022538E0,3.769495E1,2.0800304E0,1.0410899E1,2.6238039E0],"tree_param":{"num_deleted":"0","num_feature":"86","num_nodes":"19","size_leaf_vector":"1"}},{"base_weights":[9.254698E-3,-6.734412E-2,8.078371E-2,2.157592E-1,-1.00159466E-1,1.06537975E-1,-3.3969057E-1,7.4697755E-2,1.2202595E0,-2.9832602E-1,-1.9718746E-2,9.898769E-2,1.5762039E-1,-4.394687E-1,4.004943E-1,-2.9054502E-2,4.2139675E-2,1.5859118E-1,2.1674445E-2,-3.634756E-2,5.489709E-2,4.0470413E-4,-6.7085266E-2,1.1949453E-2,-3.686019E-2,-5.32425E-2,3.4242913E-2,7.4657105E-2,4.159705E-3],"categories":[],"categories_nodes":[],"categories_segments":[],"categories_sizes":[],"default_left":[0,0,1,0,0,1,0,0,0,0,0,1,0,0,0,0,0,0,0,0,0,0,0,0,0,0,0,0,0],"id":35,"left_children":[1,3,5,7,9,11,13,15,17,19,21,23,-1,25,27,-1,-1,-1,-1,-1,-1,-1,-1,-1,-1,-1,-1,-1,-1],"loss_changes":[8.824055E0,7.247116E0,9.054129E0,1.1401161E1,1.11152115E1,8.559701E0,3.7432923E0,9.262965E0,3.2969732E0,1.1314791E1,7.698234E0,7.5473485E0,0E0,3.310625E0,7.465861E-1,0E0,0E0,0E0,0E0,0E0,0E0,0E0,0E0,0E0,0E0,0E0,0E0,0E0,0E0],"parents":[2147483647,0,0,1,1,2,2,3,3,4,4,5,5,6,6,7,7,8,8,9,9,10,10,11,11,13,13,14,14],"right_children":[2,4,6,8,10,12,14,16,18,20,22,24,-1,26,28,-1,-1,-1,-1,-1,-1,-1,-1,-1,-1,-1,-1,-1,-1],"split_conditions":[1.1482172E1,3E0,4.523826E1,1E0,1.4E1,7.170548E1,1E0,2E0,2.0808653E1,1E0,9.929753E0,9.524612E-1,1.5762039E-1,1E0,-2.726311E0,-2.9054502E-2,4.2139675E-2,1.5859118E-1,2.1674445E-2,-3.634756E-2,5.489709E-2,4.0470413E-4,-6.7085266E-2,1.1949453E-2,-3.686019E-2,-5.32425E-2,3.4242913E-2,7.4657105E-2,4.159705E-3],"split_indices":[77,76,77,2,76,79,29,76,75,35,77,79,0,26,78,0,0,0,0,0,0,0,0,0,0,0,0,0,0],"split_type":[0,0,0,0,0,0,0,0,0,0,0,0,0,0,0,0,0,0,0,0,0,0,0,0,0,0,0,0,0],"sum_hessian":[1.6085189E3,7.767612E2,8.3175775E2,8.010525E1,6.9665594E2,7.8445605E2,4.7301716E1,7.118337E1,8.92188E0,2.0035954E2,4.9629642E2,7.815084E2,2.9475782E0,4.2040817E1,5.2609005E0,3.474351E1,3.6439857E1,6.113821E0,2.8080583E0,1.8658392E2,1.37756195E1,4.7977872E2,1.6517696E1,7.493874E2,3.2121048E1,3.7858994E1,4.1818237E0,2.128375E0,3.1325252E0],"tree_param":{"num_deleted":"0","num_feature":"86","num_nodes":"29","size_leaf_vector":"1"}},{"base_weights":[-6.513268E-3,-1.7175362E-3,-7.994389E-1,-2.8816253E-1,1.0754561E-2,-8.811434E-2,-2.4707675E-2,-6.777115E-2,-5.4882765E-1,-1.617372E-2,1.4265859E-1,-8.468817E-2,7.916459E-3,-6.526718E-2,6.630124E-2,2.8854683E-2,-3.704077E-3,-8.257022E-2,1.7831841E-2],"categories":[],"categories_nodes":[],"categories_segments":[],"categories_sizes":[],"default_left":[0,0,1,0,0,0,0,0,0,0,0,0,0,0,0,0,0,0,0],"id":36,"left_children":[1,3,5,7,9,-1,-1,11,13,15,17,-1,-1,-1,-1,-1,-1,-1,-1],"loss_changes":[6.131781E0,5.7340927E0,2.1978569E-1,3.8100414E0,5.4659033E0,0E0,0E0,4.3518233E0,4.275977E0,8.138978E0,9.156052E0,0E0,0E0,0E0,0E0,0E0,0E0,0E0,0E0],"parents":[2147483647,0,0,1,1,2,2,3,3,4,4,7,7,8,8,9,9,10,10],"right_children":[2,4,6,8,10,-1,-1,12,14,16,18,-1,-1,-1,-1,-1,-1,-1,-1],"split_conditions":[6.8154236E1,-5.8392498E1,1.5106617E1,1.1703845E2,1E0,-8.811434E-2,-2.4707675E-2,9.219544E0,1E0,7.2111025E0,9E0,-8.468817E-2,7.916459E-3,-6.526718E-2,6.630124E-2,2.8854683E-2,-3.704077E-3,-8.257022E-2,1.7831841E-2],"split_indices":[75,78,77,82,12,0,0,82,27,75,75,0,0,0,0,0,0,0,0],"split_type":[0,0,0,0,0,0,0,0,0,0,0,0,0,0,0,0,0,0,0],"sum_hessian":[1.6118595E3,1.6031655E3,8.694016E0,6.5968605E1,1.5371969E3,7.055196E0,1.6388205E0,3.6428467E1,2.954014E1,1.2773105E3,2.598863E2,5.0242605E0,3.1404205E1,2.7633602E1,1.9065387E0,8.104124E1,1.1962694E3,8.443508E0,2.5144278E2],"tree_param":{"num_deleted":"0","num_feature":"86","num_nodes":"19","size_leaf_vector":"1"}},{"base_weights":[-3.6627937E-3,3.5449095E-2,-1.220354E-1,-1.2931426E-2,1.8020776E-1,-7.513478E-2,-5.6376624E-1,4.695201E-3,-5.2567834E-1,1.24987416E-1,9.702937E-1,-4.867955E-2,-6.9665086E-1,-6.668671E-1,8.807182E-2,1.95185E-2,-4.0245517E-3,-7.1605556E-2,5.473704E-2,6.390103E-3,7.644255E-2,2.6407108E-1,6.0710467E-2,-9.132096E-3,3.1158915E-2,-1.890712E-2,-8.954123E-2,-3.1500872E-2,-7.7461205E-2],"categories":[],"categories_nodes":[],"categories_segments":[],"categories_sizes":[],"default_left":[0,0,0,0,0,0,0,0,0,0,0,0,0,0,0,0,0,0,0,0,0,0,0,0,0,0,0,0,0],"id":37,"left_children":[1,3,5,7,9,11,13,15,17,19,21,23,25,27,-1,-1,-1,-1,-1,-1,-1,-1,-1,-1,-1,-1,-1,-1,-1],"loss_changes":[7.4746046E0,8.501622E0,8.264332E0,8.2317E0,1.3144626E1,5.94486E0,6.295864E0,7.551977E0,6.57547E0,1.1097103E1,1.0357634E1,5.4029727E0,1.320878E0,1.1339188E0,0E0,0E0,0E0,0E0,0E0,0E0,0E0,0E0,0E0,0E0,0E0,0E0,0E0,0E0,0E0],"parents":[2147483647,0,0,1,1,2,2,3,3,4,4,5,5,6,6,7,7,8,8,9,9,10,10,11,11,12,12,13,13],"right_children":[2,4,6,8,10,12,14,16,18,20,22,24,26,28,-1,-1,-1,-1,-1,-1,-1,-1,-1,-1,-1,-1,-1,-1,-1],"split_conditions":[6E0,3.17983E0,1E0,1E0,2.758623E1,1E0,4.9491863E1,9.433981E0,2.6450426E1,1E0,3.1780497E1,1E0,5E0,3.247119E1,8.807182E-2,1.95185E-2,-4.0245517E-3,-7.1605556E-2,5.473704E-2,6.390103E-3,7.644255E-2,2.6407108E-1,6.0710467E-2,-9.132096E-3,3.1158915E-2,-1.890712E-2,-8.954123E-2,-3.1500872E-2,-7.7461205E-2],"split_indices":[84,78,15,65,75,40,77,75,77,6,82,36,76,78,0,0,0,0,0,0,0,0,0,0,0,0,0,0,0],"split_type":[0,0,0,0,0,0,0,0,0,0,0,0,0,0,0,0,0,0,0,0,0,0,0,0,0,0,0,0,0],"sum_hessian":[1.612529E3,1.2125778E3,3.9995135E2,9.0951483E2,3.0306287E2,3.6262036E2,3.7331E1,8.802456E2,2.9269232E1,2.843476E2,1.87153E1,3.4884967E2,1.3770683E1,3.5346462E1,1.9845364E0,1.6738963E2,7.1285596E2,2.5141405E1,4.1278257E0,2.605562E2,2.379136E1,2.2224903E0,1.649281E1,3.1259717E2,3.6252487E1,4.424085E0,9.346598E0,9.206104E0,2.614036E1],"tree_param":{"num_deleted":"0","num_feature":"86","num_nodes":"29","size_leaf_vector":"1"}},{"base_weights":[9.725066E-3,4.6396915E-2,-8.446806E-2,3.6869783E-2,7.195096E-1,-4.0986463E-2,-5.356021E-1,2.1586783E-2,4.718186E-1,-1.6971795E-2,1.3693618E0,-1.2770207E-2,-7.263198E-1,-6.4419526E-1,1.2091147E-1,3.563437E-3,-3.9331447E-2,6.150623E-2,-6.492953E-2,5.8913756E-2,-9.2123844E-2,1.7218538E-1,3.111574E-2,9.111726E-4,-6.713929E-2,-8.89422E-2,1.8766487E-2,-8.059461E-2,8.4515825E-2],"categories":[],"categories_nodes":[],"categories_segments":[],"categories_sizes":[],"default_left":[0,0,0,0,0,0,0,0,0,0,0,0,0,0,0,0,0,0,0,0,0,0,0,0,0,0,0,0,0],"id":38,"left_children":[1,3,5,7,9,11,13,15,17,19,21,23,25,27,-1,-1,-1,-1,-1,-1,-1,-1,-1,-1,-1,-1,-1,-1,-1],"loss_changes":[5.586311E0,7.4371867E0,8.868597E0,7.6254754E0,7.7715235E0,8.005525E0,8.312089E0,6.487799E0,6.653433E0,5.2434416E0,2.676855E0,5.757875E0,2.60748E0,9.855528E0,0E0,0E0,0E0,0E0,0E0,0E0,0E0,0E0,0E0,0E0,0E0,0E0,0E0,0E0,0E0],"parents":[2147483647,0,0,1,1,2,2,3,3,4,4,5,5,6,6,7,7,8,8,9,9,10,10,11,11,12,12,13,13],"right_children":[2,4,6,8,10,12,14,16,18,20,22,24,26,28,-1,-1,-1,-1,-1,-1,-1,-1,-1,-1,-1,-1,-1,-1,-1],"split_conditions":[2.6019224E1,1E0,1E0,1E0,2.726311E0,7.2E1,1E0,1E0,8.5E1,-1.617216E1,7.7E1,1E0,8.3E1,4.3E1,1.2091147E-1,3.563437E-3,-3.9331447E-2,6.150623E-2,-6.492953E-2,5.8913756E-2,-9.2123844E-2,1.7218538E-1,3.111574E-2,9.111726E-4,-6.713929E-2,-8.89422E-2,1.8766487E-2,-8.059461E-2,8.4515825E-2],"split_indices":[75,13,26,61,78,83,39,44,83,78,83,15,83,76,0,0,0,0,0,0,0,0,0,0,0,0,0,0,0],"split_type":[0,0,0,0,0,0,0,0,0,0,0,0,0,0,0,0,0,0,0,0,0,0,0,0,0,0,0,0,0],"sum_hessian":[1.6151002E3,1.1628713E3,4.5222885E2,1.147682E3,1.5189341E1,4.1346844E2,3.8760426E1,1.1097383E3,3.7943764E1,7.5766087E0,7.6127324E0,3.980968E2,1.5371641E1,3.7083103E1,1.6773216E0,1.0742798E3,3.545849E1,3.404522E1,3.898544E0,4.744781E0,2.8318276E0,5.2400913E0,2.372641E0,3.8625027E2,1.1846527E1,1.3066733E1,2.3049076E0,3.386416E1,3.2189457E0],"tree_param":{"num_deleted":"0","num_feature":"86","num_nodes":"29","size_leaf_vector":"1"}},{"base_weights":[-1.050385E-2,-6.1708703E-3,-7.8266114E-1,3.4934308E-3,-3.2724014E-1,-8.680372E-2,-2.5526276E-2,1.4016196E-1,-3.247398E-2,-4.0127352E-1,9.889452E-2,2.5260288E-3,5.03166E-2,-1.5336591E-3,-5.278017E-2,-5.4737758E-2,6.461154E-2],"categories":[],"categories_nodes":[],"categories_segments":[],"categories_sizes":[],"default_left":[0,1,1,0,0,0,0,0,0,0,0,0,0,0,0,0,0],"id":39,"left_children":[1,3,5,7,9,-1,-1,11,13,15,-1,-1,-1,-1,-1,-1,-1],"loss_changes":[5.385602E0,4.975571E0,1.8287897E-1,7.6596045E0,4.962551E0,0E0,0E0,1.3527889E1,1.0463937E1,7.250937E0,0E0,0E0,0E0,0E0,0E0,0E0,0E0],"parents":[2147483647,0,0,1,1,2,2,3,3,4,4,7,7,8,8,9,9],"right_children":[2,4,6,8,10,-1,-1,12,14,16,-1,-1,-1,-1,-1,-1,-1],"split_conditions":[6.8154236E1,4.523826E1,1.5106617E1,4E0,1E0,-8.680372E-2,-2.5526276E-2,1E0,1E0,1E0,9.889452E-2,2.5260288E-3,5.03166E-2,-1.5336591E-3,-5.278017E-2,-5.4737758E-2,6.461154E-2],"split_indices":[75,77,77,76,45,0,0,2,65,29,0,0,0,0,0,0,0],"split_type":[0,0,0,0,0,0,0,0,0,0,0,0,0,0,0,0,0],"sum_hessian":[1.6101317E3,1.6021493E3,7.982509E0,1.5562933E3,4.5855873E1,6.314434E0,1.6680747E0,3.2363855E2,1.2326548E3,4.4072014E1,1.7838583E0,2.4663937E2,7.699919E1,1.1924299E3,4.022483E1,3.909579E1,4.9762244E0],"tree_param":{"num_deleted":"0","num_feature":"86","num_nodes":"17","size_leaf_vector":"1"}},{"base_weights":[1.700466E-3,1.7143508E-2,-3.499763E-1,2.849373E-2,-3.7923115E-1,-4.213432E-1,6.045111E-1,3.2545216E-2,-9.224054E-2,-5.9395534E-1,-6.5166116E-2,-5.378178E-1,3.0089945E-1,1.3888007E-1,-2.059933E-2,-9.007444E-3,5.9769577E-3,-7.1889415E-2,3.5938304E-2,1.3016641E-1,-2.6862055E-2,-1.7282948E-2,-6.839994E-2,8.91973E-2,-1.463748E-2],"categories":[],"categories_nodes":[],"categories_segments":[],"categories_sizes":[],"default_left":[0,0,0,0,1,1,0,0,0,0,0,0,0,0,0,0,0,0,0,0,0,0,0,0,0],"id":40,"left_children":[1,3,5,7,9,11,13,15,-1,17,19,21,23,-1,-1,-1,-1,-1,-1,-1,-1,-1,-1,-1,-1],"loss_changes":[8.771292E0,6.9707165E0,4.8825703E0,5.827635E0,2.8702388E0,5.5289583E0,3.5515602E0,5.0109324E0,0E0,3.2951994E0,5.532975E0,2.8322744E0,2.642476E0,0E0,0E0,0E0,0E0,0E0,0E0,0E0,0E0,0E0,0E0,0E0,0E0],"parents":[2147483647,0,0,1,1,2,2,3,3,4,4,5,5,6,6,7,7,9,9,10,10,11,11,12,12],"right_children":[2,4,6,8,10,12,14,16,-1,18,20,22,24,-1,-1,-1,-1,-1,-1,-1,-1,-1,-1,-1,-1],"split_conditions":[1E0,2.4E1,3.5942112E1,1E0,1.1800424E1,2.4536255E1,8.944272E0,-9E0,-9.224054E-2,1.4637282E2,1.28514595E1,1E1,-8.746162E0,1.3888007E-1,-2.059933E-2,-9.007444E-3,5.9769577E-3,-7.1889415E-2,3.5938304E-2,1.3016641E-1,-2.6862055E-2,-1.7282948E-2,-6.839994E-2,8.91973E-2,-1.463748E-2],"split_indices":[11,84,78,14,77,77,75,84,0,82,77,75,78,0,0,0,0,0,0,0,0,0,0,0,0],"split_type":[0,0,0,0,0,0,0,0,0,0,0,0,0,0,0,0,0,0,0,0,0,0,0,0,0],"sum_hessian":[1.6129491E3,1.546011E3,6.693811E1,1.5038755E3,4.213549E1,6.2801052E1,4.1370606E0,1.4984568E3,5.4186845E0,2.4496326E1,1.7639162E1,5.4299618E1,8.501437E0,1.7399173E0,2.3971436E0,2.7182718E2,1.2266296E3,2.187539E1,2.6209376E0,1.586054E0,1.6053108E1,1.6152395E1,3.814722E1,3.233767E0,5.26767E0],"tree_param":{"num_deleted":"0","num_feature":"86","num_nodes":"25","size_leaf_vector":"1"}},{"base_weights":[5.5038165E-3,-5.765085E-2,6.647229E-2,-3.6454338E-1,-2.3316195E-2,1.20607294E-1,-1.5922956E-1,-4.10171E-1,9.7063206E-2,-5.693794E-2,2.7119854E-1,8.56984E-1,1.03403E-1,3.3117133E-1,-2.9040018E-1,-4.7854103E-2,4.0605612E-2,-7.6667625E-3,5.483528E-2,1.2519446E-2,1.2958305E-1,1.0968226E-1,-7.053284E-2,-1.1540254E-2,1.6316842E-2,5.14654E-2,-1.51272565E-2,-7.203754E-2,-1.8276675E-2],"categories":[],"categories_nodes":[],"categories_segments":[],"categories_sizes":[],"default_left":[0,0,0,0,0,0,0,0,0,0,0,0,0,0,0,0,0,0,0,0,0,0,0,0,0,0,0,0,0],"id":41,"left_children":[1,3,5,7,9,11,13,15,-1,17,19,21,23,25,27,-1,-1,-1,-1,-1,-1,-1,-1,-1,-1,-1,-1,-1,-1],"loss_changes":[6.209122E0,8.338235E0,1.00437155E1,5.249673E0,7.0805416E0,8.301931E0,1.0333546E1,4.530861E0,0E0,7.6995544E0,1.08005085E1,6.387824E0,8.496847E0,3.092163E0,5.704008E0,0E0,0E0,0E0,0E0,0E0,0E0,0E0,0E0,0E0,0E0,0E0,0E0,0E0,0E0],"parents":[2147483647,0,0,1,1,2,2,3,3,4,4,5,5,6,6,7,7,9,9,10,10,11,11,12,12,13,13,14,14],"right_children":[2,4,6,8,10,12,14,16,-1,18,20,22,24,26,28,-1,-1,-1,-1,-1,-1,-1,-1,-1,-1,-1,-1,-1,-1],"split_conditions":[1.1800424E1,-4.383086E1,1E0,1E0,1E0,1.2139238E1,8.246211E0,-4E0,9.7063206E-2,1E0,9.375E0,1E0,3E0,8.530766E0,-7E0,-4.7854103E-2,4.0605612E-2,-7.6667625E-3,5.483528E-2,1.2519446E-2,1.2958305E-1,1.0968226E-1,-7.053284E-2,-1.1540254E-2,1.6316842E-2,5.14654E-2,-1.51272565E-2,-7.203754E-2,-1.8276675E-2],"split_indices":[77,78,15,43,36,77,75,84,0,70,77,7,76,78,84,0,0,0,0,0,0,0,0,0,0,0,0,0,0],"split_type":[0,0,0,0,0,0,0,0,0,0,0,0,0,0,0,0,0,0,0,0,0,0,0,0,0,0,0,0,0],"sum_hessian":[1.6105779E3,7.911321E2,8.194458E2,7.863687E1,7.124952E2,6.61298E2,1.5814787E2,7.6708275E1,1.9285939E0,6.40215E2,7.228015E1,1.3983081E1,6.473149E2,3.3052273E1,1.25095604E2,7.116128E1,5.5470014E0,6.208515E2,1.9363552E1,6.4247444E1,8.032703E0,1.2380444E1,1.6026368E0,1.3867708E2,5.086378E2,2.3897015E1,9.155258E0,2.3905357E1,1.0119025E2],"tree_param":{"num_deleted":"0","num_feature":"86","num_nodes":"29","size_leaf_vector":"1"}},{"base_weights":[-1.416279E-2,2.1730045E-2,-1.2480028E-1,8.223813E-3,3.6850935E-1,-9.4095826E-2,-9.506436E-1,1.8945487E-2,-3.707113E-1,-3.723523E-1,5.938592E-1,-1.3043226E-1,3.7646124E-1,-1.008749E-1,-3.0164508E-2,1.8161284E-2,-2.6582242E-3,-5.057621E-2,3.902171E-2,6.513724E-2,-7.531081E-2,7.555794E-2,-4.1709676E-2,-8.856671E-3,-4.9653575E-2,1.7084228E-3,1.0356491E-1],"categories":[],"categories_nodes":[],"categories_segments":[],"categories_sizes":[],"default_left":[0,0,0,1,0,0,1,0,0,0,0,0,0,0,0,0,0,0,0,0,0,0,0,0,0,0,0],"id":42,"left_children":[1,3,5,7,9,11,13,15,17,19,21,23,25,-1,-1,-1,-1,-1,-1,-1,-1,-1,-1,-1,-1,-1,-1],"loss_changes":[6.3773594E0,5.6778197E0,9.885003E0,4.7542515E0,7.808464E0,6.5527935E0,2.2331429E-1,8.427212E0,3.5063086E0,4.861649E0,6.0752926E0,5.379453E0,6.502637E0,0E0,0E0,0E0,0E0,0E0,0E0,0E0,0E0,0E0,0E0,0E0,0E0,0E0,0E0],"parents":[2147483647,0,0,1,1,2,2,3,3,4,4,5,5,6,6,7,7,8,8,9,9,10,10,11,11,12,12],"right_children":[2,4,6,8,10,12,14,16,18,20,22,24,26,-1,-1,-1,-1,-1,-1,-1,-1,-1,-1,-1,-1,-1,-1],"split_conditions":[6E0,1E0,1E0,4.523826E1,-7E0,1E0,2.6069618E1,4E0,1.1309933E1,-1.8E1,2.7E1,1E0,6.5E1,-1.008749E-1,-3.0164508E-2,1.8161284E-2,-2.6582242E-3,-5.057621E-2,3.902171E-2,6.513724E-2,-7.531081E-2,7.555794E-2,-4.1709676E-2,-8.856671E-3,-4.9653575E-2,1.7084228E-3,1.0356491E-1],"split_indices":[84,61,40,77,84,13,77,76,78,84,76,15,83,0,0,0,0,0,0,0,0,0,0,0,0,0,0],"split_type":[0,0,0,0,0,0,0,0,0,0,0,0,0,0,0,0,0,0,0,0,0,0,0,0,0,0,0],"sum_hessian":[1.6042626E3,1.2119027E3,3.923599E2,1.1674568E3,4.4445957E1,3.7936908E2,1.2990821E1,1.1362572E3,3.1199512E1,1.0214001E1,3.4231956E1,3.5284518E2,2.652391E1,1.141455E1,1.5762706E0,2.4782108E2,8.8843616E2,2.6781605E1,4.4179077E0,2.5763428E0,7.637658E0,2.9728903E1,4.503052E0,3.1775085E2,3.5094307E1,1.7829508E1,8.694402E0],"tree_param":{"num_deleted":"0","num_feature":"86","num_nodes":"27","size_leaf_vector":"1"}},{"base_weights":[-7.2870305E-4,-2.1777625E-1,1.8870229E-2,-1.0973724E-1,-8.95823E-1,1.862589E-1,-1.4145314E-2,-3.293853E-2,-8.287278E-1,-1.1303969E-2,-1.0283072E0,4.3030417E-1,5.607877E-2,5.7496305E-4,-4.6286997E-1,-2.9797522E-2,2.6362482E-2,-9.458202E-2,-3.1295545E-2,-1.08390026E-1,-3.368553E-2,3.353766E-2,2.4378948E-1,1.51777165E-2,-6.075589E-2,-2.5664987E-3,2.5419155E-2,-8.977362E-2,-2.0430796E-2],"categories":[],"categories_nodes":[],"categories_segments":[],"categories_sizes":[],"default_left":[0,0,0,0,0,1,0,0,0,0,0,0,0,0,0,0,0,0,0,0,0,0,0,0,0,0,0,0,0],"id":43,"left_children":[1,3,5,7,9,11,13,15,17,-1,19,21,23,25,27,-1,-1,-1,-1,-1,-1,-1,-1,-1,-1,-1,-1,-1,-1],"loss_changes":[6.8154626E0,9.621998E0,8.123784E0,6.3554716E0,1.760562E0,7.669409E0,8.113927E0,8.369225E0,3.752141E-1,0E0,2.2509766E-1,1.5208086E1,1.0194848E1,7.9280334E0,4.203638E0,0E0,0E0,0E0,0E0,0E0,0E0,0E0,0E0,0E0,0E0,0E0,0E0,0E0,0E0],"parents":[2147483647,0,0,1,1,2,2,3,3,4,4,5,5,6,6,7,7,8,8,10,10,11,11,12,12,13,13,14,14],"right_children":[2,4,6,8,10,12,14,16,18,-1,20,22,24,26,28,-1,-1,-1,-1,-1,-1,-1,-1,-1,-1,-1,-1,-1,-1],"split_conditions":[2E0,1E0,4E0,1E0,7.106335E0,1.3507405E1,1E0,1E0,1E0,-1.1303969E-2,8.3240616E1,3.765634E1,1E0,1E0,-1.7650124E1,-2.9797522E-2,2.6362482E-2,-9.458202E-2,-3.1295545E-2,-1.08390026E-1,-3.368553E-2,3.353766E-2,2.4378948E-1,1.51777165E-2,-6.075589E-2,-2.5664987E-3,2.5419155E-2,-8.977362E-2,-2.0430796E-2],"split_indices":[76,35,76,36,77,77,65,4,12,0,82,82,35,35,78,0,0,0,0,0,0,0,0,0,0,0,0,0,0],"split_type":[0,0,0,0,0,0,0,0,0,0,0,0,0,0,0,0,0,0,0,0,0,0,0,0,0,0,0,0,0],"sum_hessian":[1.6002019E3,1.316904E2,1.4685115E3,1.1459313E2,1.7097267E1,2.411649E2,1.2273466E3,1.0447906E2,1.0114079E1,2.743068E0,1.4354198E1,8.309097E1,1.5807393E2,1.1893297E3,3.801688E1,5.5169594E1,4.930946E1,7.56325E0,2.5508296E0,1.2760664E1,1.5935344E0,8.045382E1,2.6371512E0,1.3882611E2,1.9247816E1,1.0786301E3,1.1069958E2,1.3253784E1,2.4763098E1],"tree_param":{"num_deleted":"0","num_feature":"86","num_nodes":"29","size_leaf_vector":"1"}},{"base_weights":[-5.361652E-3,-7.8840257E-4,-8.842214E-2,-3.2809437E-3,1.20146945E-1,-2.975991E-1,6.9205333E-3,-6.734205E-2,-1.71067E-2,3.3765893E-2,-1.9973349E-4],"categories":[],"categories_nodes":[],"categories_segments":[],"categories_sizes":[],"default_left":[0,1,0,0,0,1,0,0,0,0,0],"id":44,"left_children":[1,3,-1,5,-1,7,9,-1,-1,-1,-1],"loss_changes":[6.435849E0,4.781072E0,0E0,4.7815323E0,0E0,2.4217672E0,4.5413775E0,0E0,0E0,0E0,0E0],"parents":[2147483647,0,0,1,1,3,3,5,5,6,6],"right_children":[2,4,-1,6,-1,8,10,-1,-1,-1,-1],"split_conditions":[6.8154236E1,8.07274E1,-8.842214E-2,-6.138954E1,1.20146945E-1,3.8420966E0,6.0827627E0,-6.734205E-2,-1.71067E-2,3.3765893E-2,-1.9973349E-4],"split_indices":[75,79,0,78,0,77,75,0,0,0,0],"split_type":[0,0,0,0,0,0,0,0,0,0,0],"sum_hessian":[1.6004318E3,1.5931425E3,7.2892065E0,1.5908416E3,2.3008885E0,5.2349777E1,1.5384918E3,1.2097138E1,4.025264E1,3.942611E1,1.4990657E3],"tree_param":{"num_deleted":"0","num_feature":"86","num_nodes":"11","size_leaf_vector":"1"}},{"base_weights":[1.5656083E-3,5.7933647E-3,-8.744102E-2,-2.1130022E-2,1.3805969E-1,1.456988E-1,-4.211493E-2,1.5953682E-1,-8.5730094E-1,-3.431458E-2,2.1631492E-2,-2.6580417E-3,-3.467201E-2,4.9150914E-2,8.476904E-3,-9.7726464E-2,-3.109569E-2],"categories":[],"categories_nodes":[],"categories_segments":[],"categories_sizes":[],"default_left":[0,0,0,0,1,0,0,0,0,0,0,0,0,0,0,0,0],"id":45,"left_children":[1,3,-1,5,7,9,11,13,15,-1,-1,-1,-1,-1,-1,-1,-1],"loss_changes":[5.9312363E0,5.6774607E0,0E0,4.644329E0,5.900947E0,5.1920156E0,5.563097E0,6.5305333E0,7.966423E-2,0E0,0E0,0E0,0E0,0E0,0E0,0E0,0E0],"parents":[2147483647,0,0,1,1,3,3,4,4,5,5,6,6,7,7,8,8],"right_children":[2,4,-1,6,8,10,12,14,16,-1,-1,-1,-1,-1,-1,-1,-1],"split_conditions":[6.8154236E1,1E0,-8.744102E-2,8.062258E0,1.1277422E1,8.246211E0,1E0,4E0,3.423746E1,-3.431458E-2,2.1631492E-2,-2.6580417E-3,-3.467201E-2,4.9150914E-2,8.476904E-3,-9.7726464E-2,-3.109569E-2],"split_indices":[75,12,0,75,79,82,11,76,79,0,0,0,0,0,0,0,0],"split_type":[0,0,0,0,0,0,0,0,0,0,0,0,0,0,0,0,0],"sum_hessian":[1.5991921E3,1.5924995E3,6.6925564E0,1.3238619E3,2.686376E2,1.4725444E2,1.1766074E3,2.6378555E2,4.852043E0,1.8099583E1,1.2915486E2,1.1205481E3,5.6059402E1,4.7465008E1,2.1632056E2,3.3317406E0,1.5203028E0],"tree_param":{"num_deleted":"0","num_feature":"86","num_nodes":"17","size_leaf_vector":"1"}},{"base_weights":[-1.1806538E-2,2.5880428E-2,-1.0212229E-1,-8.979922E-3,1.7191835E-1,-4.6327078E-1,-7.03694E-2,1.535304E-1,-4.8612796E-2,1.0134537E-1,5.0325733E-1,4.0430274E-2,-5.1083493E-1,4.692851E-1,-1.01087585E-1,6.8775155E-3,5.2231587E-2,-1.7191487E-5,-2.6944293E-2,1.3095907E-2,-6.2645964E-2,-8.89817E-2,6.5986484E-2,-5.6306284E-2,3.9735816E-2,7.5134956E-3,1.110713E-1,-1.1199173E-2,9.774672E-2],"categories":[],"categories_nodes":[],"categories_segments":[],"categories_sizes":[],"default_left":[0,0,1,0,0,0,0,0,1,0,0,0,0,0,0,0,0,0,0,0,0,0,0,0,0,0,0,0,0],"id":46,"left_children":[1,3,5,7,9,11,13,15,17,19,21,-1,23,25,27,-1,-1,-1,-1,-1,-1,-1,-1,-1,-1,-1,-1,-1,-1],"loss_changes":[5.47409E0,5.7797713E0,5.3970795E0,5.915119E0,5.064687E0,1.7781715E0,7.2816896E0,5.59262E0,7.89615E0,3.9962754E0,8.912985E0,0E0,1.9573421E0,5.903297E0,4.975085E0,0E0,0E0,0E0,0E0,0E0,0E0,0E0,0E0,0E0,0E0,0E0,0E0,0E0,0E0],"parents":[2147483647,0,0,1,1,2,2,3,3,4,4,5,5,6,6,7,7,8,8,9,9,10,10,12,12,13,13,14,14],"right_children":[2,4,6,8,10,12,14,16,18,20,22,-1,24,26,28,-1,-1,-1,-1,-1,-1,-1,-1,-1,-1,-1,-1,-1,-1],"split_conditions":[1.6699244E1,4.0856166E0,1.3453624E1,9.486833E0,2.6E1,4.597808E0,2.0880613E1,1E0,1.4488617E2,1E0,2.7202942E1,4.0430274E-2,1E0,8.836069E0,9E1,6.8775155E-3,5.2231587E-2,-1.7191487E-5,-2.6944293E-2,1.3095907E-2,-6.2645964E-2,-8.89817E-2,6.5986484E-2,-5.6306284E-2,3.9735816E-2,7.5134956E-3,1.110713E-1,-1.1199173E-2,9.774672E-2],"split_indices":[78,78,82,75,76,79,82,2,82,39,82,0,66,77,83,0,0,0,0,0,0,0,0,0,0,0,0,0,0],"split_type":[0,0,0,0,0,0,0,0,0,0,0,0,0,0,0,0,0,0,0,0,0,0,0,0,0,0,0,0,0],"sum_hessian":[1.6064873E3,1.1340037E3,4.7248367E2,9.1623096E2,2.177727E2,3.7086166E1,4.353975E2,1.7907587E2,7.371551E2,1.8060988E2,3.7162823E1,1.5377276E0,3.554844E1,2.268E1,4.127175E2,1.465759E2,3.2499966E1,6.0536426E2,1.3179079E2,1.7433636E2,6.2735167E0,3.282459E0,3.3880363E1,3.397466E1,1.5737796E0,1.4739737E1,7.9402633E0,4.094739E2,3.2436001E0],"tree_param":{"num_deleted":"0","num_feature":"86","num_nodes":"29","size_leaf_vector":"1"}},{"base_weights":[7.2880806E-3,4.1812345E-2,-8.027595E-2,2.8082242E-2,3.9110652E-1,-5.7686787E-2,-6.980355E-1,-4.206567E-2,8.831696E-2,7.7094936E-1,-4.7035918E-2,-2.9448392E-2,-5.023239E-1,-8.3474E-1,-3.00298E-1,-8.915022E-3,1.1517703E-2,-7.961567E-3,1.5015788E-2,5.526049E-2,2.2989257E-1,4.751445E-2,-2.7832806E-2,-7.556344E-2,-1.255859E-3,-6.926334E-2,7.509408E-2,-9.074623E-2,-2.6381392E-2,2.0124445E-2,-7.090902E-2],"categories":[],"categories_nodes":[],"categories_segments":[],"categories_sizes":[],"default_left":[0,0,0,0,0,0,0,0,0,0,0,0,0,0,0,0,0,0,0,0,0,0,0,0,0,0,0,0,0,0,0],"id":47,"left_children":[1,3,5,7,9,11,13,15,17,19,21,23,25,27,29,-1,-1,-1,-1,-1,-1,-1,-1,-1,-1,-1,-1,-1,-1,-1,-1],"loss_changes":[4.852708E0,5.5097704E0,6.294508E0,4.688319E0,7.2692614E0,5.4975977E0,6.151433E-1,3.8074489E0,6.2099624E0,6.5153294E0,2.683546E0,5.066745E0,6.758303E0,2.292962E-1,1.2980285E0,0E0,0E0,0E0,0E0,0E0,0E0,0E0,0E0,0E0,0E0,0E0,0E0,0E0,0E0,0E0,0E0],"parents":[2147483647,0,0,1,1,2,2,3,3,4,4,5,5,6,6,7,7,8,8,9,9,10,10,11,11,12,12,13,13,14,14],"right_children":[2,4,6,8,10,12,14,16,18,20,22,24,26,28,30,-1,-1,-1,-1,-1,-1,-1,-1,-1,-1,-1,-1,-1,-1,-1,-1],"split_conditions":[5E0,1E0,4.9658836E1,-1.617216E1,-1.0823011E1,1E0,1.6E1,2.1E1,5.162364E1,3.0207615E1,4E0,2.3020813E1,2.1E1,1E0,3E1,-8.915022E-3,1.1517703E-2,-7.961567E-3,1.5015788E-2,5.526049E-2,2.2989257E-1,4.751445E-2,-2.7832806E-2,-7.556344E-2,-1.255859E-3,-6.926334E-2,7.509408E-2,-9.074623E-2,-2.6381392E-2,2.0124445E-2,-7.090902E-2],"split_indices":[84,40,75,78,78,32,76,76,82,77,76,79,84,7,76,0,0,0,0,0,0,0,0,0,0,0,0,0,0,0,0],"split_type":[0,0,0,0,0,0,0,0,0,0,0,0,0,0,0,0,0,0,0,0,0,0,0,0,0,0,0,0,0,0,0],"sum_hessian":[1.6031075E3,1.1501537E3,4.5295377E2,1.1076927E3,4.246094E1,4.3803003E2,1.4923747E1,5.1187595E2,5.9581683E2,2.233675E1,2.0124191E1,4.1287503E2,2.5154987E1,1.0288733E1,4.6350145E0,3.9425406E2,1.1762189E2,1.6027992E2,4.355369E2,2.073537E1,1.6013805E0,5.853849E0,1.4270342E1,8.3903055E0,4.044847E2,2.2227116E1,2.9278717E0,8.603408E0,1.685325E0,2.3093767E0,2.325638E0],"tree_param":{"num_deleted":"0","num_feature":"86","num_nodes":"31","size_leaf_vector":"1"}},{"base_weights":[8.867986E-3,-2.858569E-2,9.476669E-2,-5.5732816E-2,2.3242752E-1,1.2938027E-1,-6.563277E-1,-8.625671E-2,1.8020043E-1,2.9786205E-1,-8.583316E-2,1.5743138E-1,-6.424848E-1,-8.556781E-1,-1.1759757E-1,-7.384824E-3,-4.5620985E-2,2.9522752E-2,-3.647771E-2,4.4424877E-2,-2.611111E-2,1.0745802E-2,5.809855E-2,-7.821561E-2,4.3180827E-2,-9.810064E-2,-5.40664E-2,-6.134036E-2,4.4122644E-2],"categories":[],"categories_nodes":[],"categories_segments":[],"categories_sizes":[],"default_left":[0,0,0,0,0,0,0,0,0,0,0,0,0,0,0,0,0,0,0,0,0,0,0,0,0,0,0,0,0],"id":48,"left_children":[1,3,5,7,9,11,13,15,17,19,-1,21,23,25,27,-1,-1,-1,-1,-1,-1,-1,-1,-1,-1,-1,-1,-1,-1],"loss_changes":[5.174444E0,7.950361E0,1.2780399E1,7.3285313E0,7.801597E0,1.0226486E1,2.2274323E0,4.096965E0,7.4201593E0,8.338206E0,0E0,9.505868E0,2.8279443E0,8.798599E-2,2.2140667E0,0E0,0E0,0E0,0E0,0E0,0E0,0E0,0E0,0E0,0E0,0E0,0E0,0E0,0E0],"parents":[2147483647,0,0,1,1,2,2,3,3,4,4,5,5,6,6,7,7,8,8,9,9,11,11,12,12,13,13,14,14],"right_children":[2,4,6,8,10,12,14,16,18,20,-1,22,24,26,28,-1,-1,-1,-1,-1,-1,-1,-1,-1,-1,-1,-1,-1,-1],"split_conditions":[1.9275957E1,1E0,1E0,1E0,4.3011627E1,1E0,2.2249023E1,1E0,8.2E1,1.4797972E2,-8.583316E-2,1E0,9.353609E1,6E0,1E0,-7.384824E-3,-4.5620985E-2,2.9522752E-2,-3.647771E-2,4.4424877E-2,-2.611111E-2,1.0745802E-2,5.809855E-2,-7.821561E-2,4.3180827E-2,-9.810064E-2,-5.40664E-2,-6.134036E-2,4.4122644E-2],"split_indices":[77,35,36,36,75,57,78,52,83,82,0,31,77,76,2,0,0,0,0,0,0,0,0,0,0,0,0,0,0],"split_type":[0,0,0,0,0,0,0,0,0,0,0,0,0,0,0,0,0,0,0,0,0,0,0,0,0,0,0,0,0],"sum_hessian":[1.6065157E3,1.1191915E3,4.8732425E2,1.0144667E3,1.0472487E2,4.6664694E2,2.06773E1,8.988165E2,1.15650116E2,9.9483765E1,5.2410984E0,4.510509E2,1.5596052E1,1.4663084E1,6.0142145E0,8.7080865E2,2.800788E1,9.587276E1,1.9777357E1,7.900007E1,2.0483698E1,4.0457098E2,4.647992E1,1.4042313E1,1.5537391E0,8.9773E0,5.685785E0,3.1350403E0,2.8791742E0],"tree_param":{"num_deleted":"0","num_feature":"86","num_nodes":"29","size_leaf_vector":"1"}},{"base_weights":[-1.0873366E-2,-1.4988398E-3,-3.262613E-1,8.203203E-3,-3.5227937E-1,2.8613073E-1,-5.711533E-1,4.53602E-2,-8.727495E-2,-4.366732E-1,9.411974E-2,-8.242241E-2,5.814032E-1,-6.5435624E-1,2.829477E-2,3.0233057E-3,4.3110546E-2,-1.3929426E-2,3.105087E-2,-5.2691396E-2,9.5172495E-2,-3.1427633E-2,8.979886E-2,-1.3606774E-2,-8.120421E-2],"categories":[],"categories_nodes":[],"categories_segments":[],"categories_sizes":[],"default_left":[0,1,0,0,0,0,0,0,0,0,0,0,0,0,0,0,0,0,0,0,0,0,0,0,0],"id":49,"left_children":[1,3,5,7,9,11,13,15,17,19,-1,-1,21,23,-1,-1,-1,-1,-1,-1,-1,-1,-1,-1,-1],"loss_changes":[4.7410297E0,5.3066163E0,7.1051493E0,5.387376E0,4.9920573E0,5.032724E0,2.558589E0,6.364869E0,8.846765E0,5.522932E0,0E0,0E0,3.5594692E0,2.4014482E0,0E0,0E0,0E0,0E0,0E0,0E0,0E0,0E0,0E0,0E0,0E0],"parents":[2147483647,0,0,1,1,2,2,3,3,4,4,5,5,6,6,7,7,8,8,9,9,12,12,13,13],"right_children":[2,4,6,8,10,12,14,16,18,20,-1,-1,22,24,-1,-1,-1,-1,-1,-1,-1,-1,-1,-1,-1],"split_conditions":[1E0,4.523826E1,5E0,5E0,1E0,1.421267E1,1E0,1E0,1E0,1E0,9.411974E-2,-8.242241E-2,-4E0,3.681787E0,2.829477E-2,3.0233057E-3,4.3110546E-2,-1.3929426E-2,3.105087E-2,-5.2691396E-2,9.5172495E-2,-3.1427633E-2,8.979886E-2,-1.3606774E-2,-8.120421E-2],"split_indices":[65,77,76,84,50,82,30,54,31,45,0,0,84,77,0,0,0,0,0,0,0,0,0,0,0],"split_type":[0,0,0,0,0,0,0,0,0,0,0,0,0,0,0,0,0,0,0,0,0,0,0,0,0],"sum_hessian":[1.6027E3,1.5574125E3,4.5287457E1,1.5164465E3,4.096593E1,1.2888722E1,3.2398735E1,1.0920004E3,4.2444617E2,3.9078625E1,1.8873096E0,2.3311536E0,1.0557569E1,2.9735855E1,2.662878E0,1.0518308E3,4.016956E1,3.7593402E2,4.8512135E1,3.727629E1,1.8023332E0,2.7590349E0,7.798534E0,7.3711047E0,2.2364752E1],"tree_param":{"num_deleted":"0","num_feature":"86","num_nodes":"25","size_leaf_vector":"1"}},{"base_weights":[4.0413635E-3,-2.9442424E-1,1.5071799E-2,-3.8548315E-1,6.6047645E-1,3.235665E-2,-1.7605646E-1,-4.3692955E-1,5.8738124E-2,1.2504214E-1,-1.0002098E-2,4.380922E-2,-3.7240416E-1,1.3745044E-1,-4.3218243E-1,-5.151693E-2,1.4084983E-2,8.3523085E-3,-4.8533827E-3,-4.4004608E-2,7.322975E-2,2.8464855E-3,1.289426E-1,-5.318687E-2,6.875378E-2],"categories":[],"categories_nodes":[],"categories_segments":[],"categories_sizes":[],"default_left":[0,0,0,0,0,1,0,1,0,0,0,0,0,0,0,0,0,0,0,0,0,0,0,0,0],"id":50,"left_children":[1,3,5,7,9,11,13,15,-1,-1,-1,17,19,21,23,-1,-1,-1,-1,-1,-1,-1,-1,-1,-1],"loss_changes":[5.2776957E0,5.2225933E0,5.111795E0,2.89891E0,2.5220199E0,6.590755E0,1.0364822E1,2.3651085E0,0E0,0E0,0E0,5.065419E0,3.2462287E0,7.303508E0,8.27689E0,0E0,0E0,0E0,0E0,0E0,0E0,0E0,0E0,0E0,0E0],"parents":[2147483647,0,0,1,1,2,2,3,3,4,4,5,5,6,6,7,7,11,11,12,12,13,13,14,14],"right_children":[2,4,6,8,10,12,14,16,-1,-1,-1,18,20,22,24,-1,-1,-1,-1,-1,-1,-1,-1,-1,-1],"split_conditions":[-2.1E1,1E0,1E0,1E0,8.106801E0,4.523826E1,1.603122E1,2.3584953E1,5.8738124E-2,1.2504214E-1,-1.0002098E-2,1.6260204E1,1E0,4.0167706E1,4.3E1,-5.151693E-2,1.4084983E-2,8.3523085E-3,-4.8533827E-3,-4.4004608E-2,7.322975E-2,2.8464855E-3,1.289426E-1,-5.318687E-2,6.875378E-2],"split_indices":[84,27,26,63,77,77,75,77,0,0,0,78,65,77,76,0,0,0,0,0,0,0,0,0,0],"split_type":[0,0,0,0,0,0,0,0,0,0,0,0,0,0,0,0,0,0,0,0,0,0,0,0,0],"sum_hessian":[1.6007404E3,5.6134712E1,1.5446056E3,5.1792145E1,4.342567E0,1.4172648E3,1.2734085E2,4.971408E1,2.078065E0,2.082715E0,2.2598517E0,1.3791344E3,3.8130386E1,5.746504E1,6.987582E1,4.3880394E1,5.833684E0,9.644501E2,4.1468433E2,3.6497284E1,1.6331023E0,5.343445E1,4.0305924E0,6.464556E1,