{"learner":{"attributes":{"scikit_learn":"{\"_estimator_type\": \"classifier\"}"},"feature_names":["lastEventTypeCode_hit","lastEventTypeCode_giveaway","lastEventTypeCode_goal","lastEventTypeCode_shot-on-goal","lastEventTypeCode_missed-shot","lastEventTypeCode_blocked-shot","lastEventTypeCode_takeaway","lastEventTypeCode_failed-shot-attempt","lastEventTypeCode_missing","shotType_backhand","shotType_deflected","shotType_slap","shotType_snap","shotType_tip-in","shotType_wrap-around","shotType_wrist","shotType_missing","shotDistance","timeSinceLastEvent","speedFromLastEvent","shotAngle","angleChangeSpeed","manAdvantage","defendingSkaters","distFromLastEvent","xStd","yStd"],"feature_types":["float","float","float","float","float","float","float","float","float","float","float","float","float","float","float","float","float","float","float","float","float","float","float","float","float","float","float"],"gradient_booster":{"model":{"gbtree_model_param":{"num_parallel_tree":"1","num_trees":"100"},"iteration_indptr":[0,1,2,3,4,5,6,7,8,9,10,11,12,13,14,15,16,17,18,19,20,21,22,23,24,25,26,27,28,29,30,31,32,33,34,35,36,37,38,39,40,41,42,43,44,45,46,47,48,49,50,51,52,53,54,55,56,57,58,59,60,61,62,63,64,65,66,67,68,69,70,71,72,73,74,75,76,77,78,79,80,81,82,83,84,85,86,87,88,89,90,91,92,93,94,95,96,97,98,99,100],"tree_info":[0,0,0,0,0,0,0,0,0,0,0,0,0,0,0,0,0,0,0,0,0,0,0,0,0,0,0,0,0,0,0,0,0,0,0,0,0,0,0,0,0,0,0,0,0,0,0,0,0,0,0,0,0,0,0,0,0,0,0,0,0,0,0,0,0,0,0,0,0,0,0,0,0,0,0,0,0,0,0,0,0,0,0,0,0,0,0,0,0,0,0,0,0,0,0,0,0,0,0,0],"trees":[{"base_weights":[-4.5234547E-3,1.3283919E0,-4.4052348E-1,2.1406775E0,6.943505E-1,2.5159415E-2,-7.754026E-1,3.464645E-2,1.3691035E-1,5.1593404E-2,-3.089866E-3,4.7443908E-2,-1.010441E-2,-3.3613518E-2,-5.46672E-2],"categories":[],"categories_nodes":[],"categories_segments":[],"categories_sizes":[],"default_left":[0,0,0,0,0,0,0,0,0,0,0,0,0,0,0],"id":0,"left_children":[1,3,5,7,9,11,13,-1,-1,-1,-1,-1,-1,-1,-1],"loss_changes":[5.1280865E2,1.10528015E2,1.03709076E2,4.0531464E1,2.0593048E1,4.681758E1,1.2908325E1,0E0,0E0,0E0,0E0,0E0,0E0,0E0,0E0],"parents":[2147483647,0,0,1,1,2,2,3,3,4,4,5,5,6,6],"right_children":[2,4,6,8,10,12,14,-1,-1,-1,-1,-1,-1,-1,-1],"split_conditions":[1.6552946E1,7E0,3.3526108E1,5.5286894E0,5E0,5E0,4.741308E1,3.464645E-2,1.3691035E-1,5.1593404E-2,-3.089866E-3,4.7443908E-2,-1.010441E-2,-3.3613518E-2,-5.46672E-2],"split_indices":[17,18,17,19,26,18,17,0,0,0,0,0,0,0,0],"split_type":[0,0,0,0,0,0,0,0,0,0,0,0,0,0,0],"sum_hessian":[8.803946E2,2.1649406E2,6.639006E2,9.386507E1,1.2262899E2,2.7809982E2,3.8580072E2,1.5510674E1,7.835439E1,9.4447624E1,2.8181366E1,5.505197E1,2.2304787E2,2.0367773E2,1.8212299E2],"tree_param":{"num_deleted":"0","num_feature":"27","num_nodes":"15","size_leaf_vector":"1"}},{"base_weights":[-9.891264E-3,7.806362E-1,-6.438956E-1,1.5712727E0,3.5529822E-1,-3.6619157E-1,-8.45819E-1,1.6849538E-2,1.07644945E-1,6.5890186E-2,1.1675809E-2,-1.2580971E-2,-4.402473E-2,-5.630563E-2,-4.0689234E-2],"categories":[],"categories_nodes":[],"categories_segments":[],"categories_sizes":[],"default_left":[0,0,0,0,0,0,0,0,0,0,0,0,0,0,0],"id":1,"left_children":[1,3,5,7,9,11,13,-1,-1,-1,-1,-1,-1,-1,-1],"loss_changes":[4.4433237E2,1.3213106E2,2.7277298E1,5.9023315E1,3.0841698E1,1.2219887E1,4.671875E0,0E0,0E0,0E0,0E0,0E0,0E0,0E0,0E0],"parents":[2147483647,0,0,1,1,2,2,3,3,4,4,5,5,6,6],"right_children":[2,4,6,8,10,12,14,-1,-1,-1,-1,-1,-1,-1,-1],"split_conditions":[2.6076809E1,6E0,3.9115215E1,-6E0,9.848858E0,6.7E1,4.1E1,1.6849538E-2,1.07644945E-1,6.5890186E-2,1.1675809E-2,-1.2580971E-2,-4.402473E-2,-5.630563E-2,-4.0689234E-2],"split_indices":[17,18,17,26,17,25,25,0,0,0,0,0,0,0,0],"split_type":[0,0,0,0,0,0,0,0,0,0,0,0,0,0,0],"sum_hessian":[8.845379E2,3.935709E2,4.90967E2,1.367255E2,2.568454E2,2.0788182E2,2.8308517E2,2.9243744E1,1.0748175E2,3.8418087E1,2.1842732E2,1.5586128E2,5.2020535E1,1.227201E2,1.6036508E2],"tree_param":{"num_deleted":"0","num_feature":"27","num_nodes":"15","size_leaf_vector":"1"}},{"base_weights":[3.0687694E-3,7.3892593E-1,-6.2706923E-1,4.899777E-1,2.056533E0,-4.4552866E-1,-9.5732725E-1,8.155923E-2,1.5714886E-2,1.3103244E-1,3.301239E-2,-7.2560753E-3,-3.2817554E-2,1.2620781E-2,-5.4226615E-2],"categories":[],"categories_nodes":[],"categories_segments":[],"categories_sizes":[],"default_left":[0,0,0,0,0,0,0,0,0,0,0,0,0,0,0],"id":2,"left_children":[1,3,5,7,9,11,13,-1,-1,-1,-1,-1,-1,-1,-1],"loss_changes":[4.0851123E2,1.3229979E2,2.8027832E1,6.8952255E1,2.4168732E1,1.3313126E1,1.316925E0,0E0,0E0,0E0,0E0,0E0,0E0,0E0,0E0],"parents":[2147483647,0,0,1,1,2,2,3,3,4,4,5,5,6,6],"right_children":[2,4,6,8,10,12,14,-1,-1,-1,-1,-1,-1,-1,-1],"split_conditions":[2.6076809E1,2.5019993E1,4.741308E1,9.848858E0,7E0,7E0,3.6055512E0,8.155923E-2,1.5714886E-2,1.3103244E-1,3.301239E-2,-7.2560753E-3,-3.2817554E-2,1.2620781E-2,-5.4226615E-2],"split_indices":[17,19,17,17,26,18,24,0,0,0,0,0,0,0,0],"split_type":[0,0,0,0,0,0,0,0,0,0,0,0,0,0,0],"sum_hessian":[8.7899854E2,4.0540524E2,4.735933E2,3.4213437E2,6.3270874E1,3.0712036E2,1.6647293E2,6.0665672E1,2.814687E2,5.295712E1,1.0313755E1,9.342579E1,2.1369458E2,5.964073E-1,1.6587653E2],"tree_param":{"num_deleted":"0","num_feature":"27","num_nodes":"15","size_leaf_vector":"1"}},{"base_weights":[1.6242248E-3,6.6270363E-1,-6.0310286E-1,1.3256592E0,2.7816516E-1,-4.274295E-1,-9.2957145E-1,8.6640686E-2,-2.5030077E-3,3.3391777E-2,-7.876815E-3,-7.124449E-3,-3.148382E-2,1.2303857E-2,-5.2670434E-2],"categories":[],"categories_nodes":[],"categories_segments":[],"categories_sizes":[],"default_left":[0,0,0,0,0,0,0,0,0,0,0,0,0,0,0],"id":3,"left_children":[1,3,5,7,9,11,13,-1,-1,-1,-1,-1,-1,-1,-1],"loss_changes":[3.5345245E2,1.07310776E2,2.6084808E1,4.5200623E1,3.542498E1,1.189328E1,1.2537079E0,0E0,0E0,0E0,0E0,0E0,0E0,0E0,0E0],"parents":[2147483647,0,0,1,1,2,2,3,3,4,4,5,5,6,6],"right_children":[2,4,6,8,10,12,14,-1,-1,-1,-1,-1,-1,-1,-1],"split_conditions":[2.6076809E1,6E0,4.741308E1,8E0,1.7E1,7E0,3.6055512E0,8.6640686E-2,-2.5030077E-3,3.3391777E-2,-7.876815E-3,-7.124449E-3,-3.148382E-2,1.2303857E-2,-5.2670434E-2],"split_indices":[17,18,17,26,17,18,24,0,0,0,0,0,0,0,0],"split_type":[0,0,0,0,0,0,0,0,0,0,0,0,0,0,0],"sum_hessian":[8.821339E2,4.2138535E2,4.6074857E2,1.5379349E2,2.6759186E2,3.0105792E2,1.5969063E2,1.330113E2,2.0782187E1,1.524117E2,1.1518015E2,9.220856E1,2.0884938E2,6.028887E-1,1.5908774E2],"tree_param":{"num_deleted":"0","num_feature":"27","num_nodes":"15","size_leaf_vector":"1"}},{"base_weights":[5.1576813E-4,6.0480475E-1,-5.86509E-1,4.0190488E-1,1.5895271E0,-3.8495633E-1,-8.985816E-1,5.9280377E-2,1.0790579E-2,1.0568535E-1,1.7553931E-2,-4.099633E-3,-2.9731028E-2,1.1994164E-2,-5.0892007E-2],"categories":[],"categories_nodes":[],"categories_segments":[],"categories_sizes":[],"default_left":[0,0,0,0,0,0,0,0,0,0,0,0,0,0,0],"id":4,"left_children":[1,3,5,7,9,11,13,-1,-1,-1,-1,-1,-1,-1,-1],"loss_changes":[3.135617E2,8.638684E1,2.7856415E1,4.9403637E1,2.6591614E1,1.2198135E1,1.1854248E0,0E0,0E0,0E0,0E0,0E0,0E0,0E0,0E0],"parents":[2147483647,0,0,1,1,2,2,3,3,4,4,5,5,6,6],"right_children":[2,4,6,8,10,12,14,-1,-1,-1,-1,-1,-1,-1,-1],"split_conditions":[2.6076809E1,2.5019993E1,4.5276924E1,1.0440307E1,2.4623566E1,7E0,3.6055512E0,5.9280377E-2,1.0790579E-2,1.0568535E-1,1.7553931E-2,-4.099633E-3,-2.9731028E-2,1.1994164E-2,-5.0892007E-2],"split_indices":[17,19,17,17,20,18,24,0,0,0,0,0,0,0,0],"split_type":[0,0,0,0,0,0,0,0,0,0,0,0,0,0,0],"sum_hessian":[8.8193835E2,4.345638E2,4.473745E2,3.6148813E2,7.307568E1,2.7317654E2,1.7419795E2,8.731229E1,2.7417584E2,5.9286274E1,1.3789411E1,8.628804E1,1.868885E2,6.092627E-1,1.735887E2],"tree_param":{"num_deleted":"0","num_feature":"27","num_nodes":"15","size_leaf_vector":"1"}},{"base_weights":[-1.7536301E-2,5.2932876E-1,-5.760544E-1,2.8907335E-1,1.0777619E0,-4.0680218E-1,-9.0404105E-1,3.490415E-2,-4.4323816E-3,7.372737E-3,7.24774E-2,-6.880667E-3,-3.0382808E-2,1.1691596E-2,-5.125171E-2],"categories":[],"categories_nodes":[],"categories_segments":[],"categories_sizes":[],"default_left":[0,0,0,0,0,0,0,0,0,0,0,0,0,0,0],"id":5,"left_children":[1,3,5,7,9,11,13,-1,-1,-1,-1,-1,-1,-1,-1],"loss_changes":[2.7101828E2,5.8765457E1,2.4000488E1,3.8135834E1,2.6813736E1,1.093895E1,1.1844788E0,0E0,0E0,0E0,0E0,0E0,0E0,0E0,0E0],"parents":[2147483647,0,0,1,1,2,2,3,3,4,4,5,5,6,6],"right_children":[2,4,6,8,10,12,14,-1,-1,-1,-1,-1,-1,-1,-1],"split_conditions":[2.6076809E1,1.8062391E1,4.741308E1,1.5264338E1,-7E0,7E0,3.6055512E0,3.490415E-2,-4.4323816E-3,7.372737E-3,7.24774E-2,-6.880667E-3,-3.0382808E-2,1.1691596E-2,-5.125171E-2],"split_indices":[17,19,17,17,26,18,24,0,0,0,0,0,0,0,0],"split_type":[0,0,0,0,0,0,0,0,0,0,0,0,0,0,0],"sum_hessian":[8.853234E2,4.473547E2,4.3796875E2,3.1214047E2,1.3521422E2,2.9036887E2,1.4759987E2,1.6399118E2,1.481493E2,2.4763472E1,1.1045074E2,9.294193E1,1.9742694E2,6.15529E-1,1.4698434E2],"tree_param":{"num_deleted":"0","num_feature":"27","num_nodes":"15","size_leaf_vector":"1"}},{"base_weights":[1.8996753E-2,5.411963E-1,-5.4477555E-1,1.1013018E0,2.9244062E-1,-2.5766873E-1,-7.761383E-1,7.2397515E-2,-1.650372E-2,3.0403087E-2,9.427447E-5,-5.7929554E-3,-4.1167125E-2,-3.292206E-2,-5.1172137E-2],"categories":[],"categories_nodes":[],"categories_segments":[],"categories_sizes":[],"default_left":[0,0,0,0,0,0,0,0,0,0,0,0,0,0,0],"id":6,"left_children":[1,3,5,7,9,11,13,-1,-1,-1,-1,-1,-1,-1,-1],"loss_changes":[2.596543E2,6.3469894E1,2.7972633E1,3.645807E1,2.2905792E1,1.3902256E1,5.417694E0,0E0,0E0,0E0,0E0,0E0,0E0,0E0,0E0],"parents":[2147483647,0,0,1,1,2,2,3,3,4,4,5,5,6,6],"right_children":[2,4,6,8,10,12,14,-1,-1,-1,-1,-1,-1,-1,-1],"split_conditions":[2.6076809E1,5E0,3.9115215E1,8E0,1.5652476E1,6.7E1,4.763402E1,7.2397515E-2,-1.650372E-2,3.0403087E-2,9.427447E-5,-5.7929554E-3,-4.1167125E-2,-3.292206E-2,-5.1172137E-2],"split_indices":[17,18,17,26,17,25,17,0,0,0,0,0,0,0,0],"split_type":[0,0,0,0,0,0,0,0,0,0,0,0,0,0,0],"sum_hessian":[8.799717E2,4.5685E2,4.2312164E2,1.3944478E2,3.174052E2,1.8975775E2,2.333639E2,1.2323827E2,1.620651E1,1.7102144E2,1.4638376E2,1.4390901E2,4.584875E1,9.764038E1,1.3572351E2],"tree_param":{"num_deleted":"0","num_feature":"27","num_nodes":"15","size_leaf_vector":"1"}},{"base_weights":[2.7411887E-3,4.8557603E-1,-5.4512674E-1,2.6349616E-1,9.5519584E-1,-3.79157E-1,-8.874857E-1,4.8500054E-2,6.0628345E-3,4.1446E-3,6.411038E-2,1.3339895E-1,-2.2254337E-2,-3.6076864E-3,-5.0678432E-2],"categories":[],"categories_nodes":[],"categories_segments":[],"categories_sizes":[],"default_left":[0,0,0,0,0,0,0,0,0,0,0,0,0,0,0],"id":7,"left_children":[1,3,5,7,9,11,13,-1,-1,-1,-1,-1,-1,-1,-1],"loss_changes":[2.3298663E2,4.857437E1,2.3107666E1,2.9642857E1,2.4131317E1,1.3237522E1,1.3104782E0,0E0,0E0,0E0,0E0,0E0,0E0,0E0,0E0],"parents":[2147483647,0,0,1,1,2,2,3,3,4,4,5,5,6,6],"right_children":[2,4,6,8,10,12,14,-1,-1,-1,-1,-1,-1,-1,-1],"split_conditions":[2.6076809E1,1.7912006E1,4.741308E1,9.848858E0,-7E0,3.865981E1,1.20415945E1,4.8500054E-2,6.0628345E-3,4.1446E-3,6.411038E-2,1.3339895E-1,-2.2254337E-2,-3.6076864E-3,-5.0678432E-2],"split_indices":[17,19,17,17,26,21,24,0,0,0,0,0,0,0,0],"split_type":[0,0,0,0,0,0,0,0,0,0,0,0,0,0,0],"sum_hessian":[8.7875714E2,4.67162E2,4.1159515E2,3.1823297E2,1.4892903E2,2.7862836E2,1.3296678E2,6.487673E1,2.5335623E2,2.5864687E1,1.2306434E2,7.626675E-1,2.778657E2,2.064511E0,1.3090227E2],"tree_param":{"num_deleted":"0","num_feature":"27","num_nodes":"15","size_leaf_vector":"1"}},{"base_weights":[-4.0949164E-3,4.4771066E-1,-5.386899E-1,9.135358E-1,2.3349564E-1,-3.793326E-1,-8.777377E-1,5.922365E-2,-1.2962537E-2,1.8194014E-2,-2.766432E-2,1.1753454E-1,-2.2248032E-2,1.2775438E-2,-4.981846E-2],"categories":[],"categories_nodes":[],"categories_segments":[],"categories_sizes":[],"default_left":[0,0,0,0,0,0,0,0,0,0,0,0,0,0,0],"id":8,"left_children":[1,3,5,7,9,11,13,-1,-1,-1,-1,-1,-1,-1,-1],"loss_changes":[2.1370367E2,4.7636963E1,2.1562973E1,2.4043938E1,2.1568876E1,1.1582619E1,1.1796036E0,0E0,0E0,0E0,0E0,0E0,0E0,0E0,0E0],"parents":[2147483647,0,0,1,1,2,2,3,3,4,4,5,5,6,6],"right_children":[2,4,6,8,10,12,14,-1,-1,-1,-1,-1,-1,-1,-1],"split_conditions":[2.6076809E1,5E0,4.741308E1,8E0,1.1E1,3.865981E1,3.6055512E0,5.922365E-2,-1.2962537E-2,1.8194014E-2,-2.766432E-2,1.1753454E-1,-2.2248032E-2,1.2775438E-2,-4.981846E-2],"split_indices":[17,18,17,26,26,21,24,0,0,0,0,0,0,0,0],"split_type":[0,0,0,0,0,0,0,0,0,0,0,0,0,0,0],"sum_hessian":[8.8278186E2,4.7852533E2,4.0425653E2,1.497088E2,3.2881653E2,2.764431E2,1.27813416E2,1.3365248E2,1.605632E1,2.9314017E2,3.5676353E1,9.165177E-1,2.755266E2,5.932596E-1,1.2722015E2],"tree_param":{"num_deleted":"0","num_feature":"27","num_nodes":"15","size_leaf_vector":"1"}},{"base_weights":[-6.550436E-3,5.184284E-1,-4.1481632E-1,-1.7973287E-1,6.466521E-1,-7.2967276E-2,-6.5184337E-1,-1.3325241E-2,1.1642744E-1,4.5369197E-2,2.8525163E-5,9.2897955E-3,-2.6259512E-2,-2.7201667E-2,-5.0000947E-2],"categories":[],"categories_nodes":[],"categories_segments":[],"categories_sizes":[],"default_left":[0,0,0,1,0,0,0,0,0,0,0,0,0,0,0],"id":9,"left_children":[1,3,5,7,9,11,13,-1,-1,-1,-1,-1,-1,-1,-1],"loss_changes":[1.8873894E2,3.460315E1,4.008967E1,8.229481E0,3.345099E1,1.9162933E1,1.1222061E1,0E0,0E0,0E0,0E0,0E0,0E0,0E0,0E0],"parents":[2147483647,0,0,1,1,2,2,3,3,4,4,5,5,6,6],"right_children":[2,4,6,8,10,12,14,-1,-1,-1,-1,-1,-1,-1,-1],"split_conditions":[2.059126E1,-4.2397438E1,3.3526108E1,7.429136E1,3.1534792E1,6.9E1,4.763402E1,-1.3325241E-2,1.1642744E-1,4.5369197E-2,2.8525163E-5,9.2897955E-3,-2.6259512E-2,-2.7201667E-2,-5.0000947E-2],"split_indices":[17,20,17,21,20,25,17,0,0,0,0,0,0,0,0],"split_type":[0,0,0,0,0,0,0,0,0,0,0,0,0,0,0],"sum_hessian":[8.7859247E2,3.8423914E2,4.943533E2,5.955707E1,3.2468207E2,2.0295381E2,2.9139948E2,5.895934E1,5.9773237E-1,2.6037854E2,6.430354E1,1.2681935E2,7.613446E1,1.7165576E2,1.1974372E2],"tree_param":{"num_deleted":"0","num_feature":"27","num_nodes":"15","size_leaf_vector":"1"}},{"base_weights":[-1.3683099E-2,2.8172612E-1,-6.501425E-1,6.4657277E-1,5.4337513E-2,-4.8392272E-1,-8.844823E-1,4.481115E-2,-1.1896903E-2,1.5450966E-2,-8.859371E-3,-1.2171722E-2,-3.5756033E-2,-5.136136E-2,-1.9325575E-2],"categories":[],"categories_nodes":[],"categories_segments":[],"categories_sizes":[],"default_left":[0,0,0,0,0,0,0,0,0,0,0,0,0,0,0],"id":10,"left_children":[1,3,5,7,9,11,13,-1,-1,-1,-1,-1,-1,-1,-1],"loss_changes":[1.6491418E2,4.9667767E1,1.0402542E1,2.9583168E1,1.7281319E1,6.529381E0,1.3886719E0,0E0,0E0,0E0,0E0,0E0,0E0,0E0,0E0],"parents":[2147483647,0,0,1,1,2,2,3,3,4,4,5,5,6,6],"right_children":[2,4,6,8,10,12,14,-1,-1,-1,-1,-1,-1,-1,-1],"split_conditions":[3.3526108E1,6E0,4.763402E1,8E0,1.7029387E1,8E0,3.7746807E1,4.481115E-2,-1.1896903E-2,1.5450966E-2,-8.859371E-3,-1.2171722E-2,-3.5756033E-2,-5.136136E-2,-1.9325575E-2],"split_indices":[17,18,17,26,17,18,20,0,0,0,0,0,0,0,0],"split_type":[0,0,0,0,0,0,0,0,0,0,0,0,0,0,0],"sum_hessian":[8.751545E2,5.981047E2,2.7704974E2,2.2893437E2,3.6917032E2,1.6387589E2,1.1317387E2,1.9509067E2,3.3843704E1,1.8086053E2,1.883098E2,5.9961678E1,1.0391421E2,1.0704462E2,6.129249E0],"tree_param":{"num_deleted":"0","num_feature":"27","num_nodes":"15","size_leaf_vector":"1"}},{"base_weights":[-8.974948E-3,3.3384833E-1,-4.7129217E-1,1.622763E-1,6.9400615E-1,-3.0397892E-1,-8.541396E-1,1.4829691E-2,-2.1231761E-2,4.584329E-3,4.9672104E-2,-1.15411E-2,-4.2855807E-2,-1.4295311E-3,-4.891405E-2],"categories":[],"categories_nodes":[],"categories_segments":[],"categories_sizes":[],"default_left":[0,0,0,0,0,0,0,0,0,0,0,0,0,0,0],"id":11,"left_children":[1,3,5,7,9,11,13,-1,-1,-1,-1,-1,-1,-1,-1],"loss_changes":[1.3922704E2,3.1057194E1,2.3698807E1,1.8789547E1,1.8639397E1,1.1695648E1,1.3305817E0,0E0,0E0,0E0,0E0,0E0,0E0,0E0,0E0],"parents":[2147483647,0,0,1,1,2,2,3,3,4,4,5,5,6,6],"right_children":[2,4,6,8,10,12,14,-1,-1,-1,-1,-1,-1,-1,-1],"split_conditions":[2.6076809E1,1.8062391E1,4.741308E1,8E0,-5E0,2.2E1,1.20415945E1,1.4829691E-2,-2.1231761E-2,4.584329E-3,4.9672104E-2,-1.15411E-2,-4.2855807E-2,-1.4295311E-3,-4.891405E-2],"split_indices":[17,19,17,26,26,26,24,0,0,0,0,0,0,0,0],"split_type":[0,0,0,0,0,0,0,0,0,0,0,0,0,0,0],"sum_hessian":[8.764495E2,5.034229E2,3.7302658E2,3.4196713E2,1.6145576E2,2.6083127E2,1.12195335E2,2.8843207E2,5.353508E1,3.825202E1,1.2320375E2,2.1556148E2,4.526978E1,1.9657983E0,1.1022953E2],"tree_param":{"num_deleted":"0","num_feature":"27","num_nodes":"15","size_leaf_vector":"1"}},{"base_weights":[2.9335225E-3,2.7462155E-1,-6.221543E-1,5.3485656E-1,3.8510583E-2,-9.13133E-1,-5.0355965E-1,4.419712E-2,1.5764702E-2,7.818645E-3,-3.154956E-2,2.2359877E-3,-5.2757997E-2,-1.3455548E-2,-3.5046652E-2],"categories":[],"categories_nodes":[],"categories_segments":[],"categories_sizes":[],"default_left":[0,0,0,0,0,0,0,0,0,0,0,0,0,0,0],"id":12,"left_children":[1,3,5,7,9,11,13,-1,-1,-1,-1,-1,-1,-1,-1],"loss_changes":[1.4837479E2,3.739754E1,8.6742325E0,1.823352E1,1.9321104E1,1.7388725E0,5.831154E0,0E0,0E0,0E0,0E0,0E0,0E0,0E0,0E0],"parents":[2147483647,0,0,1,1,2,2,3,3,4,4,5,5,6,6],"right_children":[2,4,6,8,10,12,14,-1,-1,-1,-1,-1,-1,-1,-1],"split_conditions":[3.3526108E1,1.5264338E1,4.1E1,7E0,1E0,1.20415945E1,7E0,4.419712E-2,1.5764702E-2,7.818645E-3,-3.154956E-2,2.2359877E-3,-5.2757997E-2,-1.3455548E-2,-3.5046652E-2],"split_indices":[17,17,25,18,9,24,18,0,0,0,0,0,0,0,0],"split_type":[0,0,0,0,0,0,0,0,0,0,0,0,0,0,0],"sum_hessian":[8.716663E2,6.079763E2,2.6369003E2,2.8861145E2,3.1936487E2,7.4413246E1,1.8927678E2,1.4468002E2,1.4393141E2,2.741896E2,4.5175285E1,1.7881918E0,7.262505E1,5.9562805E1,1.2971397E2],"tree_param":{"num_deleted":"0","num_feature":"27","num_nodes":"15","size_leaf_vector":"1"}},{"base_weights":[-2.0220075E-2,2.1164289E-1,-5.777462E-1,3.303376E-1,-3.4319654E-1,-4.118577E-1,-8.279758E-1,-5.8200667E-3,3.234366E-2,-2.7604386E-2,-8.0480875E-4,-8.180282E-3,-3.3884432E-2,-1.6300266E-3,-4.7502894E-2],"categories":[],"categories_nodes":[],"categories_segments":[],"categories_sizes":[],"default_left":[0,0,0,0,0,0,0,0,0,0,0,0,0,0,0],"id":13,"left_children":[1,3,5,7,9,11,13,-1,-1,-1,-1,-1,-1,-1,-1],"loss_changes":[1.1345283E2,4.093932E1,1.0359329E1,5.4148617E1,5.297611E0,7.857973E0,1.2380829E0,0E0,0E0,0E0,0E0,0E0,0E0,0E0,0E0],"parents":[2147483647,0,0,1,1,2,2,3,3,4,4,5,5,6,6],"right_children":[2,4,6,8,10,12,14,-1,-1,-1,-1,-1,-1,-1,-1],"split_conditions":[3.3526108E1,8E0,4.763402E1,-5E0,1.608657E1,1E0,1.20415945E1,-5.8200667E-3,3.234366E-2,-2.7604386E-2,-8.0480875E-4,-8.180282E-3,-3.3884432E-2,-1.6300266E-3,-4.7502894E-2],"split_indices":[17,26,17,26,19,15,24,0,0,0,0,0,0,0,0],"split_type":[0,0,0,0,0,0,0,0,0,0,0,0,0,0,0],"sum_hessian":[8.756987E2,6.1892267E2,2.5677606E2,5.1018524E2,1.087374E2,1.5600154E2,1.0077453E2,1.8389165E2,3.262936E2,7.481598E1,3.392142E1,6.561363E1,9.03879E1,1.9752842E0,9.879924E1],"tree_param":{"num_deleted":"0","num_feature":"27","num_nodes":"15","size_leaf_vector":"1"}},{"base_weights":[-9.283445E-4,2.2071159E-1,-5.553414E-1,-2.8329635E-1,3.309248E-1,-9.105077E-1,-4.1756046E-1,-5.3578326E-3,-4.9105722E-2,2.7163243E-2,-1.3421935E-2,5.797792E-3,-5.275472E-2,-5.166977E-3,-3.4247503E-2],"categories":[],"categories_nodes":[],"categories_segments":[],"categories_sizes":[],"default_left":[0,0,0,0,0,0,0,0,0,0,0,0,0,0,0],"id":14,"left_children":[1,3,5,7,9,11,13,-1,-1,-1,-1,-1,-1,-1,-1],"loss_changes":[1.07111305E2,3.468522E1,1.1802139E1,1.2353243E1,4.4196754E1,1.9249382E0,1.1195522E1,0E0,0E0,0E0,0E0,0E0,0E0,0E0,0E0],"parents":[2147483647,0,0,1,1,2,2,3,3,4,4,5,5,6,6],"right_children":[2,4,6,8,10,12,14,-1,-1,-1,-1,-1,-1,-1,-1],"split_conditions":[3.3526108E1,-9E0,4.1E1,1E0,8E0,1.20415945E1,8E0,-5.3578326E-3,-4.9105722E-2,2.7163243E-2,-1.3421935E-2,5.797792E-3,-5.275472E-2,-5.166977E-3,-3.4247503E-2],"split_indices":[17,26,25,9,26,24,18,0,0,0,0,0,0,0,0],"split_type":[0,0,0,0,0,0,0,0,0,0,0,0,0,0,0],"sum_hessian":[8.69676E2,6.217274E2,2.4794856E2,1.1127832E2,5.1044913E2,6.773517E1,1.802134E2,8.5205315E1,2.6073004E1,4.033267E2,1.0712241E2,1.6362897E0,6.609888E1,6.705353E1,1.1315986E2],"tree_param":{"num_deleted":"0","num_feature":"27","num_nodes":"15","size_leaf_vector":"1"}},{"base_weights":[-4.0423423E-3,2.684574E-1,-4.2292333E-1,1.1184821E-1,5.841664E-1,-2.7136943E-1,-8.103916E-1,2.0637378E-2,-5.9778267E-3,-2.1784569E-3,3.9200865E-2,-9.203658E-3,-4.3854382E-2,-4.7349073E-2,-1.4378154E-2],"categories":[],"categories_nodes":[],"categories_segments":[],"categories_sizes":[],"default_left":[0,0,0,0,0,0,0,0,0,0,0,0,0,0,0],"id":15,"left_children":[1,3,5,7,9,11,13,-1,-1,-1,-1,-1,-1,-1,-1],"loss_changes":[9.898026E1,2.5910942E1,1.9849705E1,1.9598866E1,1.2153591E1,1.3409275E1,1.3972015E0,0E0,0E0,0E0,0E0,0E0,0E0,0E0,0E0],"parents":[2147483647,0,0,1,1,2,2,3,3,4,4,5,5,6,6],"right_children":[2,4,6,8,10,12,14,-1,-1,-1,-1,-1,-1,-1,-1],"split_conditions":[2.6076809E1,1.8062391E1,4.741308E1,1.3453624E1,-7E0,2.2E1,3.7746807E1,2.0637378E-2,-5.9778267E-3,-2.1784569E-3,3.9200865E-2,-9.203658E-3,-4.3854382E-2,-4.7349073E-2,-1.4378154E-2],"split_indices":[17,19,17,17,26,26,20,0,0,0,0,0,0,0,0],"split_type":[0,0,0,0,0,0,0,0,0,0,0,0,0,0,0],"sum_hessian":[8.651505E2,5.2437897E2,3.4077155E2,3.5141296E2,1.7296603E2,2.4618097E2,9.4590576E1,1.6178102E2,1.8963194E2,2.6445166E1,1.4652087E2,2.0408287E2,4.20981E1,8.919458E1,5.395994E0],"tree_param":{"num_deleted":"0","num_feature":"27","num_nodes":"15","size_leaf_vector":"1"}},{"base_weights":[-1.477985E-2,1.8697925E-1,-5.4552597E-1,5.761064E-1,7.17322E-2,-8.9429486E-1,-4.1765752E-1,-5.9854477E-3,4.1533247E-2,7.98598E-3,-2.3596702E-2,5.185468E-3,-5.196053E-2,-7.813961E-3,-3.2973375E-2],"categories":[],"categories_nodes":[],"categories_segments":[],"categories_sizes":[],"default_left":[0,0,0,0,0,0,0,0,0,0,0,0,0,0,0],"id":16,"left_children":[1,3,5,7,9,11,13,-1,-1,-1,-1,-1,-1,-1,-1],"loss_changes":[9.2313354E1,2.7972994E1,1.02155E1,1.5782631E1,1.6671566E1,1.8422699E0,8.139963E0,0E0,0E0,0E0,0E0,0E0,0E0,0E0,0E0],"parents":[2147483647,0,0,1,1,2,2,3,3,4,4,5,5,6,6],"right_children":[2,4,6,8,10,12,14,-1,-1,-1,-1,-1,-1,-1,-1],"split_conditions":[3.3526108E1,4E0,4.1E1,-6E0,1.1E1,1.20415945E1,8E0,-5.9854477E-3,4.1533247E-2,7.98598E-3,-2.3596702E-2,5.185468E-3,-5.196053E-2,-7.813961E-3,-3.2973375E-2],"split_indices":[17,18,25,26,26,24,18,0,0,0,0,0,0,0,0],"split_type":[0,0,0,0,0,0,0,0,0,0,0,0,0,0,0],"sum_hessian":[8.601216E2,6.236815E2,2.3644008E2,1.4159445E2,4.8208704E2,6.182226E1,1.7461781E2,2.714845E1,1.1444601E2,4.2247205E2,5.9615E1,1.6649909E0,6.0157272E1,6.6290375E1,1.0832744E2],"tree_param":{"num_deleted":"0","num_feature":"27","num_nodes":"15","size_leaf_vector":"1"}},{"base_weights":[-5.1800394E-3,2.4189511E-1,-4.0915436E-1,1.0195248E-1,5.071587E-1,-2.7418122E-1,-7.758647E-1,1.0736382E-2,-2.3896616E-2,5.702234E-3,3.699587E-2,-9.803711E-3,-4.3790806E-2,-3.640122E-2,-5.352301E-2],"categories":[],"categories_nodes":[],"categories_segments":[],"categories_sizes":[],"default_left":[0,0,0,0,0,0,0,0,0,0,0,0,0,0,0],"id":17,"left_children":[1,3,5,7,9,11,13,-1,-1,-1,-1,-1,-1,-1,-1],"loss_changes":[8.657095E1,1.9927E1,1.6079052E1,1.6584589E1,1.1217834E1,1.206629E1,1.3748016E0,0E0,0E0,0E0,0E0,0E0,0E0,0E0,0E0],"parents":[2147483647,0,0,1,1,2,2,3,3,4,4,5,5,6,6],"right_children":[2,4,6,8,10,12,14,-1,-1,-1,-1,-1,-1,-1,-1],"split_conditions":[2.6076809E1,1.7734148E1,4.741308E1,8E0,-2.0637547E1,2.2E1,6.20967E1,1.0736382E-2,-2.3896616E-2,5.702234E-3,3.699587E-2,-9.803711E-3,-4.3790806E-2,-3.640122E-2,-5.352301E-2],"split_indices":[17,19,17,26,20,26,17,0,0,0,0,0,0,0,0],"split_type":[0,0,0,0,0,0,0,0,0,0,0,0,0,0,0],"sum_hessian":[8.653484E2,5.371951E2,3.2815326E2,3.5257486E2,1.8462029E2,2.4114426E2,8.7009E1,3.022721E2,5.030275E1,5.021222E1,1.3440807E2,2.022701E2,3.8874165E1,5.2649452E1,3.435955E1],"tree_param":{"num_deleted":"0","num_feature":"27","num_nodes":"15","size_leaf_vector":"1"}},{"base_weights":[-2.4571965E-2,1.502444E-1,-5.2382886E-1,-3.359619E-1,2.3136757E-1,-8.602357E-1,-4.057455E-1,-2.1560611E-2,1.2424423E-1,2.0612687E-2,-1.26962885E-2,-2.3445606E-2,-5.151492E-2,-6.0411543E-3,-3.111387E-2],"categories":[],"categories_nodes":[],"categories_segments":[],"categories_sizes":[],"default_left":[0,0,0,1,0,0,0,0,0,0,0,0,0,0,0],"id":18,"left_children":[1,3,5,7,9,11,13,-1,-1,-1,-1,-1,-1,-1,-1],"loss_changes":[7.567866E1,2.541289E1,8.583492E0,1.1840675E1,3.3978645E1,1.0111885E0,7.313341E0,0E0,0E0,0E0,0E0,0E0,0E0,0E0,0E0],"parents":[2147483647,0,0,1,1,2,2,3,3,4,4,5,5,6,6],"right_children":[2,4,6,8,10,12,14,-1,-1,-1,-1,-1,-1,-1,-1],"split_conditions":[3.3526108E1,-4.2397438E1,4.1E1,6.1205997E1,7E0,4E0,7E0,-2.1560611E-2,1.2424423E-1,2.0612687E-2,-1.26962885E-2,-2.3445606E-2,-5.151492E-2,-6.0411543E-3,-3.111387E-2],"split_indices":[17,20,25,21,26,18,18,0,0,0,0,0,0,0,0],"split_type":[0,0,0,0,0,0,0,0,0,0,0,0,0,0,0],"sum_hessian":[8.651944E2,6.4132983E2,2.2386458E2,9.125539E1,5.5007446E2,5.6530445E1,1.6733414E2,9.043681E1,8.1857437E-1,4.2500156E2,1.25072876E2,7.126618E0,4.9403828E1,5.5722473E1,1.11611664E2],"tree_param":{"num_deleted":"0","num_feature":"27","num_nodes":"15","size_leaf_vector":"1"}},{"base_weights":[-3.2266236E-3,1.6154723E-1,-4.8820674E-1,5.1387686E-1,5.547501E-2,-3.334959E-1,-7.976493E-1,-5.915972E-3,3.7114285E-2,-2.3232317E-2,6.820309E-3,-2.1109963E-3,-2.9204564E-2,-4.6712246E-2,-6.4805187E-3],"categories":[],"categories_nodes":[],"categories_segments":[],"categories_sizes":[],"default_left":[0,0,0,0,0,0,0,0,0,0,0,0,0,0,0],"id":19,"left_children":[1,3,5,7,9,11,13,-1,-1,-1,-1,-1,-1,-1,-1],"loss_changes":[6.875034E1,2.397078E1,1.0178768E1,1.3408127E1,1.5245079E1,8.043558E0,1.4680138E0,0E0,0E0,0E0,0E0,0E0,0E0,0E0,0E0],"parents":[2147483647,0,0,1,1,2,2,3,3,4,4,5,5,6,6],"right_children":[2,4,6,8,10,12,14,-1,-1,-1,-1,-1,-1,-1,-1],"split_conditions":[3.3526108E1,4E0,4.940648E1,-6E0,4.7169907E1,8E0,3.7746807E1,-5.915972E-3,3.7114285E-2,-2.3232317E-2,6.820309E-3,-2.1109963E-3,-2.9204564E-2,-4.6712246E-2,-6.4805187E-3],"split_indices":[17,18,17,26,24,18,20,0,0,0,0,0,0,0,0],"split_type":[0,0,0,0,0,0,0,0,0,0,0,0,0,0,0],"sum_hessian":[8.583382E2,6.411663E2,2.1717181E2,1.4747353E2,4.9369284E2,1.4616965E2,7.1002174E1,2.8068552E1,1.1940497E2,6.0068977E1,4.3362384E2,5.6696198E1,8.947345E1,6.76348E1,3.367366E0],"tree_param":{"num_deleted":"0","num_feature":"27","num_nodes":"15","size_leaf_vector":"1"}},{"base_weights":[-1.2487595E-2,1.4036962E-1,-4.7572052E-1,2.2327538E-1,-2.9328695E-1,-3.069441E-1,-7.5646806E-1,-1.3361062E-2,2.0224452E-2,-1.9019026E-2,7.955221E-2,-3.0067033E-4,-3.0083947E-2,-4.454623E-2,-1.1536322E-2],"categories":[],"categories_nodes":[],"categories_segments":[],"categories_sizes":[],"default_left":[0,0,0,0,0,0,0,0,0,0,0,0,0,0,0],"id":20,"left_children":[1,3,5,7,9,11,13,-1,-1,-1,-1,-1,-1,-1,-1],"loss_changes":[6.100714E1,2.3358374E1,9.896469E0,3.4147343E1,8.3909025E0,9.262736E0,1.3537254E0,0E0,0E0,0E0,0E0,0E0,0E0,0E0,0E0],"parents":[2147483647,0,0,1,1,2,2,3,3,4,4,5,5,6,6],"right_children":[2,4,6,8,10,12,14,-1,-1,-1,-1,-1,-1,-1,-1],"split_conditions":[3.3526108E1,8E0,4.741308E1,-8E0,6.8E1,1E0,3.7746807E1,-1.3361062E-2,2.0224452E-2,-1.9019026E-2,7.955221E-2,-3.0067033E-4,-3.0083947E-2,-4.454623E-2,-1.1536322E-2],"split_indices":[17,26,17,26,18,15,20,0,0,0,0,0,0,0,0],"split_type":[0,0,0,0,0,0,0,0,0,0,0,0,0,0,0],"sum_hessian":[8.5963635E2,6.468773E2,2.1275906E2,5.434639E2,1.0341341E2,1.341848E2,7.857427E1,1.236248E2,4.198391E2,1.0156999E2,1.843418E0,5.8099434E1,7.608536E1,7.353687E1,5.0373983E0],"tree_param":{"num_deleted":"0","num_feature":"27","num_nodes":"15","size_leaf_vector":"1"}},{"base_weights":[1.6316905E-4,1.441852E-1,-4.491108E-1,1.9302774E-2,4.0277702E-1,-8.115238E-1,-3.309152E-1,2.3913596E-2,-4.0895636E-3,2.760359E-2,-2.2100728E-2,1.3030833E-2,-4.7626022E-2,-1.0968205E-2,-3.6338914E-2],"categories":[],"categories_nodes":[],"categories_segments":[],"categories_sizes":[],"default_left":[0,0,0,0,0,0,0,0,0,0,0,0,0,0,0],"id":21,"left_children":[1,3,5,7,9,11,13,-1,-1,-1,-1,-1,-1,-1,-1],"loss_changes":[5.541843E1,2.0936695E1,8.637329E0,1.6364779E1,1.4864304E1,1.9928932E0,6.656685E0,0E0,0E0,0E0,0E0,0E0,0E0,0E0,0E0],"parents":[2147483647,0,0,1,1,2,2,3,3,4,4,5,5,6,6],"right_children":[2,4,6,8,10,12,14,-1,-1,-1,-1,-1,-1,-1,-1],"split_conditions":[3.3526108E1,1.7912006E1,4.1E1,9.848858E0,3.9289406E1,1.20415945E1,2E1,2.3913596E-2,-4.0895636E-3,2.760359E-2,-2.2100728E-2,1.3030833E-2,-4.7626022E-2,-1.0968205E-2,-3.6338914E-2],"split_indices":[17,19,25,17,20,24,26,0,0,0,0,0,0,0,0],"split_type":[0,0,0,0,0,0,0,0,0,0,0,0,0,0,0],"sum_hessian":[8.544729E2,6.4756464E2,2.0690825E2,4.3740308E2,2.1016158E2,4.9442127E1,1.5746613E2,8.018864E1,3.5721445E2,1.8970155E2,2.0460033E1,1.385124E0,4.8057003E1,1.1100554E2,4.6460583E1],"tree_param":{"num_deleted":"0","num_feature":"27","num_nodes":"15","size_leaf_vector":"1"}},{"base_weights":[-1.8164277E-3,1.465063E-1,-4.7382832E-1,-2.7860713E-1,2.1372819E-1,-3.4603506E-1,-8.251707E-1,-1.83123E-2,1.14495955E-1,1.7658744E-2,-8.57499E-3,-1.2850922E-2,-3.8500432E-2,-8.716991E-3,-4.9928322E-2],"categories":[],"categories_nodes":[],"categories_segments":[],"categories_sizes":[],"default_left":[0,0,0,1,0,0,0,0,0,0,0,0,0,0,0],"id":22,"left_children":[1,3,5,7,9,11,13,-1,-1,-1,-1,-1,-1,-1,-1],"loss_changes":[6.00191E1,1.87009E1,8.917839E0,1.0294453E1,2.0649185E1,5.8925304E0,2.0833206E0,0E0,0E0,0E0,0E0,0E0,0E0,0E0,0E0],"parents":[2147483647,0,0,1,1,2,2,3,3,4,4,5,5,6,6],"right_children":[2,4,6,8,10,12,14,-1,-1,-1,-1,-1,-1,-1,-1],"split_conditions":[3.3526108E1,-4.3958374E1,5.23259E1,6.1205997E1,7E0,2.1E1,-2.974488E1,-1.83123E-2,1.14495955E-1,1.7658744E-2,-8.57499E-3,-1.2850922E-2,-3.8500432E-2,-8.716991E-3,-4.9928322E-2],"split_indices":[17,20,17,21,26,26,20,0,0,0,0,0,0,0,0],"split_type":[0,0,0,0,0,0,0,0,0,0,0,0,0,0,0],"sum_hessian":[8.553006E2,6.5132196E2,2.0397864E2,8.850006E1,5.628219E2,1.5102971E2,5.294893E1,8.7595085E1,9.0496933E-1,4.4231186E2,1.2051005E2,1.1319479E2,3.783492E1,4.7379313E0,4.8211E1],"tree_param":{"num_deleted":"0","num_feature":"27","num_nodes":"15","size_leaf_vector":"1"}},{"base_weights":[8.644592E-3,1.1743357E-1,-5.5120564E-1,1.7652944E-1,-4.4630495E-1,-4.462594E-1,-5.3755738E-2,-1.1064272E-2,1.605052E-2,-2.1952307E-3,-3.7618764E-2,-1.8241255E-2,-3.891272E-2],"categories":[],"categories_nodes":[],"categories_segments":[],"categories_sizes":[],"default_left":[0,0,0,0,0,0,0,0,0,0,0,0,0],"id":23,"left_children":[1,3,5,7,9,11,-1,-1,-1,-1,-1,-1,-1],"loss_changes":[5.212694E1,2.3950338E1,5.4683E0,2.6326689E1,6.138689E0,3.1408844E0,0E0,0E0,0E0,0E0,0E0,0E0,0E0],"parents":[2147483647,0,0,1,1,2,2,3,3,4,4,5,5],"right_children":[2,4,6,8,10,12,-1,-1,-1,-1,-1,-1,-1],"split_conditions":[3.9115215E1,4.270939E1,6.20967E1,-8E0,1.2727922E1,5.3E1,-5.3755738E-2,-1.1064272E-2,1.605052E-2,-2.1952307E-3,-3.7618764E-2,-1.8241255E-2,-3.891272E-2],"split_indices":[17,20,17,26,17,25,0,0,0,0,0,0,0],"split_type":[0,0,0,0,0,0,0,0,0,0,0,0,0],"sum_hessian":[8.538027E2,7.155489E2,1.3825378E2,6.482778E2,6.727113E1,1.11379135E2,2.6874651E1,1.4587566E2,5.024021E2,2.41231E1,4.3148033E1,7.580205E1,3.5577087E1],"tree_param":{"num_deleted":"0","num_feature":"27","num_nodes":"13","size_leaf_vector":"1"}},{"base_weights":[-4.554252E-3,1.69077E-1,-3.3892557E-1,4.4051877E-1,7.733068E-2,-2.4033153E-1,-7.4107295E-1,1.5581037E-2,4.871713E-2,1.7609814E-2,-2.566197E-3,4.348559E-3,-2.2928927E-2,-4.35271E-2,4.4266794E-2],"categories":[],"categories_nodes":[],"categories_segments":[],"categories_sizes":[],"default_left":[0,0,0,0,0,0,0,0,0,0,0,0,0,0,0],"id":24,"left_children":[1,3,5,7,9,11,13,-1,-1,-1,-1,-1,-1,-1,-1],"loss_changes":[4.971394E1,1.4002573E1,1.1426022E1,9.650068E0,1.2234402E1,1.2560394E1,3.385275E0,0E0,0E0,0E0,0E0,0E0,0E0,0E0,0E0],"parents":[2147483647,0,0,1,1,2,2,3,3,4,4,5,5,6,6],"right_children":[2,4,6,8,10,12,14,-1,-1,-1,-1,-1,-1,-1,-1],"split_conditions":[2.6076809E1,4E0,2.2E1,1E0,1.1661903E1,7E0,1.6260689E2,1.5581037E-2,4.871713E-2,1.7609814E-2,-2.566197E-3,4.348559E-3,-2.2928927E-2,-4.35271E-2,4.4266794E-2],"split_indices":[17,18,26,1,17,18,24,0,0,0,0,0,0,0,0],"split_type":[0,0,0,0,0,0,0,0,0,0,0,0,0,0,0],"sum_hessian":[8.543037E2,5.626348E2,2.9166885E2,1.41169E2,4.2146585E2,2.3552345E2,5.614541E1,1.0304954E2,3.8119476E1,1.440499E2,2.7741592E2,8.129893E1,1.5422452E2,5.5482834E1,6.6257554E-1],"tree_param":{"num_deleted":"0","num_feature":"27","num_nodes":"15","size_leaf_vector":"1"}},{"base_weights":[-2.808242E-2,2.235608E-1,-1.9590448E-1,-9.166527E-2,3.4207892E-1,-1.1757458E-1,-7.143314E-1,-9.566586E-3,5.326228E-2,2.4138656E-2,-7.6445774E-3,-3.304185E-3,-3.4646444E-2,-5.515218E-2,-3.2056868E-2],"categories":[],"categories_nodes":[],"categories_segments":[],"categories_sizes":[],"default_left":[0,0,0,0,0,0,0,0,0,0,0,0,0,0,0],"id":25,"left_children":[1,3,5,7,9,11,13,-1,-1,-1,-1,-1,-1,-1,-1],"loss_changes":[3.6043484E1,1.2790415E1,2.070442E1,7.7959213E0,1.0330969E1,1.3034973E1,2.0187225E0,0E0,0E0,0E0,0E0,0E0,0E0,0E0,0E0],"parents":[2147483647,0,0,1,1,2,2,3,3,4,4,5,5,6,6],"right_children":[2,4,6,8,10,12,14,-1,-1,-1,-1,-1,-1,-1,-1],"split_conditions":[1.5652476E1,5.178571E0,4.741308E1,1E0,3.0068583E1,1E0,3E1,-9.566586E-3,5.326228E-2,2.4138656E-2,-7.6445774E-3,-3.304185E-3,-3.4646444E-2,-5.515218E-2,-3.2056868E-2],"split_indices":[17,19,17,12,20,9,25,0,0,0,0,0,0,0,0],"split_type":[0,0,0,0,0,0,0,0,0,0,0,0,0,0,0],"sum_hessian":[8.514412E2,3.4051657E2,5.1092465E2,9.310612E1,2.4741046E2,4.449268E2,6.5997856E1,8.735697E1,5.7491455E0,2.0955682E2,3.7853638E1,3.988364E2,4.6090385E1,2.1317446E1,4.4680412E1],"tree_param":{"num_deleted":"0","num_feature":"27","num_nodes":"15","size_leaf_vector":"1"}},{"base_weights":[-1.6602835E-2,7.574822E-2,-5.2712506E-1,1.2907147E-1,-3.9438397E-1,-5.4794554E-2,-6.0417825E-1,-5.7021547E-3,1.4846245E-2,-2.4821797E-2,8.496101E-2,1.6847283E-2,-4.1909706E-2,-2.8624052E-2,-5.499315E-2],"categories":[],"categories_nodes":[],"categories_segments":[],"categories_sizes":[],"default_left":[0,0,0,0,0,0,0,0,0,0,0,0,0,0,0],"id":26,"left_children":[1,3,5,7,9,11,13,-1,-1,-1,-1,-1,-1,-1,-1],"loss_changes":[3.9821556E1,1.7985119E1,4.6755867E0,1.9961842E1,7.1178093E0,4.918723E0,3.472046E0,0E0,0E0,0E0,0E0,0E0,0E0,0E0,0E0],"parents":[2147483647,0,0,1,1,2,2,3,3,4,4,5,5,6,6],"right_children":[2,4,6,8,10,12,14,-1,-1,-1,-1,-1,-1,-1,-1],"split_conditions":[3.9115215E1,4.0971737E1,4E0,-4E0,7.7E1,3.1301403E1,6.20967E1,-5.7021547E-3,1.4846245E-2,-2.4821797E-2,8.496101E-2,1.6847283E-2,-4.1909706E-2,-2.8624052E-2,-5.499315E-2],"split_indices":[17,20,18,26,18,19,17,0,0,0,0,0,0,0,0],"split_type":[0,0,0,0,0,0,0,0,0,0,0,0,0,0,0],"sum_hessian":[8.4277374E2,7.143947E2,1.28379E2,6.4227246E2,7.212225E1,1.8245642E1,1.1013336E2,2.3693503E2,4.0533746E2,7.1156715E1,9.6553856E-1,1.24298935E1,5.815748E0,8.945589E1,2.0677473E1],"tree_param":{"num_deleted":"0","num_feature":"27","num_nodes":"15","size_leaf_vector":"1"}},{"base_weights":[6.4605526E-3,1.2026502E-1,-4.0313077E-1,1.924322E-2,3.7106082E-1,-9.097298E-2,-5.6680644E-1,-2.0182153E-2,4.698851E-3,-4.1946E-3,2.5850117E-2,7.65846E-3,-3.5341907E-2,-2.5288405E-2,-5.036082E-2],"categories":[],"categories_nodes":[],"categories_segments":[],"categories_sizes":[],"default_left":[0,0,0,0,0,0,0,0,0,0,0,0,0,0,0],"id":27,"left_children":[1,3,5,7,9,11,13,-1,-1,-1,-1,-1,-1,-1,-1],"loss_changes":[3.961876E1,1.6843569E1,9.39093E0,1.1548237E1,7.516016E0,7.9724035E0,4.2662354E0,0E0,0E0,0E0,0E0,0E0,0E0,0E0,0E0],"parents":[2147483647,0,0,1,1,2,2,3,3,4,4,5,5,6,6],"right_children":[2,4,6,8,10,12,14,-1,-1,-1,-1,-1,-1,-1,-1],"split_conditions":[3.3526108E1,2.0208908E1,7E0,-4.3958374E1,-7E0,2E1,5.192302E1,-2.0182153E-2,4.698851E-3,-4.1946E-3,2.5850117E-2,7.65846E-3,-3.5341907E-2,-2.5288405E-2,-5.036082E-2],"split_indices":[17,19,18,20,26,26,17,0,0,0,0,0,0,0,0],"split_type":[0,0,0,0,0,0,0,0,0,0,0,0,0,0,0],"sum_hessian":[8.4790485E2,6.640936E2,1.8381125E2,4.7417163E2,1.8992197E2,6.3761967E1,1.20049286E2,6.823002E1,4.0594162E2,3.1336721E1,1.5858525E2,4.533357E1,1.84284E1,9.003833E1,3.0010952E1],"tree_param":{"num_deleted":"0","num_feature":"27","num_nodes":"15","size_leaf_vector":"1"}},{"base_weights":[-5.707221E-3,9.842249E-2,-3.8901418E-1,4.366207E-2,5.1255566E-1,-2.548377E-1,-7.055518E-1,-1.6156964E-2,6.9831475E-3,6.1364736E-2,1.282198E-2,-8.171041E-3,-4.169742E-2,3.0298848E-3,-4.208902E-2],"categories":[],"categories_nodes":[],"categories_segments":[],"categories_sizes":[],"default_left":[0,0,0,0,0,0,0,0,0,0,0,0,0,0,0],"id":28,"left_children":[1,3,5,7,9,11,13,-1,-1,-1,-1,-1,-1,-1,-1],"loss_changes":[3.381309E1,1.50863285E1,7.506447E0,1.5690584E1,1.2527864E1,6.7490196E0,1.7329407E0,0E0,0E0,0E0,0E0,0E0,0E0,0E0,0E0],"parents":[2147483647,0,0,1,1,2,2,3,3,4,4,5,5,6,6],"right_children":[2,4,6,8,10,12,14,-1,-1,-1,-1,-1,-1,-1,-1],"split_conditions":[3.3526108E1,1E0,4.90408E1,-7E0,1.6552946E1,3.5272423E1,2.0396078E1,-1.6156964E-2,6.9831475E-3,6.1364736E-2,1.282198E-2,-8.171041E-3,-4.169742E-2,3.0298848E-3,-4.208902E-2],"split_indices":[17,12,17,26,17,20,24,0,0,0,0,0,0,0,0],"split_type":[0,0,0,0,0,0,0,0,0,0,0,0,0,0,0],"sum_hessian":[8.451969E2,6.6522437E2,1.7997256E2,5.885115E2,7.671286E1,1.2766288E2,5.230968E1,1.1456061E2,4.7395087E2,2.4419827E1,5.2293037E1,1.05187965E2,2.2474918E1,2.715255E0,4.9594425E1],"tree_param":{"num_deleted":"0","num_feature":"27","num_nodes":"15","size_leaf_vector":"1"}},{"base_weights":[-3.8044972E-3,1.2743713E-1,-2.7832857E-1,1.5573312E-1,-5.270098E-1,-8.134756E-1,-1.898851E-1,-1.8320609E-2,1.13200825E-2,-3.8867533E-2,3.806126E-2,1.7942363E-2,-4.8421003E-2,1.04538344E-1,-1.1662175E-2],"categories":[],"categories_nodes":[],"categories_segments":[],"categories_sizes":[],"default_left":[0,0,0,0,0,0,0,0,0,0,0,0,0,0,0],"id":29,"left_children":[1,3,5,7,9,11,13,-1,-1,-1,-1,-1,-1,-1,-1],"loss_changes":[3.0393038E1,1.0651262E1,1.275922E1,1.19977255E1,5.153394E0,2.287489E0,8.669888E0,0E0,0E0,0E0,0E0,0E0,0E0,0E0,0E0],"parents":[2147483647,0,0,1,1,2,2,3,3,4,4,5,5,6,6],"right_children":[2,4,6,8,10,12,14,-1,-1,-1,-1,-1,-1,-1,-1],"split_conditions":[2.6076809E1,5.7094757E1,4.1E1,-5.2125015E1,2.9850964E1,1.20415945E1,3.865981E1,-1.8320609E-2,1.13200825E-2,-3.8867533E-2,3.806126E-2,1.7942363E-2,-4.8421003E-2,1.04538344E-1,-1.1662175E-2],"split_indices":[17,20,25,20,19,24,21,0,0,0,0,0,0,0,0],"split_type":[0,0,0,0,0,0,0,0,0,0,0,0,0,0,0],"sum_hessian":[8.4158734E2,5.6974524E2,2.7184213E2,5.468628E2,2.2882395E1,3.7392532E1,2.3444958E2,4.6510277E1,5.0035254E2,2.052468E1,2.3577163E0,1.2390003E0,3.6153534E1,1.0628464E0,2.3338675E2],"tree_param":{"num_deleted":"0","num_feature":"27","num_nodes":"15","size_leaf_vector":"1"}},{"base_weights":[-2.3532296E-3,7.6687634E-2,-3.6659333E-1,-2.4285913E-1,1.8664561E-1,1.3759621E0,-3.8828227E-1,-2.0710386E-2,1.738669E-2,2.2047738E-2,4.184942E-3,9.2156254E-2,1.3891053E-2,-1.66945E-2,-4.1449558E-2],"categories":[],"categories_nodes":[],"categories_segments":[],"categories_sizes":[],"default_left":[0,0,0,0,0,0,0,0,0,0,0,0,0,0,0],"id":30,"left_children":[1,3,5,7,9,11,13,-1,-1,-1,-1,-1,-1,-1,-1],"loss_changes":[2.4262352E1,2.437738E1,6.2134705E0,1.2356611E1,1.1839893E1,2.0442009E-1,4.546629E0,0E0,0E0,0E0,0E0,0E0,0E0,0E0,0E0],"parents":[2147483647,0,0,1,1,2,2,3,3,4,4,5,5,6,6],"right_children":[2,4,6,8,10,12,14,-1,-1,-1,-1,-1,-1,-1,-1],"split_conditions":[1E1,-9E0,1E0,1E0,5E0,4.7169907E1,2.7E1,-2.0710386E-2,1.738669E-2,2.2047738E-2,4.184942E-3,9.2156254E-2,1.3891053E-2,-1.66945E-2,-4.1449558E-2],"split_indices":[26,26,18,12,18,24,26,0,0,0,0,0,0,0,0],"split_type":[0,0,0,0,0,0,0,0,0,0,0,0,0,0,0],"sum_hessian":[8.407633E2,6.914965E2,1.4926674E2,1.7672136E2,5.147752E2,1.0674057E0,1.4819933E2,1.44367E2,3.235435E1,1.8143188E2,3.333433E2,5.0248253E-1,5.6492317E-1,1.1870105E2,2.9498278E1],"tree_param":{"num_deleted":"0","num_feature":"27","num_nodes":"15","size_leaf_vector":"1"}},{"base_weights":[-5.793732E-3,4.2361103E-2,-6.8364996E-1,3.3282453E-1,-4.3386187E-2,-4.253191E-1,-8.056601E-1,2.4369042E-2,-1.9689722E-2,-2.4881056E-2,9.947877E-4,-3.5422634E-2,4.5276426E-2,-4.7886424E-2,-1.3627845E-3],"categories":[],"categories_nodes":[],"categories_segments":[],"categories_sizes":[],"default_left":[0,0,0,1,0,0,0,0,0,0,0,0,0,0,0],"id":31,"left_children":[1,3,5,7,9,11,13,-1,-1,-1,-1,-1,-1,-1,-1],"loss_changes":[2.7539118E1,1.9636349E1,1.4210892E0,1.2400314E1,1.48245735E1,5.5305023E0,1.266592E0,0E0,0E0,0E0,0E0,0E0,0E0,0E0,0E0],"parents":[2147483647,0,0,1,1,2,2,3,3,4,4,5,5,6,6],"right_children":[2,4,6,8,10,12,14,-1,-1,-1,-1,-1,-1,-1,-1],"split_conditions":[4.741308E1,4E0,5.8694122E1,4.3863426E1,5.3338543E1,1E0,3.6E1,2.4369042E-2,-1.9689722E-2,-2.4881056E-2,9.947877E-4,-3.5422634E-2,4.5276426E-2,-4.7886424E-2,-1.3627845E-3],"split_indices":[17,18,24,19,24,6,26,0,0,0,0,0,0,0,0],"split_type":[0,0,0,0,0,0,0,0,0,0,0,0,0,0,0],"sum_hessian":[8.4178265E2,7.868243E2,5.4958405E1,1.7867905E2,6.081452E2,1.9069235E1,3.5889168E1,1.561839E2,2.249514E1,7.9975975E1,5.2816925E2,1.6777737E1,2.2914994E0,3.3866043E1,2.0231266E0],"tree_param":{"num_deleted":"0","num_feature":"27","num_nodes":"15","size_leaf_vector":"1"}},{"base_weights":[-8.1944343E-4,1.962776E-1,-1.3534245E-1,-8.881627E-2,2.9845336E-1,-7.7897444E-2,-6.244706E-1,3.183468E-2,-1.1553721E-2,1.5512244E-2,1.0058361E-1,-8.590373E-4,-3.344042E-2,-5.0844744E-2,-2.6751548E-2],"categories":[],"categories_nodes":[],"categories_segments":[],"categories_sizes":[],"default_left":[0,0,0,0,1,0,0,0,0,0,0,0,0,0,0],"id":32,"left_children":[1,3,5,7,9,11,13,-1,-1,-1,-1,-1,-1,-1,-1],"loss_changes":[2.2475595E1,1.004329E1,1.4107522E1,7.078667E0,8.179037E0,1.4598766E1,1.7680702E0,0E0,0E0,0E0,0E0,0E0,0E0,0E0,0E0],"parents":[2147483647,0,0,1,1,2,2,3,3,4,4,5,5,6,6],"right_children":[2,4,6,8,10,12,14,-1,-1,-1,-1,-1,-1,-1,-1],"split_conditions":[1.5264338E1,5.178571E0,4.763402E1,3E0,5.5732666E1,1E0,3E1,3.183468E-2,-1.1553721E-2,1.5512244E-2,1.0058361E-1,-8.590373E-4,-3.344042E-2,-5.0844744E-2,-2.6751548E-2],"split_indices":[17,19,17,18,21,9,25,0,0,0,0,0,0,0,0],"split_type":[0,0,0,0,0,0,0,0,0,0,0,0,0,0,0],"sum_hessian":[8.4568317E2,3.4286856E2,5.0281464E2,9.049565E1,2.5237291E2,4.5100607E2,5.1808544E1,1.3082683E1,7.741297E1,2.496966E2,2.6763153E0,4.0308987E2,4.7916187E1,1.6337036E1,3.5471508E1],"tree_param":{"num_deleted":"0","num_feature":"27","num_nodes":"15","size_leaf_vector":"1"}},{"base_weights":[1.4520789E-2,8.2503155E-2,-4.326054E-1,2.5897986E-1,-3.8503896E-2,-7.509455E-1,-2.9164466E-1,6.3798903E-3,3.0953312E-2,-5.432797E-3,1.8847287E-2,2.4256283E-2,-4.5225877E-2,-4.842306E-3,-3.4572594E-2],"categories":[],"categories_nodes":[],"categories_segments":[],"categories_sizes":[],"default_left":[0,0,0,0,0,0,0,0,0,0,0,0,0,0,0],"id":33,"left_children":[1,3,5,7,9,11,13,-1,-1,-1,-1,-1,-1,-1,-1],"loss_changes":[2.566544E1,1.565749E1,4.781681E0,1.2564648E1,9.453736E0,2.413269E0,5.1745715E0,0E0,0E0,0E0,0E0,0E0,0E0,0E0,0E0],"parents":[2147483647,0,0,1,1,2,2,3,3,4,4,5,5,6,6],"right_children":[2,4,6,8,10,12,14,-1,-1,-1,-1,-1,-1,-1,-1],"split_conditions":[3.9115215E1,6E0,4.1E1,1E0,1E0,1.20415945E1,5.3E1,6.3798903E-3,3.0953312E-2,-5.432797E-3,1.8847287E-2,2.4256283E-2,-4.5225877E-2,-4.842306E-3,-3.4572594E-2],"split_indices":[17,18,25,1,12,24,25,0,0,0,0,0,0,0,0],"split_type":[0,0,0,0,0,0,0,0,0,0,0,0,0,0,0],"sum_hessian":[8.421755E2,7.317357E2,1.1043975E2,2.9718332E2,4.3455243E2,3.2566196E1,7.787355E1,1.9888136E2,9.8301956E1,3.767697E2,5.7782707E1,1.0689397E0,3.149726E1,4.8309566E1,2.9563984E1],"tree_param":{"num_deleted":"0","num_feature":"27","num_nodes":"15","size_leaf_vector":"1"}},{"base_weights":[-2.2867431E-3,1.7775837E-1,-1.5727785E-1,1.3587402E-1,7.189966E-1,-2.7695274E-1,7.882388E-2,-1.0568226E-2,1.2855337E-2,7.0465915E-2,-9.788654E-4,-2.3574244E-2,-3.8847064E-3,8.54475E-3,-3.881886E-2],"categories":[],"categories_nodes":[],"categories_segments":[],"categories_sizes":[],"default_left":[0,0,0,0,0,0,1,0,0,0,0,0,0,0,0],"id":34,"left_children":[1,3,5,7,9,11,13,-1,-1,-1,-1,-1,-1,-1,-1],"loss_changes":[2.3652212E1,8.791157E0,1.289152E1,1.095908E1,1.09691105E1,8.882235E0,8.727887E0,0E0,0E0,0E0,0E0,0E0,0E0,0E0,0E0],"parents":[2147483647,0,0,1,1,2,2,3,3,4,4,5,5,6,6],"right_children":[2,4,6,8,10,12,14,-1,-1,-1,-1,-1,-1,-1,-1],"split_conditions":[1.7E1,1E0,1.5371329E1,4.432226E0,6.0950655E-1,2.1E1,4.3863426E1,-1.0568226E-2,1.2855337E-2,7.0465915E-2,-9.788654E-4,-2.3574244E-2,-3.8847064E-3,8.54475E-3,-3.881886E-2],"split_indices":[17,12,19,19,20,18,19,0,0,0,0,0,0,0,0],"split_type":[0,0,0,0,0,0,0,0,0,0,0,0,0,0,0],"sum_hessian":[8.455839E2,3.9110764E2,4.5447632E2,3.6417645E2,2.6931175E1,3.0148633E2,1.5298997E2,8.06706E1,2.8350586E2,1.5226359E1,1.1704817E1,1.7873586E2,1.22750496E2,1.4046107E2,1.2528902E1],"tree_param":{"num_deleted":"0","num_feature":"27","num_nodes":"15","size_leaf_vector":"1"}},{"base_weights":[-1.7997332E-2,2.5604355E-1,-9.8258205E-2,1.7244843E-1,8.4067225E-1,-4.6309683E-2,-4.5750627E-1,5.5869347E-3,5.0328992E-2,5.982793E-2,-3.4078714E-2,-2.4392342E-2,2.6787617E-4,-1.9083245E-2,-5.353335E-2],"categories":[],"categories_nodes":[],"categories_segments":[],"categories_sizes":[],"default_left":[0,0,0,1,1,0,0,0,0,0,0,0,0,0,0],"id":35,"left_children":[1,3,5,7,9,11,13,-1,-1,-1,-1,-1,-1,-1,-1],"loss_changes":[1.849768E1,9.166776E0,1.2115481E1,8.783546E0,8.199707E0,1.1247356E1,4.477827E0,0E0,0E0,0E0,0E0,0E0,0E0,0E0,0E0],"parents":[2147483647,0,0,1,1,2,2,3,3,4,4,5,5,6,6],"right_children":[2,4,6,8,10,12,14,-1,-1,-1,-1,-1,-1,-1,-1],"split_conditions":[4E0,1E0,4.0496914E1,2.5594309E1,4.3863426E1,4.7169907E1,6.20967E1,5.5869347E-3,5.0328992E-2,5.982793E-2,-3.4078714E-2,-2.4392342E-2,2.6787617E-4,-1.9083245E-2,-5.353335E-2],"split_indices":[18,12,17,21,19,24,17,0,0,0,0,0,0,0,0],"split_type":[0,0,0,0,0,0,0,0,0,0,0,0,0,0,0],"sum_hessian":[8.388601E2,1.8953296E2,6.4932715E2,1.6695526E2,2.2577698E1,5.682807E2,8.1046455E1,1.5259647E2,1.4358789E1,1.9806086E1,2.7716122E0,6.540025E1,5.0288043E2,6.668689E1,1.4359568E1],"tree_param":{"num_deleted":"0","num_feature":"27","num_nodes":"15","size_leaf_vector":"1"}},{"base_weights":[2.0172825E-2,-8.68264E-2,2.3149301E-1,3.809981E-1,-1.3775808E-1,2.8949982E-1,-3.68266E-1,3.0180207E-2,-3.2703485E-2,-5.7149506E-3,-3.716551E-2,1.4484338E-2,9.21477E-2,-5.273318E-2,-2.7099103E-3],"categories":[],"categories_nodes":[],"categories_segments":[],"categories_sizes":[],"default_left":[0,0,1,0,0,1,0,0,0,0,0,0,0,0,0],"id":36,"left_children":[1,3,5,7,9,11,13,-1,-1,-1,-1,-1,-1,-1,-1],"loss_changes":[1.8949776E1,1.3312327E1,9.906375E0,8.490408E0,9.454345E0,1.0777498E1,4.5530014E0,0E0,0E0,0E0,0E0,0E0,0E0,0E0,0E0],"parents":[2147483647,0,0,1,1,2,2,3,3,4,4,5,5,6,6],"right_children":[2,4,6,8,10,12,14,-1,-1,-1,-1,-1,-1,-1,-1],"split_conditions":[1.7256884E1,3E0,4.3863426E1,8E0,2.3E1,2.8266552E1,-3E0,3.0180207E-2,-3.2703485E-2,-5.7149506E-3,-3.716551E-2,1.4484338E-2,9.21477E-2,-5.273318E-2,-2.7099103E-3],"split_indices":[19,18,19,26,26,21,26,0,0,0,0,0,0,0,0],"split_type":[0,0,0,0,0,0,0,0,0,0,0,0,0,0,0],"sum_hessian":[8.361853E2,5.555028E2,2.806825E2,5.3903217E1,5.0159958E2,2.5640146E2,2.4281034E1,4.6806625E1,7.096592E0,4.7013153E2,3.1468048E1,2.5155841E2,4.8430433E0,8.057671E0,1.6223364E1],"tree_param":{"num_deleted":"0","num_feature":"27","num_nodes":"15","size_leaf_vector":"1"}},{"base_weights":[1.2031818E-3,6.107963E-2,-3.226095E-1,-2.0576738E-1,1.6771142E-1,-2.11561E-1,-6.432384E-1,-1.8172532E-2,1.8316045E-2,5.3809164E-3,2.3817293E-2,-3.3397316E-3,-4.01984E-2,-4.127655E-2,1.4424802E-2],"categories":[],"categories_nodes":[],"categories_segments":[],"categories_sizes":[],"default_left":[0,0,0,0,0,0,1,0,0,0,0,0,0,0,0],"id":37,"left_children":[1,3,5,7,9,11,13,-1,-1,-1,-1,-1,-1,-1,-1],"loss_changes":[1.625664E1,2.0168688E1,4.522725E0,1.2675426E1,9.280662E0,7.5033426E0,2.8637447E0,0E0,0E0,0E0,0E0,0E0,0E0,0E0,0E0],"parents":[2147483647,0,0,1,1,2,2,3,3,4,4,5,5,6,6],"right_children":[2,4,6,8,10,12,14,-1,-1,-1,-1,-1,-1,-1,-1],"split_conditions":[1.1E1,-7E0,4.8814075E1,1E0,1E0,4.7095646E1,3.0451807E1,-1.8172532E-2,1.8316045E-2,5.3809164E-3,2.3817293E-2,-3.3397316E-3,-4.01984E-2,-4.127655E-2,1.4424802E-2],"split_indices":[26,26,20,12,1,17,19,0,0,0,0,0,0,0,0],"split_type":[0,0,0,0,0,0,0,0,0,0,0,0,0,0,0],"sum_hessian":[8.364409E2,7.065952E2,1.2984569E2,2.014743E2,5.0512094E2,9.767587E1,3.2169807E1,1.6543924E2,3.603506E1,3.9484717E2,1.1027378E2,7.581103E1,2.1864851E1,2.9420519E1,2.7492912E0],"tree_param":{"num_deleted":"0","num_feature":"27","num_nodes":"15","size_leaf_vector":"1"}},{"base_weights":[5.275904E-3,1.7743225E-1,-1.1890479E-1,-2.3165691E-1,2.3548922E-1,-1.9425684E-1,2.1262787E-1,-1.807384E-2,1.0381227E-1,1.9850973E-2,-5.2348985E-3,-7.950082E-3,-3.3705354E-2,1.707404E-2,-4.963729E-2],"categories":[],"categories_nodes":[],"categories_segments":[],"categories_sizes":[],"default_left":[0,0,0,1,0,0,0,0,0,0,0,0,0,0,0],"id":38,"left_children":[1,3,5,7,9,11,13,-1,-1,-1,-1,-1,-1,-1,-1],"loss_changes":[1.7948254E1,8.410015E0,1.2226325E1,8.784617E0,1.1890823E1,8.455838E0,9.263213E0,0E0,0E0,0E0,0E0,0E0,0E0,0E0,0E0],"parents":[2147483647,0,0,1,1,2,2,3,3,4,4,5,5,6,6],"right_children":[2,4,6,8,10,12,14,-1,-1,-1,-1,-1,-1,-1,-1],"split_conditions":[1.5264338E1,-4.3958374E1,1E0,6.1205997E1,4E0,1E0,4.675468E1,-1.807384E-2,1.0381227E-1,1.9850973E-2,-5.2348985E-3,-7.950082E-3,-3.3705354E-2,1.707404E-2,-4.963729E-2],"split_indices":[17,20,12,21,26,9,17,0,0,0,0,0,0,0,0],"split_type":[0,0,0,0,0,0,0,0,0,0,0,0,0,0,0],"sum_hessian":[8.3756036E2,3.5080182E2,4.8675854E2,4.322607E1,3.0757574E2,3.969518E2,8.980671E1,4.2253475E1,9.725965E-1,2.2673367E2,8.084208E1,3.5206494E2,4.488689E1,8.360924E1,6.19747E0],"tree_param":{"num_deleted":"0","num_feature":"27","num_nodes":"15","size_leaf_vector":"1"}},{"base_weights":[-7.345147E-3,4.93288E-2,-4.164053E-1,-4.232508E-1,8.746702E-2,-4.485075E-1,1.2312864E0,-2.6288554E-2,6.9382235E-2,7.363144E-3,-1.8688101E-2,-5.32391E-2,-2.0385118E-2,9.277135E-2,8.462165E-3],"categories":[],"categories_nodes":[],"categories_segments":[],"categories_sizes":[],"default_left":[0,0,0,1,0,0,0,0,0,0,0,0,0,0,0],"id":39,"left_children":[1,3,5,7,9,11,13,-1,-1,-1,-1,-1,-1,-1,-1],"loss_changes":[1.949175E1,1.3348702E1,5.963873E0,4.5633554E0,1.2460741E1,4.003931E0,7.519121E-1,0E0,0E0,0E0,0E0,0E0,0E0,0E0,0E0],"parents":[2147483647,0,0,1,1,2,2,3,3,4,4,5,5,6,6],"right_children":[2,4,6,8,10,12,14,-1,-1,-1,-1,-1,-1,-1,-1],"split_conditions":[3.9115215E1,-5.3130104E1,1.5040279E2,6.1205997E1,4.270939E1,3E1,4.1340054E1,-2.6288554E-2,6.9382235E-2,7.363144E-3,-1.8688101E-2,-5.32391E-2,-2.0385118E-2,9.277135E-2,8.462165E-3],"split_indices":[17,20,24,21,20,25,17,0,0,0,0,0,0,0,0],"split_type":[0,0,0,0,0,0,0,0,0,0,0,0,0,0,0],"sum_hessian":[8.388898E2,7.375799E2,1.01309875E2,5.432525E1,6.8325464E2,1.00087654E2,1.2222248E0,5.3632156E1,6.930941E-1,6.199541E2,6.330057E1,1.3373743E1,8.6713905E1,5.0429136E-1,7.179334E-1],"tree_param":{"num_deleted":"0","num_feature":"27","num_nodes":"15","size_leaf_vector":"1"}},{"base_weights":[-4.393729E-3,1.3084172E-1,-1.2703559E-1,8.5689366E-2,6.9135284E-1,-7.630308E-2,-6.797982E-1,-1.13239195E-2,9.296481E-3,6.2158734E-2,3.0004603E-3,-3.7384674E-2,-1.7913992E-3,-1.019616E-2,-4.5005307E-2],"categories":[],"categories_nodes":[],"categories_segments":[],"categories_sizes":[],"default_left":[0,0,0,0,0,0,0,0,0,0,0,0,0,0,0],"id":40,"left_children":[1,3,5,7,9,11,13,-1,-1,-1,-1,-1,-1,-1,-1],"loss_changes":[1.3903959E1,1.0031353E1,1.2276158E1,8.459202E0,7.725276E0,1.0534259E1,2.0476475E0,0E0,0E0,0E0,0E0,0E0,0E0,0E0,0E0],"parents":[2147483647,0,0,1,1,2,2,3,3,4,4,5,5,6,6],"right_children":[2,4,6,8,10,12,14,-1,-1,-1,-1,-1,-1,-1,-1],"split_conditions":[1.7E1,1E0,1E0,4.432226E0,3.8140748E0,4.1E1,5E0,-1.13239195E-2,9.296481E-3,6.2158734E-2,3.0004603E-3,-3.7384674E-2,-1.7913992E-3,-1.019616E-2,-4.5005307E-2],"split_indices":[17,12,9,19,20,25,18,0,0,0,0,0,0,0,0],"split_type":[0,0,0,0,0,0,0,0,0,0,0,0,0,0,0],"sum_hessian":[8.363166E2,3.977055E2,4.3861108E2,3.691234E2,2.8582106E1,4.0278186E2,3.5829247E1,7.969833E1,2.8942508E2,1.6918095E1,1.1664009E1,2.7375309E1,3.7540656E2,7.4045296E0,2.8424715E1],"tree_param":{"num_deleted":"0","num_feature":"27","num_nodes":"15","size_leaf_vector":"1"}},{"base_weights":[-1.4457054E-3,4.6804193E-2,-4.042623E-1,3.2124627E-1,-1.874717E-3,4.8687313E-2,-5.3692156E-1,2.2491574E-2,-3.5047237E-2,-3.061574E-3,1.6989907E-2,2.668477E-2,-2.8885445E-2,-2.2538593E-2,-5.3666357E-2],"categories":[],"categories_nodes":[],"categories_segments":[],"categories_sizes":[],"default_left":[0,0,0,0,0,0,0,0,0,0,0,0,0,0,0],"id":41,"left_children":[1,3,5,7,9,11,13,-1,-1,-1,-1,-1,-1,-1,-1],"loss_changes":[1.6252764E1,9.977543E0,5.4009733E0,8.543476E0,1.0138897E1,5.3000765E0,3.5582104E0,0E0,0E0,0E0,0E0,0E0,0E0,0E0,0E0],"parents":[2147483647,0,0,1,1,2,2,3,3,4,4,5,5,6,6],"right_children":[2,4,6,8,10,12,14,-1,-1,-1,-1,-1,-1,-1,-1],"split_conditions":[4.0496914E1,9.219544E0,5E0,1E0,1E0,1E0,5.8034473E1,2.2491574E-2,-3.5047237E-2,-3.061574E-3,1.6989907E-2,2.668477E-2,-2.8885445E-2,-2.2538593E-2,-5.3666357E-2],"split_indices":[17,17,18,14,12,15,17,0,0,0,0,0,0,0,0],"split_type":[0,0,0,0,0,0,0,0,0,0,0,0,0,0,0],"sum_hessian":[8.34252E2,7.458026E2,8.844941E1,1.1151331E2,6.342893E2,2.018003E1,6.826938E1,1.0351822E2,7.9950953E0,5.4148206E2,9.280726E1,1.1574244E1,8.605787E0,5.286094E1,1.5408439E1],"tree_param":{"num_deleted":"0","num_feature":"27","num_nodes":"15","size_leaf_vector":"1"}},{"base_weights":[1.8322954E-2,4.727477E-2,-5.175611E-1,-1.8508255E-1,1.0782167E-1,-6.874167E-1,-1.35505E-1,-5.3094616E-3,-4.268896E-2,6.9539384E-3,-4.51491E-2,-4.2224154E-2,4.9715392E-2,2.1778205E-2,-3.1189682E-2],"categories":[],"categories_nodes":[],"categories_segments":[],"categories_sizes":[],"default_left":[0,0,1,0,0,0,0,0,0,0,0,0,0,0,0],"id":42,"left_children":[1,3,5,7,9,11,13,-1,-1,-1,-1,-1,-1,-1,-1],"loss_changes":[1.2949292E1,1.1152082E1,2.6832952E0,8.457217E0,9.047587E0,3.5374231E0,3.3627129E0,0E0,0E0,0E0,0E0,0E0,0E0,0E0,0E0],"parents":[2147483647,0,0,1,1,2,2,3,3,4,4,5,5,6,6],"right_children":[2,4,6,8,10,12,14,-1,-1,-1,-1,-1,-1,-1,-1],"split_conditions":[2.2E1,-9E0,1.3623917E1,1E0,1E0,1.6107762E2,2.7E1,-5.3094616E-3,-4.268896E-2,6.9539384E-3,-4.51491E-2,-4.2224154E-2,4.9715392E-2,2.1778205E-2,-3.1189682E-2],"split_indices":[26,26,19,9,14,24,26,0,0,0,0,0,0,0,0],"split_type":[0,0,0,0,0,0,0,0,0,0,0,0,0,0,0],"sum_hessian":[8.320633E2,7.9027924E2,4.1784058E1,1.6293526E2,6.27344E2,2.8371374E1,1.3412682E1,1.4165009E2,2.1285181E1,6.175762E2,9.7678175E0,2.7790367E1,5.8100754E-1,5.9991713E0,7.41351E0],"tree_param":{"num_deleted":"0","num_feature":"27","num_nodes":"15","size_leaf_vector":"1"}},{"base_weights":[-2.2349736E-2,2.0980967E-2,-3.5554534E-1,-2.9216267E-2,3.4825417E-1,-4.4227338E-1,1.23163365E-1,1.5238237E-2,-5.0775637E-3,3.1957638E-2,2.7199325E-3,2.6331667E-3,-2.9220225E-2,3.7972905E-2,-3.4575664E-2],"categories":[],"categories_nodes":[],"categories_segments":[],"categories_sizes":[],"default_left":[0,0,0,0,0,0,0,0,0,0,0,0,0,0,0],"id":43,"left_children":[1,3,5,7,9,11,13,-1,-1,-1,-1,-1,-1,-1,-1],"loss_changes":[1.2070172E1,1.2171994E1,4.0487022E0,1.1768746E1,6.4510202E0,3.0829058E0,6.726274E0,0E0,0E0,0E0,0E0,0E0,0E0,0E0,0E0],"parents":[2147483647,0,0,1,1,2,2,3,3,4,4,5,5,6,6],"right_children":[2,4,6,8,10,12,14,-1,-1,-1,-1,-1,-1,-1,-1],"split_conditions":[3.9115215E1,1E0,1E0,9.219544E0,2.0454085E0,4E0,8.558621E1,1.5238237E-2,-5.0775637E-3,3.1957638E-2,2.7199325E-3,2.6331667E-3,-2.9220225E-2,3.7972905E-2,-3.4575664E-2],"split_indices":[17,12,6,17,20,18,24,0,0,0,0,0,0,0,0],"split_type":[0,0,0,0,0,0,0,0,0,0,0,0,0,0,0],"sum_hessian":[8.345069E2,7.393009E2,9.5205986E1,6.4177594E2,9.7524994E1,8.0667496E1,1.4538484E1,1.0784234E2,5.339336E2,5.5831112E1,4.1693886E1,1.0975234E1,6.969227E1,8.367597E0,6.1708875E0],"tree_param":{"num_deleted":"0","num_feature":"27","num_nodes":"15","size_leaf_vector":"1"}},{"base_weights":[-1.5455031E-2,-1.0584017E-1,1.6043696E-1,5.2211527E-2,-2.3659432E-1,5.8446985E-1,9.478404E-2,4.9470994E-4,3.3922616E-2,-1.7602395E-2,8.967409E-3,-4.0147502E-2,3.7562177E-2,-1.0625411E-2,1.1517752E-2],"categories":[],"categories_nodes":[],"categories_segments":[],"categories_sizes":[],"default_left":[0,0,1,1,0,0,0,0,0,0,0,0,0,0,0],"id":44,"left_children":[1,3,5,7,9,11,13,-1,-1,-1,-1,-1,-1,-1,-1],"loss_changes":[1.3230579E1,1.1370859E1,7.8097367E0,5.959321E0,9.099987E0,4.5097094E0,7.685401E0,0E0,0E0,0E0,0E0,0E0,0E0,0E0,0E0],"parents":[2147483647,0,0,1,1,2,2,3,3,4,4,5,5,6,6],"right_children":[2,4,6,8,10,12,14,-1,-1,-1,-1,-1,-1,-1,-1],"split_conditions":[1.7256884E1,1.7029387E1,1.8553839E1,1.4463213E1,3.8E1,-5.134019E1,-2.0637547E1,4.9470994E-4,3.3922616E-2,-1.7602395E-2,8.967409E-3,-4.0147502E-2,3.7562177E-2,-1.0625411E-2,1.1517752E-2],"split_indices":[19,17,19,21,18,20,20,0,0,0,0,0,0,0,0],"split_type":[0,0,0,0,0,0,0,0,0,0,0,0,0,0,0],"sum_hessian":[8.301474E2,5.486252E2,2.8152225E2,2.4865688E2,2.999683E2,3.6684624E1,2.4483763E2,2.3140627E2,1.7250605E1,2.5184396E2,4.812432E1,1.7368662E0,3.4947754E1,6.8130135E1,1.767075E2],"tree_param":{"num_deleted":"0","num_feature":"27","num_nodes":"15","size_leaf_vector":"1"}},{"base_weights":[-1.4172646E-2,1.1502854E-2,-5.1339245E-1,-2.1755674E-1,6.298514E-2,-7.327662E-1,-5.973817E-2,-7.6608737E-3,-4.421989E-2,7.3682023E-3,-5.0591542E-3,-4.5110136E-2,5.008129E-2,-1.18984915E-2,5.6729384E-2],"categories":[],"categories_nodes":[],"categories_segments":[],"categories_sizes":[],"default_left":[0,0,1,0,0,0,0,0,0,0,0,0,0,0,0],"id":45,"left_children":[1,3,5,7,9,11,13,-1,-1,-1,-1,-1,-1,-1,-1],"loss_changes":[1.0636503E1,9.327152E0,3.9958162E0,6.6105824E0,6.706142E0,3.7312698E0,2.528346E0,0E0,0E0,0E0,0E0,0E0,0E0,0E0,0E0],"parents":[2147483647,0,0,1,1,2,2,3,3,4,4,5,5,6,6],"right_children":[2,4,6,8,10,12,14,-1,-1,-1,-1,-1,-1,-1,-1],"split_conditions":[2.2E1,-1E1,1.3623917E1,1E0,5E0,1.6107762E2,8.1E1,-7.6608737E-3,-4.421989E-2,7.3682023E-3,-5.0591542E-3,-4.5110136E-2,5.008129E-2,-1.18984915E-2,5.6729384E-2],"split_indices":[26,26,19,9,26,24,25,0,0,0,0,0,0,0,0],"split_type":[0,0,0,0,0,0,0,0,0,0,0,0,0,0,0],"sum_hessian":[8.283674E2,7.8877655E2,3.9590805E1,1.4415654E2,6.4462006E2,2.6271458E1,1.3319349E1,1.2713712E2,1.7019411E1,4.4651477E2,1.9810527E2,2.5696468E1,5.749883E-1,1.2365283E1,9.540668E-1],"tree_param":{"num_deleted":"0","num_feature":"27","num_nodes":"15","size_leaf_vector":"1"}},{"base_weights":[-7.362148E-3,6.6324405E-2,-1.9182353E-1,-9.805034E-2,2.4158946E-1,1.7878748E0,-2.225106E-1,1.2377421E-2,-1.0355576E-2,8.332831E-3,3.3314407E-2,1.2955774E-1,-2.2291087E-2,-9.1006085E-3,-3.5206296E-2],"categories":[],"categories_nodes":[],"categories_segments":[],"categories_sizes":[],"default_left":[0,0,0,0,1,0,0,0,0,0,0,0,0,0,0],"id":46,"left_children":[1,3,5,7,9,11,13,-1,-1,-1,-1,-1,-1,-1,-1],"loss_changes":[1.1322649E1,1.7174147E1,1.4842557E1,8.440337E0,9.362146E0,5.097554E0,5.663287E0,0E0,0E0,0E0,0E0,0E0,0E0,0E0,0E0],"parents":[2147483647,0,0,1,1,2,2,3,3,4,4,5,5,6,6],"right_children":[2,4,6,8,10,12,14,-1,-1,-1,-1,-1,-1,-1,-1],"split_conditions":[5E0,-1.3706961E1,1E0,1.0440307E1,2.4682991E1,5.024938E1,1E0,1.2377421E-2,-1.0355576E-2,8.332831E-3,3.3314407E-2,1.2955774E-1,-2.2291087E-2,-9.1006085E-3,-3.5206296E-2],"split_indices":[26,20,18,17,19,24,9,0,0,0,0,0,0,0,0],"split_type":[0,0,0,0,0,0,0,0,0,0,0,0,0,0,0],"sum_hessian":[8.310819E2,5.943129E2,2.3676898E2,3.0691193E2,2.87401E2,2.740051E0,2.3402893E2,6.492711E1,2.4198483E2,2.2786465E2,5.9536346E1,2.17575E0,5.6430095E-1,2.044939E2,2.9535028E1],"tree_param":{"num_deleted":"0","num_feature":"27","num_nodes":"15","size_leaf_vector":"1"}},{"base_weights":[1.026361E-2,-6.600657E-1,3.1425387E-2,3.2409236E-2,-7.2829646E-1,-3.9745197E-1,6.520754E-2,-6.8374933E-3,-4.637205E-2,-2.5310947E-2,7.5738244E-2,6.674598E-3,-1.33744385E-2],"categories":[],"categories_nodes":[],"categories_segments":[],"categories_sizes":[],"default_left":[0,0,0,0,0,1,0,0,0,0,0,0,0],"id":47,"left_children":[1,3,5,-1,7,9,11,-1,-1,-1,-1,-1,-1],"loss_changes":[1.1768752E1,2.5595913E0,1.1671525E1,0E0,1.3145628E0,5.9335995E0,1.2065892E1,0E0,0E0,0E0,0E0,0E0,0E0],"parents":[2147483647,0,0,1,1,2,2,4,4,5,5,6,6],"right_children":[2,4,6,-1,8,10,12,-1,-1,-1,-1,-1,-1],"split_conditions":[4.1E1,1.20415945E1,-5.2125015E1,3.2409236E-2,-2.2380135E1,6.1205997E1,1.1E1,-6.8374933E-3,-4.637205E-2,-2.5310947E-2,7.5738244E-2,6.674598E-3,-1.33744385E-2],"split_indices":[25,24,20,0,20,21,26,0,0,0,0,0,0],"split_type":[0,0,0,0,0,0,0,0,0,0,0,0,0],"sum_hessian":[8.271785E2,2.4390284E1,8.0278827E2,8.87352E-1,2.3502932E1,5.78314E1,7.4495685E2,3.4931626E0,2.0009768E1,5.6876286E1,9.5511794E-1,6.339168E2,1.1104005E2],"tree_param":{"num_deleted":"0","num_feature":"27","num_nodes":"13","size_leaf_vector":"1"}},{"base_weights":[-4.3979026E-3,-1.9963942E-2,7.081363E-1,-7.6766446E-2,1.8575287E-1,9.0493995E-1,-4.6030194E-2,-2.9750448E-3,-3.0663231E-2,5.5682916E-2,4.889374E-3,2.4141185E-2,1.06988676E-1],"categories":[],"categories_nodes":[],"categories_segments":[],"categories_sizes":[],"default_left":[1,0,0,0,0,0,0,0,0,0,0,0,0],"id":48,"left_children":[1,3,5,7,9,11,-1,-1,-1,-1,-1,-1,-1],"loss_changes":[9.258382E0,9.556644E0,6.097418E0,7.1441784E0,1.3974653E1,6.899927E0,0E0,0E0,0E0,0E0,0E0,0E0,0E0],"parents":[2147483647,0,0,1,1,2,2,3,3,4,4,5,5],"right_children":[2,4,6,8,10,12,-1,-1,-1,-1,-1,-1,-1],"split_conditions":[2.5594309E1,1E0,3.5126755E1,2.2E1,2.7658634E1,2.6E1,-4.6030194E-2,-2.9750448E-3,-3.0663231E-2,5.5682916E-2,4.889374E-3,2.4141185E-2,1.06988676E-1],"split_indices":[21,1,19,26,24,24,0,0,0,0,0,0,0],"split_type":[0,0,0,0,0,0,0,0,0,0,0,0,0],"sum_hessian":[8.324654E2,8.156193E2,1.6846058E1,6.396312E2,1.7598808E2,1.5281386E1,1.5646716E0,6.095458E2,3.0085466E1,1.8317596E1,1.5767049E2,1.1301706E1,3.9796798E0],"tree_param":{"num_deleted":"0","num_feature":"27","num_nodes":"13","size_leaf_vector":"1"}},{"base_weights":[-1.130138E-2,1.2947325E-2,-5.178758E-1,-2.6556596E-3,6.915713E-1,-1.8861534E-1,-6.906419E-1,-3.4390325E-3,1.1460965E-2,4.7538083E-2,-4.116714E-2,-2.8150747E-2,4.489778E-2,-4.4858698E-2,2.422283E-2],"categories":[],"categories_nodes":[],"categories_segments":[],"categories_sizes":[],"default_left":[0,1,0,0,0,1,0,0,0,0,0,0,0,0,0],"id":49,"left_children":[1,3,5,7,9,11,13,-1,-1,-1,-1,-1,-1,-1,-1],"loss_changes":[1.0240442E1,8.43063E0,2.0360289E0,9.3949795E0,4.5005693E0,4.8420615E0,3.2626276E0,0E0,0E0,0E0,0E0,0E0,0E0,0E0,0E0],"parents":[2147483647,0,0,1,1,2,2,3,3,4,4,5,5,6,6],"right_children":[2,4,6,8,10,12,14,-1,-1,-1,-1,-1,-1,-1,-1],"split_conditions":[4.763402E1,2.5594309E1,5.8694122E1,1E0,3.5126755E1,1.1571036E1,3.7746807E1,-3.4390325E-3,1.1460965E-2,4.7538083E-2,-4.116714E-2,-2.8150747E-2,4.489778E-2,-4.4858698E-2,2.422283E-2],"split_indices":[17,21,24,1,19,19,20,0,0,0,0,0,0,0,0],"split_type":[0,0,0,0,0,0,0,0,0,0,0,0,0,0,0],"sum_hessian":[8.321103E2,7.950283E2,3.7081974E1,7.781335E2,1.6894829E1,1.3481134E1,2.3600838E1,6.068932E2,1.7124025E2,1.5625764E1,1.2690649E0,1.0620893E1,2.8602424E0,2.182753E1,1.773309E0],"tree_param":{"num_deleted":"0","num_feature":"27","num_nodes":"15","size_leaf_vector":"1"}},{"base_weights":[6.986478E-5,-4.569761E-2,2.8121394E-1,2.1318652E-1,-9.3848E-2,4.9002528E-1,-2.3276233E-3,4.6255575E-3,3.672255E-2,-2.9647525E-2,-3.7179342E-3,-1.0408922E-2,3.7759867E-2,4.7380336E-2,-1.1010696E-2],"categories":[],"categories_nodes":[],"categories_segments":[],"categories_sizes":[],"default_left":[0,0,0,0,0,0,0,0,0,0,0,0,0,0,0],"id":50,"left_children":[1,3,5,7,9,11,13,-1,-1,-1,-1,-1,-1,-1,-1],"loss_changes":[1.0706861E1,8.940337E0,6.8983536E0,6.418853E0,7.2376804E0,8.295189E0,8.379053E0,0E0,0E0,0E0,0E0,0E0,0E0,0E0,0E0],"parents":[2147483647,0,0,1,1,2,2,3,3,4,4,5,5,6,6],"right_children":[2,4,6,8,10,12,14,-1,-1,-1,-1,-1,-1,-1,-1],"split_conditions":[1E0,9.219544E0,2.0454085E0,8.602325E0,-5.2125015E1,-1.8E1,3.623534E1,4.6255575E-3,3.672255E-2,-2.9647525E-2,-3.7179342E-3,-1.0408922E-2,3.7759867E-2,4.7380336E-2,-1.1010696E-2],"split_indices":[12,17,20,17,20,26,24,0,0,0,0,0,0,0,0],"split_type":[0,0,0,0,0,0,0,0,0,0,0,0,0,0,0],"sum_hessian":[8.3010266E2,7.146088E2,1.154938E2,1.1153033E2,6.0307855E2,6.6092445E1,4.9401352E1,8.6799385E1,2.4730936E1,3.536851E1,5.6771E2,1.3940142E1,5.21523E1,8.579517E0,4.0821835E1],"tree_param":{"num_deleted":"0","num_feature":"27","num_nodes":"15","size_leaf_vector":"1"}},{"base_weights":[-6.1049657E-3,1.6178578E-2,-5.3692645E-1,-4.3294495E-1,3.9584648E-2,-1.1323535E-1,-7.778729E-1,-3.181239E-2,7.262148E-2,5.348847E-3,-8.897817E-3,-2.4867052E-2,4.5883704E-2,-4.8578534E-2,1.5510375E-2],"categories":[],"categories_nodes":[],"categories_segments":[],"categories_sizes":[],"default_left":[0,0,0,1,0,1,0,0,0,0,0,0,0,0,0],"id":51,"left_children":[1,3,5,7,9,11,13,-1,-1,-1,-1,-1,-1,-1,-1],"loss_changes":[9.812255E0,8.388891E0,3.323678E0,9.712616E0,8.309555E0,4.407725E0,2.1236458E0,0E0,0E0,0E0,0E0,0E0,0E0,0E0,0E0],"parents":[2147483647,0,0,1,1,2,2,3,3,4,4,5,5,6,6],"right_children":[2,4,6,8,10,12,14,-1,-1,-1,-1,-1,-1,-1,-1],"split_conditions":[4.90408E1,-5.8392498E1,5.8694122E1,1.4463213E1,2.4623566E1,1.1571036E1,3.7746807E1,-3.181239E-2,7.262148E-2,5.348847E-3,-8.897817E-3,-2.4867052E-2,4.5883704E-2,-4.8578534E-2,1.5510375E-2],"split_indices":[17,20,24,21,20,19,20,0,0,0,0,0,0,0,0],"split_type":[0,0,0,0,0,0,0,0,0,0,0,0,0,0,0],"sum_hessian":[8.278034E2,7.9538324E2,3.2420155E1,3.8531467E1,7.5685175E2,1.228595E1,2.0134203E1,3.6414173E1,2.1172924E0,5.9152997E2,1.6532178E2,9.462317E0,2.8236327E0,1.880273E1,1.3314728E0],"tree_param":{"num_deleted":"0","num_feature":"27","num_nodes":"15","size_leaf_vector":"1"}},{"base_weights":[-1.5223228E-2,9.7715175E-3,-5.459106E-1,-4.1876093E-2,1.9479112E-1,-6.901157E-1,-1.5384889E-1,-2.388034E-2,-1.0953099E-3,1.9684883E-2,-5.129034E-3,-4.5654822E-2,4.2915465E-3,3.8399097E-2,-2.66082E-2],"categories":[],"categories_nodes":[],"categories_segments":[],"categories_sizes":[],"default_left":[0,0,1,0,0,0,0,0,0,0,0,0,0,0,0],"id":52,"left_children":[1,3,5,7,9,11,13,-1,-1,-1,-1,-1,-1,-1,-1],"loss_changes":[1.0989306E1,7.5745945E0,2.00068E0,5.3042336E0,7.683815E0,2.552477E0,3.3331022E0,0E0,0E0,0E0,0E0,0E0,0E0,0E0,0E0],"parents":[2147483647,0,0,1,1,2,2,3,3,4,4,5,5,6,6],"right_children":[2,4,6,8,10,12,14,-1,-1,-1,-1,-1,-1,-1,-1],"split_conditions":[2.2E1,1E0,1.5662456E1,-2.2E1,6E0,3.5E1,5.3E1,-2.388034E-2,-1.0953099E-3,1.9684883E-2,-5.129034E-3,-4.5654822E-2,4.2915465E-3,3.8399097E-2,-2.66082E-2],"split_indices":[26,1,19,26,18,26,25,0,0,0,0,0,0,0,0],"split_type":[0,0,0,0,0,0,0,0,0,0,0,0,0,0,0],"sum_hessian":[8.2707935E2,7.908145E2,3.626484E1,6.188408E2,1.719737E2,2.5957232E1,1.0307607E1,3.3310394E1,5.8553046E2,1.1142989E2,6.0543804E1,2.2378424E1,3.5788083E0,2.5305543E0,7.777052E0],"tree_param":{"num_deleted":"0","num_feature":"27","num_nodes":"15","size_leaf_vector":"1"}},{"base_weights":[1.5472062E-3,1.45930555E-2,-8.5100335E-1,6.015625E-1,6.950845E-4,-5.1888738E-2,-1.3943522E-1,5.1275942E-2,-3.11497E-2,1.873924E-3,-1.7035E-2,-2.5326166E-2,1.827132E-2],"categories":[],"categories_nodes":[],"categories_segments":[],"categories_sizes":[],"default_left":[0,1,0,0,0,0,0,0,0,0,0,0,0],"id":53,"left_children":[1,3,5,7,9,-1,11,-1,-1,-1,-1,-1,-1],"loss_changes":[9.214964E0,6.6555414E0,4.9684334E-1,7.235245E0,7.892844E0,0E0,4.77256E-1,0E0,0E0,0E0,0E0,0E0,0E0],"parents":[2147483647,0,0,1,1,2,2,3,3,4,4,6,6],"right_children":[2,4,6,8,10,-1,12,-1,-1,-1,-1,-1,-1],"split_conditions":[6.20967E1,4.0083015E-1,1E0,3.4058773E1,3.9805573E1,-5.1888738E-2,1.5371329E1,5.1275942E-2,-3.11497E-2,1.873924E-3,-1.7035E-2,-2.5326166E-2,1.827132E-2],"split_indices":[17,19,6,24,20,0,19,0,0,0,0,0,0],"split_type":[0,0,0,0,0,0,0,0,0,0,0,0,0],"sum_hessian":[8.263999E2,8.1491284E2,1.1487028E1,1.787078E1,7.9704205E2,1.0184861E1,1.3021667E0,1.4265513E1,3.6052678E0,7.20507E2,7.653508E1,7.985596E-1,5.0360715E-1],"tree_param":{"num_deleted":"0","num_feature":"27","num_nodes":"13","size_leaf_vector":"1"}},{"base_weights":[-1.6094686E-2,-1.2539014E-3,-6.182899E-1,-2.3945785E-1,3.7143346E-2,-8.204983E-1,6.5924795E-3,-8.063226E-3,-3.9001763E-2,1.6225446E-2,-2.1681392E-4,-4.9043555E-2,-1.4052953E-2,-3.8905848E-2,3.164683E-2],"categories":[],"categories_nodes":[],"categories_segments":[],"categories_sizes":[],"default_left":[0,0,0,0,0,0,0,0,0,0,0,0,0,0,0],"id":54,"left_children":[1,3,5,7,9,11,13,-1,-1,-1,-1,-1,-1,-1,-1],"loss_changes":[7.36516E0,7.375209E0,2.5099778E0,4.783894E0,7.1455903E0,2.1351624E-1,2.6494243E0,0E0,0E0,0E0,0E0,0E0,0E0,0E0,0E0],"parents":[2147483647,0,0,1,1,2,2,3,3,4,4,5,5,6,6],"right_children":[2,4,6,8,10,12,14,-1,-1,-1,-1,-1,-1,-1,-1],"split_conditions":[2.7E1,-3.9805573E1,1.3008075E2,1E0,9.219544E0,3.7E1,3.9357338E1,-8.063226E-3,-3.9001763E-2,1.6225446E-2,-2.1681392E-4,-4.9043555E-2,-1.4052953E-2,-3.8905848E-2,3.164683E-2],"split_indices":[26,20,24,6,17,26,17,0,0,0,0,0,0,0,0],"split_type":[0,0,0,0,0,0,0,0,0,0,0,0,0,0,0],"sum_hessian":[8.232021E2,8.043807E2,1.8821457E1,1.10935684E2,6.9344495E2,1.3983448E1,4.838009E0,9.257889E1,1.83568E1,9.651744E1,5.9692755E2,1.2367383E1,1.6160643E0,2.036509E0,2.8014996E0],"tree_param":{"num_deleted":"0","num_feature":"27","num_nodes":"15","size_leaf_vector":"1"}},{"base_weights":[-8.996221E-3,-6.4550203E-1,8.243058E-3,-1.9284288E-3,-7.871812E-1,6.3282955E-1,-6.434083E-3,-3.9356925E-2,4.4960205E-2,-5.0013617E-2,8.065896E-3,4.7068525E-2,-3.1983532E-2,-1.4732517E-2,1.4741502E-3],"categories":[],"categories_nodes":[],"categories_segments":[],"categories_sizes":[],"default_left":[0,0,1,0,0,0,0,0,0,0,0,0,0,0,0],"id":55,"left_children":[1,3,5,7,9,11,13,-1,-1,-1,-1,-1,-1,-1,-1],"loss_changes":[9.062121E0,1.9842091E0,7.379964E0,3.3085272E0,1.8025885E0,4.9790916E0,6.5565557E0,0E0,0E0,0E0,0E0,0E0,0E0,0E0,0E0],"parents":[2147483647,0,0,1,1,2,2,3,3,4,4,5,5,6,6],"right_children":[2,4,6,8,10,12,14,-1,-1,-1,-1,-1,-1,-1,-1],"split_conditions":[4.1E1,4E0,4.0083015E-1,3E0,1E0,5.024938E1,-4.3958374E1,-3.9356925E-2,4.4960205E-2,-5.0013617E-2,8.065896E-3,4.7068525E-2,-3.1983532E-2,-1.4732517E-2,1.4741502E-3],"split_indices":[25,18,19,18,4,24,20,0,0,0,0,0,0,0,0],"split_type":[0,0,0,0,0,0,0,0,0,0,0,0,0,0,0],"sum_hessian":[8.243787E2,2.0777874E1,8.036009E2,3.9317267E0,1.6846148E1,1.7483257E1,7.861176E2,2.1693115E0,1.7624152E0,1.5238977E1,1.6071696E0,1.5215415E1,2.2678416E0,8.8284935E1,6.978327E2],"tree_param":{"num_deleted":"0","num_feature":"27","num_nodes":"15","size_leaf_vector":"1"}},{"base_weights":[-7.049837E-3,-5.878936E-1,8.332995E-3,-6.6138156E-2,-7.5862646E-1,-3.1400368E-2,2.5041398E-1,-3.89845E-2,2.3125328E-2,-4.584958E-2,1.3750802E-2,-1.4022457E-2,4.6402944E-4,1.03827845E-2,6.4196244E-2],"categories":[],"categories_nodes":[],"categories_segments":[],"categories_sizes":[],"default_left":[0,0,0,0,0,0,0,0,0,0,0,0,0,0,0],"id":56,"left_children":[1,3,5,7,9,11,13,-1,-1,-1,-1,-1,-1,-1,-1],"loss_changes":[7.3409023E0,1.8380756E0,7.7109156E0,2.1713111E0,1.0826025E0,5.943417E0,6.4300385E0,0E0,0E0,0E0,0E0,0E0,0E0,0E0,0E0],"parents":[2147483647,0,0,1,1,2,2,3,3,4,4,5,5,6,6],"right_children":[2,4,6,8,10,12,14,-1,-1,-1,-1,-1,-1,-1,-1],"split_conditions":[4.1E1,5E0,1E0,5.9E1,6.1E1,-3.6869896E1,5.2E1,-3.89845E-2,2.3125328E-2,-4.584958E-2,1.3750802E-2,-1.4022457E-2,4.6402944E-4,1.03827845E-2,6.4196244E-2],"split_indices":[25,18,12,17,18,20,18,0,0,0,0,0,0,0,0],"split_type":[0,0,0,0,0,0,0,0,0,0,0,0,0,0,0],"sum_hessian":[8.200392E2,2.019704E1,7.9984216E2,5.321634E0,1.4875408E1,6.87819E2,1.1202317E2,2.1051629E0,3.216471E0,1.4273339E1,6.020689E-1,1.0517981E2,5.8263916E2,1.0540388E2,6.619294E0],"tree_param":{"num_deleted":"0","num_feature":"27","num_nodes":"15","size_leaf_vector":"1"}},{"base_weights":[5.5572568E-3,4.5658693E-2,-2.4184197E-1,-1.6725093E-1,9.024534E-2,-3.9148962E-1,-3.445851E-2,-1.1832998E-2,4.789684E-2,5.6201586E-4,1.2683919E-2,5.1670574E-2,-2.458339E-2,1.1415292E-2,-2.868692E-2],"categories":[],"categories_nodes":[],"categories_segments":[],"categories_sizes":[],"default_left":[0,0,0,1,0,1,0,0,0,0,0,0,0,0,0],"id":57,"left_children":[1,3,5,7,9,11,13,-1,-1,-1,-1,-1,-1,-1,-1],"loss_changes":[8.139884E0,6.7162204E0,3.5382295E0,5.5264816E0,6.328532E0,4.3134594E0,5.6296415E0,0E0,0E0,0E0,0E0,0E0,0E0,0E0,0E0],"parents":[2147483647,0,0,1,1,2,2,3,3,4,4,5,5,6,6],"right_children":[2,4,6,8,10,12,14,-1,-1,-1,-1,-1,-1,-1,-1],"split_conditions":[1.1E1,-3.6869896E1,1.20552895E2,2.3514557E1,1.7256884E1,2.8284273E-1,4.8012787E1,-1.1832998E-2,4.789684E-2,5.6201586E-4,1.2683919E-2,5.1670574E-2,-2.458339E-2,1.1415292E-2,-2.868692E-2],"split_indices":[26,20,24,21,19,19,20,0,0,0,0,0,0,0,0],"split_type":[0,0,0,0,0,0,0,0,0,0,0,0,0,0,0],"sum_hessian":[8.183518E2,7.049074E2,1.134444E2,1.21581535E2,5.8332587E2,6.5379135E1,4.8065258E1,1.17429184E2,4.1523476E0,3.6647632E2,2.1684952E2,1.5300791E0,6.3849056E1,3.2439632E1,1.5625628E1],"tree_param":{"num_deleted":"0","num_feature":"27","num_nodes":"15","size_leaf_vector":"1"}},{"base_weights":[6.738564E-3,-5.1081076E-2,1.7630046E-2,5.7309594E-2,-2.0754112E-1,8.207526E-4,1.8458296E-2,2.2033736E-2,-1.538778E-2],"categories":[],"categories_nodes":[],"categories_segments":[],"categories_sizes":[],"default_left":[0,0,0,0,1,0,0,0,0],"id":58,"left_children":[1,-1,3,5,7,-1,-1,-1,-1],"loss_changes":[8.208878E0,0E0,7.2891397E0,8.007747E0,4.915774E0,0E0,0E0,0E0,0E0],"parents":[2147483647,0,0,2,2,3,3,4,4],"right_children":[2,-1,4,6,8,-1,-1,-1,-1],"split_conditions":[3E1,-5.1081076E-2,1E1,1E0,2.078867E0,8.207526E-4,1.8458296E-2,2.2033736E-2,-1.538778E-2],"split_indices":[25,0,26,12,19,0,0,0,0],"split_type":[0,0,0,0,0,0,0,0,0],"sum_hessian":[8.2220874E2,8.71548E0,8.134933E2,6.9225073E2,1.21242584E2,5.987003E2,9.355039E1,1.149717E1,1.09745415E2],"tree_param":{"num_deleted":"0","num_feature":"27","num_nodes":"9","size_leaf_vector":"1"}},{"base_weights":[-4.3195863E-3,1.2986726E-2,-4.891257E-1,3.614366E-2,-3.5815355E-1,-5.6764466E-1,4.8273775E-1,8.07349E-3,-2.2959216E-3,-3.2547068E-2,1.1158945E-2,-5.802414E-3,-3.8536523E-2,-2.787352E-2,7.326881E-2],"categories":[],"categories_nodes":[],"categories_segments":[],"categories_sizes":[],"default_left":[0,0,0,0,0,0,0,0,0,0,0,0,0,0,0],"id":59,"left_children":[1,3,5,7,9,11,13,-1,-1,-1,-1,-1,-1,-1,-1],"loss_changes":[6.9542203E0,6.893033E0,2.454018E0,6.226919E0,5.873876E0,1.3868475E0,2.78474E0,0E0,0E0,0E0,0E0,0E0,0E0,0E0,0E0],"parents":[2147483647,0,0,1,1,2,2,3,3,4,4,5,5,6,6],"right_children":[2,4,6,8,10,12,14,-1,-1,-1,-1,-1,-1,-1,-1],"split_conditions":[4.940648E1,4.8012787E1,3.7746807E1,6E0,1.4767871E2,-2.5906507E1,1.1275194E2,8.07349E-3,-2.2959216E-3,-3.2547068E-2,1.1158945E-2,-5.802414E-3,-3.8536523E-2,-2.787352E-2,7.326881E-2],"split_indices":[17,20,20,18,24,20,24,0,0,0,0,0,0,0,0],"split_type":[0,0,0,0,0,0,0,0,0,0,0,0,0,0,0],"sum_hessian":[8.2709265E2,7.995249E2,2.7567738E1,7.534187E2,4.61062E1,2.5891806E1,1.6759329E0,3.143492E2,4.390695E2,3.3021458E1,1.3084744E1,5.573707E0,2.0318098E1,9.4362944E-1,7.323034E-1],"tree_param":{"num_deleted":"0","num_feature":"27","num_nodes":"15","size_leaf_vector":"1"}},{"base_weights":[-1.0839803E-2,1.4701205E-1,-6.1520286E-2,2.2028302E-1,-3.6631986E-1,-4.077541E-1,-8.069914E-3,5.4218867E-3,2.894798E-2,-4.4938035E-2,-8.109588E-3,-1.9477792E-3,-3.425311E-2,-1.6071874E-3,3.7068807E-2],"categories":[],"categories_nodes":[],"categories_segments":[],"categories_sizes":[],"default_left":[0,1,0,0,0,0,0,0,0,0,0,0,0,0,0],"id":60,"left_children":[1,3,5,7,9,11,13,-1,-1,-1,-1,-1,-1,-1,-1],"loss_changes":[6.6045556E0,7.6280446E0,1.1559026E1,6.3695965E0,2.3263118E0,6.2279882E0,7.4139867E0,0E0,0E0,0E0,0E0,0E0,0E0,0E0,0E0],"parents":[2147483647,0,0,1,1,2,2,3,3,4,4,5,5,6,6],"right_children":[2,4,6,8,10,12,14,-1,-1,-1,-1,-1,-1,-1,-1],"split_conditions":[4E0,4.3863426E1,5.4230988E1,1E0,-3E0,1.4866069E1,3.1301403E1,5.4218867E-3,2.894798E-2,-4.4938035E-2,-8.109588E-3,-1.9477792E-3,-3.425311E-2,-1.6071874E-3,3.7068807E-2],"split_indices":[18,19,24,1,26,17,19,0,0,0,0,0,0,0,0],"split_type":[0,0,0,0,0,0,0,0,0,0,0,0,0,0,0],"sum_hessian":[8.234381E2,1.9966165E2,6.237765E2,1.7522203E2,2.443962E1,8.253212E1,5.412443E2,1.2414149E2,5.108054E1,7.4282665E0,1.7011353E1,2.9252617E1,5.3279503E1,5.2604144E2,1.5202884E1],"tree_param":{"num_deleted":"0","num_feature":"27","num_nodes":"15","size_leaf_vector":"1"}},{"base_weights":[1.3833304E-2,6.2434513E-2,-1.5807754E-1,8.134407E-2,-4.3375015E-1,8.3526796E-1,-1.8545526E-1,-3.353234E-3,9.43723E-3,-3.7027493E-2,4.370783E-2,-3.340497E-2,7.7996284E-2,-5.3009856E-3,-2.636179E-2],"categories":[],"categories_nodes":[],"categories_segments":[],"categories_sizes":[],"default_left":[0,0,0,0,0,0,0,0,0,0,0,0,0,0,0],"id":61,"left_children":[1,3,5,7,9,11,13,-1,-1,-1,-1,-1,-1,-1,-1],"loss_changes":[6.8907757E0,6.0660906E0,5.0989723E0,7.542365E0,6.9404674E0,4.792964E0,4.5439453E0,0E0,0E0,0E0,0E0,0E0,0E0,0E0,0E0],"parents":[2147483647,0,0,1,1,2,2,3,3,4,4,5,5,6,6],"right_children":[2,4,6,8,10,12,14,-1,-1,-1,-1,-1,-1,-1,-1],"split_conditions":[1E0,5.500798E1,7.071068E0,-1.3706961E1,2.9850964E1,-5.0194427E1,2.2306206E1,-3.353234E-3,9.43723E-3,-3.7027493E-2,4.370783E-2,-3.340497E-2,7.7996284E-2,-5.3009856E-3,-2.636179E-2],"split_indices":[0,20,17,20,19,20,20,0,0,0,0,0,0,0,0],"split_type":[0,0,0,0,0,0,0,0,0,0,0,0,0,0,0],"sum_hessian":[8.2256006E2,6.4176294E2,1.8079707E2,6.1900867E2,2.2754303E1,4.057829E0,1.7673924E2,2.3514005E2,3.8386862E2,1.9588371E1,3.1659327E0,1.1056463E0,2.952183E0,1.345859E2,4.2153343E1],"tree_param":{"num_deleted":"0","num_feature":"27","num_nodes":"15","size_leaf_vector":"1"}},{"base_weights":[9.295285E-3,-5.0940937E-3,6.0372126E-1,1.8238358E-2,-4.0992853E-1,-4.6698627E-1,8.07792E-1,-2.5878185E-2,2.0741276E-3,3.5507462E-3,-4.0253483E-2,2.0920962E-2,-4.9895555E-2,5.643051E-2,-4.3768622E-2],"categories":[],"categories_nodes":[],"categories_segments":[],"categories_sizes":[],"default_left":[1,0,0,0,0,0,0,0,0,0,0,0,0,0,0],"id":62,"left_children":[1,3,5,7,9,11,13,-1,-1,-1,-1,-1,-1,-1,-1],"loss_changes":[7.014284E0,7.576517E0,4.6121817E0,6.754987E0,6.3473105E0,1.6418133E0,5.903245E0,0E0,0E0,0E0,0E0,0E0,0E0,0E0,0E0],"parents":[2147483647,0,0,1,1,2,2,3,3,4,4,5,5,6,6],"right_children":[2,4,6,8,10,12,14,-1,-1,-1,-1,-1,-1,-1,-1],"split_conditions":[2.5594309E1,4.8012787E1,7.615773E0,-6.1189205E1,1.2727922E1,3.231962E1,3.5126755E1,-2.5878185E-2,2.0741276E-3,3.5507462E-3,-4.0253483E-2,2.0920962E-2,-4.9895555E-2,5.643051E-2,-4.3768622E-2],"split_indices":[21,20,24,20,17,21,19,0,0,0,0,0,0,0,0],"split_type":[0,0,0,0,0,0,0,0,0,0,0,0,0,0,0],"sum_hessian":[8.1869653E2,8.003146E2,1.8381933E1,7.576053E2,4.2709297E1,2.7363968E0,1.5645535E1,2.748927E1,7.30116E2,1.7049532E1,2.5659763E1,9.4957006E-1,1.7868268E0,1.42651825E1,1.380353E0],"tree_param":{"num_deleted":"0","num_feature":"27","num_nodes":"15","size_leaf_vector":"1"}},{"base_weights":[1.1992122E-2,2.2562342E-2,-8.1528854E-1,-1.5031677E-2,2.42265E-1,-5.0678167E-2,-6.6533275E-2,1.110492E-2,-3.1846282E-3,1.0167942E-2,6.162705E-2,1.8264078E-2,-2.1870079E-2],"categories":[],"categories_nodes":[],"categories_segments":[],"categories_sizes":[],"default_left":[0,0,0,0,0,0,0,0,0,0,0,0,0],"id":63,"left_children":[1,3,5,7,9,-1,11,-1,-1,-1,-1,-1,-1],"loss_changes":[7.1466913E0,6.659649E0,5.932374E-1,6.082272E0,5.996913E0,0E0,3.934148E-1,0E0,0E0,0E0,0E0,0E0,0E0],"parents":[2147483647,0,0,1,1,2,2,3,3,4,4,6,6],"right_children":[2,4,6,8,10,-1,12,-1,-1,-1,-1,-1,-1],"split_conditions":[6.20967E1,1E0,1E0,9.219544E0,5.2E1,-5.0678167E-2,1.2E1,1.110492E-2,-3.1846282E-3,1.0167942E-2,6.162705E-2,1.8264078E-2,-2.1870079E-2],"split_indices":[17,12,6,17,18,0,25,0,0,0,0,0,0],"split_type":[0,0,0,0,0,0,0,0,0,0,0,0,0],"sum_hessian":[8.141713E2,8.048603E2,9.311026E0,6.8805634E2,1.16803925E2,8.184496E0,1.1265297E0,1.1196833E2,5.76088E2,1.1004505E2,6.75887E0,5.0518996E-1,6.2133974E-1],"tree_param":{"num_deleted":"0","num_feature":"27","num_nodes":"13","size_leaf_vector":"1"}},{"base_weights":[-1.1323912E-3,-4.0083706E-2,2.2676826E-1,1.8161313E-1,-8.6953826E-2,-3.0525622E-1,3.1577414E-1,1.5171418E-2,-2.2805126E-2,-1.324419E-2,-5.251965E-4,1.803261E-2,-2.7038906E-2,2.7827593E-2,3.0710078E-3],"categories":[],"categories_nodes":[],"categories_segments":[],"categories_sizes":[],"default_left":[0,0,0,0,0,0,0,0,0,0,0,0,0,0,0],"id":64,"left_children":[1,3,5,7,9,11,13,-1,-1,-1,-1,-1,-1,-1,-1],"loss_changes":[7.2351327E0,7.2483864E0,5.7299623E0,6.380444E0,6.6166835E0,2.0742269E0,4.744748E0,0E0,0E0,0E0,0E0,0E0,0E0,0E0,0E0],"parents":[2147483647,0,0,1,1,2,2,3,3,4,4,5,5,6,6],"right_children":[2,4,6,8,10,12,14,-1,-1,-1,-1,-1,-1,-1,-1],"split_conditions":[1E0,9.433981E0,5.6E1,8.6E1,-1.5945395E1,-2.5559965E1,2.0454085E0,1.5171418E-2,-2.2805126E-2,-1.324419E-2,-5.251965E-4,1.803261E-2,-2.7038906E-2,2.7827593E-2,3.0710078E-3],"split_indices":[12,17,25,25,20,20,20,0,0,0,0,0,0,0,0],"split_type":[0,0,0,0,0,0,0,0,0,0,0,0,0,0,0],"sum_hessian":[8.1301587E2,6.95047E2,1.17968864E2,1.207974E2,5.742496E2,1.6559052E1,1.01409805E2,1.0554284E2,1.5254565E1,1.9668146E2,3.7756815E2,3.4365084E0,1.3122543E1,5.973565E1,4.167416E1],"tree_param":{"num_deleted":"0","num_feature":"27","num_nodes":"15","size_leaf_vector":"1"}},{"base_weights":[-1.0396871E-3,1.2418529E-2,-5.867027E-1,2.1802045E-2,-6.902681E-1,-7.903192E-1,-7.897347E-2,7.82517E-3,-2.0368462E-3,-4.6762034E-2,4.77305E-3,-4.741473E-2,-1.6720759E-2,-4.225131E-2,3.6411975E-2],"categories":[],"categories_nodes":[],"categories_segments":[],"categories_sizes":[],"default_left":[0,0,0,0,0,0,0,0,0,0,0,0,0,0,0],"id":65,"left_children":[1,3,5,7,9,11,13,-1,-1,-1,-1,-1,-1,-1,-1],"loss_changes":[6.4793963E0,5.314129E0,1.846631E0,5.3974133E0,1.2234344E0,8.2868576E-2,3.600505E0,0E0,0E0,0E0,0E0,0E0,0E0,0E0,0E0],"parents":[2147483647,0,0,1,1,2,2,3,3,4,4,5,5,6,6],"right_children":[2,4,6,8,10,12,14,-1,-1,-1,-1,-1,-1,-1,-1],"split_conditions":[2.7E1,1E0,3.4E1,5E0,6.637062E1,1E0,1.1275194E2,7.82517E-3,-2.0368462E-3,-4.6762034E-2,4.77305E-3,-4.741473E-2,-1.6720759E-2,-4.225131E-2,3.6411975E-2],"split_indices":[26,14,26,18,20,12,24,0,0,0,0,0,0,0,0],"split_type":[0,0,0,0,0,0,0,0,0,0,0,0,0,0,0],"sum_hessian":[8.2012744E2,8.026615E2,1.7465927E1,7.930404E2,9.621106E0,1.2069198E1,5.39673E0,2.6206055E2,5.3097986E2,8.087916E0,1.5331897E0,1.0286743E1,1.782454E0,2.785489E0,2.6112409E0],"tree_param":{"num_deleted":"0","num_feature":"27","num_nodes":"15","size_leaf_vector":"1"}},{"base_weights":[-1.7274563E-3,-4.068083E-2,2.2700933E-1,1.7025617E-1,-9.002476E-2,4.0359232E-1,-2.0966724E-2,1.5386958E-2,-1.2252307E-2,-1.4019117E-2,-5.317515E-4,1.4576618E-2,5.52221E-2,4.418234E-2,-1.0357292E-2],"categories":[],"categories_nodes":[],"categories_segments":[],"categories_sizes":[],"default_left":[0,0,0,0,0,0,0,0,0,0,0,0,0,0,0],"id":66,"left_children":[1,3,5,7,9,11,13,-1,-1,-1,-1,-1,-1,-1,-1],"loss_changes":[7.3215423E0,7.3231564E0,5.244429E0,5.3884745E0,7.292294E0,5.5835695E0,6.796768E0,0E0,0E0,0E0,0E0,0E0,0E0,0E0,0E0],"parents":[2147483647,0,0,1,1,2,2,3,3,4,4,5,5,6,6],"right_children":[2,4,6,8,10,12,14,-1,-1,-1,-1,-1,-1,-1,-1],"split_conditions":[1E0,9.848858E0,2.0454085E0,4E0,-1.5642246E1,-1E0,3.195309E1,1.5386958E-2,-1.2252307E-2,-1.4019117E-2,-5.317515E-4,1.4576618E-2,5.52221E-2,4.418234E-2,-1.0357292E-2],"split_indices":[12,17,20,26,20,26,24,0,0,0,0,0,0,0,0],"split_type":[0,0,0,0,0,0,0,0,0,0,0,0,0,0,0],"sum_hessian":[8.19679E2,7.011046E2,1.1857443E2,1.3245053E2,5.6865405E2,6.8890305E1,4.9684128E1,1.04895744E2,2.7554781E1,1.9063303E2,3.7802106E2,5.6231087E1,1.2659221E1,7.7177215E0,4.1966408E1],"tree_param":{"num_deleted":"0","num_feature":"27","num_nodes":"15","size_leaf_vector":"1"}},{"base_weights":[4.042492E-3,1.3855525E-2,-7.323388E-1,-3.1654355E-1,3.6704533E-2,3.4506775E-2,-5.046439E-2,-2.1518843E-2,7.906481E-2,4.852764E-3,-8.011637E-3,4.054482E-2,-3.0380156E-2],"categories":[],"categories_nodes":[],"categories_segments":[],"categories_sizes":[],"default_left":[0,0,0,1,0,0,0,0,0,0,0,0,0],"id":67,"left_children":[1,3,5,7,9,11,-1,-1,-1,-1,-1,-1,-1],"loss_changes":[5.9574575E0,6.150597E0,1.392354E0,6.4813285E0,6.7533426E0,1.51776E0,0E0,0E0,0E0,0E0,0E0,0E0,0E0],"parents":[2147483647,0,0,1,1,2,2,3,3,4,4,5,5],"right_children":[2,4,6,8,10,12,-1,-1,-1,-1,-1,-1,-1],"split_conditions":[6.040695E1,-5.2125015E1,4E0,6.1205997E1,2.4623566E1,1.7734148E1,-5.046439E-2,-2.1518843E-2,7.906481E-2,4.852764E-3,-8.011637E-3,4.054482E-2,-3.0380156E-2],"split_indices":[17,20,18,21,20,19,0,0,0,0,0,0,0],"split_type":[0,0,0,0,0,0,0,0,0,0,0,0,0],"sum_hessian":[8.220281E2,8.1218604E2,9.842025E0,5.1702904E1,7.6048315E2,1.8706977E0,7.9713273E0,5.0554325E1,1.1485764E0,5.96212E2,1.642712E2,7.366382E-1,1.1340595E0],"tree_param":{"num_deleted":"0","num_feature":"27","num_nodes":"13","size_leaf_vector":"1"}},{"base_weights":[-1.263209E-2,-2.8374752E-3,-8.2533395E-1,4.2464714E-2,-1.4951082E-1,-4.097098E-3,-8.9001524E-1,-6.755502E-4,1.3349981E-2,-4.2872047E-3,-2.8911784E-2,-1.5186062E-2,-5.4177597E-2],"categories":[],"categories_nodes":[],"categories_segments":[],"categories_sizes":[],"default_left":[1,0,0,0,0,0,0,0,0,0,0,0,0],"id":68,"left_children":[1,3,5,7,9,-1,11,-1,-1,-1,-1,-1,-1],"loss_changes":[6.474247E0,5.3549113E0,4.0672493E-1,6.5284266E0,5.03891E0,0E0,1.3502407E-1,0E0,0E0,0E0,0E0,0E0,0E0],"parents":[2147483647,0,0,1,1,2,2,3,3,4,4,6,6],"right_children":[2,4,6,8,10,-1,12,-1,-1,-1,-1,-1,-1],"split_conditions":[5.920304E1,2.1250505E1,8.602325E0,1E0,1E0,-4.097098E-3,7.2443085E1,-6.755502E-4,1.3349981E-2,-4.2872047E-3,-2.8911784E-2,-1.5186062E-2,-5.4177597E-2],"split_indices":[19,20,17,1,9,0,24,0,0,0,0,0,0],"split_type":[0,0,0,0,0,0,0,0,0,0,0,0,0],"sum_hessian":[8.126315E2,8.0394586E2,8.685596E0,6.1477435E2,1.8917151E2,8.555718E-1,7.8300247E0,4.810728E2,1.3370155E2,1.5842944E2,3.0742056E1,1.3078051E0,6.5222197E0],"tree_param":{"num_deleted":"0","num_feature":"27","num_nodes":"13","size_leaf_vector":"1"}},{"base_weights":[-1.2353037E-2,-4.97391E-2,-3.7404774E-3,7.6128254E-3,-5.7594335E-1,2.6884181E-2,-2.6552042E-4,-4.3304805E-2,1.6020188E-3],"categories":[],"categories_nodes":[],"categories_segments":[],"categories_sizes":[],"default_left":[0,0,0,1,0,0,0,0,0],"id":69,"left_children":[1,-1,3,5,7,-1,-1,-1,-1],"loss_changes":[6.1239777E0,0E0,5.266091E0,4.60716E0,1.8616133E0,0E0,0E0,0E0,0E0],"parents":[2147483647,0,0,2,2,3,3,4,4],"right_children":[2,-1,4,6,8,-1,-1,-1,-1],"split_conditions":[3E1,-4.97391E-2,2.7E1,4.0083015E-1,3.5E1,2.6884181E-2,-2.6552042E-4,-4.3304805E-2,1.6020188E-3],"split_indices":[25,0,26,19,26,0,0,0,0],"split_type":[0,0,0,0,0,0,0,0,0],"sum_hessian":[8.159387E2,6.9959617E0,8.0894275E2,7.94172E2,1.4770784E1,1.9343184E1,7.748288E2,1.0989116E1,3.781669E0],"tree_param":{"num_deleted":"0","num_feature":"27","num_nodes":"9","size_leaf_vector":"1"}},{"base_weights":[8.991781E-3,-4.959411E-2,1.7627304E-2,3.8414713E-2,-2.4839872E-1,-1.1160089E-2,3.8617987E-3,-2.4508715E-2,1.4876556E-2],"categories":[],"categories_nodes":[],"categories_segments":[],"categories_sizes":[],"default_left":[0,0,0,0,0,0,0,0,0],"id":70,"left_children":[1,-1,3,5,7,-1,-1,-1,-1],"loss_changes":[6.281447E0,0E0,4.481987E0,5.372044E0,5.7400503E0,0E0,0E0,0E0,0E0],"parents":[2147483647,0,0,2,2,3,3,4,4],"right_children":[2,-1,4,6,8,-1,-1,-1,-1],"split_conditions":[3E1,-4.959411E-2,4.340886E1,-4.3958374E1,1.466697E2,-1.1160089E-2,3.8617987E-3,-2.4508715E-2,1.4876556E-2],"split_indices":[25,0,20,20,24,0,0,0,0],"split_type":[0,0,0,0,0,0,0,0,0],"sum_hessian":[8.1462225E2,6.860688E0,8.077616E2,7.500109E2,5.775064E1,8.416872E1,6.658422E2,4.2436073E1,1.5314569E1],"tree_param":{"num_deleted":"0","num_feature":"27","num_nodes":"9","size_leaf_vector":"1"}},{"base_weights":[-2.329846E-2,-9.389589E-3,-4.912642E-1,-3.995504E-2,4.1522086E-1,-8.8295656E-1,-2.0916738E-1,-1.3361038E-3,-2.4537021E-2,3.108761E-2,-1.7143467E-2,-5.4920133E-2,1.1878424E-2,1.0975069E-2,-3.4655925E-2],"categories":[],"categories_nodes":[],"categories_segments":[],"categories_sizes":[],"default_left":[1,1,0,0,0,0,0,0,0,0,0,0,0,0,0],"id":71,"left_children":[1,3,5,7,9,11,13,-1,-1,-1,-1,-1,-1,-1,-1],"loss_changes":[5.266019E0,1.0235885E1,2.3957653E0,4.713396E0,5.3818884E0,1.1610217E0,2.5632427E0,0E0,0E0,0E0,0E0,0E0,0E0,0E0,0E0],"parents":[2147483647,0,0,1,1,2,2,3,3,4,4,5,5,6,6],"right_children":[2,4,6,8,10,12,14,-1,-1,-1,-1,-1,-1,-1,-1],"split_conditions":[4.3863426E1,3.1301403E1,2E0,2.2E1,2.2988716E1,1E0,1.16846054E2,-1.3361038E-3,-2.4537021E-2,3.108761E-2,-1.7143467E-2,-5.4920133E-2,1.1878424E-2,1.0975069E-2,-3.4655925E-2],"split_indices":[19,19,18,26,20,11,24,0,0,0,0,0,0,0,0],"split_type":[0,0,0,0,0,0,0,0,0,0,0,0,0,0,0],"sum_hessian":[8.0876074E2,7.864072E2,2.2353518E1,7.344444E2,5.1962852E1,8.467034E0,1.3886483E1,7.0652856E2,2.7915838E1,4.3858616E1,8.104237E0,7.9085655E0,5.584692E-1,7.2225857E0,6.663898E0],"tree_param":{"num_deleted":"0","num_feature":"27","num_nodes":"15","size_leaf_vector":"1"}},{"base_weights":[-7.0498604E-3,4.2748485E-2,-1.20732024E-1,8.92269E-3,3.221157E-1,-1.346438E-1,1.204449E-1,-8.956903E-3,3.7423167E-3,5.4633282E-2,9.698964E-3,7.4325226E-2,-8.380053E-3],"categories":[],"categories_nodes":[],"categories_segments":[],"categories_sizes":[],"default_left":[0,0,0,0,0,0,0,0,0,0,0,0,0],"id":72,"left_children":[1,3,5,7,9,11,-1,-1,-1,-1,-1,-1,-1],"loss_changes":[4.6187673E0,5.359396E0,8.099295E0,4.9115787E0,5.7828827E0,5.302132E0,0E0,0E0,0E0,0E0,0E0,0E0,0E0],"parents":[2147483647,0,0,1,1,2,2,3,3,4,4,5,5],"right_children":[2,4,6,8,10,12,-1,-1,-1,-1,-1,-1,-1],"split_conditions":[2.4839485E1,1E0,1E0,5.178571E0,-3.667435E1,3.865981E1,1.204449E-1,-8.956903E-3,3.7423167E-3,5.4633282E-2,9.698964E-3,7.4325226E-2,-8.380053E-3],"split_indices":[17,12,10,19,20,21,0,0,0,0,0,0,0],"split_type":[0,0,0,0,0,0,0,0,0,0,0,0,0],"sum_hessian":[8.1395435E2,5.664469E2,2.4750748E2,5.061894E2,6.02575E1,2.4692752E2,5.799604E-1,1.2868878E2,3.775006E2,1.0292068E1,4.9965435E1,1.4917179E0,2.4543579E2],"tree_param":{"num_deleted":"0","num_feature":"27","num_nodes":"13","size_leaf_vector":"1"}},{"base_weights":[-6.988112E-3,-8.056654E-1,2.824309E-3,1.6754251E-2,-5.0746948E-2,9.098735E-3,-5.575589E-2,1.282793E-3,-2.1054244E-2],"categories":[],"categories_nodes":[],"categories_segments":[],"categories_sizes":[],"default_left":[0,0,1,0,0,0,0,0,0],"id":73,"left_children":[1,3,5,-1,-1,7,-1,-1,-1],"loss_changes":[6.3687882E0,1.3065143E0,5.0146194E0,0E0,0E0,4.1965876E0,0E0,0E0,0E0],"parents":[2147483647,0,0,1,1,2,2,5,5],"right_children":[2,4,6,-1,-1,8,-1,-1,-1],"split_conditions":[3.4E1,-2.5906507E1,7.2249565E1,1.6754251E-2,-5.0746948E-2,2.2E1,-5.575589E-2,1.282793E-3,-2.1054244E-2],"split_indices":[25,20,19,0,0,26,0,0,0],"split_type":[0,0,0,0,0,0,0,0,0],"sum_hessian":[8.113704E2,8.863013E0,8.0250745E2,5.371382E-1,8.325875E0,7.9845245E2,4.054961E0,7.7182263E2,2.662986E1],"tree_param":{"num_deleted":"0","num_feature":"27","num_nodes":"9","size_leaf_vector":"1"}},{"base_weights":[3.0450668E-4,8.791563E-3,-7.3085916E-1,2.0330875E-1,-2.2684716E-2,2.5528666E-2,-9.1076434E-1,1.9585872E-2,-1.3908447E-2,1.4841849E-3,-1.5109345E-2,-6.848471E-3,-5.6212027E-2],"categories":[],"categories_nodes":[],"categories_segments":[],"categories_sizes":[],"default_left":[0,0,0,0,0,0,0,0,0,0,0,0,0],"id":74,"left_children":[1,3,5,7,9,-1,11,-1,-1,-1,-1,-1,-1],"loss_changes":[5.05999E0,4.939622E0,2.4061227E0,7.395498E0,8.373867E0,0E0,4.616456E-1,0E0,0E0,0E0,0E0,0E0,0E0],"parents":[2147483647,0,0,1,1,2,2,3,3,4,4,6,6],"right_children":[2,4,6,8,10,-1,12,-1,-1,-1,-1,-1,-1],"split_conditions":[1E0,9.219544E0,-7.950852E1,1.8886087E1,1E0,2.5528666E-2,2E0,1.9585872E-2,-1.3908447E-2,1.4841849E-3,-1.5109345E-2,-6.848471E-3,-5.6212027E-2],"split_indices":[14,17,20,20,9,0,18,0,0,0,0,0,0],"split_type":[0,0,0,0,0,0,0,0,0,0,0,0,0],"sum_hessian":[8.1337805E2,8.0502167E2,8.356395E0,1.11362755E2,6.936589E2,9.016795E-1,7.4547157E0,8.448344E1,2.6879313E1,5.789555E2,1.14703384E2,9.8159176E-1,6.473124E0],"tree_param":{"num_deleted":"0","num_feature":"27","num_nodes":"13","size_leaf_vector":"1"}},{"base_weights":[1.781205E-2,-4.8012376E-2,2.4033148E-2,-1.3197052E-2,1.5421095E-1,2.2309016E-2,-1.7287205E-3,3.926894E-2,4.6767355E-3],"categories":[],"categories_nodes":[],"categories_segments":[],"categories_sizes":[],"default_left":[0,0,0,0,0,0,0,0,0],"id":75,"left_children":[1,-1,3,5,7,-1,-1,-1,-1],"loss_changes":[4.4644346E0,0E0,3.9562502E0,4.563337E0,6.9579167E0,0E0,0E0,0E0,0E0],"parents":[2147483647,0,0,2,2,3,3,4,4],"right_children":[2,-1,4,6,8,-1,-1,-1,-1],"split_conditions":[-3.3E1,-4.8012376E-2,1E0,7.071068E0,2.9427877E1,2.2309016E-2,-1.7287205E-3,3.926894E-2,4.6767355E-3],"split_indices":[26,0,1,17,24,0,0,0,0],"split_type":[0,0,0,0,0,0,0,0,0],"sum_hessian":[8.197353E2,4.852179E0,8.148831E2,6.343584E2,1.805247E2,2.512064E1,6.0923773E2,1.989632E1,1.6062839E2],"tree_param":{"num_deleted":"0","num_feature":"27","num_nodes":"9","size_leaf_vector":"1"}},{"base_weights":[-6.9377916E-3,9.380507E-4,-7.67683E-1,-4.70476E-2,6.4526456E-3,-4.911783E-2,2.0026031E-3,2.2630526E-3,-7.7726473E-3],"categories":[],"categories_nodes":[],"categories_segments":[],"categories_sizes":[],"default_left":[0,0,0,0,0,0,0,0,0],"id":76,"left_children":[1,3,5,-1,7,-1,-1,-1,-1],"loss_changes":[4.880413E0,3.7278059E0,7.315693E-1,0E0,3.917775E0,0E0,0E0,0E0,0E0],"parents":[2147483647,0,0,1,1,2,2,4,4],"right_children":[2,4,6,-1,8,-1,-1,-1,-1],"split_conditions":[6.20967E1,-3.3E1,1E0,-4.70476E-2,1E0,-4.911783E-2,2.0026031E-3,2.2630526E-3,-7.7726473E-3],"split_indices":[17,26,6,0,9,0,0,0,0],"split_type":[0,0,0,0,0,0,0,0,0],"sum_hessian":[8.1343475E2,8.0608826E2,7.346503E0,4.294433E0,8.017938E2,6.4248724E0,9.216304E-1,6.5060706E2,1.5118678E2],"tree_param":{"num_deleted":"0","num_feature":"27","num_nodes":"9","size_leaf_vector":"1"}},{"base_weights":[1.1616745E-2,3.1269517E-2,-3.2397765E-1,2.1325843E-2,1.123583E0,-4.1478097E-1,1.4195814E0,-1.1706885E-2,2.8195877E-3,1.4573431E-1,1.3977414E-2,-3.4190975E-2,-2.6948832E-3,-2.5714314E-2,1.4673613E-1],"categories":[],"categories_nodes":[],"categories_segments":[],"categories_sizes":[],"default_left":[0,0,0,0,0,1,0,0,0,0,0,0,0,0,0],"id":77,"left_children":[1,3,5,7,9,11,13,-1,-1,-1,-1,-1,-1,-1,-1],"loss_changes":[5.375831E0,8.333631E0,7.7283196E0,5.0402575E0,8.23008E0,3.0506492E0,6.6599445E0,0E0,0E0,0E0,0E0,0E0,0E0,0E0,0E0],"parents":[2147483647,0,0,1,1,2,2,3,3,4,4,5,5,6,6],"right_children":[2,4,6,8,10,12,14,-1,-1,-1,-1,-1,-1,-1,-1],"split_conditions":[1.9E1,1.8E1,6.2E1,-4.3958374E1,7.2443085E1,1.4744702E1,1.3711674E2,-1.1706885E-2,2.8195877E-3,1.4573431E-1,1.3977414E-2,-3.4190975E-2,-2.6948832E-3,-2.5714314E-2,1.4673613E-1],"split_indices":[26,26,18,20,24,19,24,0,0,0,0,0,0,0,0],"split_type":[0,0,0,0,0,0,0,0,0,0,0,0,0,0,0],"sum_hessian":[8.125568E2,7.6846173E2,4.409513E1,7.625396E2,5.9221144E0,4.2636745E1,1.4583851E0,8.427052E1,6.782691E2,1.4839219E0,4.4381924E0,2.7543797E1,1.509295E1,8.030269E-1,6.5535825E-1],"tree_param":{"num_deleted":"0","num_feature":"27","num_nodes":"15","size_leaf_vector":"1"}},{"base_weights":[7.144573E-3,2.1797415E-2,-5.0972646E-1,1.7028719E-1,-2.2240028E-2,-8.3846897E-1,-2.2711042E-1,3.8315621E-3,2.2669477E-2,-1.7810501E-2,1.2680575E-3,1.649845E-2,-5.2498896E-2,2.5303446E-2,-4.039702E-2],"categories":[],"categories_nodes":[],"categories_segments":[],"categories_sizes":[],"default_left":[1,0,0,0,0,0,0,0,0,0,0,0,0,0,0],"id":78,"left_children":[1,3,5,7,9,11,13,-1,-1,-1,-1,-1,-1,-1,-1],"loss_changes":[6.189011E0,5.1970415E0,1.902626E0,4.289304E0,8.079174E0,1.338295E0,4.7939353E0,0E0,0E0,0E0,0E0,0E0,0E0,0E0,0E0],"parents":[2147483647,0,0,1,1,2,2,3,3,4,4,5,5,6,6],"right_children":[2,4,6,8,10,12,14,-1,-1,-1,-1,-1,-1,-1,-1],"split_conditions":[4.3863426E1,4E0,5.2201534E1,1E0,5.4230988E1,5.8E1,5.920304E1,3.8315621E-3,2.2669477E-2,-1.7810501E-2,1.2680575E-3,1.649845E-2,-5.2498896E-2,2.5303446E-2,-4.039702E-2],"split_indices":[19,18,19,1,24,25,19,0,0,0,0,0,0,0,0],"split_type":[0,0,0,0,0,0,0,0,0,0,0,0,0,0,0],"sum_hessian":[8.14712E2,7.931838E2,2.1528238E1,1.8077203E2,6.1241174E2,9.042768E0,1.2485471E1,1.26411156E2,5.436087E1,8.010644E1,5.323053E2,5.2931046E-1,8.513456E0,5.2813897E0,7.2040815E0],"tree_param":{"num_deleted":"0","num_feature":"27","num_nodes":"15","size_leaf_vector":"1"}},{"base_weights":[-2.9746287E-3,-6.515105E-3,8.557769E-2,1.6187803E-1,-3.564763E-2,2.4889195E-3,3.0542362E-2,8.5788517E-4,-1.6663065E-2],"categories":[],"categories_nodes":[],"categories_segments":[],"categories_sizes":[],"default_left":[0,0,0,0,0,0,0,0,0],"id":79,"left_children":[1,3,-1,5,7,-1,-1,-1,-1],"loss_changes":[4.3827295E0,3.98092E0,0E0,5.334979E0,9.162252E0,0E0,0E0,0E0,0E0],"parents":[2147483647,0,0,1,1,3,3,4,4],"right_children":[2,4,-1,6,8,-1,-1,-1,-1],"split_conditions":[9.2E1,9.219544E0,8.557769E-2,8.602325E0,1E0,2.4889195E-3,3.0542362E-2,8.5788517E-4,-1.6663065E-2],"split_indices":[25,17,0,17,9,0,0,0,0],"split_type":[0,0,0,0,0,0,0,0,0],"sum_hessian":[8.101957E2,8.093095E2,8.861987E-1,1.1869083E2,6.9061865E2,9.150328E1,2.7187544E1,5.7846027E2,1.1215841E2],"tree_param":{"num_deleted":"0","num_feature":"27","num_nodes":"9","size_leaf_vector":"1"}},{"base_weights":[2.0744259E-2,8.659949E-3,5.20781E-1,1.43857E-2,-5.3617053E-2,6.525731E-1,-4.2536005E-2,-1.400684E-3,8.348847E-3,2.2130651E-2,9.059522E-2],"categories":[],"categories_nodes":[],"categories_segments":[],"categories_sizes":[],"default_left":[1,1,0,0,0,0,0,0,0,0,0],"id":80,"left_children":[1,3,5,7,-1,9,-1,-1,-1,-1,-1],"loss_changes":[4.952367E0,4.4253144E0,3.7454357E0,4.198413E0,0E0,3.851972E0,0E0,0E0,0E0,0E0,0E0],"parents":[2147483647,0,0,1,1,2,2,3,3,5,5],"right_children":[2,4,6,8,-1,10,-1,-1,-1,-1,-1],"split_conditions":[2.5594309E1,7.2249565E1,3.5126755E1,1E0,-5.3617053E-2,2.6723118E1,-4.2536005E-2,-1.400684E-3,8.348847E-3,2.2130651E-2,9.059522E-2],"split_indices":[21,19,19,1,0,19,0,0,0,0,0],"split_type":[0,0,0,0,0,0,0,0,0,0,0],"sum_hessian":[8.19322E2,8.009821E2,1.8339893E1,7.972159E2,3.7662215E0,1.706596E1,1.2739323E0,6.170663E2,1.8014963E2,1.4531405E1,2.5345545E0],"tree_param":{"num_deleted":"0","num_feature":"27","num_nodes":"11","size_leaf_vector":"1"}},{"base_weights":[-3.099289E-3,-4.508216E-2,1.4093824E-1,-3.131131E-2,-6.659716E-1,2.7276254E-1,-1.1829734E-1,2.299257E-2,-2.8056903E-3,-5.2559216E-2,-1.9036544E-2,2.4324179E-2,-4.1827364E-3,-1.3544661E-2,4.9391232E-2],"categories":[],"categories_nodes":[],"categories_segments":[],"categories_sizes":[],"default_left":[0,1,0,0,0,0,0,0,0,0,0,0,0,0,0],"id":81,"left_children":[1,3,5,7,9,11,13,-1,-1,-1,-1,-1,-1,-1,-1],"loss_changes":[4.957951E0,5.406727E0,6.3559246E0,5.081628E0,8.8764954E-1,6.824114E0,7.8835464E0,0E0,0E0,0E0,0E0,0E0,0E0,0E0,0E0],"parents":[2147483647,0,0,1,1,2,2,3,3,4,4,5,5,6,6],"right_children":[2,4,6,8,10,12,14,-1,-1,-1,-1,-1,-1,-1,-1],"split_conditions":[1E0,4.3863426E1,6E0,7.071068E0,5.2201534E1,1.1140018E2,3.7E1,2.299257E-2,-2.8056903E-3,-5.2559216E-2,-1.9036544E-2,2.4324179E-2,-4.1827364E-3,-1.3544661E-2,4.9391232E-2],"split_indices":[1,19,18,17,19,24,18,0,0,0,0,0,0,0,0],"split_type":[0,0,0,0,0,0,0,0,0,0,0,0,0,0,0],"sum_hessian":[8.178372E2,6.337918E2,1.840454E2,6.2106744E2,1.2724366E1,1.2197004E2,6.207535E1,2.4242714E1,5.968247E2,5.993258E0,6.7311087E0,8.3452354E1,3.851768E1,5.5962303E1,6.113049E0],"tree_param":{"num_deleted":"0","num_feature":"27","num_nodes":"15","size_leaf_vector":"1"}},{"base_weights":[2.788092E-3,-5.7404432E-2,1.15778744E-1,-1.3659899E-1,7.933904E-2,5.456605E-1,5.7839546E-2,1.7857511E-3,-1.7098954E-2,9.692965E-3,-1.9809209E-2,1.9691344E-2,8.9161575E-2,5.4608644E-3,-1.8989112E-2],"categories":[],"categories_nodes":[],"categories_segments":[],"categories_sizes":[],"default_left":[0,0,1,0,0,1,0,0,0,0,0,0,0,0,0],"id":82,"left_children":[1,3,5,7,9,11,13,-1,-1,-1,-1,-1,-1,-1,-1],"loss_changes":[5.5629396E0,5.7902446E0,7.048958E0,9.520391E0,7.913911E0,6.288843E0,3.9220827E0,0E0,0E0,0E0,0E0,0E0,0E0,0E0,0E0],"parents":[2147483647,0,0,1,1,2,2,3,3,4,4,5,5,6,6],"right_children":[2,4,6,8,10,12,14,-1,-1,-1,-1,-1,-1,-1,-1],"split_conditions":[1.755705E1,2E1,1.8553839E1,1.7029387E1,1E0,1.830956E1,4.3863426E1,1.7857511E-3,-1.7098954E-2,9.692965E-3,-1.9809209E-2,1.9691344E-2,8.9161575E-2,5.4608644E-3,-1.8989112E-2],"split_indices":[19,18,19,17,9,19,19,0,0,0,0,0,0,0,0],"split_type":[0,0,0,0,0,0,0,0,0,0,0,0,0,0,0],"sum_hessian":[8.159587E2,5.326804E2,2.8327826E2,3.3732233E2,1.9535812E2,3.264557E1,2.5063268E2,1.6841882E2,1.6890349E2,1.6125427E2,3.4103863E1,2.8583002E1,4.0625663E0,2.2873096E2,2.1901712E1],"tree_param":{"num_deleted":"0","num_feature":"27","num_nodes":"15","size_leaf_vector":"1"}},{"base_weights":[2.1654752E-3,-4.843289E-2,9.446618E-3,1.7625788E-2,-6.531627E-1,-4.6768602E-2,1.3055614E-3,-5.025636E-2,1.3470994E-2],"categories":[],"categories_nodes":[],"categories_segments":[],"categories_sizes":[],"default_left":[0,0,0,0,0,0,0,0,0],"id":83,"left_children":[1,-1,3,5,7,-1,-1,-1,-1],"loss_changes":[5.1094327E0,0E0,4.3840275E0,