booster[0]:
0:[shotDistance<22.2036037] yes=1,no=2,missing=2
	1:[timeSinceLastEvent<4] yes=3,no=4,missing=4
		3:[timeSinceLastEvent<1] yes=7,no=8,missing=8
			7:[lastEventTypeCode_shot-on-goal<1] yes=15,no=16,missing=16
				15:[lastEventTypeCode_missed-shot<1] yes=27,no=28,missing=28
					27:[lastEventTypeCode_blocked-shot<1] yes=49,no=50,missing=50
						49:leaf=0.0968036428
						50:leaf=0.329020709
					28:[shotAngle<60.0684891] yes=51,no=52,missing=52
						51:leaf=0.521644175
						52:leaf=0.0494655669
				16:[distFromLastEvent<5] yes=29,no=30,missing=30
					29:[shotAngle<-32.0053825] yes=53,no=54,missing=54
						53:leaf=0.115841985
						54:leaf=0.382340252
					30:[shotDistance<17.2626762] yes=55,no=56,missing=56
						55:leaf=0.588067651
						56:leaf=0.2839472
			8:[angleChangeSpeed<29.2913628] yes=17,no=18,missing=17
				17:[goalieInNet<1] yes=31,no=32,missing=32
					31:leaf=1.00703311
					32:[yStd<-5] yes=57,no=58,missing=58
						57:leaf=0.123496696
						58:leaf=0.227158532
				18:[shotDistance<5.09901953] yes=33,no=34,missing=34
					33:[distFromLastEvent<4] yes=59,no=60,missing=60
						59:leaf=0.115495138
						60:leaf=0.581255019
					34:[distFromLastEvent<6.08276272] yes=61,no=62,missing=62
						61:leaf=0.15591976
						62:leaf=0.365630656
		4:[goalieInNet<1] yes=9,no=10,missing=10
			9:leaf=1.07669032
			10:[shotDistance<10] yes=19,no=20,missing=20
				19:[shotType_wrap-around<1] yes=35,no=36,missing=36
					35:[yStd<-6] yes=63,no=64,missing=64
						63:leaf=0.0255206693
						64:leaf=0.128752396
					36:[defendingSkaters<5] yes=65,no=66,missing=66
						65:leaf=0.00357799605
						66:leaf=-0.043649029
				20:[shotType_snap<1] yes=37,no=38,missing=38
					37:[xStd<80] yes=67,no=68,missing=68
						67:leaf=0.0295750219
						68:leaf=-0.0194408875
					38:[yStd<-12] yes=69,no=70,missing=70
						69:leaf=0.0213452969
						70:leaf=0.101867244
	2:[goalieInNet<1] yes=5,no=6,missing=6
		5:[speedFromLastEvent<11.7046995] yes=11,no=12,missing=12
			11:[xStd<74] yes=21,no=22,missing=22
				21:[xStd<27] yes=39,no=40,missing=40
					39:[timeSinceLastEvent<9] yes=71,no=72,missing=72
						71:leaf=0.753710032
						72:leaf=0.528987348
					40:[shotType_backhand<1] yes=73,no=74,missing=74
						73:leaf=0.810503185
						74:leaf=0.312175214
				22:leaf=0.0807833225
			12:leaf=0.916945219
		6:[shotDistance<36.1247826] yes=13,no=14,missing=14
			13:[timeSinceLastEvent<4] yes=23,no=24,missing=24
				23:[angleChangeSpeed<24.0754986] yes=41,no=42,missing=41
					41:[manAdvantage<1] yes=75,no=76,missing=76
						75:leaf=0.0500390306
						76:leaf=0.149914861
					42:[xStd<77] yes=77,no=78,missing=78
						77:leaf=0.259725302
						78:leaf=0.025320299
				24:[xStd<72] yes=43,no=44,missing=44
					43:[shotDistance<31.3847103] yes=79,no=80,missing=80
						79:leaf=0.00327479653
						80:leaf=-0.0299245976
					44:[manAdvantage<1] yes=81,no=82,missing=82
						81:leaf=-0.0640049055
						82:leaf=-0.00198476017
			14:[manAdvantage<1] yes=25,no=26,missing=26
				25:[timeSinceLastEvent<4] yes=45,no=46,missing=46
					45:[shotType_tip-in<1] yes=83,no=84,missing=84
						83:leaf=-0.0308310557
						84:leaf=0.27269423
					46:[shotType_tip-in<1] yes=85,no=86,missing=86
						85:leaf=-0.0715468302
						86:leaf=0.0444945171
				26:[shotType_tip-in<1] yes=47,no=48,missing=48
					47:[shotDistance<45.6070175] yes=87,no=88,missing=88
						87:leaf=-0.0123587912
						88:leaf=-0.0446349941
					48:[shotDistance<43.8634262] yes=89,no=90,missing=90
						89:leaf=0.0501022749
						90:leaf=0.376294583
booster[1]:
0:[shotDistance<24.083189] yes=1,no=2,missing=2
	1:[timeSinceLastEvent<4] yes=3,no=4,missing=4
		3:[shotDistance<4.47213602] yes=7,no=8,missing=8
			7:[shotType_wrap-around<1] yes=15,no=16,missing=16
				15:[angleChangeSpeed<8.11009693] yes=31,no=32,missing=32
					31:[shotAngle<-33.3663673] yes=61,no=62,missing=62
						61:leaf=0.0389385484
						62:leaf=0.251995206
					32:[xStd<85] yes=63,no=64,missing=64
						63:leaf=0.29884842
						64:leaf=0.49031508
				16:[shotAngle<46.2730293] yes=33,no=34,missing=34
					33:leaf=0.102162123
					34:leaf=-0.0311134122
			8:[yStd<7] yes=17,no=18,missing=18
				17:[yStd<-5] yes=35,no=36,missing=36
					35:[angleChangeSpeed<25.9324741] yes=65,no=66,missing=65
						65:leaf=0.107634909
						66:leaf=0.205119058
					36:[timeSinceLastEvent<3] yes=67,no=68,missing=68
						67:leaf=0.223996177
						68:leaf=0.157357216
				18:[angleChangeSpeed<25.6700954] yes=37,no=38,missing=37
					37:[speedFromLastEvent<0.471404523] yes=69,no=70,missing=69
						69:leaf=0.216914535
						70:leaf=0.0717668757
					38:[xStd<82] yes=71,no=72,missing=72
						71:leaf=0.257232964
						72:leaf=0.133481279
		4:[shotDistance<10.630146] yes=9,no=10,missing=10
			9:[shotType_wrap-around<1] yes=19,no=20,missing=20
				19:[speedFromLastEvent<17.7511139] yes=39,no=40,missing=39
					39:[shotDistance<5.09901953] yes=73,no=74,missing=74
						73:leaf=0.221853301
						74:leaf=0.0795104131
					40:[shotDistance<8.48528099] yes=75,no=76,missing=76
						75:leaf=0.318529159
						76:leaf=0.177074999
				20:[shotDistance<6.08276272] yes=41,no=42,missing=42
					41:[defendingSkaters<5] yes=77,no=78,missing=78
						77:leaf=0.0907714143
						78:leaf=-0.0286807921
					42:[speedFromLastEvent<15.5724115] yes=79,no=80,missing=79
						79:leaf=-0.0524203256
						80:leaf=0.0703310966
			10:[goalieInNet<1] yes=21,no=22,missing=22
				21:[shotAngle<-66.8014069] yes=43,no=44,missing=44
					43:leaf=0.0632432476
					44:[shotAngle<46.2730293] yes=81,no=82,missing=82
						81:leaf=0.399371773
						82:leaf=0.107682578
				22:[shotType_snap<1] yes=45,no=46,missing=46
					45:[xStd<79] yes=83,no=84,missing=84
						83:leaf=0.0214900598
						84:leaf=-0.01861481
					46:[yStd<11] yes=85,no=86,missing=86
						85:leaf=0.0814923868
						86:leaf=0.0169308037
	2:[goalieInNet<1] yes=5,no=6,missing=6
		5:[shotType_slap<1] yes=11,no=12,missing=12
			11:[xStd<71] yes=23,no=24,missing=24
				23:[timeSinceLastEvent<5] yes=47,no=48,missing=48
					47:leaf=0.445810676
					48:[shotDistance<41.7731972] yes=87,no=88,missing=88
						87:leaf=0.431662977
						88:leaf=0.337741256
				24:[speedFromLastEvent<12.1335163] yes=49,no=50,missing=50
					49:leaf=-0.00753577845
					50:leaf=0.21636042
			12:[speedFromLastEvent<4.2491827] yes=25,no=26,missing=26
				25:leaf=0.272267967
				26:[speedFromLastEvent<5.771698] yes=51,no=52,missing=51
					51:leaf=-0.0256234352
					52:leaf=0.120211184
		6:[shotDistance<36.1247826] yes=13,no=14,missing=14
			13:[timeSinceLastEvent<4] yes=27,no=28,missing=28
				27:[angleChangeSpeed<0.690177023] yes=53,no=54,missing=53
					53:[lastEventTypeCode_hit<1] yes=89,no=90,missing=90
						89:leaf=0.0461824685
						90:leaf=-0.0280967709
					54:[yStd<25] yes=91,no=92,missing=92
						91:leaf=0.144731194
						92:leaf=-0.0246143471
				28:[xStd<70] yes=55,no=56,missing=56
					55:[manAdvantage<1] yes=93,no=94,missing=94
						93:leaf=-0.0186985675
						94:leaf=0.0221472979
					56:[manAdvantage<1] yes=95,no=96,missing=96
						95:leaf=-0.062593095
						96:leaf=-0.00455518393
			14:[manAdvantage<1] yes=29,no=30,missing=30
				29:[timeSinceLastEvent<4] yes=57,no=58,missing=58
					57:[shotType_tip-in<1] yes=97,no=98,missing=98
						97:leaf=-0.0298430044
						98:leaf=0.17291607
					58:[shotType_tip-in<1] yes=99,no=100,missing=100
						99:leaf=-0.069663763
						100:leaf=0.0405874513
				30:[shotType_tip-in<1] yes=59,no=60,missing=60
					59:[defendingSkaters<4] yes=101,no=102,missing=102
						101:leaf=0.0308728199
						102:leaf=-0.0342077799
					60:[shotDistance<43.8634262] yes=103,no=104,missing=104
						103:leaf=0.0285756029
						104:leaf=0.261495113
booster[2]:
0:[shotDistance<24.3310509] yes=1,no=2,missing=2
	1:[timeSinceLastEvent<4] yes=3,no=4,missing=4
		3:[angleChangeSpeed<32.1153374] yes=7,no=8,missing=7
			7:[timeSinceLastEvent<1] yes=15,no=16,missing=16
				15:[lastEventTypeCode_giveaway<1] yes=31,no=32,missing=32
					31:[lastEventTypeCode_takeaway<1] yes=61,no=62,missing=62
						61:leaf=0.230701298
						62:leaf=0.0187688991
					32:[shotAngle<28.3007565] yes=63,no=64,missing=64
						63:leaf=0.0739416182
						64:leaf=-0.0218714476
				16:[yStd<7] yes=33,no=34,missing=34
					33:[yStd<-5] yes=65,no=66,missing=66
						65:leaf=0.0820592567
						66:leaf=0.146929309
					34:[defendingSkaters<5] yes=67,no=68,missing=68
						67:leaf=0.127649665
						68:leaf=0.0494188555
			8:[shotAngle<-71.5650482] yes=17,no=18,missing=18
				17:[shotDistance<14.8660688] yes=35,no=36,missing=36
					35:[shotDistance<5.83095169] yes=69,no=70,missing=70
						69:leaf=0.223439649
						70:leaf=0.0976854116
					36:[distFromLastEvent<44.2944679] yes=71,no=72,missing=72
						71:leaf=-0.0789906457
						72:leaf=0.00946281943
				18:[angleChangeSpeed<82.2348328] yes=37,no=38,missing=38
					37:[timeSinceLastEvent<2] yes=73,no=74,missing=74
						73:leaf=0.16287218
						74:leaf=0.23945044
					38:[xStd<76] yes=75,no=76,missing=76
						75:leaf=0.09541969
						76:leaf=0.287247062
		4:[shotDistance<9.48683262] yes=9,no=10,missing=10
			9:[shotType_wrap-around<1] yes=19,no=20,missing=20
				19:[yStd<-5] yes=39,no=40,missing=40
					39:[speedFromLastEvent<18.3068466] yes=77,no=78,missing=78
						77:leaf=0.0170195326
						78:leaf=0.204826713
					40:[yStd<5] yes=79,no=80,missing=80
						79:leaf=0.116373733
						80:leaf=0.0446273834
				20:[manAdvantage<0] yes=41,no=42,missing=42
					41:leaf=0.0959255397
					42:[shotDistance<7] yes=81,no=82,missing=82
						81:leaf=-0.0236660447
						82:leaf=-0.0514287129
			10:[goalieInNet<1] yes=21,no=22,missing=22
				21:[shotAngle<-66.8014069] yes=43,no=44,missing=44
					43:leaf=0.033603657
					44:[yStd<9] yes=83,no=84,missing=84
						83:leaf=0.317170084
						84:leaf=0.141244188
				22:[shotType_backhand<1] yes=45,no=46,missing=46
					45:[yStd<14] yes=85,no=86,missing=86
						85:leaf=0.0311183762
						86:leaf=-0.023007948
					46:[yStd<-9] yes=87,no=88,missing=88
						87:leaf=-0.0614350922
						88:leaf=-0.00420603482
	2:[goalieInNet<1] yes=5,no=6,missing=6
		5:[shotType_slap<1] yes=11,no=12,missing=12
			11:[shotAngle<52.8533134] yes=23,no=24,missing=24
				23:[speedFromLastEvent<0.424182504] yes=47,no=48,missing=48
					47:[yStd<9] yes=89,no=90,missing=90
						89:leaf=0.137563482
						90:leaf=0.0299409628
					48:[distFromLastEvent<151.608047] yes=91,no=92,missing=92
						91:leaf=0.264004022
						92:leaf=0.0575719886
				24:[speedFromLastEvent<8.35463905] yes=49,no=50,missing=50
					49:leaf=-0.0338231549
					50:leaf=0.175420061
			12:[manAdvantage<-1] yes=25,no=26,missing=26
				25:leaf=-0.0362783261
				26:[speedFromLastEvent<4.60977221] yes=51,no=52,missing=52
					51:leaf=0.20947887
					52:[shotAngle<-4.96974087] yes=93,no=94,missing=94
						93:leaf=0.141842425
						94:leaf=-0.0336359628
		6:[shotDistance<36.3593178] yes=13,no=14,missing=14
			13:[timeSinceLastEvent<5] yes=27,no=28,missing=28
				27:[shotDistance<31.1448231] yes=53,no=54,missing=54
					53:[lastEventTypeCode_hit<1] yes=95,no=96,missing=96
						95:leaf=0.0652774051
						96:leaf=-0.0271726642
					54:[xStd<60] yes=97,no=98,missing=98
						97:leaf=0.0242383443
						98:leaf=-0.0198266581
				28:[xStd<70] yes=55,no=56,missing=56
					55:[manAdvantage<1] yes=99,no=100,missing=100
						99:leaf=-0.019409094
						100:leaf=0.0177673995
					56:[manAdvantage<1] yes=101,no=102,missing=102
						101:leaf=-0.0641395971
						102:leaf=-0.0109312944
			14:[manAdvantage<1] yes=29,no=30,missing=30
				29:[timeSinceLastEvent<4] yes=57,no=58,missing=58
					57:[shotType_tip-in<1] yes=103,no=104,missing=104
						103:leaf=-0.0282876696
						104:leaf=0.186669961
					58:[shotType_tip-in<1] yes=105,no=106,missing=106
						105:leaf=-0.067793034
						106:leaf=0.0358811021
				30:[shotType_tip-in<1] yes=59,no=60,missing=60
					59:[shotDistance<46.3249397] yes=107,no=108,missing=108
						107:leaf=-0.0118379211
						108:leaf=-0.0414240099
					60:[shotDistance<41.5932693] yes=109,no=110,missing=110
						109:leaf=0.0280132126
						110:leaf=0.19327563
booster[3]:
0:[shotDistance<26.1725044] yes=1,no=2,missing=2
	1:[timeSinceLastEvent<5] yes=3,no=4,missing=4
		3:[shotDistance<15.6524763] yes=7,no=8,missing=8
			7:[shotDistance<4.47213602] yes=15,no=16,missing=16
				15:[shotType_wrap-around<1] yes=31,no=32,missing=32
					31:[shotType_slap<1] yes=61,no=62,missing=62
						61:leaf=0.247333348
						62:leaf=0.00377274957
					32:[timeSinceLastEvent<3] yes=63,no=64,missing=64
						63:leaf=0.0882897675
						64:leaf=-0.0718037412
				16:[timeSinceLastEvent<3] yes=33,no=34,missing=34
					33:[angleChangeSpeed<15.4818783] yes=65,no=66,missing=66
						65:leaf=0.0870628059
						66:leaf=0.138492793
					34:[lastEventTypeCode_shot-on-goal<1] yes=67,no=68,missing=68
						67:leaf=0.125549868
						68:leaf=0.0400760323
			8:[angleChangeSpeed<8.46375656] yes=17,no=18,missing=17
				17:[xStd<73] yes=35,no=36,missing=36
					35:[goalieInNet<1] yes=69,no=70,missing=70
						69:leaf=0.30789566
						70:leaf=0.0773111656
					36:[manAdvantage<1] yes=71,no=72,missing=72
						71:leaf=0.0218294673
						72:leaf=0.0899602324
				18:[xStd<84] yes=37,no=38,missing=38
					37:[shotType_backhand<1] yes=73,no=74,missing=74
						73:leaf=0.157578006
						74:leaf=0.0682195425
					38:[speedFromLastEvent<19.4486504] yes=75,no=76,missing=76
						75:leaf=-0.0395184048
						76:leaf=0.057156302
		4:[shotDistance<13.4536238] yes=9,no=10,missing=10
			9:[yStd<-5] yes=19,no=20,missing=20
				19:[shotAngle<-61.5570717] yes=39,no=40,missing=40
					39:[defendingSkaters<4] yes=77,no=78,missing=78
						77:leaf=0.155153751
						78:leaf=-0.0164590459
					40:[speedFromLastEvent<12.8500977] yes=79,no=80,missing=79
						79:leaf=0.0185519438
						80:leaf=0.104642302
				20:[yStd<5] yes=41,no=42,missing=42
					41:[goalieInNet<1] yes=81,no=82,missing=82
						81:leaf=0.343093127
						82:leaf=0.0730961487
					42:[shotType_backhand<1] yes=83,no=84,missing=84
						83:leaf=0.0370682292
						84:leaf=-0.0250339005
			10:[xStd<76] yes=21,no=22,missing=22
				21:[shotType_snap<1] yes=43,no=44,missing=44
					43:[goalieInNet<1] yes=85,no=86,missing=86
						85:leaf=0.227647975
						86:leaf=0.00892580114
					44:[shotAngle<-32.4711914] yes=87,no=88,missing=88
						87:leaf=0.022016922
						88:leaf=0.0710507259
				22:[manAdvantage<1] yes=45,no=46,missing=46
					45:[shotDistance<17.0293865] yes=89,no=90,missing=90
						89:leaf=-0.0127223153
						90:leaf=-0.0498499572
					46:[manAdvantage<2] yes=91,no=92,missing=92
						91:leaf=0.0181451663
						92:leaf=0.130027533
	2:[goalieInNet<1] yes=5,no=6,missing=6
		5:[speedFromLastEvent<15.2069063] yes=11,no=12,missing=12
			11:[xStd<-20] yes=23,no=24,missing=24
				23:[speedFromLastEvent<3.79063177] yes=47,no=48,missing=48
					47:[yStd<-15] yes=93,no=94,missing=94
						93:leaf=0.273842156
						94:leaf=0.133908063
					48:[speedFromLastEvent<12.8500977] yes=95,no=96,missing=96
						95:leaf=0.282056063
						96:leaf=0.0328573212
				24:[xStd<14] yes=49,no=50,missing=50
					49:[shotType_slap<1] yes=97,no=98,missing=98
						97:leaf=0.140544996
						98:leaf=0.0135838939
					50:[timeSinceLastEvent<84] yes=99,no=100,missing=100
						99:leaf=0.197440147
						100:leaf=0.0262448341
			12:[distFromLastEvent<146.372818] yes=25,no=26,missing=26
				25:[yStd<-34] yes=51,no=52,missing=52
					51:[shotAngle<-30.3236065] yes=101,no=102,missing=102
						101:leaf=0.158848807
						102:leaf=0.035089083
					52:leaf=0.244541079
				26:leaf=0.0648404956
		6:[shotDistance<38.1837654] yes=13,no=14,missing=14
			13:[timeSinceLastEvent<5] yes=27,no=28,missing=28
				27:[manAdvantage<1] yes=53,no=54,missing=54
					53:[lastEventTypeCode_hit<1] yes=103,no=104,missing=104
						103:leaf=0.0241888575
						104:leaf=-0.0378203504
					54:[distFromLastEvent<13.3416643] yes=105,no=106,missing=106
						105:leaf=-0.0202786177
						106:leaf=0.109407522
				28:[xStd<70] yes=55,no=56,missing=56
					55:[defendingSkaters<4] yes=107,no=108,missing=108
						107:leaf=0.0775186941
						108:leaf=-0.0207163468
					56:[manAdvantage<1] yes=109,no=110,missing=110
						109:leaf=-0.067610383
						110:leaf=-0.0217449889
			14:[manAdvantage<1] yes=29,no=30,missing=30
				29:[timeSinceLastEvent<4] yes=57,no=58,missing=58
					57:[xStd<-67] yes=111,no=112,missing=112
						111:leaf=0.126942381
						112:leaf=-0.0289623905
					58:[shotType_tip-in<1] yes=113,no=114,missing=114
						113:leaf=-0.0671955124
						114:leaf=0.0349121019
				30:[shotType_tip-in<1] yes=59,no=60,missing=60
					59:[timeSinceLastEvent<5] yes=115,no=116,missing=116
						115:leaf=0.0115093607
						116:leaf=-0.033972118
					60:[shotAngle<-3.01278758] yes=117,no=118,missing=118
						117:leaf=0.207284987
						118:leaf=0.0595448911
booster[4]:
0:[shotDistance<27.2029419] yes=1,no=2,missing=2
	1:[timeSinceLastEvent<5] yes=3,no=4,missing=4
		3:[yStd<-8] yes=7,no=8,missing=8
			7:[manAdvantage<1] yes=15,no=16,missing=16
				15:[yStd<-16] yes=31,no=32,missing=32
					31:[xStd<90] yes=61,no=62,missing=62
						61:leaf=-0.00966071151
						62:leaf=0.138845041
					32:[speedFromLastEvent<5.49747419] yes=63,no=64,missing=64
						63:leaf=0.000972758222
						64:leaf=0.0520735122
				16:[defendingSkaters<4] yes=33,no=34,missing=34
					33:[angleChangeSpeed<29.2913628] yes=65,no=66,missing=65
						65:leaf=0.253720284
						66:leaf=0.00637672422
					34:[speedFromLastEvent<8.11719704] yes=67,no=68,missing=68
						67:leaf=0.0289054699
						68:leaf=0.100678071
			8:[yStd<8] yes=17,no=18,missing=18
				17:[distFromLastEvent<68.6221542] yes=35,no=36,missing=35
					35:[timeSinceLastEvent<3] yes=69,no=70,missing=70
						69:leaf=0.109876841
						70:leaf=0.0702030063
					36:[timeSinceLastEvent<2] yes=71,no=72,missing=72
						71:leaf=0.0915764868
						72:leaf=0.198318765
				18:[defendingSkaters<5] yes=37,no=38,missing=38
					37:[speedFromLastEvent<5.70087719] yes=73,no=74,missing=74
						73:leaf=0.0294209588
						74:leaf=0.129462287
					38:[angleChangeSpeed<20.0151291] yes=75,no=76,missing=75
						75:leaf=0.0245731715
						76:leaf=0.0863939822
		4:[shotDistance<13.4536238] yes=9,no=10,missing=10
			9:[shotType_wrap-around<1] yes=19,no=20,missing=20
				19:[shotDistance<8.06225777] yes=39,no=40,missing=40
					39:[shotAngle<-50.3893127] yes=77,no=78,missing=78
						77:leaf=0.0311378893
						78:leaf=0.0937179774
					40:[xStd<82] yes=79,no=80,missing=80
						79:leaf=0.0448710211
						80:leaf=0.00029494692
				20:[shotDistance<7.28010988] yes=41,no=42,missing=42
					41:[distFromLastEvent<50.9313278] yes=81,no=82,missing=82
						81:leaf=-0.0429472029
						82:leaf=-0.00705668889
					42:[distFromLastEvent<144.346802] yes=83,no=84,missing=83
						83:leaf=-0.0677837282
						84:leaf=-0.0351582021
			10:[xStd<76] yes=21,no=22,missing=22
				21:[shotType_snap<1] yes=43,no=44,missing=44
					43:[goalieInNet<1] yes=85,no=86,missing=86
						85:leaf=0.18729879
						86:leaf=0.00704130856
					44:[shotAngle<19.0256062] yes=87,no=88,missing=88
						87:leaf=0.0621372573
						88:leaf=0.020006774
				22:[manAdvantage<1] yes=45,no=46,missing=46
					45:[shotDistance<17.0293865] yes=89,no=90,missing=90
						89:leaf=-0.0114167463
						90:leaf=-0.049396906
					46:[defendingSkaters<4] yes=91,no=92,missing=92
						91:leaf=0.117638797
						92:leaf=0.0138559341
	2:[goalieInNet<1] yes=5,no=6,missing=6
		5:[speedFromLastEvent<15.2069063] yes=11,no=12,missing=12
			11:[distFromLastEvent<95.7078857] yes=23,no=24,missing=24
				23:[shotAngle<36.8698959] yes=47,no=48,missing=48
					47:[distFromLastEvent<62.3939095] yes=93,no=94,missing=94
						93:leaf=0.158407301
						94:leaf=0.118298531
					48:[timeSinceLastEvent<11] yes=95,no=96,missing=96
						95:leaf=-0.055230163
						96:leaf=0.0879065767
				24:[shotType_backhand<1] yes=49,no=50,missing=50
					49:[speedFromLastEvent<12.8500977] yes=97,no=98,missing=98
						97:leaf=0.203922451
						98:leaf=0.0997528061
					50:[speedFromLastEvent<5.11262035] yes=99,no=100,missing=100
						99:leaf=0.191556409
						100:leaf=0.0261132382
			12:[shotAngle<51.632515] yes=25,no=26,missing=26
				25:[shotType_backhand<1] yes=51,no=52,missing=52
					51:[distFromLastEvent<138.246155] yes=101,no=102,missing=102
						101:leaf=0.211131573
						102:leaf=0.0805222765
					52:[xStd<41] yes=103,no=104,missing=104
						103:leaf=-0.0287371017
						104:leaf=0.213403761
				26:leaf=0.0606903508
		6:[shotDistance<39.2173424] yes=13,no=14,missing=14
			13:[xStd<70] yes=27,no=28,missing=28
				27:[timeSinceLastEvent<4] yes=53,no=54,missing=54
					53:[shotType_wrist<1] yes=105,no=106,missing=106
						105:leaf=0.0540573113
						106:leaf=0.010534469
					54:[shotType_wrist<1] yes=107,no=108,missing=108
						107:leaf=-0.00393828936
						108:leaf=-0.0324665569
				28:[manAdvantage<1] yes=55,no=56,missing=56
					55:[timeSinceLastEvent<4] yes=109,no=110,missing=110
						109:leaf=-0.0262199603
						110:leaf=-0.0673707277
					56:[shotDistance<31.0161247] yes=111,no=112,missing=112
						111:leaf=0.0114566404
						112:leaf=-0.049506776
			14:[manAdvantage<1] yes=29,no=30,missing=30
				29:[timeSinceLastEvent<5] yes=57,no=58,missing=58
					57:[shotType_tip-in<1] yes=113,no=114,missing=114
						113:leaf=-0.0340201817
						114:leaf=0.158859476
					58:[shotType_tip-in<1] yes=115,no=116,missing=116
						115:leaf=-0.0668787211
						116:leaf=0.028876191
				30:[shotType_tip-in<1] yes=59,no=60,missing=60
					59:[timeSinceLastEvent<5] yes=117,no=118,missing=118
						117:leaf=0.0106439991
						118:leaf=-0.0331786014
					60:[shotDistance<43.8634262] yes=119,no=120,missing=120
						119:leaf=-0.0235739909
						120:leaf=0.145947635
booster[5]:
0:[shotDistance<27.2029419] yes=1,no=2,missing=2
	1:[timeSinceLastEvent<5] yes=3,no=4,missing=4
		3:[goalieInNet<1] yes=7,no=8,missing=8
			7:leaf=0.288986027
			8:[shotDistance<17.0293865] yes=15,no=16,missing=16
				15:[shotType_backhand<1] yes=29,no=30,missing=30
					29:[shotType_wrap-around<1] yes=57,no=58,missing=58
						57:leaf=0.0913368538
						58:leaf=0.00784050487
					30:[yStd<-7] yes=59,no=60,missing=60
						59:leaf=0.000372464536
						60:leaf=0.0611472093
				16:[angleChangeSpeed<8.60803699] yes=31,no=32,missing=31
					31:[xStd<72] yes=61,no=62,missing=62
						61:leaf=0.053194996
						62:leaf=0.0126268594
					32:[xStd<77] yes=63,no=64,missing=64
						63:leaf=0.108065806
						64:leaf=0.0494222157
		4:[shotDistance<10.630146] yes=9,no=10,missing=10
			9:[shotType_wrap-around<1] yes=17,no=18,missing=18
				17:[goalieInNet<1] yes=33,no=34,missing=34
					33:leaf=0.282136559
					34:[shotDistance<6.3245554] yes=65,no=66,missing=66
						65:leaf=0.0887160078
						66:leaf=0.0415993892
				18:[shotDistance<7.28010988] yes=35,no=36,missing=36
					35:[lastEventTypeCode_takeaway<1] yes=67,no=68,missing=68
						67:leaf=-0.0325311124
						68:leaf=0.0373122096
					36:[distFromLastEvent<170.073517] yes=69,no=70,missing=69
						69:leaf=-0.062375389
						70:leaf=0.0443680473
			10:[shotType_backhand<1] yes=19,no=20,missing=20
				19:[yStd<14] yes=37,no=38,missing=38
					37:[yStd<-12] yes=71,no=72,missing=72
						71:leaf=-0.013046205
						72:leaf=0.0249266159
					38:[defendingSkaters<5] yes=73,no=74,missing=74
						73:leaf=0.0283046979
						74:leaf=-0.0366389267
				20:[yStd<-10] yes=39,no=40,missing=40
					39:[shotDistance<12] yes=75,no=76,missing=76
						75:leaf=0.022699859
						76:leaf=-0.06553635
					40:[yStd<8] yes=77,no=78,missing=78
						77:leaf=0.00421228167
						78:leaf=-0.060440015
	2:[goalieInNet<1] yes=5,no=6,missing=6
		5:[shotType_slap<1] yes=11,no=12,missing=12
			11:[speedFromLastEvent<14.5344419] yes=21,no=22,missing=22
				21:[xStd<-20] yes=41,no=42,missing=42
					41:[speedFromLastEvent<3.79063177] yes=79,no=80,missing=80
						79:leaf=0.119212136
						80:leaf=0.198669568
					42:[xStd<13] yes=81,no=82,missing=82
						81:leaf=0.0883360505
						82:leaf=0.135731563
				22:[shotDistance<36.6742401] yes=43,no=44,missing=44
					43:leaf=0.211854577
					44:[shotDistance<38.0131569] yes=83,no=84,missing=84
						83:leaf=0.0201048497
						84:leaf=0.161301613
			12:[speedFromLastEvent<4.2491827] yes=23,no=24,missing=24
				23:[lastEventTypeCode_shot-on-goal<1] yes=45,no=46,missing=46
					45:[yStd<-9] yes=85,no=86,missing=86
						85:leaf=0.172557652
						86:leaf=0.0477633104
					46:leaf=0.0149991242
				24:[lastEventTypeCode_blocked-shot<1] yes=47,no=48,missing=48
					47:[yStd<21] yes=87,no=88,missing=88
						87:leaf=0.0671218485
						88:leaf=-0.0391027145
					48:leaf=-0.071785301
		6:[shotDistance<38.1837654] yes=13,no=14,missing=14
			13:[xStd<70] yes=25,no=26,missing=26
				25:[manAdvantage<1] yes=49,no=50,missing=50
					49:[timeSinceLastEvent<5] yes=89,no=90,missing=90
						89:leaf=0.0145961056
						90:leaf=-0.0243284591
					50:[defendingSkaters<4] yes=91,no=92,missing=92
						91:leaf=0.0941977724
						92:leaf=0.0118362382
				26:[manAdvantage<1] yes=51,no=52,missing=52
					51:[xStd<88] yes=93,no=94,missing=94
						93:leaf=-0.0631207451
						94:leaf=0.037572477
					52:[shotDistance<33.2866325] yes=95,no=96,missing=96
						95:leaf=0.00172231626
						96:leaf=-0.0619731508
			14:[manAdvantage<1] yes=27,no=28,missing=28
				27:[timeSinceLastEvent<4] yes=53,no=54,missing=54
					53:[yStd<15] yes=97,no=98,missing=98
						97:leaf=-0.0101143681
						98:leaf=-0.0418120399
					54:[shotType_deflected<1] yes=99,no=100,missing=100
						99:leaf=-0.0632280111
						100:leaf=0.101839073
				28:[shotDistance<46.3249397] yes=55,no=56,missing=56
					55:[yStd<-27] yes=101,no=102,missing=102
						101:leaf=-0.0542049222
						102:leaf=-0.00192987255
					56:[shotType_deflected<1] yes=103,no=104,missing=104
						103:leaf=-0.0355537832
						104:leaf=0.224821016
booster[6]:
0:[shotDistance<30.2324333] yes=1,no=2,missing=2
	1:[timeSinceLastEvent<5] yes=3,no=4,missing=4
		3:[shotDistance<19.235384] yes=7,no=8,missing=8
			7:[timeSinceLastEvent<1] yes=15,no=16,missing=16
				15:[distFromLastEvent<6.70820379] yes=31,no=32,missing=32
					31:[lastEventTypeCode_blocked-shot<1] yes=63,no=64,missing=64
						63:leaf=0.0708223581
						64:leaf=-0.00519737788
					32:[lastEventTypeCode_giveaway<1] yes=65,no=66,missing=66
						65:leaf=0.138277203
						66:leaf=0.018751936
				16:[angleChangeSpeed<16.121233] yes=33,no=34,missing=33
					33:[distFromLastEvent<68.6221542] yes=67,no=68,missing=67
						67:leaf=0.0525104478
						68:leaf=0.118832298
					34:[timeSinceLastEvent<2] yes=69,no=70,missing=70
						69:leaf=0.0656157956
						70:leaf=0.11877013
			8:[xStd<73] yes=17,no=18,missing=18
				17:[distFromLastEvent<13.6014709] yes=35,no=36,missing=36
					35:[lastEventTypeCode_hit<1] yes=71,no=72,missing=72
						71:leaf=0.025676541
						72:leaf=-0.0387755334
					36:[goalieInNet<1] yes=73,no=74,missing=74
						73:leaf=0.190847531
						74:leaf=0.053620141
				18:[manAdvantage<1] yes=37,no=38,missing=38
					37:[xStd<90] yes=75,no=76,missing=76
						75:leaf=-0.0109347142
						76:leaf=0.198245421
					38:[shotType_wrist<1] yes=77,no=78,missing=78
						77:leaf=0.123691119
						78:leaf=0.0320049562
		4:[shotDistance<15.2315464] yes=9,no=10,missing=10
			9:[speedFromLastEvent<14.2126703] yes=19,no=20,missing=19
				19:[yStd<-6] yes=39,no=40,missing=40
					39:[shotType_backhand<1] yes=79,no=80,missing=80
						79:leaf=0.00489501562
						80:leaf=-0.0336639732
					40:[yStd<5] yes=81,no=82,missing=82
						81:leaf=0.0440839417
						82:leaf=0.00819059927
				20:[timeSinceLastEvent<9] yes=41,no=42,missing=42
					41:[shotDistance<8.48528099] yes=83,no=84,missing=84
						83:leaf=0.149431437
						84:leaf=0.0924738273
					42:[yStd<-5] yes=85,no=86,missing=86
						85:leaf=-0.0106063997
						86:leaf=0.0724782199
			10:[xStd<77] yes=21,no=22,missing=22
				21:[shotType_snap<1] yes=43,no=44,missing=44
					43:[goalieInNet<1] yes=87,no=88,missing=88
						87:leaf=0.151092231
						88:leaf=-0.00103343546
					44:[defendingSkaters<5] yes=89,no=90,missing=90
						89:leaf=0.0615870878
						90:leaf=0.0260974728
				22:[manAdvantage<1] yes=45,no=46,missing=46
					45:[xStd<92] yes=91,no=92,missing=92
						91:leaf=-0.0459968448
						92:leaf=0.175153807
					46:[shotType_snap<1] yes=93,no=94,missing=94
						93:leaf=-0.00394624099
						94:leaf=0.0655624792
	2:[goalieInNet<1] yes=5,no=6,missing=6
		5:[speedFromLastEvent<18.3068466] yes=11,no=12,missing=12
			11:[manAdvantage<0] yes=23,no=24,missing=24
				23:[xStd<-28] yes=47,no=48,missing=48
					47:[speedFromLastEvent<3.92272282] yes=95,no=96,missing=96
						95:leaf=0.0985968262
						96:leaf=0.16274564
					48:[timeSinceLastEvent<25] yes=97,no=98,missing=98
						97:leaf=0.0874074548
						98:leaf=0.123837255
				24:[lastEventTypeCode_missed-shot<1] yes=49,no=50,missing=50
					49:[yStd<31] yes=99,no=100,missing=100
						99:leaf=0.193556756
						100:leaf=0.0662736148
					50:leaf=0.0142244734
			12:[shotType_wrist<1] yes=25,no=26,missing=26
				25:[speedFromLastEvent<22.6384621] yes=51,no=52,missing=51
					51:leaf=0.149577036
					52:[distFromLastEvent<98.6813049] yes=101,no=102,missing=102
						101:leaf=-0.0323012881
						102:leaf=0.0884283334
				26:[shotAngle<-45] yes=53,no=54,missing=54
					53:leaf=0.0516993962
					54:[shotAngle<20.8544579] yes=103,no=104,missing=104
						103:leaf=0.182460263
						104:leaf=0.108868249
		6:[manAdvantage<1] yes=13,no=14,missing=14
			13:[shotDistance<43.1393089] yes=27,no=28,missing=28
				27:[xStd<65] yes=55,no=56,missing=56
					55:[timeSinceLastEvent<6] yes=105,no=106,missing=106
						105:leaf=0.00185085519
						106:leaf=-0.0335518941
					56:[shotType_deflected<1] yes=107,no=108,missing=108
						107:leaf=-0.0590279512
						108:leaf=0.185164049
				28:[timeSinceLastEvent<5] yes=57,no=58,missing=58
					57:[shotType_tip-in<1] yes=109,no=110,missing=110
						109:leaf=-0.0366344713
						110:leaf=0.135885224
					58:[shotType_deflected<1] yes=111,no=112,missing=112
						111:leaf=-0.0649041384
						112:leaf=0.076359041
			14:[shotDistance<45.6070175] yes=29,no=30,missing=30
				29:[shotType_wrist<1] yes=59,no=60,missing=60
					59:[timeSinceLastEvent<5] yes=113,no=114,missing=114
						113:leaf=0.0697449148
						114:leaf=0.00736261811
					60:[shotAngle<-51.3401909] yes=115,no=116,missing=116
						115:leaf=-0.0722702146
						116:leaf=-0.0171431582
				30:[shotType_deflected<1] yes=61,no=62,missing=62
					61:[shotType_tip-in<1] yes=117,no=118,missing=118
						117:leaf=-0.0319616161
						118:leaf=0.0918083042
					62:[lastEventTypeCode_hit<1] yes=119,no=120,missing=120
						119:leaf=-0.00743833557
						120:leaf=0.313978106
booster[7]:
0:[shotDistance<31.3847103] yes=1,no=2,missing=2
	1:[timeSinceLastEvent<5] yes=3,no=4,missing=4
		3:[yStd<9] yes=7,no=8,missing=8
			7:[yStd<-6] yes=15,no=16,missing=16
				15:[lastEventTypeCode_hit<1] yes=31,no=32,missing=32
					31:[manAdvantage<1] yes=59,no=60,missing=60
						59:leaf=0.0273699146
						60:leaf=0.0701517165
					32:[distFromLastEvent<28.4429245] yes=61,no=62,missing=62
						61:leaf=-0.0543432385
						62:leaf=0.0835233182
				16:[shotDistance<4.47213602] yes=33,no=34,missing=34
					33:[distFromLastEvent<39.8246155] yes=63,no=64,missing=64
						63:leaf=0.110322379
						64:leaf=0.194871247
					34:[goalieInNet<1] yes=65,no=66,missing=66
						65:leaf=0.223235741
						66:leaf=0.063151814
			8:[defendingSkaters<5] yes=17,no=18,missing=18
				17:[speedFromLastEvent<8.01147175] yes=35,no=36,missing=36
					35:[xStd<76] yes=67,no=68,missing=68
						67:leaf=0.0686523095
						68:leaf=-0.0180463884
					36:[shotAngle<58.8150253] yes=69,no=70,missing=70
						69:leaf=0.121430703
						70:leaf=0.0531524122
				18:[angleChangeSpeed<20.0151291] yes=37,no=38,missing=37
					37:[lastEventTypeCode_hit<1] yes=71,no=72,missing=72
						71:leaf=0.00544676231
						72:leaf=-0.0537287854
					38:[xStd<79] yes=73,no=74,missing=74
						73:leaf=0.109769233
						74:leaf=0.00333421351
		4:[shotDistance<15.2315464] yes=9,no=10,missing=10
			9:[goalieInNet<1] yes=19,no=20,missing=20
				19:[shotType_tip-in<1] yes=39,no=40,missing=40
					39:[shotDistance<14.1421356] yes=75,no=76,missing=76
						75:leaf=0.224555403
						76:leaf=0.0789695233
					40:leaf=0.0699303523
				20:[shotType_wrap-around<1] yes=41,no=42,missing=42
					41:[shotDistance<8.48528099] yes=77,no=78,missing=78
						77:leaf=0.0511805676
						78:leaf=0.0199601352
					42:[shotDistance<8.06225777] yes=79,no=80,missing=80
						79:leaf=-0.0301408134
						80:leaf=-0.0590086393
			10:[xStd<77] yes=21,no=22,missing=22
				21:[shotType_backhand<1] yes=43,no=44,missing=44
					43:[goalieInNet<1] yes=81,no=82,missing=82
						81:leaf=0.141130328
						82:leaf=0.00806455687
					44:[shotDistance<21.2132034] yes=83,no=84,missing=84
						83:leaf=-0.0157800019
						84:leaf=-0.0595672987
				22:[manAdvantage<1] yes=45,no=46,missing=46
					45:[xStd<92] yes=85,no=86,missing=86
						85:leaf=-0.0463065393
						86:leaf=0.145978823
					46:[manAdvantage<2] yes=87,no=88,missing=88
						87:leaf=0.00199406384
						88:leaf=0.0868498459
	2:[goalieInNet<1] yes=5,no=6,missing=6
		5:[shotDistance<35.4682961] yes=11,no=12,missing=12
			11:[yStd<24] yes=23,no=24,missing=24
				23:leaf=0.17422007
				24:leaf=0.0316038541
			12:[timeSinceLastEvent<6] yes=25,no=26,missing=26
				25:[shotAngle<-46.4687996] yes=47,no=48,missing=48
					47:leaf=-0.0414631553
					48:[distFromLastEvent<78.2623825] yes=89,no=90,missing=90
						89:leaf=0.117526501
						90:leaf=0.164544895
				26:[distFromLastEvent<87.3670425] yes=49,no=50,missing=50
					49:[distFromLastEvent<66.9402695] yes=91,no=92,missing=92
						91:leaf=0.0916677862
						92:leaf=0.056599535
					50:[speedFromLastEvent<12.8500977] yes=93,no=94,missing=94
						93:leaf=0.121620953
						94:leaf=0.0618750788
		6:[manAdvantage<1] yes=13,no=14,missing=14
			13:[timeSinceLastEvent<5] yes=27,no=28,missing=28
				27:[shotDistance<42.9534645] yes=51,no=52,missing=52
					51:[xStd<57] yes=95,no=96,missing=96
						95:leaf=0.0183685683
						96:leaf=-0.0208992809
					52:[xStd<-30] yes=97,no=98,missing=98
						97:leaf=0.0454363227
						98:leaf=-0.0341188237
				28:[shotDistance<43.6004601] yes=53,no=54,missing=54
					53:[xStd<64] yes=99,no=100,missing=100
						99:leaf=-0.032889422
						100:leaf=-0.0636744276
					54:[shotType_tip-in<1] yes=101,no=102,missing=102
						101:leaf=-0.0633694977
						102:leaf=0.0408372357
			14:[shotDistance<46.3249397] yes=29,no=30,missing=30
				29:[defendingSkaters<4] yes=55,no=56,missing=56
					55:[shotDistance<38.6005173] yes=103,no=104,missing=104
						103:leaf=0.0756596997
						104:leaf=0.00967316143
					56:[angleChangeSpeed<37.9818764] yes=105,no=106,missing=106
						105:leaf=0.178680211
						106:leaf=-0.00714326138
				30:[shotType_wrist<1] yes=57,no=58,missing=58
					57:[shotType_tip-in<1] yes=107,no=108,missing=108
						107:leaf=-0.024372641
						108:leaf=0.0851494744
					58:[xStd<-71] yes=109,no=110,missing=110
						109:leaf=0.121092401
						110:leaf=-0.0551066212
booster[8]:
0:[shotDistance<31.3847103] yes=1,no=2,missing=2
	1:[timeSinceLastEvent<4] yes=3,no=4,missing=4
		3:[lastEventTypeCode_hit<1] yes=7,no=8,missing=8
			7:[manAdvantage<1] yes=15,no=16,missing=16
				15:[shotAngle<50.7105942] yes=31,no=32,missing=32
					31:[goalieInNet<1] yes=61,no=62,missing=62
						61:leaf=0.207287788
						62:leaf=0.0508674011
					32:[xStd<92] yes=63,no=64,missing=64
						63:leaf=0.00604449259
						64:leaf=0.264196396
				16:[angleChangeSpeed<25.6700954] yes=33,no=34,missing=34
					33:[timeSinceLastEvent<2] yes=65,no=66,missing=66
						65:leaf=0.0174788088
						66:leaf=0.0711049139
					34:[defendingSkaters<4] yes=67,no=68,missing=68
						67:leaf=0.168927863
						68:leaf=0.0833748803
			8:[timeSinceLastEvent<3] yes=17,no=18,missing=18
				17:[shotDistance<7.21110249] yes=35,no=36,missing=36
					35:leaf=0.0623789057
					36:[speedFromLastEvent<52.886673] yes=69,no=70,missing=70
						69:leaf=-0.0637344122
						70:leaf=0.0563075319
				18:[shotDistance<8] yes=37,no=38,missing=38
					37:[shotAngle<8.74616241] yes=71,no=72,missing=72
						71:leaf=0.148703709
						72:leaf=0.00574763585
					38:[xStd<67] yes=73,no=74,missing=74
						73:leaf=0.0554727241
						74:leaf=-0.0226287078
		4:[shotDistance<17.0293865] yes=9,no=10,missing=10
			9:[speedFromLastEvent<14.8660688] yes=19,no=20,missing=19
				19:[manAdvantage<1] yes=39,no=40,missing=40
					39:[goalieInNet<1] yes=75,no=76,missing=76
						75:leaf=0.176832423
						76:leaf=0.0126882866
					40:[shotType_backhand<1] yes=77,no=78,missing=78
						77:leaf=0.0479979329
						78:leaf=-0.000424575759
				20:[timeSinceLastEvent<7] yes=41,no=42,missing=42
					41:[yStd<-7] yes=79,no=80,missing=80
						79:leaf=0.0358560719
						80:leaf=0.120232627
					42:[shotAngle<-53.1301041] yes=81,no=82,missing=82
						81:leaf=-0.00120894774
						82:leaf=0.0651858523
			10:[xStd<73] yes=21,no=22,missing=22
				21:[shotType_backhand<1] yes=43,no=44,missing=44
					43:[speedFromLastEvent<16.3937511] yes=83,no=84,missing=83
						83:leaf=0.00799760036
						84:leaf=0.0567344576
					44:[shotDistance<22.2036037] yes=85,no=86,missing=86
						85:leaf=-0.0135069033
						86:leaf=-0.0544998609
				22:[manAdvantage<1] yes=45,no=46,missing=46
					45:[xStd<91] yes=87,no=88,missing=88
						87:leaf=-0.0367932916
						88:leaf=0.113597363
					46:[shotType_wrist<1] yes=89,no=90,missing=90
						89:leaf=0.0363826789
						90:leaf=-0.00251097442
	2:[goalieInNet<1] yes=5,no=6,missing=6
		5:[shotDistance<35.227829] yes=11,no=12,missing=12
			11:[shotAngle<38.9909935] yes=23,no=24,missing=24
				23:[timeSinceLastEvent<35] yes=47,no=48,missing=48
					47:leaf=0.167939916
					48:leaf=0.0518963896
				24:leaf=0.0232619438
			12:[timeSinceLastEvent<6] yes=25,no=26,missing=26
				25:[shotAngle<-46.4687996] yes=49,no=50,missing=50
					49:leaf=-0.0368041731
					50:[defendingSkaters<6] yes=91,no=92,missing=92
						91:leaf=0.0313979983
						92:leaf=0.116895549
				26:[distFromLastEvent<83.1685028] yes=51,no=52,missing=52
					51:[xStd<-56] yes=93,no=94,missing=94
						93:leaf=0.113718867
						94:leaf=0.0593308806
					52:[distFromLastEvent<141.283401] yes=95,no=96,missing=96
						95:leaf=0.09866561
						96:leaf=0.0205871686
		6:[manAdvantage<1] yes=13,no=14,missing=14
			13:[timeSinceLastEvent<4] yes=27,no=28,missing=28
				27:[shotType_deflected<1] yes=53,no=54,missing=54
					53:[yStd<25] yes=97,no=98,missing=98
						97:leaf=-0.00470863841
						98:leaf=-0.0410515331
					54:leaf=0.285143912
				28:[shotDistance<43.6004601] yes=55,no=56,missing=56
					55:[xStd<64] yes=99,no=100,missing=100
						99:leaf=-0.0302043799
						100:leaf=-0.0620519035
					56:[shotType_tip-in<1] yes=101,no=102,missing=102
						101:leaf=-0.0604839101
						102:leaf=0.0348335989
			14:[shotDistance<45.6070175] yes=29,no=30,missing=30
				29:[yStd<-29] yes=57,no=58,missing=58
					57:[shotType_slap<1] yes=103,no=104,missing=104
						103:leaf=-0.0747262314
						104:leaf=-0.0318304524
					58:[shotType_wrist<1] yes=105,no=106,missing=106
						105:leaf=0.0141385244
						106:leaf=-0.0162009802
				30:[shotType_tip-in<1] yes=59,no=60,missing=60
					59:[shotType_deflected<1] yes=107,no=108,missing=108
						107:leaf=-0.0282769855
						108:leaf=0.171711564
					60:[timeSinceLastEvent<26] yes=109,no=110,missing=110
						109:leaf=0.127138853
						110:leaf=0.00782238878
booster[9]:
0:[shotDistance<32.2024841] yes=1,no=2,missing=2
	1:[timeSinceLastEvent<4] yes=3,no=4,missing=4
		3:[lastEventTypeCode_hit<1] yes=7,no=8,missing=8
			7:[shotType_backhand<1] yes=15,no=16,missing=16
				15:[lastEventTypeCode_takeaway<1] yes=31,no=32,missing=32
					31:[shotDistance<5.09901953] yes=63,no=64,missing=64
						63:leaf=0.0981694162
						64:leaf=0.0529414229
					32:[yStd<6] yes=65,no=66,missing=66
						65:leaf=0.0370033532
						66:leaf=-0.020420691
				16:[shotDistance<14.1421356] yes=33,no=34,missing=34
					33:[angleChangeSpeed<14.0039091] yes=67,no=68,missing=68
						67:leaf=-0.00149917824
						68:leaf=0.0456868038
					34:[speedFromLastEvent<2.06155276] yes=69,no=70,missing=69
						69:leaf=0.0537780672
						70:leaf=-0.0150322346
			8:[timeSinceLastEvent<3] yes=17,no=18,missing=18
				17:[distFromLastEvent<71.5891037] yes=35,no=36,missing=36
					35:[shotDistance<7.21110249] yes=71,no=72,missing=72
						71:leaf=0.0303350855
						72:leaf=-0.0636987165
					36:leaf=0.0819768757
				18:[shotDistance<8] yes=37,no=38,missing=38
					37:[xStd<84] yes=73,no=74,missing=74
						73:leaf=0.120252974
						74:leaf=0.0178845935
					38:[xStd<75] yes=75,no=76,missing=76
						75:leaf=0.0262144189
						76:leaf=-0.0464202948
		4:[yStd<8] yes=9,no=10,missing=10
			9:[yStd<-6] yes=19,no=20,missing=20
				19:[shotType_backhand<1] yes=39,no=40,missing=40
					39:[defendingSkaters<5] yes=77,no=78,missing=78
						77:leaf=0.0243888218
						78:leaf=-0.00729380874
					40:[yStd<-11] yes=79,no=80,missing=80
						79:leaf=-0.0575526655
						80:leaf=-0.0229370818
				20:[speedFromLastEvent<12.8500977] yes=41,no=42,missing=41
					41:[timeSinceLastEvent<12] yes=81,no=82,missing=81
						81:leaf=0.00828002021
						82:leaf=0.0325718261
					42:[shotDistance<26] yes=83,no=84,missing=84
						83:leaf=0.0774433166
						84:leaf=-0.0178519525
			10:[shotType_backhand<1] yes=21,no=22,missing=22
				21:[defendingSkaters<5] yes=43,no=44,missing=44
					43:[defendingSkaters<4] yes=85,no=86,missing=86
						85:leaf=0.0825644806
						86:leaf=0.0130004901
					44:[speedFromLastEvent<14.2126703] yes=87,no=88,missing=87
						87:leaf=-0.0199637618
						88:leaf=0.0267594345
				22:[xStd<92] yes=45,no=46,missing=46
					45:[speedFromLastEvent<23.7118111] yes=89,no=90,missing=90
						89:leaf=-0.0615035668
						90:leaf=0.0455537401
					46:leaf=0.19121322
	2:[goalieInNet<1] yes=5,no=6,missing=6
		5:[speedFromLastEvent<15.2069063] yes=11,no=12,missing=12
			11:[shotAngle<-42.6140556] yes=23,no=24,missing=24
				23:[timeSinceLastEvent<14] yes=47,no=48,missing=48
					47:leaf=-0.093319416
					48:[lastEventTypeCode_hit<1] yes=91,no=92,missing=92
						91:leaf=-0.000782672083
						92:leaf=0.105851017
				24:[distFromLastEvent<127.769325] yes=49,no=50,missing=50
					49:[shotAngle<49.0282631] yes=93,no=94,missing=94
						93:leaf=0.0717306137
						94:leaf=-0.0284083504
					50:[timeSinceLastEvent<37] yes=95,no=96,missing=96
						95:leaf=0.151351139
						96:leaf=0.00229989504
			12:[shotType_backhand<1] yes=25,no=26,missing=26
				25:[xStd<10] yes=51,no=52,missing=52
					51:[shotAngle<-12.9946165] yes=97,no=98,missing=98
						97:leaf=0.0591803789
						98:leaf=0.164416105
					52:[xStd<12] yes=99,no=100,missing=100
						99:leaf=0.0214776769
						100:leaf=0.0990710706
				26:[xStd<41] yes=53,no=54,missing=54
					53:leaf=-0.0402094685
					54:leaf=0.103170864
		6:[manAdvantage<1] yes=13,no=14,missing=14
			13:[timeSinceLastEvent<5] yes=27,no=28,missing=28
				27:[shotDistance<42.9534645] yes=55,no=56,missing=56
					55:[xStd<56] yes=101,no=102,missing=102
						101:leaf=0.0215896331
						102:leaf=-0.0210397448
					56:[shotType_wrist<1] yes=103,no=104,missing=104
						103:leaf=-0.0185160413
						104:leaf=-0.0442360602
				28:[shotDistance<40.6078796] yes=57,no=58,missing=58
					57:[xStd<65] yes=105,no=106,missing=106
						105:leaf=-0.0265317522
						106:leaf=-0.0622771941
					58:[shotType_tip-in<1] yes=107,no=108,missing=108
						107:leaf=-0.0577809922
						108:leaf=0.0357819051
			14:[shotDistance<43.6004601] yes=29,no=30,missing=30
				29:[shotType_wrist<1] yes=59,no=60,missing=60
					59:[timeSinceLastEvent<7] yes=109,no=110,missing=110
						109:leaf=0.0517852008
						110:leaf=0.00698872283
					60:[xStd<65] yes=111,no=112,missing=112
						111:leaf=-0.0112227639
						112:leaf=-0.0590040423
				30:[shotType_tip-in<1] yes=61,no=62,missing=62
					61:[yStd<-19] yes=113,no=114,missing=114
						113:leaf=-0.0472785123
						114:leaf=-0.0200662613
					62:[shotDistance<64.8845139] yes=115,no=116,missing=116
						115:leaf=0.114490926
						116:leaf=-0.0113755716
booster[10]:
0:[shotDistance<31.3847103] yes=1,no=2,missing=2
	1:[timeSinceLastEvent<4] yes=3,no=4,missing=4
		3:[lastEventTypeCode_hit<1] yes=7,no=8,missing=8
			7:[goalieInNet<1] yes=15,no=16,missing=16
				15:leaf=0.171115503
				16:[angleChangeSpeed<50.9061394] yes=31,no=32,missing=31
					31:[timeSinceLastEvent<1] yes=59,no=60,missing=60
						59:leaf=0.06754262
						60:leaf=0.0343063213
					32:[shotType_wrap-around<1] yes=61,no=62,missing=62
						61:leaf=0.0745977536
						62:leaf=-0.00593241537
			8:[timeSinceLastEvent<3] yes=17,no=18,missing=18
				17:[speedFromLastEvent<52.886673] yes=33,no=34,missing=34
					33:[shotType_tip-in<1] yes=63,no=64,missing=64
						63:leaf=-0.0612905845
						64:leaf=0.0216774344
					34:leaf=0.099198848
				18:[shotAngle<-30.6997223] yes=35,no=36,missing=36
					35:[shotDistance<8.94427204] yes=65,no=66,missing=66
						65:leaf=0.0535581857
						66:leaf=-0.0632449239
					36:[shotAngle<52.8533134] yes=67,no=68,missing=68
						67:leaf=0.028088497
						68:leaf=-0.0502023809
		4:[yStd<8] yes=9,no=10,missing=10
			9:[yStd<-5] yes=19,no=20,missing=20
				19:[shotType_snap<1] yes=37,no=38,missing=38
					37:[shotAngle<-59.0362434] yes=69,no=70,missing=70
						69:leaf=-0.027172368
						70:leaf=-0.00228104554
					38:[speedFromLastEvent<21.6897316] yes=71,no=72,missing=71
						71:leaf=0.0183739793
						72:leaf=0.173723593
				20:[distFromLastEvent<23.0217285] yes=39,no=40,missing=39
					39:[timeSinceLastEvent<11] yes=73,no=74,missing=74
						73:leaf=-0.00464331266
						74:leaf=0.0183142833
					40:[goalieInNet<1] yes=75,no=76,missing=76
						75:leaf=0.146659657
						76:leaf=0.0319327824
			10:[manAdvantage<1] yes=21,no=22,missing=22
				21:[xStd<93] yes=41,no=42,missing=42
					41:[shotType_backhand<1] yes=77,no=78,missing=78
						77:leaf=-0.0153448842
						78:leaf=-0.0598489121
					42:[shotDistance<19.0262985] yes=79,no=80,missing=80
						79:leaf=0.385387361
						80:leaf=0.0422630161
				22:[defendingSkaters<4] yes=43,no=44,missing=44
					43:[xStd<80] yes=81,no=82,missing=82
						81:leaf=0.0421283692
						82:leaf=0.142822236
					44:[shotType_snap<1] yes=83,no=84,missing=84
						83:leaf=0.00478724064
						84:leaf=0.0434105992
	2:[goalieInNet<1] yes=5,no=6,missing=6
		5:[shotDistance<35.227829] yes=11,no=12,missing=12
			11:[shotType_backhand<1] yes=23,no=24,missing=24
				23:[shotAngle<34.3803444] yes=45,no=46,missing=46
					45:leaf=0.149761438
					46:leaf=0.0465693697
				24:leaf=-0.000147465529
			12:[timeSinceLastEvent<9] yes=25,no=26,missing=26
				25:[xStd<59] yes=47,no=48,missing=48
					47:[shotType_slap<1] yes=85,no=86,missing=86
						85:leaf=0.0923827812
						86:leaf=0.0166547317
					48:[distFromLastEvent<106.25441] yes=87,no=88,missing=88
						87:leaf=-0.0738742799
						88:leaf=0.0959246904
				26:[timeSinceLastEvent<14] yes=49,no=50,missing=50
					49:[shotDistance<41.2310562] yes=89,no=90,missing=90
						89:leaf=0.117324263
						90:leaf=0.0294790976
					50:[xStd<28] yes=91,no=92,missing=92
						91:leaf=0.0515421219
						92:leaf=0.0896141827
		6:[manAdvantage<1] yes=13,no=14,missing=14
			13:[timeSinceLastEvent<4] yes=27,no=28,missing=28
				27:[angleChangeSpeed<20.6556473] yes=51,no=52,missing=51
					51:[yStd<16] yes=93,no=94,missing=94
						93:leaf=-0.00378580112
						94:leaf=-0.0307405218
					52:[distFromLastEvent<52.4976196] yes=95,no=96,missing=96
						95:leaf=0.0959112793
						96:leaf=-0.0121962046
				28:[shotDistance<43.6004601] yes=53,no=54,missing=54
					53:[xStd<64] yes=97,no=98,missing=98
						97:leaf=-0.0271327831
						98:leaf=-0.0581090897
					54:[shotType_tip-in<1] yes=99,no=100,missing=100
						99:leaf=-0.056932576
						100:leaf=0.0488129221
			14:[defendingSkaters<4] yes=29,no=30,missing=30
				29:[speedFromLastEvent<6.70820379] yes=55,no=56,missing=55
					55:[shotDistance<40.8166618] yes=101,no=102,missing=102
						101:leaf=0.0521777757
						102:leaf=-0.00169872143
					56:[distFromLastEvent<63.8122253] yes=103,no=104,missing=104
						103:leaf=0.131216198
						104:leaf=-0.0610911325
				30:[timeSinceLastEvent<5] yes=57,no=58,missing=58
					57:[yStd<19] yes=105,no=106,missing=106
						105:leaf=0.0383660644
						106:leaf=-0.0217685811
					58:[shotDistance<46.3249397] yes=107,no=108,missing=108
						107:leaf=-0.00923315901
						108:leaf=-0.0297027994
booster[11]:
0:[shotDistance<32.6496544] yes=1,no=2,missing=2
	1:[timeSinceLastEvent<5] yes=3,no=4,missing=4
		3:[shotDistance<7.07106781] yes=7,no=8,missing=8
			7:[shotType_wrap-around<1] yes=15,no=16,missing=16
				15:[timeSinceLastEvent<2] yes=31,no=32,missing=32
					31:[angleChangeSpeed<60.5241127] yes=61,no=62,missing=62
						61:leaf=0.00308624422
						62:leaf=0.0816380605
					32:[speedFromLastEvent<20.1246109] yes=63,no=64,missing=64
						63:leaf=0.0740144327
						64:leaf=0.133586302
				16:[lastEventTypeCode_shot-on-goal<1] yes=33,no=34,missing=34
					33:[xStd<89] yes=65,no=66,missing=66
						65:leaf=-0.0505189449
						66:leaf=0.0183763988
					34:[xStd<86] yes=67,no=68,missing=68
						67:leaf=0.104177557
						68:leaf=-0.00776307611
			8:[shotType_backhand<1] yes=17,no=18,missing=18
				17:[angleChangeSpeed<10.0910568] yes=35,no=36,missing=35
					35:[goalieInNet<1] yes=69,no=70,missing=70
						69:leaf=0.152465478
						70:leaf=0.0278392546
					36:[timeSinceLastEvent<2] yes=71,no=72,missing=72
						71:leaf=0.0333662555
						72:leaf=0.0694807097
				18:[shotDistance<14.1421356] yes=37,no=38,missing=38
					37:[speedFromLastEvent<52.886673] yes=73,no=74,missing=74
						73:leaf=0.0155278947
						74:leaf=0.059819974
					38:[timeSinceLastEvent<1] yes=75,no=76,missing=76
						75:leaf=0.0445215292
						76:leaf=-0.0179777592
		4:[shotDistance<17.2626762] yes=9,no=10,missing=10
			9:[shotType_snap<1] yes=19,no=20,missing=20
				19:[shotType_wrist<1] yes=39,no=40,missing=40
					39:[shotDistance<9.21954441] yes=77,no=78,missing=78
						77:leaf=0.0219566356
						78:leaf=-0.00994103495
					40:[shotAngle<-47.2906113] yes=79,no=80,missing=80
						79:leaf=-0.00177620328
						80:leaf=0.0348829664
				20:[speedFromLastEvent<13.0862522] yes=41,no=42,missing=42
					41:[shotAngle<-57.9946175] yes=81,no=82,missing=82
						81:leaf=0.00232349383
						82:leaf=0.0554583445
					42:[speedFromLastEvent<21.6897316] yes=83,no=84,missing=84
						83:leaf=0.0874381661
						84:leaf=0.155627638
			10:[xStd<76] yes=21,no=22,missing=22
				21:[shotType_backhand<1] yes=43,no=44,missing=44
					43:[defendingSkaters<6] yes=85,no=86,missing=86
						85:leaf=0.00314661791
						86:leaf=0.125486568
					44:[shotDistance<21.2132034] yes=87,no=88,missing=88
						87:leaf=-0.0136458725
						88:leaf=-0.054854393
				22:[defendingSkaters<5] yes=45,no=46,missing=46
					45:[defendingSkaters<4] yes=89,no=90,missing=90
						89:leaf=0.0722060725
						90:leaf=-0.00534421578
					46:[xStd<93] yes=91,no=92,missing=92
						91:leaf=-0.0428818464
						92:leaf=0.121716432
	2:[goalieInNet<1] yes=5,no=6,missing=6
		5:[timeSinceLastEvent<6] yes=11,no=12,missing=12
			11:[shotAngle<-46.4687996] yes=23,no=24,missing=24
				23:leaf=-0.0475335307
				24:[distFromLastEvent<73.8241119] yes=47,no=48,missing=48
					47:[shotAngle<24.4439545] yes=93,no=94,missing=94
						93:leaf=0.0844293833
						94:leaf=-0.0097079752
					48:[lastEventTypeCode_giveaway<1] yes=95,no=96,missing=96
						95:leaf=0.127048418
						96:leaf=0.0646037906
			12:[shotDistance<49.4974747] yes=25,no=26,missing=26
				25:[timeSinceLastEvent<73] yes=49,no=50,missing=50
					49:[shotAngle<36.2538376] yes=97,no=98,missing=98
						97:leaf=0.0952975899
						98:leaf=0.0389365479
					50:leaf=-0.017398145
				26:[shotDistance<52.8015137] yes=51,no=52,missing=52
					51:[lastEventTypeCode_hit<1] yes=99,no=100,missing=100
						99:leaf=-0.075419955
						100:leaf=0.0173109081
					52:[yStd<-35] yes=101,no=102,missing=102
						101:leaf=0.107355893
						102:leaf=0.0524103865
		6:[manAdvantage<1] yes=13,no=14,missing=14
			13:[timeSinceLastEvent<5] yes=27,no=28,missing=28
				27:[angleChangeSpeed<49.6354637] yes=53,no=54,missing=54
					53:[yStd<19] yes=103,no=104,missing=104
						103:leaf=0.0860548243
						104:leaf=-0.0240688119
					54:[shotType_tip-in<1] yes=105,no=106,missing=106
						105:leaf=-0.0204562675
						106:leaf=0.115652196
				28:[shotDistance<46.615448] yes=55,no=56,missing=56
					55:[xStd<62] yes=107,no=108,missing=108
						107:leaf=-0.0298851356
						108:leaf=-0.0575028881
					56:[shotType_deflected<1] yes=109,no=110,missing=110
						109:leaf=-0.0571819693
						110:leaf=0.0910980403
			14:[defendingSkaters<4] yes=29,no=30,missing=30
				29:[xStd<67] yes=57,no=58,missing=58
					57:[xStd<35] yes=111,no=112,missing=112
						111:leaf=0.118739143
						112:leaf=0.0216548275
					58:leaf=0.18959935
				30:[timeSinceLastEvent<5] yes=59,no=60,missing=60
					59:[yStd<19] yes=113,no=114,missing=114
						113:leaf=0.0335476138
						114:leaf=-0.0247673821
					60:[shotDistance<46.3249397] yes=115,no=116,missing=116
						115:leaf=-0.00773519976
						116:leaf=-0.0283297151
booster[12]:
0:[shotDistance<32.9848442] yes=1,no=2,missing=2
	1:[shotDistance<17.4928551] yes=3,no=4,missing=4
		3:[speedFromLastEvent<8.01147175] yes=7,no=8,missing=8
			7:[manAdvantage<1] yes=15,no=16,missing=16
				15:[yStd<6] yes=31,no=32,missing=32
					31:[shotAngle<-47.2906113] yes=61,no=62,missing=62
						61:leaf=-0.0136412475
						62:leaf=0.0218716729
					32:[xStd<93] yes=63,no=64,missing=64
						63:leaf=-0.013789041
						64:leaf=0.26904887
				16:[shotDistance<6.3245554] yes=33,no=34,missing=34
					33:[speedFromLastEvent<0.515388191] yes=65,no=66,missing=66
						65:leaf=-0.00194779213
						66:leaf=0.0910888836
					34:[shotType_backhand<1] yes=67,no=68,missing=68
						67:leaf=0.0340862423
						68:leaf=0.000459903094
			8:[goalieInNet<1] yes=17,no=18,missing=18
				17:[shotAngle<40.1559982] yes=35,no=36,missing=36
					35:[timeSinceLastEvent<17] yes=69,no=70,missing=70
						69:leaf=0.159435183
						70:leaf=0.0589495115
					36:leaf=0.0188890006
				18:[yStd<7] yes=37,no=38,missing=38
					37:[yStd<-3] yes=71,no=72,missing=72
						71:leaf=0.024746526
						72:leaf=0.0472498275
					38:[shotType_backhand<1] yes=73,no=74,missing=74
						73:leaf=0.019198494
						74:leaf=-0.0229377653
		4:[shotType_backhand<1] yes=9,no=10,missing=10
			9:[xStd<77] yes=19,no=20,missing=20
				19:[goalieInNet<1] yes=39,no=40,missing=40
					39:[xStd<58] yes=75,no=76,missing=76
						75:leaf=0.013460286
						76:leaf=0.11794851
					40:[defendingSkaters<5] yes=77,no=78,missing=78
						77:leaf=0.0246207546
						78:leaf=0.00194759818
				20:[shotDistance<20.8086529] yes=41,no=42,missing=42
					41:[manAdvantage<1] yes=79,no=80,missing=80
						79:leaf=-0.0112693328
						80:leaf=0.0310075544
					42:[xStd<92] yes=81,no=82,missing=82
						81:leaf=-0.0364820659
						82:leaf=0.0906149894
			10:[goalieInNet<1] yes=21,no=22,missing=22
				21:[timeSinceLastEvent<9] yes=43,no=44,missing=44
					43:leaf=0.135482132
					44:[shotAngle<1.1457628] yes=83,no=84,missing=84
						83:leaf=0.070574902
						84:leaf=-0.0457924381
				22:[xStd<73] yes=45,no=46,missing=46
					45:[shotDistance<20.248457] yes=85,no=86,missing=86
						85:leaf=-0.00210731407
						86:leaf=-0.0413617752
					46:[xStd<90] yes=87,no=88,missing=88
						87:leaf=-0.062326286
						88:leaf=0.109297015
	2:[goalieInNet<1] yes=5,no=6,missing=6
		5:[speedFromLastEvent<17.2409401] yes=11,no=12,missing=12
			11:[distFromLastEvent<127.769325] yes=23,no=24,missing=24
				23:[xStd<65] yes=47,no=48,missing=48
					47:[speedFromLastEvent<0.603692353] yes=89,no=90,missing=90
						89:leaf=0.0935296491
						90:leaf=0.0484790467
					48:[yStd<35] yes=91,no=92,missing=92
						91:leaf=-0.0607580282
						92:leaf=-0.00478747906
				24:[shotAngle<-41.9872131] yes=49,no=50,missing=50
					49:[lastEventTypeCode_hit<1] yes=93,no=94,missing=94
						93:leaf=-0.0244615506
						94:leaf=0.0616352297
					50:[distFromLastEvent<141.283401] yes=95,no=96,missing=96
						95:leaf=0.136113718
						96:leaf=0.0314666443
			12:[shotType_backhand<1] yes=25,no=26,missing=26
				25:[shotAngle<-46.4687996] yes=51,no=52,missing=52
					51:leaf=-0.00260279188
					52:[shotAngle<20.5560455] yes=97,no=98,missing=98
						97:leaf=0.109046169
						98:leaf=0.0522881038
				26:leaf=-0.000752739434
		6:[manAdvantage<1] yes=13,no=14,missing=14
			13:[timeSinceLastEvent<4] yes=27,no=28,missing=28
				27:[yStd<24] yes=53,no=54,missing=54
					53:[yStd<-28] yes=99,no=100,missing=100
						99:leaf=-0.0345470123
						100:leaf=0.0036195498
					54:[angleChangeSpeed<65.4075394] yes=101,no=102,missing=101
						101:leaf=-0.0339827091
						102:leaf=0.0823257118
				28:[shotDistance<43.1393089] yes=55,no=56,missing=56
					55:[xStd<62] yes=103,no=104,missing=104
						103:leaf=-0.0240580793
						104:leaf=-0.0550725386
					56:[shotType_wrist<1] yes=105,no=106,missing=106
						105:leaf=-0.0442797057
						106:leaf=-0.0625078604
			14:[shotType_wrist<1] yes=29,no=30,missing=30
				29:[shotDistance<48.3838806] yes=57,no=58,missing=58
					57:[angleChangeSpeed<33.5282173] yes=107,no=108,missing=108
						107:leaf=0.205907822
						108:leaf=0.00676302006
					58:[shotType_deflected<1] yes=109,no=110,missing=110
						109:leaf=-0.0165617969
						110:leaf=0.146380633
				30:[xStd<-39] yes=59,no=60,missing=60
					59:[xStd<-68] yes=111,no=112,missing=112
						111:leaf=0.153797895
						112:leaf=0.0490170568
					60:[shotDistance<45.9673805] yes=113,no=114,missing=114
						113:leaf=-0.0179961231
						114:leaf=-0.0470460318
booster[13]:
0:[shotDistance<32.2024841] yes=1,no=2,missing=2
	1:[timeSinceLastEvent<5] yes=3,no=4,missing=4
		3:[shotAngle<50.7105942] yes=7,no=8,missing=8
			7:[yStd<-7] yes=15,no=16,missing=16
				15:[angleChangeSpeed<34.4413528] yes=31,no=32,missing=31
					31:[shotAngle<-16.2602043] yes=61,no=62,missing=62
						61:leaf=0.00592506723
						62:leaf=0.149693474
					32:[shotAngle<-77.4711914] yes=63,no=64,missing=64
						63:leaf=-0.0230843537
						64:leaf=0.0510632619
				16:[angleChangeSpeed<35.9605179] yes=33,no=34,missing=33
					33:[timeSinceLastEvent<2] yes=65,no=66,missing=66
						65:leaf=0.0198079608
						66:leaf=0.037340682
					34:[shotAngle<23.9624882] yes=67,no=68,missing=68
						67:leaf=0.0464047231
						68:leaf=0.0877393261
			8:[xStd<92] yes=17,no=18,missing=18
				17:[yStd<4] yes=35,no=36,missing=36
					35:[speedFromLastEvent<33.3766403] yes=69,no=70,missing=70
						69:leaf=0.158123493
						70:leaf=0.0318483636
					36:[defendingSkaters<4] yes=71,no=72,missing=72
						71:leaf=0.122558407
						72:leaf=-0.0064404374
				18:[yStd<12] yes=37,no=38,missing=38
					37:leaf=0.223490894
					38:leaf=0.0776987746
		4:[goalieInNet<1] yes=9,no=10,missing=10
			9:[shotDistance<10.7703295] yes=19,no=20,missing=20
				19:[shotType_tip-in<1] yes=39,no=40,missing=40
					39:leaf=0.161325172
					40:leaf=0.0643251836
				20:[speedFromLastEvent<16.8002968] yes=41,no=42,missing=42
					41:[shotAngle<51.632515] yes=73,no=74,missing=74
						73:leaf=0.0977485478
						74:leaf=-0.0184188318
					42:[timeSinceLastEvent<8] yes=75,no=76,missing=76
						75:leaf=0.158611521
						76:leaf=0.0675616562
			10:[yStd<7] yes=21,no=22,missing=22
				21:[yStd<-6] yes=43,no=44,missing=44
					43:[shotType_backhand<1] yes=77,no=78,missing=78
						77:leaf=-0.00224315724
						78:leaf=-0.0369757675
					44:[shotType_snap<1] yes=79,no=80,missing=80
						79:leaf=0.0164954159
						80:leaf=0.0477598123
				22:[manAdvantage<1] yes=45,no=46,missing=46
					45:[xStd<91] yes=81,no=82,missing=82
						81:leaf=-0.0185991619
						82:leaf=0.139220238
					46:[defendingSkaters<4] yes=83,no=84,missing=84
						83:leaf=0.0578330308
						84:leaf=0.00828308985
	2:[goalieInNet<1] yes=5,no=6,missing=6
		5:[shotType_slap<1] yes=11,no=12,missing=12
			11:[shotType_backhand<1] yes=23,no=24,missing=24
				23:[speedFromLastEvent<7.78174496] yes=47,no=48,missing=48
					47:[manAdvantage<0] yes=85,no=86,missing=86
						85:leaf=0.0461015143
						86:leaf=0.10388653
					48:[xStd<22] yes=87,no=88,missing=88
						87:leaf=0.0920012221
						88:leaf=0.0610109307
				24:[shotAngle<26.0295925] yes=49,no=50,missing=50
					49:[yStd<-28] yes=89,no=90,missing=90
						89:leaf=0.0486178063
						90:leaf=-0.0208970997
					50:[xStd<57] yes=91,no=92,missing=92
						91:leaf=0.133535698
						92:leaf=-0.0123828286
			12:[manAdvantage<-1] yes=25,no=26,missing=26
				25:leaf=-0.0732183903
				26:[shotDistance<106.892471] yes=51,no=52,missing=52
					51:[distFromLastEvent<79.4040298] yes=93,no=94,missing=94
						93:leaf=-0.055864878
						94:leaf=0.0786619484
					52:[distFromLastEvent<31.9061127] yes=95,no=96,missing=96
						95:leaf=0.12025509
						96:leaf=0.0272975415
		6:[shotType_wrist<1] yes=13,no=14,missing=14
			13:[shotDistance<43.6004601] yes=27,no=28,missing=28
				27:[shotType_backhand<1] yes=53,no=54,missing=54
					53:[xStd<68] yes=97,no=98,missing=98
						97:leaf=0.00398302777
						98:leaf=-0.0414668806
					54:[distFromLastEvent<161.446579] yes=99,no=100,missing=100
						99:leaf=-0.0751877725
						100:leaf=0.0298471786
				28:[manAdvantage<1] yes=55,no=56,missing=56
					55:[shotType_deflected<1] yes=101,no=102,missing=102
						101:leaf=-0.0394544341
						102:leaf=0.113468453
					56:[timeSinceLastEvent<7] yes=103,no=104,missing=104
						103:leaf=0.0103117507
						104:leaf=-0.01930907
			14:[shotDistance<40.3112869] yes=29,no=30,missing=30
				29:[xStd<65] yes=57,no=58,missing=58
					57:[speedFromLastEvent<10.1980391] yes=105,no=106,missing=105
						105:leaf=-0.0265079737
						106:leaf=-0.00429968303
					58:[xStd<88] yes=107,no=108,missing=108
						107:leaf=-0.0577457473
						108:leaf=0.0722780004
				30:[xStd<-75] yes=59,no=60,missing=60
					59:[speedFromLastEvent<22.6384621] yes=109,no=110,missing=110
						109:leaf=0.0257457085
						110:leaf=0.396859974
					60:[timeSinceLastEvent<4] yes=111,no=112,missing=112
						111:leaf=-0.030366404
						112:leaf=-0.0559412539
booster[14]:
0:[shotDistance<26.9258232] yes=1,no=2,missing=2
	1:[timeSinceLastEvent<3] yes=3,no=4,missing=4
		3:[timeSinceLastEvent<2] yes=7,no=8,missing=8
			7:[timeSinceLastEvent<1] yes=15,no=16,missing=16
				15:[lastEventTypeCode_shot-on-goal<1] yes=31,no=32,missing=32
					31:[lastEventTypeCode_missed-shot<1] yes=63,no=64,missing=64
						63:leaf=0.00827920064
						64:leaf=0.0594115853
					32:[distFromLastEvent<12.083046] yes=65,no=66,missing=66
						65:leaf=0.0377647914
						66:leaf=0.0900619701
				16:[angleChangeSpeed<51.4369202] yes=33,no=34,missing=33
					33:[lastEventTypeCode_missed-shot<1] yes=67,no=68,missing=68
						67:leaf=-0.00142796652
						68:leaf=0.0620844364
					34:[angleChangeSpeed<82.2348328] yes=69,no=70,missing=70
						69:leaf=0.0404245257
						70:leaf=0.0692440197
			8:[angleChangeSpeed<10.7195444] yes=17,no=18,missing=17
				17:[shotType_backhand<1] yes=35,no=36,missing=36
					35:[lastEventTypeCode_hit<1] yes=71,no=72,missing=72
						71:leaf=0.0393349975
						72:leaf=-0.0486161672
					36:[yStd<4] yes=73,no=74,missing=74
						73:leaf=0.0166700855
						74:leaf=-0.0230267383
				18:[shotAngle<-71.5650482] yes=37,no=38,missing=38
					37:[shotAngle<-85.2363586] yes=75,no=76,missing=76
						75:leaf=0.0171457026
						76:leaf=-0.0339637436
					38:[shotAngle<51.632515] yes=77,no=78,missing=78
						77:leaf=0.0642360225
						78:leaf=0.0138425818
		4:[speedFromLastEvent<16.8002968] yes=9,no=10,missing=9
			9:[defendingSkaters<5] yes=19,no=20,missing=20
				19:[shotType_snap<1] yes=39,no=40,missing=40
					39:[shotDistance<6.3245554] yes=79,no=80,missing=80
						79:leaf=0.0695042312
						80:leaf=0.0160290264
					40:[speedFromLastEvent<2.80032802] yes=81,no=82,missing=82
						81:leaf=0.0393684283
						82:leaf=0.0685189888
				20:[shotAngle<46.2730293] yes=41,no=42,missing=42
					41:[yStd<-7] yes=83,no=84,missing=84
						83:leaf=-0.0138832293
						84:leaf=0.0110239349
					42:[xStd<91] yes=85,no=86,missing=86
						85:leaf=-0.0248851795
						86:leaf=0.116236985
			10:[yStd<10] yes=21,no=22,missing=22
				21:[yStd<-9] yes=43,no=44,missing=44
					43:[shotType_backhand<1] yes=87,no=88,missing=88
						87:leaf=0.0264056753
						88:leaf=-0.0321502946
					44:[timeSinceLastEvent<7] yes=89,no=90,missing=90
						89:leaf=0.0660323352
						90:leaf=0.0376001038
				22:[shotAngle<27.6459751] yes=45,no=46,missing=46
					45:[speedFromLastEvent<23.7118111] yes=91,no=92,missing=92
						91:leaf=0.168346241
						92:leaf=-0.0392220318
					46:[shotDistance<22.8035088] yes=93,no=94,missing=94
						93:leaf=0.0058429474
						94:leaf=-0.037728589
	2:[goalieInNet<1] yes=5,no=6,missing=6
		5:[timeSinceLastEvent<6] yes=11,no=12,missing=12
			11:[shotAngle<-46.4687996] yes=23,no=24,missing=24
				23:[shotAngle<-53.9726257] yes=47,no=48,missing=48
					47:leaf=0.0235804338
					48:leaf=-0.0531436987
				24:[shotAngle<43.6028175] yes=49,no=50,missing=50
					49:[xStd<53] yes=95,no=96,missing=96
						95:leaf=0.0695009679
						96:leaf=0.12951453
					50:[distFromLastEvent<50.4479942] yes=97,no=98,missing=98
						97:leaf=-0.0448167659
						98:leaf=0.0251727719
			12:[distFromLastEvent<98.6813049] yes=25,no=26,missing=26
				25:[lastEventTypeCode_missed-shot<1] yes=51,no=52,missing=52
					51:[shotAngle<36.8698959] yes=99,no=100,missing=100
						99:leaf=0.0388267152
						100:leaf=-0.0512979366
					52:[speedFromLastEvent<7.46726179] yes=101,no=102,missing=102
						101:leaf=0.021791758
						102:leaf=-0.086395137
				26:[timeSinceLastEvent<51] yes=53,no=54,missing=54
					53:[timeSinceLastEvent<25] yes=103,no=104,missing=104
						103:leaf=0.0556174703
						104:leaf=0.102467939
					54:[timeSinceLastEvent<65] yes=105,no=106,missing=106
						105:leaf=-0.0686666593
						106:leaf=0.0434958935
		6:[shotDistance<39.2173424] yes=13,no=14,missing=14
			13:[shotType_slap<1] yes=27,no=28,missing=28
				27:[xStd<67] yes=55,no=56,missing=56
					55:[shotType_snap<1] yes=107,no=108,missing=108
						107:leaf=-0.017129628
						108:leaf=0.00757065928
					56:[speedFromLastEvent<13.9140215] yes=109,no=110,missing=109
						109:leaf=-0.0445928648
						110:leaf=-0.0112917125
				28:[timeSinceLastEvent<6] yes=57,no=58,missing=58
					57:[distFromLastEvent<36.2215424] yes=111,no=112,missing=112
						111:leaf=0.0647672117
						112:leaf=0.0193457119
					58:[manAdvantage<2] yes=113,no=114,missing=114
						113:leaf=0.0069086072
						114:leaf=0.0686977878
			14:[shotType_wrist<1] yes=29,no=30,missing=30
				29:[shotType_tip-in<1] yes=59,no=60,missing=60
					59:[shotDistance<61.7170982] yes=115,no=116,missing=116
						115:leaf=-0.0221481826
						116:leaf=-0.0565012433
					60:[xStd<28] yes=117,no=118,missing=118
						117:leaf=-0.0139041636
						118:leaf=0.119802281
				30:[xStd<-69] yes=61,no=62,missing=62
					61:[speedFromLastEvent<52.886673] yes=119,no=120,missing=120
						119:leaf=0.033889316
						120:leaf=0.291625351
					62:[timeSinceLastEvent<5] yes=121,no=122,missing=122
						121:leaf=-0.0302492715
						122:leaf=-0.0537177101
booster[15]:
0:[shotDistance<33.1209908] yes=1,no=2,missing=2
	1:[shotDistance<12.0415945] yes=3,no=4,missing=4
		3:[shotType_wrap-around<1] yes=7,no=8,missing=8
			7:[shotDistance<6.3245554] yes=15,no=16,missing=16
				15:[shotType_tip-in<1] yes=31,no=32,missing=32
					31:[yStd<-3] yes=61,no=62,missing=62
						61:leaf=0.00494151888
						62:leaf=0.0476036444
					32:[shotDistance<5.83095169] yes=63,no=64,missing=64
						63:leaf=0.113929532
						64:leaf=0.0619283952
				16:[xStd<93] yes=33,no=34,missing=34
					33:[xStd<85] yes=65,no=66,missing=66
						65:leaf=0.0220844168
						66:leaf=-0.00529913045
					34:leaf=0.2348167
			8:[timeSinceLastEvent<1] yes=17,no=18,missing=18
				17:[distFromLastEvent<15.6524763] yes=35,no=36,missing=36
					35:leaf=-0.0094158249
					36:[shotDistance<6.3245554] yes=67,no=68,missing=68
						67:leaf=0.110790618
						68:leaf=0.0278330911
				18:[yStd<7] yes=37,no=38,missing=38
					37:[lastEventTypeCode_blocked-shot<1] yes=69,no=70,missing=70
						69:leaf=-0.0368130505
						70:leaf=-0.0074884831
					38:[shotAngle<82.8749847] yes=71,no=72,missing=72
						71:leaf=-0.0766754895
						72:leaf=-0.0254569352
		4:[shotType_backhand<1] yes=9,no=10,missing=10
			9:[speedFromLastEvent<7.90569401] yes=19,no=20,missing=20
				19:[defendingSkaters<5] yes=39,no=40,missing=40
					39:[shotType_slap<1] yes=73,no=74,missing=74
						73:leaf=0.0136379339
						74:leaf=0.0442449972
					40:[yStd<14] yes=75,no=76,missing=76
						75:leaf=-0.000556179788
						76:leaf=-0.028426433
				20:[goalieInNet<1] yes=41,no=42,missing=42
					41:[xStd<81] yes=77,no=78,missing=78
						77:leaf=0.113253519
						78:leaf=-0.00538495183
					42:[yStd<-20] yes=79,no=80,missing=80
						79:leaf=-0.0206351783
						80:leaf=0.021025084
			10:[yStd<-13] yes=21,no=22,missing=22
				21:[xStd<91] yes=43,no=44,missing=44
					43:[goalieInNet<1] yes=81,no=82,missing=82
						81:leaf=0.0695843548
						82:leaf=-0.0577550307
					44:leaf=0.07256262
				22:[yStd<8] yes=45,no=46,missing=46
					45:[speedFromLastEvent<15.5724115] yes=83,no=84,missing=84
						83:leaf=-0.0111828577
						84:leaf=0.0215331931
					46:[angleChangeSpeed<6.34019184] yes=85,no=86,missing=85
						85:leaf=-0.0517581813
						86:leaf=0.0059648212
	2:[goalieInNet<1] yes=5,no=6,missing=6
		5:[speedFromLastEvent<0.603692353] yes=11,no=12,missing=11
			11:[speedFromLastEvent<0.424182504] yes=23,no=24,missing=23
				23:[distFromLastEvent<5.65685415] yes=47,no=48,missing=48
					47:leaf=-0.0611487105
					48:[speedFromLastEvent<0.232565135] yes=87,no=88,missing=87
						87:leaf=0.094861351
						88:leaf=0.00760639552
				24:[speedFromLastEvent<0.559017003] yes=49,no=50,missing=50
					49:leaf=0.155885354
					50:leaf=0.0567314401
			12:[timeSinceLastEvent<79] yes=25,no=26,missing=26
				25:[shotType_slap<1] yes=51,no=52,missing=52
					51:[xStd<-20] yes=89,no=90,missing=90
						89:leaf=0.0624739602
						90:leaf=0.0383289903
					52:[manAdvantage<-1] yes=91,no=92,missing=92
						91:leaf=-0.0699066445
						92:leaf=0.0210582744
				26:leaf=-0.0682565346
		6:[defendingSkaters<5] yes=13,no=14,missing=14
			13:[timeSinceLastEvent<6] yes=27,no=28,missing=28
				27:[distFromLastEvent<29.4108829] yes=53,no=54,missing=54
					53:[shotType_wrist<1] yes=93,no=94,missing=94
						93:leaf=0.0713714138
						94:leaf=0.00961820036
					54:[xStd<31] yes=95,no=96,missing=96
						95:leaf=0.115202464
						96:leaf=0.00135362591
				28:[shotDistance<43.3820229] yes=55,no=56,missing=56
					55:[distFromLastEvent<10.1980391] yes=97,no=98,missing=98
						97:leaf=0.0382137522
						98:leaf=-0.00397983193
					56:[yStd<-10] yes=99,no=100,missing=100
						99:leaf=-0.0358008109
						100:leaf=-0.0122055402
			14:[timeSinceLastEvent<5] yes=29,no=30,missing=30
				29:[shotDistance<41.5932693] yes=57,no=58,missing=58
					57:[xStd<56] yes=101,no=102,missing=102
						101:leaf=0.0255010221
						102:leaf=-0.016031513
					58:[shotType_wrist<1] yes=103,no=104,missing=104
						103:leaf=-0.0100159766
						104:leaf=-0.0358962379
				30:[yStd<27] yes=59,no=60,missing=60
					59:[yStd<-24] yes=105,no=106,missing=106
						105:leaf=-0.0529172085
						106:leaf=-0.0282517839
					60:[shotType_tip-in<1] yes=107,no=108,missing=108
						107:leaf=-0.0590021797
						108:leaf=0.124379866
booster[16]:
0:[shotDistance<34.058773] yes=1,no=2,missing=2
	1:[yStd<9] yes=3,no=4,missing=4
		3:[yStd<-6] yes=7,no=8,missing=8
			7:[yStd<-21] yes=15,no=16,missing=16
				15:[manAdvantage<1] yes=31,no=32,missing=32
					31:[timeSinceLastEvent<10] yes=63,no=64,missing=64
						63:leaf=-0.0197872128
						64:leaf=-0.0480142422
					32:[lastEventTypeCode_hit<1] yes=65,no=66,missing=66
						65:leaf=-0.0224109218
						66:leaf=0.0340816267
				16:[shotType_backhand<1] yes=33,no=34,missing=34
					33:[defendingSkaters<4] yes=67,no=68,missing=68
						67:leaf=0.0611145645
						68:leaf=0.00438825181
					34:[yStd<-12] yes=69,no=70,missing=70
						69:leaf=-0.0488390811
						70:leaf=-0.0129767954
			8:[shotType_wrist<1] yes=17,no=18,missing=18
				17:[shotType_snap<1] yes=35,no=36,missing=36
					35:[shotDistance<8.48528099] yes=71,no=72,missing=72
						71:leaf=0.0224590935
						72:leaf=-0.00232704659
					36:[distFromLastEvent<21.2132034] yes=73,no=74,missing=74
						73:leaf=0.0195869952
						74:leaf=0.0424125008
				18:[goalieInNet<1] yes=37,no=38,missing=38
					37:[shotDistance<26] yes=75,no=76,missing=76
						75:leaf=0.138421327
						76:leaf=0.0667084306
					38:[shotDistance<25.4558449] yes=77,no=78,missing=78
						77:leaf=0.028831942
						78:leaf=0.000837971515
		4:[shotType_snap<1] yes=9,no=10,missing=10
			9:[shotType_backhand<1] yes=19,no=20,missing=20
				19:[shotType_slap<1] yes=39,no=40,missing=40
					39:[xStd<91] yes=79,no=80,missing=80
						79:leaf=-0.015802959
						80:leaf=0.0987814441
					40:[defendingSkaters<5] yes=81,no=82,missing=82
						81:leaf=0.0392755158
						82:leaf=0.00366885867
				20:[speedFromLastEvent<23.7118111] yes=41,no=42,missing=41
					41:[speedFromLastEvent<5.17472506] yes=83,no=84,missing=83
						83:leaf=-0.0626265481
						84:leaf=-0.0399844795
					42:[timeSinceLastEvent<4] yes=85,no=86,missing=86
						85:leaf=-0.0139933312
						86:leaf=0.0644414127
			10:[defendingSkaters<5] yes=21,no=22,missing=22
				21:[shotDistance<26.9258232] yes=43,no=44,missing=44
					43:[timeSinceLastEvent<62] yes=87,no=88,missing=88
						87:leaf=0.0564829819
						88:leaf=-0.072840333
					44:[shotDistance<28.0178509] yes=89,no=90,missing=90
						89:leaf=-0.040984422
						90:leaf=0.0173789449
				22:[shotAngle<60.0684891] yes=45,no=46,missing=46
					45:[speedFromLastEvent<7.90569401] yes=91,no=92,missing=92
						91:leaf=0.00468380563
						92:leaf=0.0347353555
					46:[yStd<25] yes=93,no=94,missing=94
						93:leaf=-0.0033890116
						94:leaf=-0.0609080307
	2:[goalieInNet<1] yes=5,no=6,missing=6
		5:[timeSinceLastEvent<8] yes=11,no=12,missing=12
			11:[shotDistance<60.8358459] yes=23,no=24,missing=24
				23:[speedFromLastEvent<17.7511139] yes=47,no=48,missing=47
					47:[lastEventTypeCode_blocked-shot<1] yes=95,no=96,missing=96
						95:leaf=0.00845134817
						96:leaf=-0.133396581
					48:[xStd<41] yes=97,no=98,missing=98
						97:leaf=-0.00864252821
						98:leaf=0.0781801194
				24:[defendingSkaters<6] yes=49,no=50,missing=50
					49:[manAdvantage<0] yes=99,no=100,missing=100
						99:leaf=-0.0888867527
						100:leaf=0.0436244756
					50:[speedFromLastEvent<3.02592969] yes=101,no=102,missing=101
						101:leaf=0.126462504
						102:leaf=0.0613489747
			12:[shotDistance<48.0104141] yes=25,no=26,missing=26
				25:[xStd<65] yes=51,no=52,missing=52
					51:[timeSinceLastEvent<12] yes=103,no=104,missing=104
						103:leaf=0.0205684248
						104:leaf=0.0827172548
					52:[speedFromLastEvent<6.70820379] yes=105,no=106,missing=106
						105:leaf=-0.0849454179
						106:leaf=0.105911158
				26:[shotDistance<53.2353249] yes=53,no=54,missing=54
					53:[shotDistance<51.2445107] yes=107,no=108,missing=108
						107:leaf=-9.58295132e-05
						108:leaf=-0.0753691941
					54:[xStd<27] yes=109,no=110,missing=110
						109:leaf=0.0226588324
						110:leaf=0.0665585324
		6:[manAdvantage<1] yes=13,no=14,missing=14
			13:[timeSinceLastEvent<5] yes=27,no=28,missing=28
				27:[angleChangeSpeed<50.9061394] yes=55,no=56,missing=56
					55:[yStd<15] yes=111,no=112,missing=112
						111:leaf=0.0979919136
						112:leaf=-0.0329306722
					56:[yStd<-22] yes=113,no=114,missing=114
						113:leaf=-0.031871751
						114:leaf=-0.0081693558
				28:[yStd<27] yes=57,no=58,missing=58
					57:[yStd<-27] yes=115,no=116,missing=116
						115:leaf=-0.0535328239
						116:leaf=-0.0282985382
					58:[shotType_tip-in<1] yes=117,no=118,missing=118
						117:leaf=-0.0581550859
						118:leaf=0.0682722628
			14:[yStd<-28] yes=29,no=30,missing=30
				29:[speedFromLastEvent<0.447903216] yes=59,no=60,missing=60
					59:[shotType_wrist<1] yes=119,no=120,missing=120
						119:leaf=0.088881284
						120:leaf=-0.0468266048
					60:[yStd<-33] yes=121,no=122,missing=122
						121:leaf=-0.0724954382
						122:leaf=-0.0386195965
				30:[timeSinceLastEvent<7] yes=61,no=62,missing=62
					61:[yStd<25] yes=123,no=124,missing=124
						123:leaf=0.0254394077
						124:leaf=-0.0255364608
					62:[shotDistance<46.3249397] yes=125,no=126,missing=126
						125:leaf=0.00144462055
						126:leaf=-0.0170509852
booster[17]:
0:[shotDistance<34.058773] yes=1,no=2,missing=2
	1:[goalieInNet<1] yes=3,no=4,missing=4
		3:[shotDistance<12.2065554] yes=7,no=8,missing=8
			7:[shotAngle<57.3390884] yes=15,no=16,missing=16
				15:[shotType_tip-in<1] yes=31,no=32,missing=32
					31:leaf=0.145782605
					32:leaf=0.0447092354
				16:leaf=0.0179173071
			8:[speedFromLastEvent<13.9140215] yes=17,no=18,missing=18
				17:[xStd<63] yes=33,no=34,missing=34
					33:[xStd<62] yes=61,no=62,missing=62
						61:leaf=0.0573285148
						62:leaf=-0.056424927
					34:[speedFromLastEvent<10.3712339] yes=63,no=64,missing=64
						63:leaf=0.0985274762
						64:leaf=0.00079284684
				18:[xStd<81] yes=35,no=36,missing=36
					35:[yStd<20] yes=65,no=66,missing=66
						65:leaf=0.125668511
						66:leaf=0.0300695188
					36:leaf=-0.0449986793
		4:[timeSinceLastEvent<5] yes=9,no=10,missing=10
			9:[shotAngle<50.7105942] yes=19,no=20,missing=20
				19:[yStd<-5] yes=37,no=38,missing=38
					37:[lastEventTypeCode_hit<1] yes=67,no=68,missing=68
						67:leaf=0.0103238318
						68:leaf=-0.0390243866
					38:[angleChangeSpeed<53.4269676] yes=69,no=70,missing=69
						69:leaf=0.0230986215
						70:leaf=0.0522085913
				20:[angleChangeSpeed<30.0342445] yes=39,no=40,missing=40
					39:[speedFromLastEvent<12.1335163] yes=71,no=72,missing=72
						71:leaf=-0.0306432564
						72:leaf=-0.0636657625
					40:[defendingSkaters<4] yes=73,no=74,missing=74
						73:leaf=0.122909263
						74:leaf=0.00322653027
			10:[shotType_snap<1] yes=21,no=22,missing=22
				21:[shotDistance<15.2315464] yes=41,no=42,missing=42
					41:[shotType_wrist<1] yes=75,no=76,missing=76
						75:leaf=-0.000614991004
						76:leaf=0.0183000322
					42:[shotType_slap<1] yes=77,no=78,missing=78
						77:leaf=-0.0131056001
						78:leaf=0.021069089
				22:[shotDistance<17.2626762] yes=43,no=44,missing=44
					43:[defendingSkaters<4] yes=79,no=80,missing=80
						79:leaf=0.109571092
						80:leaf=0.0345417708
					44:[yStd<-23] yes=81,no=82,missing=82
						81:leaf=-0.0285958182
						82:leaf=0.0156454127
	2:[goalieInNet<1] yes=5,no=6,missing=6
		5:[manAdvantage<0] yes=11,no=12,missing=12
			11:[timeSinceLastEvent<9] yes=23,no=24,missing=24
				23:[defendingSkaters<6] yes=45,no=46,missing=46
					45:[xStd<-19] yes=83,no=84,missing=84
						83:leaf=-0.0131817544
						84:leaf=-0.0690257475
					46:[speedFromLastEvent<2.80032802] yes=85,no=86,missing=85
						85:leaf=0.0931317955
						86:leaf=0.0402840115
				24:[timeSinceLastEvent<10] yes=47,no=48,missing=48
					47:[shotDistance<51.0098038] yes=87,no=88,missing=88
						87:leaf=0.0544693545
						88:leaf=-0.0459741093
					48:[manAdvantage<-1] yes=89,no=90,missing=90
						89:leaf=-0.0104277031
						90:leaf=0.0292665251
			12:[yStd<27] yes=25,no=26,missing=26
				25:[shotAngle<-23.6293774] yes=49,no=50,missing=50
					49:leaf=0.0478850566
					50:[xStd<18] yes=91,no=92,missing=92
						91:leaf=0.0671641752
						92:leaf=0.133787721
				26:[yStd<33] yes=51,no=52,missing=52
					51:leaf=-0.0367881618
					52:[distFromLastEvent<63.8122253] yes=93,no=94,missing=94
						93:leaf=0.0703767836
						94:leaf=0.00348865869
		6:[shotType_wrist<1] yes=13,no=14,missing=14
			13:[shotDistance<61.7170982] yes=27,no=28,missing=28
				27:[shotType_deflected<1] yes=53,no=54,missing=54
					53:[shotType_tip-in<1] yes=95,no=96,missing=96
						95:leaf=-0.0139858779
						96:leaf=0.0832688883
					54:[xStd<51] yes=97,no=98,missing=98
						97:leaf=0.20452854
						98:leaf=0.0689262375
				28:[distFromLastEvent<132.442444] yes=55,no=56,missing=55
					55:[manAdvantage<1] yes=99,no=100,missing=100
						99:leaf=-0.0570681021
						100:leaf=-0.0143240523
					56:[speedFromLastEvent<18.3068466] yes=101,no=102,missing=101
						101:leaf=0.0350122489
						102:leaf=0.186573282
			14:[shotDistance<46.615448] yes=29,no=30,missing=30
				29:[xStd<58] yes=57,no=58,missing=58
					57:[timeSinceLastEvent<3] yes=103,no=104,missing=104
						103:leaf=0.0163556188
						104:leaf=-0.0220752098
					58:[angleChangeSpeed<42.2940636] yes=105,no=106,missing=106
						105:leaf=0.0633273348
						106:leaf=-0.0459120721
				30:[xStd<-61] yes=59,no=60,missing=60
					59:[shotAngle<3.57633448] yes=107,no=108,missing=108
						107:leaf=0.0868807137
						108:leaf=-0.0709751472
					60:[timeSinceLastEvent<6] yes=109,no=110,missing=110
						109:leaf=-0.0377367698
						110:leaf=-0.0572111681
booster[18]:
0:[shotDistance<32.9848442] yes=1,no=2,missing=2
	1:[goalieInNet<1] yes=3,no=4,missing=4
		3:[shotDistance<12.2065554] yes=7,no=8,missing=8
			7:[shotAngle<60.0684891] yes=15,no=16,missing=16
				15:[shotType_tip-in<1] yes=31,no=32,missing=32
					31:leaf=0.143106624
					32:leaf=0.0406133048
				16:leaf=0.0149682546
			8:[xStd<81] yes=17,no=18,missing=18
				17:[speedFromLastEvent<18.3068466] yes=33,no=34,missing=34
					33:[shotType_wrist<1] yes=61,no=62,missing=62
						61:leaf=0.0288013592
						62:leaf=0.0845152512
					34:[shotAngle<-44.1185951] yes=63,no=64,missing=64
						63:leaf=0.043027781
						64:leaf=0.137074038
				18:[speedFromLastEvent<11.5] yes=35,no=36,missing=36
					35:leaf=0.0534512438
					36:leaf=-0.0479551181
		4:[yStd<9] yes=9,no=10,missing=10
			9:[yStd<-4] yes=19,no=20,missing=20
				19:[shotType_snap<1] yes=37,no=38,missing=38
					37:[yStd<-16] yes=65,no=66,missing=66
						65:leaf=-0.0211415663
						66:leaf=0.000489329454
					38:[lastEventTypeCode_hit<1] yes=67,no=68,missing=68
						67:leaf=0.0249370355
						68:leaf=8.11799837e-05
				20:[yStd<4] yes=39,no=40,missing=40
					39:[shotDistance<8.06225777] yes=69,no=70,missing=70
						69:leaf=0.0354978293
						70:leaf=0.0158299915
					40:[shotType_wrap-around<1] yes=71,no=72,missing=72
						71:leaf=0.00872050226
						72:leaf=-0.0407328568
			10:[shotType_backhand<1] yes=21,no=22,missing=22
				21:[shotType_wrist<1] yes=41,no=42,missing=42
					41:[defendingSkaters<5] yes=73,no=74,missing=74
						73:leaf=0.0297495183
						74:leaf=-0.000369993533
					42:[yStd<21] yes=75,no=76,missing=76
						75:leaf=-0.00822832063
						76:leaf=-0.0390355624
				22:[xStd<92] yes=43,no=44,missing=44
					43:[yStd<14] yes=77,no=78,missing=78
						77:leaf=-0.034829203
						78:leaf=-0.0642557591
					44:leaf=0.0962426811
	2:[goalieInNet<1] yes=5,no=6,missing=6
		5:[distFromLastEvent<81.939003] yes=11,no=12,missing=12
			11:[distFromLastEvent<66.9402695] yes=23,no=24,missing=24
				23:[xStd<60] yes=45,no=46,missing=46
					45:[shotAngle<-11.3099327] yes=79,no=80,missing=80
						79:leaf=0.0560628362
						80:leaf=0.025062196
					46:[timeSinceLastEvent<24] yes=81,no=82,missing=82
						81:leaf=-0.0866890475
						82:leaf=0.0462585464
				24:[distFromLastEvent<70.6045303] yes=47,no=48,missing=48
					47:[lastEventTypeCode_shot-on-goal<1] yes=83,no=84,missing=84
						83:leaf=-0.0756660327
						84:leaf=0.0225614086
					48:[timeSinceLastEvent<21] yes=85,no=86,missing=86
						85:leaf=0.0568631701
						86:leaf=-0.025203092
			12:[xStd<8] yes=25,no=26,missing=26
				25:[shotType_backhand<1] yes=49,no=50,missing=50
					49:[timeSinceLastEvent<14] yes=87,no=88,missing=88
						87:leaf=0.0324553624
						88:leaf=0.124952972
					50:leaf=-0.0295618754
				26:[xStd<14] yes=51,no=52,missing=52
					51:[lastEventTypeCode_blocked-shot<1] yes=89,no=90,missing=90
						89:leaf=-0.0585873649
						90:leaf=0.056221623
					52:[yStd<-19] yes=91,no=92,missing=92
						91:leaf=0.0183438063
						92:leaf=0.0602436513
		6:[shotType_wrist<1] yes=13,no=14,missing=14
			13:[shotDistance<49.2442894] yes=27,no=28,missing=28
				27:[timeSinceLastEvent<6] yes=53,no=54,missing=54
					53:[xStd<57] yes=93,no=94,missing=94
						93:leaf=0.0356720798
						94:leaf=-0.00931831542
					54:[shotType_backhand<1] yes=95,no=96,missing=96
						95:leaf=-0.00670734281
						96:leaf=-0.0639805347
				28:[xStd<28] yes=55,no=56,missing=56
					55:[xStd<-62] yes=97,no=98,missing=98
						97:leaf=0.028205134
						98:leaf=-0.0700129271
					56:[shotType_deflected<1] yes=99,no=100,missing=100
						99:leaf=-0.0231852196
						100:leaf=0.159221411
			14:[shotDistance<46.3249397] yes=29,no=30,missing=30
				29:[xStd<58] yes=57,no=58,missing=58
					57:[speedFromLastEvent<12.6015873] yes=101,no=102,missing=102
						101:leaf=-0.0212798715
						102:leaf=0.0062145358
					58:[xStd<89] yes=103,no=104,missing=104
						103:leaf=-0.0425598398
						104:leaf=0.112915628
				30:[xStd<-61] yes=59,no=60,missing=60
					59:[speedFromLastEvent<43.4626274] yes=105,no=106,missing=106
						105:leaf=0.0204893574
						106:leaf=0.212040529
					60:[timeSinceLastEvent<5] yes=107,no=108,missing=108
						107:leaf=-0.0309086088
						108:leaf=-0.0538137443
booster[19]:
0:[shotDistance<30.2324333] yes=1,no=2,missing=2
	1:[speedFromLastEvent<15.2069063] yes=3,no=4,missing=4
		3:[manAdvantage<1] yes=7,no=8,missing=8
			7:[yStd<6] yes=15,no=16,missing=16
				15:[shotAngle<-45] yes=31,no=32,missing=32
					31:[shotDistance<15.2315464] yes=63,no=64,missing=64
						63:leaf=-0.00892472453
						64:leaf=-0.0280827768
					32:[goalieInNet<1] yes=65,no=66,missing=66
						65:leaf=0.0923362449
						66:leaf=0.00913072843
				16:[shotAngle<50.7105942] yes=33,no=34,missing=34
					33:[angleChangeSpeed<12.5288076] yes=67,no=68,missing=67
						67:leaf=-0.00753621571
						68:leaf=0.0527666621
					34:[xStd<91] yes=69,no=70,missing=70
						69:leaf=-0.0267141517
						70:leaf=0.0746256113
			8:[defendingSkaters<4] yes=17,no=18,missing=18
				17:[lastEventTypeCode_hit<1] yes=35,no=36,missing=36
					35:[shotType_slap<1] yes=71,no=72,missing=72
						71:leaf=0.0567559898
						72:leaf=0.120527096
					36:[manAdvantage<2] yes=73,no=74,missing=74
						73:leaf=-0.0218324754
						74:leaf=0.0563669242
				18:[shotDistance<8.94427204] yes=37,no=38,missing=38
					37:[lastEventTypeCode_blocked-shot<1] yes=75,no=76,missing=76
						75:leaf=0.0282289628
						76:leaf=0.0731417611
					38:[shotType_deflected<1] yes=77,no=78,missing=78
						77:leaf=0.0134582324
						78:leaf=-0.0192845929
		4:[angleChangeSpeed<10.5387468] yes=9,no=10,missing=10
			9:[timeSinceLastEvent<2] yes=19,no=20,missing=20
				19:[shotAngle<8.13010216] yes=39,no=40,missing=40
					39:[shotAngle<-43.3634224] yes=79,no=80,missing=80
						79:leaf=-0.077345401
						80:leaf=0.00326546817
					40:[shotDistance<6.08276272] yes=81,no=82,missing=82
						81:leaf=0.00422926014
						82:leaf=-0.0720748529
				20:[yStd<-3] yes=41,no=42,missing=42
					41:[angleChangeSpeed<1.17664838] yes=83,no=84,missing=84
						83:leaf=0.026688477
						84:leaf=-0.0490250289
					42:[shotDistance<7.21110249] yes=85,no=86,missing=86
						85:leaf=0.0550195314
						86:leaf=0.00777762383
			10:[goalieInNet<1] yes=21,no=22,missing=22
				21:[yStd<-13] yes=43,no=44,missing=44
					43:[speedFromLastEvent<22.6384621] yes=87,no=88,missing=88
						87:leaf=0.0793066025
						88:leaf=-0.0290581658
					44:[shotDistance<25.6124973] yes=89,no=90,missing=90
						89:leaf=0.116270572
						90:leaf=0.0359290019
				22:[shotDistance<21.0950222] yes=45,no=46,missing=46
					45:[lastEventTypeCode_missed-shot<1] yes=91,no=92,missing=92
						91:leaf=0.0249420572
						92:leaf=0.0533657558
					46:[angleChangeSpeed<76.8596649] yes=93,no=94,missing=93
						93:leaf=0.0078806635
						94:leaf=0.0962051675
	2:[goalieInNet<1] yes=5,no=6,missing=6
		5:[manAdvantage<0] yes=11,no=12,missing=12
			11:[distFromLastEvent<121.037186] yes=23,no=24,missing=24
				23:[timeSinceLastEvent<6] yes=47,no=48,missing=48
					47:[defendingSkaters<6] yes=95,no=96,missing=96
						95:leaf=-0.0726883784
						96:leaf=0.0445724577
					48:[timeSinceLastEvent<27] yes=97,no=98,missing=98
						97:leaf=0.00691970391
						98:leaf=0.0373261459
				24:[shotAngle<-37.476181] yes=49,no=50,missing=50
					49:[shotDistance<48.3838806] yes=99,no=100,missing=100
						99:leaf=0.0312412959
						100:leaf=-0.0498003289
					50:[timeSinceLastEvent<21] yes=101,no=102,missing=102
						101:leaf=0.0876068547
						102:leaf=0.0232010186
			12:[shotDistance<70.6045303] yes=25,no=26,missing=26
				25:[yStd<-23] yes=51,no=52,missing=52
					51:leaf=0.042741932
					52:[shotAngle<35.3112144] yes=103,no=104,missing=104
						103:leaf=0.120588988
						104:leaf=0.0346470997
				26:[shotAngle<16.5873394] yes=53,no=54,missing=54
					53:[timeSinceLastEvent<15] yes=105,no=106,missing=106
						105:leaf=0.0823765397
						106:leaf=0.00500429003
					54:leaf=-0.051988516
		6:[yStd<-27] yes=13,no=14,missing=14
			13:[shotType_tip-in<1] yes=27,no=28,missing=28
				27:[shotType_deflected<1] yes=55,no=56,missing=56
					55:[shotType_slap<1] yes=107,no=108,missing=108
						107:leaf=-0.0528920516
						108:leaf=-0.0334416553
					56:leaf=0.107406728
				28:[distFromLastEvent<61.8465843] yes=57,no=58,missing=58
					57:leaf=0.172495872
					58:leaf=-0.0301691107
			14:[yStd<27] yes=29,no=30,missing=30
				29:[shotType_wrist<1] yes=59,no=60,missing=60
					59:[shotDistance<49.0102043] yes=109,no=110,missing=110
						109:leaf=0.00619670842
						110:leaf=-0.0147842979
					60:[shotDistance<46.3249397] yes=111,no=112,missing=112
						111:leaf=-0.0154031953
						112:leaf=-0.0389065742
				30:[manAdvantage<1] yes=61,no=62,missing=62
					61:[shotType_tip-in<1] yes=113,no=114,missing=114
						113:leaf=-0.0488736667
						114:leaf=0.0922926217
					62:[shotDistance<38.0131569] yes=115,no=116,missing=116
						115:leaf=0.0157880485
						116:leaf=-0.0242418312
booster[20]:
0:[shotDistance<36.3593178] yes=1,no=2,missing=2
	1:[speedFromLastEvent<8.01147175] yes=3,no=4,missing=4
		3:[defendingSkaters<5] yes=7,no=8,missing=8
			7:[shotType_backhand<1] yes=15,no=16,missing=16
				15:[shotDistance<8.94427204] yes=31,no=32,missing=32
					31:[shotAngle<-22.8336544] yes=63,no=64,missing=64
						63:leaf=0.0107949385
						64:leaf=0.0452808477
					32:[defendingSkaters<4] yes=65,no=66,missing=66
						65:leaf=0.0383772776
						66:leaf=0.00902290456
				16:[shotDistance<23.6008472] yes=33,no=34,missing=34
					33:[xStd<71] yes=67,no=68,missing=68
						67:leaf=0.0505791008
						68:leaf=-0.0109039908
					34:[lastEventTypeCode_missed-shot<1] yes=69,no=70,missing=70
						69:leaf=-0.076096192
						70:leaf=-0.00428363541
			8:[shotAngle<50.7105942] yes=17,no=18,missing=18
				17:[shotAngle<-51.3401909] yes=35,no=36,missing=36
					35:[xStd<93] yes=71,no=72,missing=72
						71:leaf=-0.0225753933
						72:leaf=0.115584105
					36:[shotDistance<8.48528099] yes=73,no=74,missing=74
						73:leaf=0.0185848475
						74:leaf=-0.000188039703
				18:[yStd<19] yes=37,no=38,missing=38
					37:[xStd<91] yes=75,no=76,missing=76
						75:leaf=-0.0181816183
						76:leaf=0.0823009908
					38:[timeSinceLastEvent<3] yes=77,no=78,missing=78
						77:leaf=0.0341275856
						78:leaf=-0.0479774922
		4:[goalieInNet<1] yes=9,no=10,missing=10
			9:[speedFromLastEvent<13.6124945] yes=19,no=20,missing=20
				19:[shotDistance<17.8885441] yes=39,no=40,missing=40
					39:[xStd<84] yes=79,no=80,missing=80
						79:leaf=0.0940238237
						80:leaf=0.00869590603
					40:[shotAngle<9.46232224] yes=81,no=82,missing=82
						81:leaf=0.0375576168
						82:leaf=-0.0462238863
				20:[yStd<-13] yes=41,no=42,missing=42
					41:[speedFromLastEvent<25] yes=83,no=84,missing=84
						83:leaf=0.0954239294
						84:leaf=-0.0384003296
					42:[manAdvantage<-1] yes=85,no=86,missing=86
						85:leaf=0.0237250477
						86:leaf=0.113053299
			10:[shotDistance<7.07106781] yes=21,no=22,missing=22
				21:[shotType_wrap-around<1] yes=43,no=44,missing=44
					43:[shotType_tip-in<1] yes=87,no=88,missing=88
						87:leaf=0.032308545
						88:leaf=0.0835732073
					44:[angleChangeSpeed<128.817062] yes=89,no=90,missing=90
						89:leaf=0.0332580768
						90:leaf=-0.0332247466
				22:[shotType_backhand<1] yes=45,no=46,missing=46
					45:[shotType_tip-in<1] yes=91,no=92,missing=92
						91:leaf=0.0167166349
						92:leaf=-0.00478483271
					46:[shotDistance<19.235384] yes=93,no=94,missing=94
						93:leaf=0.00137243478
						94:leaf=-0.0352107398
	2:[goalieInNet<1] yes=5,no=6,missing=6
		5:[distFromLastEvent<86.0058136] yes=11,no=12,missing=12
			11:[timeSinceLastEvent<5] yes=23,no=24,missing=24
				23:[shotType_slap<1] yes=47,no=48,missing=48
					47:[xStd<-69] yes=95,no=96,missing=96
						95:leaf=-0.055167947
						96:leaf=0.0547474399
					48:[shotDistance<106.892471] yes=97,no=98,missing=98
						97:leaf=-0.0885535032
						98:leaf=0.00474775396
				24:[xStd<-58] yes=49,no=50,missing=50
					49:[distFromLastEvent<30.3644524] yes=99,no=100,missing=100
						99:leaf=-0.0147909727
						100:leaf=0.0887658224
					50:[speedFromLastEvent<1.5299412] yes=101,no=102,missing=102
						101:leaf=0.0263965391
						102:leaf=-0.00213464932
			12:[shotAngle<21.8014088] yes=25,no=26,missing=26
				25:[shotType_wrist<1] yes=51,no=52,missing=52
					51:[speedFromLastEvent<13.9140215] yes=103,no=104,missing=104
						103:leaf=-0.0269112233
						104:leaf=0.0554539002
					52:[shotAngle<17.6501236] yes=105,no=106,missing=106
						105:leaf=0.0437952131
						106:leaf=-0.0384225994
				26:[speedFromLastEvent<2.57390761] yes=53,no=54,missing=54
					53:leaf=-0.0242216233
					54:[speedFromLastEvent<4.45112324] yes=107,no=108,missing=108
						107:leaf=0.132467046
						108:leaf=0.0604043715
		6:[manAdvantage<1] yes=13,no=14,missing=14
			13:[timeSinceLastEvent<5] yes=27,no=28,missing=28
				27:[angleChangeSpeed<50.2812424] yes=55,no=56,missing=56
					55:[yStd<19] yes=109,no=110,missing=110
						109:leaf=0.0976567641
						110:leaf=-0.0299302246
					56:[yStd<-27] yes=111,no=112,missing=112
						111:leaf=-0.0319762379
						112:leaf=-0.000686967978
				28:[yStd<27] yes=57,no=58,missing=58
					57:[yStd<-23] yes=113,no=114,missing=114
						113:leaf=-0.0457175188
						114:leaf=-0.0238905083
					58:[shotType_tip-in<1] yes=115,no=116,missing=116
						115:leaf=-0.0527287871
						116:leaf=0.0753112137
			14:[yStd<-28] yes=29,no=30,missing=30
				29:[distFromLastEvent<38.0131569] yes=59,no=60,missing=60
					59:[lastEventTypeCode_takeaway<1] yes=117,no=118,missing=118
						117:leaf=-0.0168041848
						118:leaf=0.111452997
					60:[shotDistance<60.8358459] yes=119,no=120,missing=120
						119:leaf=-0.0595322922
						120:leaf=-0.0180638451
				30:[manAdvantage<2] yes=61,no=62,missing=62
					61:[yStd<27] yes=121,no=122,missing=122
						121:leaf=0.00036110662
						122:leaf=-0.0268781073
					62:[shotDistance<37.5366478] yes=123,no=124,missing=124
						123:leaf=0.139936969
						124:leaf=0.025429491
booster[21]:
0:[shotDistance<37.5366478] yes=1,no=2,missing=2
	1:[timeSinceLastEvent<3] yes=3,no=4,missing=4
		3:[timeSinceLastEvent<2] yes=7,no=8,missing=8
			7:[timeSinceLastEvent<1] yes=15,no=16,missing=16
				15:[lastEventTypeCode_shot-on-goal<1] yes=31,no=32,missing=32
					31:[lastEventTypeCode_giveaway<1] yes=63,no=64,missing=64
						63:leaf=0.0150715699
						64:leaf=-0.0295925885
					32:[distFromLastEvent<14.764823] yes=65,no=66,missing=66
						65:leaf=0.0230862182
						66:leaf=0.0683057159
				16:[angleChangeSpeed<41.6169128] yes=33,no=34,missing=33
					33:[lastEventTypeCode_missed-shot<1] yes=67,no=68,missing=68
						67:leaf=-0.0124406721
						68:leaf=0.0397792272
					34:[shotDistance<22.2036037] yes=69,no=70,missing=70
						69:leaf=0.0256633032
						70:leaf=0.0676751509
			8:[lastEventTypeCode_hit<1] yes=17,no=18,missing=18
				17:[shotType_backhand<1] yes=35,no=36,missing=36
					35:[lastEventTypeCode_takeaway<1] yes=71,no=72,missing=72
						71:leaf=0.0352253877
						72:leaf=0.00802574679
					36:[shotAngle<-37.9987335] yes=73,no=74,missing=74
						73:leaf=-0.0167324767
						74:leaf=0.0168713704
				18:[shotDistance<32.2024841] yes=37,no=38,missing=38
					37:[shotDistance<7.21110249] yes=75,no=76,missing=76
						75:leaf=0.0796603709
						76:leaf=-0.0622262992
					38:[xStd<59] yes=77,no=78,missing=78
						77:leaf=0.00116398197
						78:leaf=0.0922688693
		4:[shotAngle<50.7105942] yes=9,no=10,missing=10
			9:[shotAngle<-57.9946175] yes=19,no=20,missing=20
				19:[yStd<-23] yes=39,no=40,missing=40
					39:[defendingSkaters<4] yes=79,no=80,missing=80
						79:leaf=0.0665647238
						80:leaf=-0.0415154845
					40:[shotType_snap<1] yes=81,no=82,missing=82
						81:leaf=-0.0149832964
						82:leaf=0.0176856946
				20:[shotDistance<8.48528099] yes=41,no=42,missing=42
					41:[lastEventTypeCode_shot-on-goal<1] yes=83,no=84,missing=84
						83:leaf=0.0282279551
						84:leaf=0.00323559484
					42:[shotType_tip-in<1] yes=85,no=86,missing=86
						85:leaf=0.00571671082
						86:leaf=-0.0118809864
			10:[xStd<93] yes=21,no=22,missing=22
				21:[defendingSkaters<5] yes=43,no=44,missing=44
					43:[manAdvantage<2] yes=87,no=88,missing=88
						87:leaf=0.000411507965
						88:leaf=0.0581064261
					44:[yStd<13] yes=89,no=90,missing=90
						89:leaf=-0.0121363811
						90:leaf=-0.0377947539
				22:[shotDistance<19.0262985] yes=45,no=46,missing=46
					45:[distFromLastEvent<41.7851639] yes=91,no=92,missing=92
						91:leaf=0.0854553506
						92:leaf=0.187433615
					46:leaf=0.0375326648
	2:[goalieInNet<1] yes=5,no=6,missing=6
		5:[xStd<-20] yes=11,no=12,missing=12
			11:[manAdvantage<-1] yes=23,no=24,missing=24
				23:[speedFromLastEvent<1.57918561] yes=47,no=48,missing=48
					47:[shotAngle<1.1457628] yes=93,no=94,missing=94
						93:leaf=-0.072660327
						94:leaf=-0.02188663
					48:[shotAngle<-4.96974087] yes=95,no=96,missing=96
						95:leaf=0.0665931925
						96:leaf=-0.00812443811
				24:[distFromLastEvent<5.65685415] yes=49,no=50,missing=50
					49:leaf=-0.0388404392
					50:[distFromLastEvent<9.21954441] yes=97,no=98,missing=98
						97:leaf=0.131606609
						98:leaf=0.0505890809
			12:[xStd<-7] yes=25,no=26,missing=26
				25:[distFromLastEvent<38.2753181] yes=51,no=52,missing=52
					51:[shotAngle<10.491477] yes=99,no=100,missing=100
						99:leaf=0.0614222884
						100:leaf=-0.00821175892
					52:[speedFromLastEvent<2.57390761] yes=101,no=102,missing=102
						101:leaf=0.00806443114
						102:leaf=-0.0615412705
				26:[xStd<3] yes=53,no=54,missing=54
					53:[manAdvantage<-1] yes=103,no=104,missing=104
						103:leaf=-0.0687098652
						104:leaf=0.0684668049
					54:[distFromLastEvent<78.2623825] yes=105,no=106,missing=106
						105:leaf=0.00547711458
						106:leaf=0.0300360061
		6:[shotType_wrist<1] yes=13,no=14,missing=14
			13:[shotDistance<61.7170982] yes=27,no=28,missing=28
				27:[shotType_deflected<1] yes=55,no=56,missing=56
					55:[shotType_tip-in<1] yes=107,no=108,missing=108
						107:leaf=-0.012487215
						108:leaf=0.0736834109
					56:[yStd<-28] yes=109,no=110,missing=110
						109:leaf=-0.0230829623
						110:leaf=0.15103057
				28:[distFromLastEvent<132.442444] yes=57,no=58,missing=57
					57:[angleChangeSpeed<42.2940636] yes=111,no=112,missing=112
						111:leaf=0.0954088867
						112:leaf=-0.046972286
					58:[yStd<-14] yes=113,no=114,missing=114
						113:leaf=-0.0232020337
						114:leaf=0.114632927
			14:[yStd<19] yes=29,no=30,missing=30
				29:[yStd<-18] yes=59,no=60,missing=60
					59:[timeSinceLastEvent<4] yes=115,no=116,missing=116
						115:leaf=-0.00773488497
						116:leaf=-0.0460594594
					60:[xStd<-33] yes=117,no=118,missing=118
						117:leaf=0.077436395
						118:leaf=-0.0181944109
				30:[angleChangeSpeed<48.9451866] yes=61,no=62,missing=61
					61:[distFromLastEvent<54.9181213] yes=119,no=120,missing=120
						119:leaf=-0.0418382101
						120:leaf=-0.0546355806
					62:leaf=0.0842809081
booster[22]:
0:[shotDistance<24.083189] yes=1,no=2,missing=2
