booster[0]:
0:[shotDistance<22.5610275] yes=1,no=2,missing=2
	1:[timeSinceLastEvent<4] yes=3,no=4,missing=4
		3:[lastEventTypeCode_shot-on-goal<1] yes=7,no=8,missing=8
			7:[lastEventTypeCode_stoppage<1] yes=15,no=16,missing=16
				15:[lastEventTypeCode_nan<1] yes=29,no=30,missing=30
					29:[shotDistance<11.1803398] yes=53,no=54,missing=54
						53:leaf=0.288583845
						54:leaf=0.168079212
					30:[shotAngle<30.2564373] yes=55,no=56,missing=56
						55:leaf=0.117692158
						56:leaf=0.0032649457
				16:[shotDistance<5.09901953] yes=31,no=32,missing=32
					31:[defendingSkaters<5] yes=57,no=58,missing=58
						57:leaf=-0.0334397927
						58:leaf=0.258798748
					32:[shotDistance<10.1980391] yes=59,no=60,missing=60
						59:leaf=-0.00125380186
						60:leaf=-0.068715021
			8:[timeSinceLastEvent<1] yes=17,no=18,missing=18
				17:[distFromLastEvent<5] yes=33,no=34,missing=34
					33:[yStd<-4] yes=61,no=62,missing=62
						61:leaf=0.0802332014
						62:leaf=0.406991035
					34:[yStd<14] yes=63,no=64,missing=64
						63:leaf=0.618039608
						64:leaf=0.0581239983
				18:[timeSinceLastEvent<3] yes=35,no=36,missing=36
					35:[shotAngle<39.4006615] yes=65,no=66,missing=66
						65:leaf=0.320524931
						66:leaf=0.221422344
					36:[shotDistance<7.21110249] yes=67,no=68,missing=68
						67:leaf=0.293467104
						68:leaf=0.119822256
		4:[goalieInNet<1] yes=9,no=10,missing=10
			9:[shotAngle<65.5560455] yes=19,no=20,missing=20
				19:leaf=1.09723377
				20:leaf=0.235587731
			10:[shotDistance<10] yes=21,no=22,missing=22
				21:[shotAngle<40.1009064] yes=37,no=38,missing=38
					37:[shotDistance<7.6157732] yes=69,no=70,missing=70
						69:leaf=0.199787572
						70:leaf=0.128174409
					38:[shotType_wrap-around<1] yes=71,no=72,missing=72
						71:leaf=0.0678531155
						72:leaf=-0.04456608
				22:[shotAngle<46.080925] yes=39,no=40,missing=40
					39:[shotType_snap<1] yes=73,no=74,missing=74
						73:leaf=0.0369121432
						74:leaf=0.115865186
					40:[defendingSkaters<5] yes=75,no=76,missing=76
						75:leaf=0.0324830711
						76:leaf=-0.0264174044
	2:[goalieInNet<1] yes=5,no=6,missing=6
		5:[speedFromLastEvent<10.9516563] yes=11,no=12,missing=11
			11:[xStd<75] yes=23,no=24,missing=24
				23:[angleChangeSpeed<0.640039265] yes=41,no=42,missing=42
					41:[shotDistance<90.0777435] yes=77,no=78,missing=78
						77:leaf=0.101639755
						78:leaf=0.393769205
					42:[distFromLastEvent<149.164337] yes=79,no=80,missing=80
						79:leaf=0.661171198
						80:leaf=0.130985707
				24:[shotDistance<35.4682961] yes=43,no=44,missing=44
					43:leaf=0.0243119616
					44:leaf=-0.0334397927
			12:leaf=0.897079945
		6:[shotDistance<34.058773] yes=13,no=14,missing=14
			13:[shotAngle<50.7105942] yes=25,no=26,missing=26
				25:[timeSinceLastEvent<5] yes=45,no=46,missing=46
					45:[distFromLastEvent<3.1622777] yes=81,no=82,missing=81
						81:leaf=-0.0753739625
						82:leaf=0.0690058619
					46:[manAdvantage<1] yes=83,no=84,missing=84
						83:leaf=-0.0112402169
						84:leaf=0.0272567235
				26:[manAdvantage<1] yes=47,no=48,missing=48
					47:[timeSinceLastEvent<4] yes=85,no=86,missing=86
						85:leaf=-0.0242630467
						86:leaf=-0.0659351274
					48:[angleChangeSpeed<11.653017] yes=87,no=88,missing=87
						87:leaf=0.00555970334
						88:leaf=0.199456424
			14:[manAdvantage<1] yes=27,no=28,missing=28
				27:[timeSinceLastEvent<5] yes=49,no=50,missing=50
					49:[shotType_tip-in<1] yes=89,no=90,missing=90
						89:leaf=-0.0484316088
						90:leaf=0.276989281
					50:[shotDistance<40.6078796] yes=91,no=92,missing=92
						91:leaf=-0.0570833348
						92:leaf=-0.0742601529
				28:[shotType_tip-in<1] yes=51,no=52,missing=52
					51:[shotDistance<45.6070175] yes=93,no=94,missing=94
						93:leaf=-0.0103395414
						94:leaf=-0.044941023
					52:[shotDistance<43.8634262] yes=95,no=96,missing=96
						95:leaf=-0.0120466147
						96:leaf=0.420718014
booster[1]:
0:[shotDistance<21.0950222] yes=1,no=2,missing=2
	1:[timeSinceLastEvent<4] yes=3,no=4,missing=4
		3:[lastEventTypeCode_stoppage<1] yes=7,no=8,missing=8
			7:[lastEventTypeCode_nan<1] yes=15,no=16,missing=16
				15:[shotAngle<46.080925] yes=31,no=32,missing=32
					31:[shotDistance<7] yes=63,no=64,missing=64
						63:leaf=0.306818217
						64:leaf=0.195178494
					32:[shotDistance<4.47213602] yes=65,no=66,missing=66
						65:leaf=0.409464926
						66:leaf=0.124434933
				16:[shotAngle<25.2011242] yes=33,no=34,missing=34
					33:[timeSinceLastEvent<2] yes=67,no=68,missing=68
						67:leaf=0.04875011
						68:leaf=0.144979537
					34:[shotDistance<17.2626762] yes=69,no=70,missing=70
						69:leaf=0.0277481973
						70:leaf=-0.053428065
			8:[shotDistance<7.81024981] yes=17,no=18,missing=18
				17:[shotType_tip-in<1] yes=35,no=36,missing=36
					35:[shotDistance<4.47213602] yes=71,no=72,missing=72
						71:leaf=0.152761161
						72:leaf=-0.011955604
					36:leaf=0.259824783
				18:[shotAngle<3.57633448] yes=37,no=38,missing=38
					37:[shotType_wrist<1] yes=73,no=74,missing=74
						73:leaf=0.125496268
						74:leaf=-0.0528861545
					38:[timeSinceLastEvent<1] yes=75,no=76,missing=76
						75:leaf=-0.0650569573
						76:leaf=0.0361485668
		4:[shotAngle<46.080925] yes=9,no=10,missing=10
			9:[shotDistance<8.48528099] yes=19,no=20,missing=20
				19:[speedFromLastEvent<16.0312195] yes=39,no=40,missing=40
					39:[distFromLastEvent<11.7046995] yes=77,no=78,missing=78
						77:leaf=0.0332190804
						78:leaf=0.140937805
					40:[distFromLastEvent<178.619705] yes=79,no=80,missing=79
						79:leaf=0.297426999
						80:leaf=0.0893839225
				20:[goalieInNet<1] yes=41,no=42,missing=42
					41:[shotDistance<19.7989902] yes=81,no=82,missing=82
						81:leaf=0.416449428
						82:leaf=0.0180043336
					42:[speedFromLastEvent<20.248457] yes=83,no=84,missing=84
						83:leaf=0.0435832851
						84:leaf=0.154360637
			10:[manAdvantage<1] yes=21,no=22,missing=22
				21:[shotDistance<8] yes=43,no=44,missing=44
					43:[speedFromLastEvent<17.6918068] yes=85,no=86,missing=86
						85:leaf=0.017687032
						86:leaf=0.240264654
					44:[xStd<93] yes=87,no=88,missing=88
						87:leaf=-0.0215728208
						88:leaf=0.236236274
				22:[shotDistance<8.94427204] yes=45,no=46,missing=46
					45:[distFromLastEvent<11.7046995] yes=89,no=90,missing=89
						89:leaf=-0.0173500013
						90:leaf=0.111674473
					46:[manAdvantage<2] yes=91,no=92,missing=92
						91:leaf=0.0230603963
						92:leaf=0.141856492
	2:[goalieInNet<1] yes=5,no=6,missing=6
		5:[shotAngle<51.9529572] yes=11,no=12,missing=12
			11:[shotDistance<66.0378647] yes=23,no=24,missing=24
				23:[shotType_backhand<1] yes=47,no=48,missing=48
					47:[yStd<-36] yes=93,no=94,missing=94
						93:leaf=0.118811876
						94:leaf=0.469929159
					48:[xStd<47] yes=95,no=96,missing=96
						95:leaf=0.0319401063
						96:leaf=0.295456678
				24:[timeSinceLastEvent<8] yes=49,no=50,missing=50
					49:[defendingSkaters<6] yes=97,no=98,missing=98
						97:leaf=0.14047353
						98:leaf=0.435120732
					50:[timeSinceLastEvent<26] yes=99,no=100,missing=100
						99:leaf=0.235637605
						100:leaf=0.348683834
			12:[speedFromLastEvent<14.395215] yes=25,no=26,missing=26
				25:[speedFromLastEvent<9.2975502] yes=51,no=52,missing=52
					51:[timeSinceLastEvent<21] yes=101,no=102,missing=102
						101:leaf=0.186180115
						102:leaf=-0.0223304406
					52:leaf=-0.055475641
				26:[shotDistance<25.4558449] yes=53,no=54,missing=54
					53:leaf=0.0253615007
					54:leaf=0.306241333
		6:[shotDistance<31.764761] yes=13,no=14,missing=14
			13:[shotAngle<49.3987045] yes=27,no=28,missing=28
				27:[timeSinceLastEvent<4] yes=55,no=56,missing=56
					55:[lastEventTypeCode_shot-on-goal<1] yes=103,no=104,missing=104
						103:leaf=0.047964666
						104:leaf=0.175618649
					56:[shotType_snap<1] yes=105,no=106,missing=106
						105:leaf=-0.0039088768
						106:leaf=0.0366125256
				28:[manAdvantage<1] yes=57,no=58,missing=58
					57:[xStd<91] yes=107,no=108,missing=108
						107:leaf=-0.0520108603
						108:leaf=0.10343606
					58:[timeSinceLastEvent<4] yes=109,no=110,missing=110
						109:leaf=0.121508084
						110:leaf=0.00449391315
			14:[manAdvantage<1] yes=29,no=30,missing=30
				29:[shotDistance<39.2173424] yes=59,no=60,missing=60
					59:[shotAngle<40.4622269] yes=111,no=112,missing=112
						111:leaf=-0.0306580365
						112:leaf=-0.0647344291
					60:[timeSinceLastEvent<5] yes=113,no=114,missing=114
						113:leaf=-0.0505386665
						114:leaf=-0.0715525895
				30:[shotDistance<42.4499702] yes=61,no=62,missing=62
					61:[defendingSkaters<4] yes=115,no=116,missing=116
						115:leaf=0.0657960027
						116:leaf=-0.0093943486
					62:[shotType_tip-in<1] yes=117,no=118,missing=118
						117:leaf=-0.0383301042
						118:leaf=0.2458103
booster[2]:
0:[shotDistance<24.3310509] yes=1,no=2,missing=2
	1:[timeSinceLastEvent<4] yes=3,no=4,missing=4
		3:[lastEventTypeCode_stoppage<1] yes=7,no=8,missing=8
			7:[lastEventTypeCode_nan<1] yes=15,no=16,missing=16
				15:[speedFromLastEvent<366.742432] yes=31,no=32,missing=32
					31:[shotDistance<4.47213602] yes=63,no=64,missing=64
						63:leaf=0.31922245
						64:leaf=0.12816669
					32:[lastEventTypeCode_giveaway<1] yes=65,no=66,missing=66
						65:leaf=0.250990033
						66:leaf=0.0350045264
				16:[shotAngle<25.2011242] yes=33,no=34,missing=34
					33:[timeSinceLastEvent<2] yes=67,no=68,missing=68
						67:leaf=0.0215793233
						68:leaf=0.110095814
					34:[shotDistance<17.2626762] yes=69,no=70,missing=70
						69:leaf=0.0255272184
						70:leaf=-0.0318477601
			8:[shotDistance<5.09901953] yes=17,no=18,missing=18
				17:[defendingSkaters<5] yes=35,no=36,missing=36
					35:leaf=-0.0368099064
					36:[shotType_wrap-around<1] yes=71,no=72,missing=72
						71:leaf=0.174249858
						72:leaf=-0.0327003822
				18:[shotType_tip-in<1] yes=37,no=38,missing=38
					37:[timeSinceLastEvent<1] yes=73,no=74,missing=74
						73:leaf=-0.0681077838
						74:leaf=0.0655187592
					38:[shotDistance<10.4403067] yes=75,no=76,missing=76
						75:leaf=0.148373127
						76:leaf=-0.0315847434
		4:[shotAngle<46.080925] yes=9,no=10,missing=10
			9:[shotDistance<10.630146] yes=19,no=20,missing=20
				19:[speedFromLastEvent<16.0312195] yes=39,no=40,missing=40
					39:[shotDistance<6.3245554] yes=77,no=78,missing=78
						77:leaf=0.153896227
						78:leaf=0.0739328563
					40:[timeSinceLastEvent<6] yes=79,no=80,missing=80
						79:leaf=0.255286217
						80:leaf=0.15921697
				20:[goalieInNet<1] yes=41,no=42,missing=42
					41:[xStd<78] yes=81,no=82,missing=82
						81:leaf=0.295855492
						82:leaf=0.0670169517
					42:[shotType_snap<1] yes=83,no=84,missing=84
						83:leaf=0.0219613872
						84:leaf=0.0805019885
			10:[manAdvantage<1] yes=21,no=22,missing=22
				21:[shotDistance<15.2315464] yes=43,no=44,missing=44
					43:[speedFromLastEvent<17.6918068] yes=85,no=86,missing=85
						85:leaf=-1.37147954e-05
						86:leaf=0.0958839431
					44:[shotType_backhand<1] yes=87,no=88,missing=88
						87:leaf=-0.0289544351
						88:leaf=-0.0708563402
				22:[defendingSkaters<4] yes=45,no=46,missing=46
					45:[lastEventTypeCode_hit<1] yes=89,no=90,missing=90
						89:leaf=0.19135651
						90:leaf=0.0760013387
					46:[shotType_backhand<1] yes=91,no=92,missing=92
						91:leaf=0.0401363224
						92:leaf=-0.0364275016
	2:[goalieInNet<1] yes=5,no=6,missing=6
		5:[shotType_slap<1] yes=11,no=12,missing=12
			11:[shotAngle<67.6198654] yes=23,no=24,missing=24
				23:[shotDistance<35.227829] yes=47,no=48,missing=48
					47:[angleChangeSpeed<1.29964244] yes=93,no=94,missing=93
						93:leaf=0.364004463
						94:leaf=0.14351207
					48:[angleChangeSpeed<2.00045562] yes=95,no=96,missing=96
						95:leaf=0.355276376
						96:leaf=0.230384246
				24:[yStd<32] yes=49,no=50,missing=50
					49:leaf=-0.0556256063
					50:leaf=0.0727815479
			12:[xStd<16] yes=25,no=26,missing=26
				25:[shotAngle<11.8886576] yes=51,no=52,missing=52
					51:[speedFromLastEvent<4.21637011] yes=97,no=98,missing=98
						97:leaf=0.152747199
						98:leaf=-0.0481673107
					52:leaf=-0.0769817308
				26:[lastEventTypeCode_blocked-shot<1] yes=53,no=54,missing=54
					53:[distFromLastEvent<62.0966988] yes=99,no=100,missing=100
						99:leaf=0.0624456778
						100:leaf=0.218543127
					54:leaf=-0.0479115881
		6:[shotDistance<36.3593178] yes=13,no=14,missing=14
			13:[shotAngle<54.7824059] yes=27,no=28,missing=28
				27:[manAdvantage<1] yes=55,no=56,missing=56
					55:[timeSinceLastEvent<5] yes=101,no=102,missing=102
						101:leaf=0.0176590756
						102:leaf=-0.0212330557
					56:[timeSinceLastEvent<6] yes=103,no=104,missing=104
						103:leaf=0.0839132294
						104:leaf=0.0178341176
				28:[manAdvantage<1] yes=57,no=58,missing=58
					57:[timeSinceLastEvent<5] yes=105,no=106,missing=106
						105:leaf=-0.0364730097
						106:leaf=-0.0682995766
					58:[shotType_slap<1] yes=107,no=108,missing=108
						107:leaf=-0.028870305
						108:leaf=0.0401439518
			14:[manAdvantage<1] yes=29,no=30,missing=30
				29:[shotType_tip-in<1] yes=59,no=60,missing=60
					59:[timeSinceLastEvent<5] yes=109,no=110,missing=110
						109:leaf=-0.0448624752
						110:leaf=-0.0682153329
					60:[timeSinceLastEvent<6] yes=111,no=112,missing=112
						111:leaf=0.248707205
						112:leaf=0.0350464694
				30:[shotType_tip-in<1] yes=61,no=62,missing=62
					61:[shotDistance<46.3249397] yes=113,no=114,missing=114
						113:leaf=-0.0118729137
						114:leaf=-0.0400893055
					62:[distFromLastEvent<60.4152298] yes=115,no=116,missing=116
						115:leaf=0.212703139
						116:leaf=0.0391091779
booster[3]:
0:[shotDistance<25.6124973] yes=1,no=2,missing=2
	1:[timeSinceLastEvent<4] yes=3,no=4,missing=4
		3:[lastEventTypeCode_shot-on-goal<1] yes=7,no=8,missing=8
			7:[goalieInNet<1] yes=15,no=16,missing=16
				15:[shotDistance<21.2132034] yes=31,no=32,missing=32
					31:leaf=0.654765248
					32:[distFromLastEvent<20.2237492] yes=63,no=64,missing=64
						63:leaf=0.138140157
						64:leaf=0.0167731009
				16:[lastEventTypeCode_stoppage<1] yes=33,no=34,missing=34
					33:[shotDistance<17.0293865] yes=65,no=66,missing=66
						65:leaf=0.101050146
						66:leaf=0.0426935069
					34:[shotDistance<4.47213602] yes=67,no=68,missing=68
						67:leaf=0.13234815
						68:leaf=-0.0439441539
			8:[timeSinceLastEvent<3] yes=17,no=18,missing=18
				17:[speedFromLastEvent<62.0745506] yes=35,no=36,missing=36
					35:[timeSinceLastEvent<2] yes=69,no=70,missing=70
						69:leaf=0.108235918
						70:leaf=0.157114133
					36:[distFromLastEvent<14.8660688] yes=71,no=72,missing=72
						71:leaf=0.160534635
						72:leaf=0.249814719
				18:[shotDistance<7.6157732] yes=37,no=38,missing=38
					37:[angleChangeSpeed<0.837653458] yes=73,no=74,missing=74
						73:leaf=-0.0350702219
						74:leaf=0.158965304
					38:[speedFromLastEvent<1.70000005] yes=75,no=76,missing=76
						75:leaf=-0.0255036019
						76:leaf=0.0490382835
		4:[shotAngle<30.2564373] yes=9,no=10,missing=10
			9:[shotDistance<9.43398094] yes=19,no=20,missing=20
				19:[angleChangeSpeed<2.41209841] yes=39,no=40,missing=39
					39:[defendingSkaters<6] yes=77,no=78,missing=78
						77:leaf=0.101957329
						78:leaf=0.314240128
					40:[shotType_wrist<1] yes=79,no=80,missing=80
						79:leaf=0.0525918752
						80:leaf=-0.0381142683
				20:[goalieInNet<1] yes=41,no=42,missing=42
					41:leaf=0.245006353
					42:[speedFromLastEvent<17.3146152] yes=81,no=82,missing=82
						81:leaf=0.0331267305
						82:leaf=0.10458234
			10:[shotDistance<13.3416643] yes=21,no=22,missing=22
				21:[shotType_wrap-around<1] yes=43,no=44,missing=44
					43:[shotType_backhand<1] yes=83,no=84,missing=84
						83:leaf=0.0545678921
						84:leaf=-0.00451922417
					44:[speedFromLastEvent<15.453023] yes=85,no=86,missing=85
						85:leaf=-0.0514635332
						86:leaf=0.09083689
				22:[shotType_backhand<1] yes=45,no=46,missing=46
					45:[defendingSkaters<5] yes=87,no=88,missing=88
						87:leaf=0.0355894566
						88:leaf=-0.0136719719
					46:[xStd<91] yes=89,no=90,missing=90
						89:leaf=-0.0627404302
						90:leaf=0.121292762
	2:[goalieInNet<1] yes=5,no=6,missing=6
		5:[shotType_slap<1] yes=11,no=12,missing=12
			11:[timeSinceLastEvent<5] yes=23,no=24,missing=24
				23:[xStd<-73] yes=47,no=48,missing=48
					47:[xStd<-83] yes=91,no=92,missing=92
						91:leaf=0.11025364
						92:leaf=-0.050956361
					48:[shotAngle<46.080925] yes=93,no=94,missing=94
						93:leaf=0.258805305
						94:leaf=0.0832309872
				24:[distFromLastEvent<117.33712] yes=49,no=50,missing=50
					49:[timeSinceLastEvent<62] yes=95,no=96,missing=96
						95:leaf=0.174436316
						96:leaf=0.0225323103
					50:[angleChangeSpeed<3.40065742] yes=97,no=98,missing=97
						97:leaf=0.247377902
						98:leaf=0.0728086457
			12:[manAdvantage<-1] yes=25,no=26,missing=26
				25:[yStd<-29] yes=51,no=52,missing=52
					51:leaf=0.0196351018
					52:leaf=-0.0690060183
				26:[speedFromLastEvent<3.59010983] yes=53,no=54,missing=54
					53:[shotAngle<3.81407475] yes=99,no=100,missing=100
						99:leaf=0.000752368709
						100:leaf=0.262539566
					54:[speedFromLastEvent<5.83095169] yes=101,no=102,missing=101
						101:leaf=-0.0177037884
						102:leaf=0.107187279
		6:[shotDistance<37.5366478] yes=13,no=14,missing=14
			13:[shotAngle<51.1155052] yes=27,no=28,missing=28
				27:[timeSinceLastEvent<5] yes=55,no=56,missing=56
					55:[distFromLastEvent<147.085007] yes=103,no=104,missing=104
						103:leaf=0.0326345935
						104:leaf=-0.0864184424
					56:[manAdvantage<1] yes=105,no=106,missing=106
						105:leaf=-0.0224932153
						106:leaf=0.0108803064
				28:[manAdvantage<1] yes=57,no=58,missing=58
					57:[xStd<88] yes=107,no=108,missing=108
						107:leaf=-0.0647601634
						108:leaf=0.0191172659
					58:[shotType_wrist<1] yes=109,no=110,missing=110
						109:leaf=0.0203538164
						110:leaf=-0.0391415767
			14:[manAdvantage<1] yes=29,no=30,missing=30
				29:[timeSinceLastEvent<5] yes=59,no=60,missing=60
					59:[distFromLastEvent<162.086395] yes=111,no=112,missing=112
						111:leaf=-0.0399622172
						112:leaf=-0.0914292112
					60:[shotType_deflected<1] yes=113,no=114,missing=114
						113:leaf=-0.0675533265
						114:leaf=0.0938839763
				30:[shotAngle<9.46232224] yes=61,no=62,missing=62
					61:[xStd<-73] yes=115,no=116,missing=116
						115:leaf=0.172803625
						116:leaf=-0.0042539537
					62:[shotDistance<43.8634262] yes=117,no=118,missing=118
						117:leaf=-0.0142502282
						118:leaf=-0.0435358174
booster[4]:
0:[shotDistance<27.4590607] yes=1,no=2,missing=2
	1:[timeSinceLastEvent<5] yes=3,no=4,missing=4
		3:[lastEventTypeCode_nan<1] yes=7,no=8,missing=8
			7:[lastEventTypeCode_stoppage<1] yes=15,no=16,missing=16
				15:[shotAngle<26.9958382] yes=31,no=32,missing=32
					31:[distFromLastEvent<63.9061813] yes=63,no=64,missing=63
						63:leaf=0.108253278
						64:leaf=0.188566893
					32:[shotDistance<12.1655254] yes=65,no=66,missing=66
						65:leaf=0.0935838148
						66:leaf=0.0498518385
				16:[shotDistance<5.09901953] yes=33,no=34,missing=34
					33:[shotType_wrist<1] yes=67,no=68,missing=68
						67:leaf=0.00446280837
						68:leaf=0.135041788
					34:[shotAngle<3.36646056] yes=69,no=70,missing=70
						69:leaf=0.0448647961
						70:leaf=-0.0558113009
			8:[shotAngle<41.0548134] yes=17,no=18,missing=18
				17:[shotDistance<7.21110249] yes=35,no=36,missing=36
					35:[speedFromLastEvent<39.8120575] yes=71,no=72,missing=72
						71:leaf=0.197081119
						72:leaf=0.00297273067
					36:[distFromLastEvent<130.249756] yes=73,no=74,missing=74
						73:leaf=0.0295287855
						74:leaf=0.11607036
				18:[shotDistance<20.5912609] yes=37,no=38,missing=38
					37:[manAdvantage<1] yes=75,no=76,missing=76
						75:leaf=-0.0167234782
						76:leaf=0.0738126859
					38:[shotAngle<49.7636414] yes=77,no=78,missing=78
						77:leaf=-0.0344501473
						78:leaf=-0.0809281021
		4:[shotDistance<10.630146] yes=9,no=10,missing=10
			9:[shotType_wrap-around<1] yes=19,no=20,missing=20
				19:[shotDistance<5.09901953] yes=39,no=40,missing=40
					39:[speedFromLastEvent<8.50367546] yes=79,no=80,missing=80
						79:leaf=0.122946389
						80:leaf=0.240783811
					40:[shotAngle<61.9275131] yes=81,no=82,missing=82
						81:leaf=0.06358473
						82:leaf=0.00672433944
				20:[shotDistance<7] yes=41,no=42,missing=42
					41:[timeSinceLastEvent<30] yes=83,no=84,missing=84
						83:leaf=-0.0355651714
						84:leaf=0.0431102924
					42:[xStd<91] yes=85,no=86,missing=86
						85:leaf=-0.0673054978
						86:leaf=0.0424657166
			10:[shotAngle<29.8590164] yes=21,no=22,missing=22
				21:[shotType_snap<1] yes=43,no=44,missing=44
					43:[shotType_wrist<1] yes=87,no=88,missing=88
						87:leaf=-0.000654314004
						88:leaf=0.0433142409
					44:[yStd<5] yes=89,no=90,missing=90
						89:leaf=0.0864011794
						90:leaf=0.0265027676
				22:[shotType_backhand<1] yes=45,no=46,missing=46
					45:[shotAngle<61.9275131] yes=91,no=92,missing=92
						91:leaf=0.00729003409
						92:leaf=-0.0276029278
					46:[shotDistance<15.6524763] yes=93,no=94,missing=94
						93:leaf=-0.0383438244
						94:leaf=-0.0671161041
	2:[goalieInNet<1] yes=5,no=6,missing=6
		5:[distFromLastEvent<128.156158] yes=11,no=12,missing=11
			11:[timeSinceLastEvent<6] yes=23,no=24,missing=24
				23:[shotAngle<41.9872131] yes=47,no=48,missing=48
					47:[lastEventTypeCode_stoppage<1] yes=95,no=96,missing=96
						95:leaf=0.206149042
						96:leaf=-0.0361809917
					48:[speedFromLastEvent<14.395215] yes=97,no=98,missing=98
						97:leaf=-0.0312945507
						98:leaf=0.124151908
				24:[xStd<-21] yes=49,no=50,missing=50
					49:[speedFromLastEvent<0.933517873] yes=99,no=100,missing=100
						99:leaf=0.0702643543
						100:leaf=0.217831224
					50:[timeSinceLastEvent<15] yes=101,no=102,missing=102
						101:leaf=0.0994219407
						102:leaf=0.160329133
			12:[angleChangeSpeed<1.88903105] yes=25,no=26,missing=25
				25:[shotAngle<67.6198654] yes=51,no=52,missing=52
					51:[timeSinceLastEvent<48] yes=103,no=104,missing=104
						103:leaf=0.250088245
						104:leaf=0.053493645
					52:leaf=0.00393418502
				26:[timeSinceLastEvent<9] yes=53,no=54,missing=54
					53:leaf=0.0741538703
					54:leaf=-0.0409103706
		6:[shotDistance<38.1837654] yes=13,no=14,missing=14
			13:[shotAngle<54.4623222] yes=27,no=28,missing=28
				27:[shotType_wrist<1] yes=55,no=56,missing=56
					55:[shotType_backhand<1] yes=105,no=106,missing=106
						105:leaf=0.00844752509
						106:leaf=-0.0618692487
					56:[timeSinceLastEvent<4] yes=107,no=108,missing=108
						107:leaf=0.000685426174
						108:leaf=-0.0291039832
				28:[xStd<88] yes=57,no=58,missing=58
					57:[defendingSkaters<4] yes=109,no=110,missing=110
						109:leaf=0.0943038315
						110:leaf=-0.0624335855
					58:[timeSinceLastEvent<5] yes=111,no=112,missing=112
						111:leaf=0.150794894
						112:leaf=-0.00178013381
			14:[manAdvantage<1] yes=29,no=30,missing=30
				29:[timeSinceLastEvent<4] yes=59,no=60,missing=60
					59:[distFromLastEvent<156.706726] yes=113,no=114,missing=114
						113:leaf=-0.0290845707
						114:leaf=-0.091624625
					60:[shotType_tip-in<1] yes=115,no=116,missing=116
						115:leaf=-0.0653022155
						116:leaf=0.057805717
				30:[shotType_tip-in<1] yes=61,no=62,missing=62
					61:[shotType_deflected<1] yes=117,no=118,missing=118
						117:leaf=-0.0293965321
						118:leaf=0.211057499
					62:[shotDistance<43.8634262] yes=119,no=120,missing=120
						119:leaf=0.00317302998
						120:leaf=0.162795335
booster[5]:
0:[shotDistance<26.9258232] yes=1,no=2,missing=2
	1:[timeSinceLastEvent<5] yes=3,no=4,missing=4
		3:[lastEventTypeCode_nan<1] yes=7,no=8,missing=8
			7:[distFromLastEvent<174.269913] yes=15,no=16,missing=16
				15:[yStd<-5] yes=31,no=32,missing=32
					31:[angleChangeSpeed<21.1296043] yes=61,no=62,missing=61
						61:leaf=0.0401742607
						62:leaf=0.112232298
					32:[yStd<7] yes=63,no=64,missing=64
						63:leaf=0.0957572907
						64:leaf=0.0458683297
				16:[shotDistance<8.60232544] yes=33,no=34,missing=34
					33:[shotType_backhand<1] yes=65,no=66,missing=66
						65:leaf=0.050025437
						66:leaf=-0.0781790465
					34:[timeSinceLastEvent<1] yes=67,no=68,missing=68
						67:leaf=-0.0574861132
						68:leaf=0.0548496358
			8:[shotAngle<32.5740585] yes=17,no=18,missing=18
				17:[shotDistance<13.3416643] yes=35,no=36,missing=36
					35:[yStd<5] yes=69,no=70,missing=70
						69:leaf=0.0746658444
						70:leaf=-0.0168386623
					36:[shotType_tip-in<1] yes=71,no=72,missing=72
						71:leaf=0.037368983
						72:leaf=-0.0217567421
				18:[shotDistance<20.248457] yes=37,no=38,missing=38
					37:[shotType_wrap-around<1] yes=73,no=74,missing=74
						73:leaf=0.00866294187
						74:leaf=-0.0677439272
					38:[shotAngle<40.4622269] yes=75,no=76,missing=76
						75:leaf=-0.0187418982
						76:leaf=-0.0613695644
		4:[shotAngle<46.080925] yes=9,no=10,missing=10
			9:[shotDistance<9.48683262] yes=19,no=20,missing=20
				19:[goalieInNet<1] yes=39,no=40,missing=40
					39:leaf=0.253493816
					40:[shotType_wrap-around<1] yes=77,no=78,missing=78
						77:leaf=0.063409768
						78:leaf=-0.0430310853
				20:[goalieInNet<1] yes=41,no=42,missing=42
					41:[distFromLastEvent<53.7587204] yes=79,no=80,missing=80
						79:leaf=0.0827434808
						80:leaf=0.214012563
					42:[shotType_snap<1] yes=81,no=82,missing=82
						81:leaf=0.0136394398
						82:leaf=0.0579978116
			10:[shotDistance<15.2315464] yes=21,no=22,missing=22
				21:[shotType_wrap-around<1] yes=43,no=44,missing=44
					43:[shotDistance<8] yes=83,no=84,missing=84
						83:leaf=0.0572519116
						84:leaf=0.00094775972
					44:[manAdvantage<0] yes=85,no=86,missing=86
						85:leaf=0.149062812
						86:leaf=-0.0476974212
				22:[manAdvantage<1] yes=45,no=46,missing=46
					45:[shotType_backhand<1] yes=87,no=88,missing=88
						87:leaf=-0.0326734334
						88:leaf=-0.0687256828
					46:[defendingSkaters<4] yes=89,no=90,missing=90
						89:leaf=0.0601367652
						90:leaf=0.00881758332
	2:[goalieInNet<1] yes=5,no=6,missing=6
		5:[speedFromLastEvent<17] yes=11,no=12,missing=12
			11:[angleChangeSpeed<0.0410125963] yes=23,no=24,missing=23
				23:[xStd<25] yes=47,no=48,missing=48
					47:[timeSinceLastEvent<5] yes=91,no=92,missing=92
						91:leaf=0.154782787
						92:leaf=0.0857496858
					48:[lastEventTypeCode_blocked-shot<1] yes=93,no=94,missing=94
						93:leaf=0.155182227
						94:leaf=0.0705647394
				24:[shotType_wrist<1] yes=49,no=50,missing=50
					49:[xStd<44] yes=95,no=96,missing=96
						95:leaf=0.113542341
						96:leaf=-0.0283270646
					50:[speedFromLastEvent<16.0312195] yes=97,no=98,missing=98
						97:leaf=0.207725599
						98:leaf=0.0049043959
			12:[timeSinceLastEvent<8] yes=25,no=26,missing=26
				25:[lastEventTypeCode_stoppage<1] yes=51,no=52,missing=52
					51:[speedFromLastEvent<22.6384621] yes=99,no=100,missing=99
						99:leaf=0.206989557
						100:leaf=0.133823454
					52:leaf=-0.0410870425
				26:leaf=-0.0227507576
		6:[shotDistance<38.1837654] yes=13,no=14,missing=14
			13:[shotAngle<54.4623222] yes=27,no=28,missing=28
				27:[manAdvantage<1] yes=53,no=54,missing=54
					53:[speedFromLastEvent<10.7935162] yes=101,no=102,missing=101
						101:leaf=-0.0251218136
						102:leaf=0.00601062831
					54:[defendingSkaters<4] yes=103,no=104,missing=104
						103:leaf=0.096395731
						104:leaf=0.00867293123
				28:[manAdvantage<1] yes=55,no=56,missing=56
					55:[xStd<88] yes=105,no=106,missing=106
						105:leaf=-0.0649232045
						106:leaf=0.0205841325
					56:[shotDistance<33.941124] yes=107,no=108,missing=108
						107:leaf=0.00666618254
						108:leaf=-0.0542637147
			14:[manAdvantage<1] yes=29,no=30,missing=30
				29:[timeSinceLastEvent<5] yes=57,no=58,missing=58
					57:[shotType_tip-in<1] yes=109,no=110,missing=110
						109:leaf=-0.0417064913
						110:leaf=0.176105618
					58:[shotType_deflected<1] yes=111,no=112,missing=112
						111:leaf=-0.0638882443
						112:leaf=0.0790342093
				30:[shotDistance<46.3249397] yes=59,no=60,missing=60
					59:[yStd<-31] yes=113,no=114,missing=114
						113:leaf=-0.0802710056
						114:leaf=-0.00229402562
					60:[shotType_tip-in<1] yes=115,no=116,missing=116
						115:leaf=-0.0346859805
						116:leaf=0.113010362
booster[6]:
0:[shotDistance<30.2324333] yes=1,no=2,missing=2
	1:[timeSinceLastEvent<5] yes=3,no=4,missing=4
		3:[lastEventTypeCode_nan<1] yes=7,no=8,missing=8
			7:[distFromLastEvent<167.287186] yes=15,no=16,missing=16
				15:[goalieInNet<1] yes=31,no=32,missing=32
					31:[yStd<-13] yes=61,no=62,missing=62
						61:leaf=0.00406924495
						62:leaf=0.307554275
					32:[timeSinceLastEvent<3] yes=63,no=64,missing=64
						63:leaf=0.0745244995
						64:leaf=0.0435716398
				16:[shotDistance<9.89949512] yes=33,no=34,missing=34
					33:[shotType_deflected<1] yes=65,no=66,missing=66
						65:leaf=-0.00140903622
						66:leaf=0.192529768
					34:[timeSinceLastEvent<1] yes=67,no=68,missing=68
						67:leaf=-0.0620246381
						68:leaf=0.048878938
			8:[shotAngle<27.8972702] yes=17,no=18,missing=18
				17:[speedFromLastEvent<44.4184647] yes=35,no=36,missing=36
					35:[shotDistance<12.0415945] yes=69,no=70,missing=70
						69:leaf=0.081157878
						70:leaf=0.0324597135
					36:[distFromLastEvent<137.539078] yes=71,no=72,missing=72
						71:leaf=-0.0456463732
						72:leaf=0.0661228225
				18:[timeSinceLastEvent<2] yes=37,no=38,missing=38
					37:[shotAngle<46.080925] yes=73,no=74,missing=74
						73:leaf=-0.0208093114
						74:leaf=-0.0672436282
					38:[speedFromLastEvent<18.8709068] yes=75,no=76,missing=76
						75:leaf=-0.01593538
						76:leaf=0.0332147889
		4:[shotDistance<13.4536238] yes=9,no=10,missing=10
			9:[shotType_wrap-around<1] yes=19,no=20,missing=20
				19:[yStd<-6] yes=39,no=40,missing=40
					39:[shotType_snap<1] yes=77,no=78,missing=78
						77:leaf=-0.00443422608
						78:leaf=0.0639707148
					40:[shotDistance<7.6157732] yes=79,no=80,missing=80
						79:leaf=0.0687942654
						80:leaf=0.0356624797
				20:[shotDistance<7.21110249] yes=41,no=42,missing=42
					41:[manAdvantage<0] yes=81,no=82,missing=82
						81:leaf=0.12998341
						82:leaf=-0.0282011461
					42:[distFromLastEvent<164.347198] yes=83,no=84,missing=83
						83:leaf=-0.0629330054
						84:leaf=4.73094733e-05
			10:[shotAngle<54.4623222] yes=21,no=22,missing=22
				21:[shotType_snap<1] yes=43,no=44,missing=44
					43:[goalieInNet<1] yes=85,no=86,missing=86
						85:leaf=0.162622213
						86:leaf=-0.000490625738
					44:[shotAngle<12.7243557] yes=87,no=88,missing=88
						87:leaf=0.0692301765
						88:leaf=0.0271042995
				22:[defendingSkaters<5] yes=45,no=46,missing=46
					45:[manAdvantage<2] yes=89,no=90,missing=90
						89:leaf=-0.000558646745
						90:leaf=0.114561744
					46:[xStd<93] yes=91,no=92,missing=92
						91:leaf=-0.0439622886
						92:leaf=0.205031306
	2:[goalieInNet<1] yes=5,no=6,missing=6
		5:[manAdvantage<0] yes=11,no=12,missing=12
			11:[speedFromLastEvent<14.395215] yes=23,no=24,missing=24
				23:[xStd<-28] yes=47,no=48,missing=48
					47:[timeSinceLastEvent<22] yes=93,no=94,missing=94
						93:leaf=0.158455715
						94:leaf=0.0607891008
					48:[distFromLastEvent<86.6083145] yes=95,no=96,missing=96
						95:leaf=0.0667803735
						96:leaf=0.120953448
				24:[xStd<-66] yes=49,no=50,missing=50
					49:[xStd<-83] yes=97,no=98,missing=98
						97:leaf=0.0130820032
						98:leaf=-0.0454133153
					50:[shotAngle<19.3845158] yes=99,no=100,missing=100
						99:leaf=0.178304285
						100:leaf=0.115362845
			12:[shotType_slap<1] yes=25,no=26,missing=26
				25:[lastEventTypeCode_missed-shot<1] yes=51,no=52,missing=52
					51:[timeSinceLastEvent<30] yes=101,no=102,missing=102
						101:leaf=0.229137182
						102:leaf=0.0793463886
					52:leaf=-0.0143506126
				26:leaf=-0.041633334
		6:[shotDistance<43.1393089] yes=13,no=14,missing=14
			13:[shotAngle<43.7811241] yes=27,no=28,missing=28
				27:[shotType_wrist<1] yes=53,no=54,missing=54
					53:[timeSinceLastEvent<6] yes=103,no=104,missing=104
						103:leaf=0.0241810828
						104:leaf=-0.0106850965
					54:[timeSinceLastEvent<4] yes=105,no=106,missing=106
						105:leaf=-0.0017625147
						106:leaf=-0.0342844054
				28:[shotType_slap<1] yes=55,no=56,missing=56
					55:[shotType_deflected<1] yes=107,no=108,missing=108
						107:leaf=-0.0607208647
						108:leaf=0.147656545
					56:[shotDistance<32.6496544] yes=109,no=110,missing=110
						109:leaf=0.0349455923
						110:leaf=-0.0296688527
			14:[manAdvantage<1] yes=29,no=30,missing=30
				29:[shotType_tip-in<1] yes=57,no=58,missing=58
					57:[shotType_deflected<1] yes=111,no=112,missing=112
						111:leaf=-0.061514914
						112:leaf=0.0968830585
					58:[xStd<30] yes=113,no=114,missing=114
						113:leaf=-0.0217734929
						114:leaf=0.191643089
				30:[shotAngle<6.84277344] yes=59,no=60,missing=60
					59:[shotDistance<45.1774292] yes=115,no=116,missing=116
						115:leaf=0.0810920447
						116:leaf=-0.00813327543
					60:[timeSinceLastEvent<6] yes=117,no=118,missing=118
						117:leaf=-0.0067300396
						118:leaf=-0.0399203971
booster[7]:
0:[shotDistance<31.3847103] yes=1,no=2,missing=2
	1:[timeSinceLastEvent<5] yes=3,no=4,missing=4
		3:[manAdvantage<1] yes=7,no=8,missing=8
			7:[shotAngle<34.8244896] yes=15,no=16,missing=16
				15:[goalieInNet<1] yes=31,no=32,missing=32
					31:leaf=0.251410663
					32:[shotDistance<17.4928551] yes=63,no=64,missing=64
						63:leaf=0.0660429522
						64:leaf=0.0324433446
				16:[lastEventTypeCode_shot-on-goal<1] yes=33,no=34,missing=34
					33:[shotDistance<15.6524763] yes=65,no=66,missing=66
						65:leaf=0.0259588007
						66:leaf=-0.0105082849
					34:[angleChangeSpeed<51.3401909] yes=67,no=68,missing=68
						67:leaf=0.0322465599
						68:leaf=0.124422356
			8:[distFromLastEvent<65.1459885] yes=17,no=18,missing=18
				17:[angleChangeSpeed<14.9135427] yes=35,no=36,missing=36
					35:[shotType_backhand<1] yes=69,no=70,missing=70
						69:leaf=0.0668945685
						70:leaf=0.00388954603
					36:[lastEventTypeCode_missed-shot<1] yes=71,no=72,missing=72
						71:leaf=0.0925651565
						72:leaf=0.155865923
				18:[speedFromLastEvent<33.8378487] yes=37,no=38,missing=37
					37:[yStd<-11] yes=73,no=74,missing=74
						73:leaf=0.0200588349
						74:leaf=-0.0584126413
					38:[xStd<79] yes=75,no=76,missing=76
						75:leaf=-0.0270706844
						76:leaf=0.0919335559
		4:[shotDistance<13.6014709] yes=9,no=10,missing=10
			9:[shotAngle<60.9453964] yes=19,no=20,missing=20
				19:[goalieInNet<1] yes=39,no=40,missing=40
					39:[shotType_tip-in<1] yes=77,no=78,missing=78
						77:leaf=0.217106864
						78:leaf=0.0729223341
					40:[shotDistance<6.08276272] yes=79,no=80,missing=80
						79:leaf=0.0817109272
						80:leaf=0.0319743939
				20:[shotDistance<4.47213602] yes=41,no=42,missing=42
					41:[shotType_wrap-around<1] yes=81,no=82,missing=82
						81:leaf=0.200961158
						82:leaf=0.0152922189
					42:[defendingSkaters<4] yes=83,no=84,missing=84
						83:leaf=0.12389189
						84:leaf=-0.0100015644
			10:[shotAngle<50.7105942] yes=21,no=22,missing=22
				21:[shotType_backhand<1] yes=43,no=44,missing=44
					43:[shotType_tip-in<1] yes=85,no=86,missing=86
						85:leaf=0.0152002312
						86:leaf=-0.0197397526
					44:[shotDistance<21.2132034] yes=87,no=88,missing=88
						87:leaf=-0.0141669726
						88:leaf=-0.0579687096
				22:[manAdvantage<1] yes=45,no=46,missing=46
					45:[xStd<92] yes=89,no=90,missing=90
						89:leaf=-0.0400729552
						90:leaf=0.114891835
					46:[defendingSkaters<4] yes=91,no=92,missing=92
						91:leaf=0.0625874996
						92:leaf=0.00215667882
	2:[goalieInNet<1] yes=5,no=6,missing=6
		5:[manAdvantage<-1] yes=11,no=12,missing=12
			11:[shotAngle<5.0424509] yes=23,no=24,missing=24
				23:[speedFromLastEvent<9.17605591] yes=47,no=48,missing=48
					47:[lastEventTypeCode_blocked-shot<1] yes=93,no=94,missing=94
						93:leaf=-0.079887189
						94:leaf=0.0139171304
					48:leaf=0.0977913961
				24:[lastEventTypeCode_missed-shot<1] yes=49,no=50,missing=50
					49:[angleChangeSpeed<0.342725217] yes=95,no=96,missing=96
						95:leaf=-0.0415856056
						96:leaf=0.102868132
					50:[timeSinceLastEvent<10] yes=97,no=98,missing=98
						97:leaf=0.0616116524
						98:leaf=-0.0742476657
			12:[xStd<-20] yes=25,no=26,missing=26
				25:[timeSinceLastEvent<2] yes=51,no=52,missing=52
					51:[shotAngle<4.5739212] yes=99,no=100,missing=100
						99:leaf=-0.045979999
						100:leaf=0.0143112056
					52:[lastEventTypeCode_takeaway<1] yes=101,no=102,missing=102
						101:leaf=0.163633734
						102:leaf=0.0497405194
				26:[shotDistance<41.7731972] yes=53,no=54,missing=54
					53:[lastEventTypeCode_missed-shot<1] yes=103,no=104,missing=104
						103:leaf=0.159602657
						104:leaf=0.000368873676
					54:[xStd<59] yes=105,no=106,missing=106
						105:leaf=0.101565413
						106:leaf=-0.0366509967
		6:[manAdvantage<1] yes=13,no=14,missing=14
			13:[shotDistance<43.1393089] yes=27,no=28,missing=28
				27:[shotAngle<40.1009064] yes=55,no=56,missing=56
					55:[timeSinceLastEvent<5] yes=107,no=108,missing=108
						107:leaf=0.00367522729
						108:leaf=-0.0290095136
					56:[shotType_slap<1] yes=109,no=110,missing=110
						109:leaf=-0.0605078228
						110:leaf=-0.0300654974
				28:[timeSinceLastEvent<5] yes=57,no=58,missing=58
					57:[distFromLastEvent<162.086395] yes=111,no=112,missing=112
						111:leaf=-0.034936104
						112:leaf=-0.0898398235
					58:[shotType_deflected<1] yes=113,no=114,missing=114
						113:leaf=-0.0630704686
						114:leaf=0.0705222636
			14:[defendingSkaters<4] yes=29,no=30,missing=30
				29:[shotDistance<38.3275375] yes=59,no=60,missing=60
					59:[speedFromLastEvent<10.9516563] yes=115,no=116,missing=115
						115:leaf=0.070895575
						116:leaf=0.238578022
					60:[shotDistance<54.5893745] yes=117,no=118,missing=118
						117:leaf=0.00603522919
						118:leaf=0.0975664333
				30:[shotDistance<46.3249397] yes=61,no=62,missing=62
					61:[yStd<-31] yes=119,no=120,missing=120
						119:leaf=-0.0778013617
						120:leaf=-0.00453145755
					62:[shotType_tip-in<1] yes=121,no=122,missing=122
						121:leaf=-0.0316407047
						122:leaf=0.104452863
booster[8]:
0:[shotDistance<31.3847103] yes=1,no=2,missing=2
	1:[timeSinceLastEvent<4] yes=3,no=4,missing=4
		3:[lastEventTypeCode_stoppage<1] yes=7,no=8,missing=8
			7:[yStd<-5] yes=15,no=16,missing=16
				15:[lastEventTypeCode_nan<1] yes=31,no=32,missing=32
					31:[manAdvantage<2] yes=63,no=64,missing=64
						63:leaf=0.030570209
						64:leaf=0.180651546
					32:[speedFromLastEvent<36.3593178] yes=65,no=66,missing=66
						65:leaf=-0.00840560533
						66:leaf=-0.0602557547
				16:[yStd<8] yes=33,no=34,missing=34
					33:[lastEventTypeCode_missed-shot<1] yes=67,no=68,missing=68
						67:leaf=0.0622141585
						68:leaf=0.11651741
					34:[manAdvantage<1] yes=69,no=70,missing=70
						69:leaf=0.0109911691
						70:leaf=0.0808410645
			8:[shotDistance<5.83095169] yes=17,no=18,missing=18
				17:[xStd<85] yes=35,no=36,missing=36
					35:[shotType_tip-in<1] yes=71,no=72,missing=72
						71:leaf=-0.0388567708
						72:leaf=0.0704020634
					36:[shotType_wrap-around<1] yes=73,no=74,missing=74
						73:leaf=0.160483822
						74:leaf=-0.0453358889
				18:[shotAngle<3.36646056] yes=37,no=38,missing=38
					37:[shotDistance<19.235384] yes=75,no=76,missing=76
						75:leaf=0.100763731
						76:leaf=-0.0488905758
					38:[xStd<71] yes=77,no=78,missing=78
						77:leaf=-0.0901882425
						78:leaf=-0.0446124002
		4:[shotDistance<15.2315464] yes=9,no=10,missing=10
			9:[speedFromLastEvent<13.0384045] yes=19,no=20,missing=20
				19:[angleChangeSpeed<1.35513425] yes=39,no=40,missing=39
					39:[shotType_wrap-around<1] yes=79,no=80,missing=80
						79:leaf=0.0282730442
						80:leaf=-0.0363052823
					40:[manAdvantage<1] yes=81,no=82,missing=82
						81:leaf=-0.0226421747
						82:leaf=0.0128928153
				20:[timeSinceLastEvent<7] yes=41,no=42,missing=42
					41:[lastEventTypeCode_nan<1] yes=83,no=84,missing=84
						83:leaf=0.10782598
						84:leaf=0.043861486
					42:[shotType_wrist<1] yes=85,no=86,missing=86
						85:leaf=0.0264157671
						86:leaf=0.0650976673
			10:[shotAngle<46.080925] yes=21,no=22,missing=22
				21:[defendingSkaters<6] yes=43,no=44,missing=44
					43:[defendingSkaters<5] yes=87,no=88,missing=88
						87:leaf=0.0274379663
						88:leaf=-0.00044487117
					44:[shotDistance<30.4138126] yes=89,no=90,missing=90
						89:leaf=0.165416062
						90:leaf=-0.0111016687
				22:[manAdvantage<1] yes=45,no=46,missing=46
					45:[xStd<91] yes=91,no=92,missing=92
						91:leaf=-0.0363295935
						92:leaf=0.107265331
					46:[shotType_wrist<1] yes=93,no=94,missing=94
						93:leaf=0.0406432673
						94:leaf=-0.014133078
	2:[goalieInNet<1] yes=5,no=6,missing=6
		5:[shotDistance<35.4682961] yes=11,no=12,missing=12
			11:[lastEventTypeCode_missed-shot<1] yes=23,no=24,missing=24
				23:[lastEventTypeCode_nan<1] yes=47,no=48,missing=48
					47:leaf=0.168230206
					48:[timeSinceLastEvent<11] yes=95,no=96,missing=96
						95:leaf=0.0958760604
						96:leaf=-0.0225158855
				24:[shotAngle<43.0250664] yes=49,no=50,missing=50
					49:leaf=0.0718185604
					50:leaf=-0.0473193415
			12:[shotAngle<56.3099327] yes=25,no=26,missing=26
				25:[yStd<-35] yes=51,no=52,missing=52
					51:[shotDistance<56.7978859] yes=97,no=98,missing=98
						97:leaf=0.00585206784
						98:leaf=0.143700689
					52:[xStd<14] yes=99,no=100,missing=100
						99:leaf=0.0661766529
						100:leaf=0.0946193933
				26:[distFromLastEvent<131.244049] yes=53,no=54,missing=54
					53:[yStd<38] yes=101,no=102,missing=102
						101:leaf=-0.0768770725
						102:leaf=0.019165732
					54:[shotType_backhand<1] yes=103,no=104,missing=104
						103:leaf=0.0775149241
						104:leaf=0.00605879212
		6:[manAdvantage<1] yes=13,no=14,missing=14
			13:[shotDistance<43.6004601] yes=27,no=28,missing=28
				27:[shotAngle<37.476181] yes=55,no=56,missing=56
					55:[timeSinceLastEvent<4] yes=105,no=106,missing=106
						105:leaf=0.0159069281
						106:leaf=-0.0266629718
					56:[shotAngle<51.3401909] yes=107,no=108,missing=108
						107:leaf=-0.0422583446
						108:leaf=-0.0627021641
				28:[timeSinceLastEvent<6] yes=57,no=58,missing=58
					57:[shotType_tip-in<1] yes=109,no=110,missing=110
						109:leaf=-0.0417731553
						110:leaf=0.152812138
					58:[shotType_wrist<1] yes=111,no=112,missing=112
						111:leaf=-0.0559797511
						112:leaf=-0.0704093874
			14:[shotDistance<45.6070175] yes=29,no=30,missing=30
				29:[shotType_wrist<1] yes=59,no=60,missing=60
					59:[timeSinceLastEvent<5] yes=113,no=114,missing=114
						113:leaf=0.0628643557
						114:leaf=0.00696435012
					60:[shotAngle<51.3401909] yes=115,no=116,missing=116
						115:leaf=-0.0116507886
						116:leaf=-0.0650638267
				30:[shotType_tip-in<1] yes=61,no=62,missing=62
					61:[shotType_deflected<1] yes=117,no=118,missing=118
						117:leaf=-0.0291152447
						118:leaf=0.180029348
					62:[xStd<30] yes=119,no=120,missing=120
						119:leaf=-0.0118605336
						120:leaf=0.141219825
booster[9]:
0:[shotDistance<32.2024841] yes=1,no=2,missing=2
	1:[shotDistance<17.0293865] yes=3,no=4,missing=4
		3:[speedFromLastEvent<17.6918068] yes=7,no=8,missing=8
			7:[shotAngle<28.3007565] yes=15,no=16,missing=16
				15:[shotType_wrist<1] yes=31,no=32,missing=32
					31:[shotType_snap<1] yes=63,no=64,missing=64
						63:leaf=0.0206923988
						64:leaf=0.0640498027
					32:[goalieInNet<1] yes=65,no=66,missing=66
						65:leaf=0.175383836
						66:leaf=0.0519438609
				16:[shotType_snap<1] yes=33,no=34,missing=34
					33:[shotDistance<8.94427204] yes=67,no=68,missing=68
						67:leaf=0.0275635291
						68:leaf=-0.000845854869
					34:[defendingSkaters<5] yes=69,no=70,missing=70
						69:leaf=0.101245254
						70:leaf=0.0408743992
			8:[distFromLastEvent<178.619705] yes=17,no=18,missing=18
				17:[lastEventTypeCode_missed-shot<1] yes=35,no=36,missing=36
					35:[lastEventTypeCode_shot-on-goal<1] yes=71,no=72,missing=72
						71:leaf=0.0433706678
						72:leaf=0.0741468146
					36:[shotAngle<54.4623222] yes=73,no=74,missing=74
						73:leaf=0.15324235
						74:leaf=0.0615933388
				18:[shotType_backhand<1] yes=37,no=38,missing=38
					37:[shotAngle<1.06091166] yes=75,no=76,missing=76
						75:leaf=0.0964277983
						76:leaf=-0.00568763586
					38:[yStd<12] yes=77,no=78,missing=78
						77:leaf=-0.0623042248
						78:leaf=0.027472904
		4:[shotAngle<62.7838898] yes=9,no=10,missing=10
			9:[shotType_backhand<1] yes=19,no=20,missing=20
				19:[speedFromLastEvent<13.9160433] yes=39,no=40,missing=39
					39:[defendingSkaters<5] yes=79,no=80,missing=80
						79:leaf=0.0247025546
						80:leaf=1.34096408e-05
					40:[angleChangeSpeed<6.0369153] yes=81,no=82,missing=81
						81:leaf=0.0317206457
						82:leaf=0.104038708
				20:[shotAngle<26.9958382] yes=41,no=42,missing=42
					41:[shotDistance<20.5912609] yes=83,no=84,missing=84
						83:leaf=-0.00394098694
						84:leaf=-0.0344892293
					42:[shotDistance<19.0262985] yes=85,no=86,missing=86
						85:leaf=-0.0272846967
						86:leaf=-0.0632033572
			10:[manAdvantage<1] yes=21,no=22,missing=22
				21:[xStd<92] yes=43,no=44,missing=44
					43:[defendingSkaters<6] yes=87,no=88,missing=88
						87:leaf=-0.0485253036
						88:leaf=0.147385195
					44:[xStd<96] yes=89,no=90,missing=90
						89:leaf=0.150886789
						90:leaf=-0.0561161377
				22:[shotType_snap<1] yes=45,no=46,missing=46
					45:[speedFromLastEvent<1.03805697] yes=91,no=92,missing=91
						91:leaf=-0.0473079272
						92:leaf=0.00951307081
					46:[shotDistance<20.5912609] yes=93,no=94,missing=94
						93:leaf=0.150545433
						94:leaf=0.0286988132
	2:[goalieInNet<1] yes=5,no=6,missing=6
		5:[shotType_backhand<1] yes=11,no=12,missing=12
			11:[timeSinceLastEvent<6] yes=23,no=24,missing=24
				23:[shotAngle<41.9872131] yes=47,no=48,missing=48
					47:[shotAngle<3.57633448] yes=95,no=96,missing=96
						95:leaf=0.063908726
						96:leaf=0.128806338
					48:[speedFromLastEvent<14.395215] yes=97,no=98,missing=97
						97:leaf=-0.0743241459
						98:leaf=0.0687272698
				24:[manAdvantage<0] yes=49,no=50,missing=50
					49:[distFromLastEvent<123.975807] yes=99,no=100,missing=100
						99:leaf=0.061026603
						100:leaf=0.110734828
					50:[yStd<30] yes=101,no=102,missing=102
						101:leaf=0.165850788
						102:leaf=0.00861820485
			12:[shotAngle<9.16234684] yes=25,no=26,missing=26
				25:[shotDistance<90.0777435] yes=51,no=52,missing=52
					51:leaf=-0.0985394716
					52:[yStd<-1] yes=103,no=104,missing=104
						103:leaf=0.0737481341
						104:leaf=-0.0432346202
				26:[distFromLastEvent<53.7587204] yes=53,no=54,missing=54
					53:[xStd<48] yes=105,no=106,missing=106
						105:leaf=0.145267814
						106:leaf=-0.0136159807
					54:[speedFromLastEvent<11.0941429] yes=107,no=108,missing=108
						107:leaf=-0.0215864722
						108:leaf=0.0645239875
		6:[manAdvantage<1] yes=13,no=14,missing=14
			13:[shotDistance<43.1393089] yes=27,no=28,missing=28
				27:[shotAngle<48.6913872] yes=55,no=56,missing=56
					55:[shotType_wrist<1] yes=109,no=110,missing=110
						109:leaf=-0.010152109
						110:leaf=-0.0321160369
					56:[shotType_deflected<1] yes=111,no=112,missing=112
						111:leaf=-0.0608758219
						112:leaf=0.150354236
				28:[shotType_tip-in<1] yes=57,no=58,missing=58
					57:[timeSinceLastEvent<5] yes=113,no=114,missing=114
						113:leaf=-0.0381965376
						114:leaf=-0.0590482503
					58:[xStd<29] yes=115,no=116,missing=116
						115:leaf=-0.0102111781
						116:leaf=0.147713587
			14:[shotDistance<43.6004601] yes=29,no=30,missing=30
				29:[speedFromLastEvent<6.84689713] yes=59,no=60,missing=59
					59:[shotType_wrist<1] yes=117,no=118,missing=118
						117:leaf=0.00250723423
						118:leaf=-0.0241475888
					60:[distFromLastEvent<51.1566238] yes=119,no=120,missing=120
						119:leaf=0.0763678253
						120:leaf=-0.019738853
				30:[shotType_tip-in<1] yes=61,no=62,missing=62
					61:[shotAngle<9.46232224] yes=121,no=122,missing=122
						121:leaf=-0.00635390915
						122:leaf=-0.035750974
					62:[yStd<0] yes=123,no=124,missing=124
						123:leaf=0.173034534
						124:leaf=0.0410304666
booster[10]:
0:[shotDistance<29.0172367] yes=1,no=2,missing=2
	1:[timeSinceLastEvent<5] yes=3,no=4,missing=4
		3:[goalieInNet<1] yes=7,no=8,missing=8
			7:[yStd<-17] yes=15,no=16,missing=16
				15:leaf=0.00999876112
				16:[yStd<11] yes=31,no=32,missing=32
					31:[shotDistance<21.2132034] yes=61,no=62,missing=62
						61:leaf=0.237946361
						62:leaf=0.107716277
					32:[distFromLastEvent<71.2811356] yes=63,no=64,missing=64
						63:leaf=9.55219657e-05
						64:leaf=0.0630247965
			8:[shotDistance<4.47213602] yes=17,no=18,missing=18
				17:[shotType_wrap-around<1] yes=33,no=34,missing=34
					33:[xStd<86] yes=65,no=66,missing=66
						65:leaf=0.0852497965
						66:leaf=0.17805326
					34:[angleChangeSpeed<26.0006332] yes=67,no=68,missing=67
						67:leaf=-0.0521216467
						68:leaf=0.109363005
				18:[shotAngle<50.7105942] yes=35,no=36,missing=36
					35:[shotType_backhand<1] yes=69,no=70,missing=70
						69:leaf=0.0437045731
						70:leaf=0.0175544769
					36:[defendingSkaters<4] yes=71,no=72,missing=72
						71:leaf=0.155580834
						72:leaf=0.0111613302
		4:[shotAngle<26.9958382] yes=9,no=10,missing=10
			9:[distFromLastEvent<22.8035088] yes=19,no=20,missing=20
				19:[timeSinceLastEvent<11] yes=37,no=38,missing=38
					37:[manAdvantage<1] yes=73,no=74,missing=74
						73:leaf=-0.0197779983
						74:leaf=0.0280241873
					38:[shotType_deflected<1] yes=75,no=76,missing=76
						75:leaf=0.0207124054
						76:leaf=-0.0275014415
				20:[goalieInNet<1] yes=39,no=40,missing=40
					39:[shotDistance<25.6124973] yes=77,no=78,missing=78
						77:leaf=0.144264549
						78:leaf=-0.00660745846
					40:[shotType_wrist<1] yes=79,no=80,missing=80
						79:leaf=0.0202014018
						80:leaf=0.039956864
			10:[shotType_backhand<1] yes=21,no=22,missing=22
				21:[shotDistance<15.6524763] yes=41,no=42,missing=42
					41:[shotType_wrap-around<1] yes=81,no=82,missing=82
						81:leaf=0.0224857964
						82:leaf=-0.0400465801
					42:[shotType_wrist<1] yes=83,no=84,missing=84
						83:leaf=0.0125250863
						84:leaf=-0.0219444837
				22:[shotDistance<9.48683262] yes=43,no=44,missing=44
					43:[speedFromLastEvent<13.9160433] yes=85,no=86,missing=85
						85:leaf=-0.00668634754
						86:leaf=0.0716370791
					44:[goalieInNet<1] yes=87,no=88,missing=88
						87:leaf=0.0784206465
						88:leaf=-0.0500751771
	2:[goalieInNet<1] yes=5,no=6,missing=6
		5:[shotType_wrist<1] yes=11,no=12,missing=12
			11:[distFromLastEvent<17] yes=23,no=24,missing=24
				23:[yStd<15] yes=45,no=46,missing=46
					45:leaf=0.170174092
					46:[speedFromLastEvent<1.14681852] yes=89,no=90,missing=89
						89:leaf=-0.061856661
						90:leaf=0.109417811
				24:[speedFromLastEvent<4.93963575] yes=47,no=48,missing=48
					47:[distFromLastEvent<83.8152695] yes=91,no=92,missing=92
						91:leaf=0.0208100323
						92:leaf=0.123425081
					48:[speedFromLastEvent<13.9160433] yes=93,no=94,missing=93
						93:leaf=-0.0321133882
						94:leaf=0.0666295141
			12:[speedFromLastEvent<6.76756954] yes=25,no=26,missing=26
				25:[timeSinceLastEvent<25] yes=49,no=50,missing=50
					49:[timeSinceLastEvent<22] yes=95,no=96,missing=96
						95:leaf=0.0547619648
						96:leaf=-0.0196126495
					50:[timeSinceLastEvent<34] yes=97,no=98,missing=98
						97:leaf=0.116600923
						98:leaf=0.0604629517
				26:[shotAngle<42.6140556] yes=51,no=52,missing=52
					51:[distFromLastEvent<15.1327457] yes=99,no=100,missing=99
						99:leaf=-0.0308897793
						100:leaf=0.10410776
					52:[distFromLastEvent<106.381386] yes=101,no=102,missing=102
						101:leaf=-0.0438763835
						102:leaf=0.0820885077
		6:[shotDistance<39.6988678] yes=13,no=14,missing=14
			13:[shotAngle<54.4623222] yes=27,no=28,missing=28
				27:[shotType_wrist<1] yes=53,no=54,missing=54
					53:[shotType_backhand<1] yes=103,no=104,missing=104
						103:leaf=0.00663260138
						104:leaf=-0.0677864477
					54:[speedFromLastEvent<14.6439219] yes=105,no=106,missing=105
						105:leaf=-0.0269155651
						106:leaf=0.000484843011
				28:[xStd<88] yes=55,no=56,missing=56
					55:[distFromLastEvent<6.40312433] yes=107,no=108,missing=108
						107:leaf=0.0209563728
						108:leaf=-0.0552880131
					56:[yStd<31] yes=109,no=110,missing=110
						109:leaf=0.00217754301
						110:leaf=0.101754546
			14:[manAdvantage<1] yes=29,no=30,missing=30
				29:[shotType_tip-in<1] yes=57,no=58,missing=58
					57:[timeSinceLastEvent<4] yes=111,no=112,missing=112
						111:leaf=-0.0260888487
						112:leaf=-0.0544634052
					58:[xStd<29] yes=113,no=114,missing=114
						113:leaf=0.00103227445
						114:leaf=0.153350309
				30:[shotType_wrist<1] yes=59,no=60,missing=60
					59:[yStd<-10] yes=115,no=116,missing=116
						115:leaf=-0.0278935898
						116:leaf=-0.00380710908
					60:[xStd<-76] yes=117,no=118,missing=118
						117:leaf=0.152061433
						118:leaf=-0.0418066829
booster[11]:
0:[shotDistance<24.083189] yes=1,no=2,missing=2
	1:[shotAngle<61.9275131] yes=3,no=4,missing=4
		3:[shotDistance<8.06225777] yes=7,no=8,missing=8
			7:[shotDistance<5.09901953] yes=15,no=16,missing=16
				15:[shotType_wrap-around<1] yes=31,no=32,missing=32
					31:[xStd<86] yes=63,no=64,missing=64
						63:leaf=0.0803373456
						64:leaf=0.167931959
					32:[yStd<-3] yes=65,no=66,missing=66
						65:leaf=0.119290613
						66:leaf=-0.0417102687
				16:[speedFromLastEvent<7.01783419] yes=33,no=34,missing=34
					33:[defendingSkaters<5] yes=67,no=68,missing=68
						67:leaf=0.0557216629
						68:leaf=0.0192649569
					34:[timeSinceLastEvent<2] yes=69,no=70,missing=70
						69:leaf=0.0349765681
						70:leaf=0.0649731085
			8:[shotType_snap<1] yes=17,no=18,missing=18
				17:[shotType_wrist<1] yes=35,no=36,missing=36
					35:[shotType_slap<1] yes=71,no=72,missing=72
						71:leaf=-0.00184251706
						72:leaf=0.0489759259
					36:[speedFromLastEvent<13.0384045] yes=73,no=74,missing=74
						73:leaf=0.022216063
						74:leaf=0.0472104959
				18:[speedFromLastEvent<9.2975502] yes=37,no=38,missing=38
					37:[defendingSkaters<5] yes=75,no=76,missing=76
						75:leaf=0.0685894862
						76:leaf=0.0256107692
					38:[lastEventTypeCode_stoppage<1] yes=77,no=78,missing=78
						77:leaf=0.0658628047
						78:leaf=-0.0616489686
		4:[shotDistance<5.83095169] yes=9,no=10,missing=10
			9:[shotType_wrap-around<1] yes=19,no=20,missing=20
				19:[distFromLastEvent<4.12310553] yes=39,no=40,missing=40
					39:[shotDistance<4.47213602] yes=79,no=80,missing=80
						79:leaf=0.0753627047
						80:leaf=-0.0343231522
					40:[shotType_backhand<1] yes=81,no=82,missing=82
						81:leaf=0.116162084
						82:leaf=0.0345624536
				20:[timeSinceLastEvent<31] yes=41,no=42,missing=42
					41:[speedFromLastEvent<17.3146152] yes=83,no=84,missing=84
						83:leaf=-0.0535673611
						84:leaf=0.00380934868
					42:[shotAngle<69.2744446] yes=85,no=86,missing=86
						85:leaf=-0.0497439988
						86:leaf=0.109266669
			10:[defendingSkaters<4] yes=21,no=22,missing=22
				21:[shotAngle<68.1985931] yes=43,no=44,missing=44
					43:[shotAngle<66.8014069] yes=87,no=88,missing=88
						87:leaf=0.0518945456
						88:leaf=-0.0714612827
					44:[manAdvantage<2] yes=89,no=90,missing=90
						89:leaf=0.0137581369
						90:leaf=0.160594881
				22:[xStd<92] yes=45,no=46,missing=46
					45:[angleChangeSpeed<15.4818783] yes=91,no=92,missing=91
						91:leaf=-0.018676389
						92:leaf=0.0280488953
					46:[angleChangeSpeed<1.05751979] yes=93,no=94,missing=93
						93:leaf=0.15757823
						94:leaf=0.0263706557
	2:[goalieInNet<1] yes=5,no=6,missing=6
		5:[shotDistance<44.9110222] yes=11,no=12,missing=12
			11:[yStd<24] yes=23,no=24,missing=24
				23:[shotType_backhand<1] yes=47,no=48,missing=48
					47:[yStd<-36] yes=95,no=96,missing=96
						95:leaf=-0.0537224598
						96:leaf=0.1301651
					48:[distFromLastEvent<115.069542] yes=97,no=98,missing=98
						97:leaf=0.112188436
						98:leaf=-0.0499734953
				24:[distFromLastEvent<70.4343643] yes=49,no=50,missing=50
					49:[distFromLastEvent<62.6498222] yes=99,no=100,missing=100
						99:leaf=-0.0981580094
						100:leaf=-0.000330574228
					50:[shotDistance<34.7850533] yes=101,no=102,missing=102
						101:leaf=-0.0195616223
						102:leaf=0.125637978
			12:[timeSinceLastEvent<9] yes=25,no=26,missing=26
				25:[shotDistance<60.8358459] yes=51,no=52,missing=52
					51:[speedFromLastEvent<14.1499901] yes=103,no=104,missing=103
						103:leaf=-0.0531165078
						104:leaf=0.0675546452
					52:[shotType_slap<1] yes=105,no=106,missing=106
						105:leaf=0.0944280177
						106:leaf=0.0063819252
				26:[shotDistance<66.0378647] yes=53,no=54,missing=54
					53:[timeSinceLastEvent<10] yes=107,no=108,missing=108
						107:leaf=-0.046071887
						108:leaf=0.0831563845
					54:[yStd<-9] yes=109,no=110,missing=110
						109:leaf=0.0624635629
						110:leaf=0.0140373362
		6:[shotDistance<39.6988678] yes=13,no=14,missing=14
			13:[shotAngle<55.3048477] yes=27,no=28,missing=28
				27:[defendingSkaters<4] yes=55,no=56,missing=56
					55:[distFromLastEvent<50.8035431] yes=111,no=112,missing=112
						111:leaf=0.0889893994
						112:leaf=-0.0186214615
					56:[timeSinceLastEvent<6] yes=113,no=114,missing=114
						113:leaf=0.00881217141
						114:leaf=-0.0132260509
				28:[defendingSkaters<5] yes=57,no=58,missing=58
					57:[shotDistance<33.941124] yes=115,no=116,missing=116
						115:leaf=-0.00108239183
						116:leaf=-0.0577877797
					58:[timeSinceLastEvent<5] yes=117,no=118,missing=118
						117:leaf=-0.0208475571
						118:leaf=-0.056901779
			14:[manAdvantage<1] yes=29,no=30,missing=30
				29:[timeSinceLastEvent<5] yes=59,no=60,missing=60
					59:[distFromLastEvent<6] yes=119,no=120,missing=119
						119:leaf=-0.0837467089
						120:leaf=-0.0237718765
					60:[shotType_tip-in<1] yes=121,no=122,missing=122
						121:leaf=-0.0528710261
						122:leaf=0.053703092
				30:[shotAngle<10.2221689] yes=61,no=62,missing=62
					61:[timeSinceLastEvent<12] yes=123,no=124,missing=124
						123:leaf=0.0246613324
						124:leaf=-0.00616443576
					62:[shotDistance<46.3249397] yes=125,no=126,missing=126
						125:leaf=-0.00678565446
						126:leaf=-0.0297428444
booster[12]:
0:[shotDistance<32.9848442] yes=1,no=2,missing=2
	1:[shotDistance<17.0293865] yes=3,no=4,missing=4
		3:[goalieInNet<1] yes=7,no=8,missing=8
			7:[shotType_tip-in<1] yes=15,no=16,missing=16
				15:[yStd<10] yes=31,no=32,missing=32
					31:[shotAngle<47.8624039] yes=63,no=64,missing=64
						63:leaf=0.161201164
						64:leaf=0.253578275
					32:leaf=0.000375450589
				16:[yStd<-1] yes=33,no=34,missing=34
					33:[shotAngle<26.9958382] yes=65,no=66,missing=66
						65:leaf=-0.0697989464
						66:leaf=-0.00254016346
					34:leaf=0.104482874
			8:[timeSinceLastEvent<3] yes=17,no=18,missing=18
				17:[timeSinceLastEvent<2] yes=35,no=36,missing=36
					35:[lastEventTypeCode_missed-shot<1] yes=67,no=68,missing=68
						67:leaf=0.0242685191
						68:leaf=0.0839995295
					36:[shotDistance<7.21110249] yes=69,no=70,missing=70
						69:leaf=0.0760017708
						70:leaf=0.0423467793
				18:[speedFromLastEvent<17.6918068] yes=37,no=38,missing=38
					37:[yStd<-5] yes=71,no=72,missing=72
						71:leaf=-0.0041616559
						72:leaf=0.0182319786
					38:[shotAngle<4.5739212] yes=73,no=74,missing=74
						73:leaf=0.110604085
						74:leaf=0.046692837
		4:[shotType_backhand<1] yes=9,no=10,missing=10
			9:[shotAngle<17.1759033] yes=19,no=20,missing=20
				19:[shotType_tip-in<1] yes=39,no=40,missing=40
					39:[shotType_deflected<1] yes=75,no=76,missing=76
						75:leaf=0.0287415367
						76:leaf=-0.0185917728
					40:[timeSinceLastEvent<9] yes=77,no=78,missing=78
						77:leaf=0.00847445428
						78:leaf=-0.0322644077
				20:[defendingSkaters<5] yes=41,no=42,missing=42
					41:[timeSinceLastEvent<8] yes=79,no=80,missing=80
						79:leaf=0.0503305979
						80:leaf=0.00709266262
					42:[goalieInNet<1] yes=81,no=82,missing=82
						81:leaf=0.131463706
						82:leaf=-0.0117172375
			10:[goalieInNet<1] yes=21,no=22,missing=22
				21:[yStd<18] yes=43,no=44,missing=44
					43:[shotAngle<24.2744408] yes=83,no=84,missing=84
						83:leaf=0.00185598875
						84:leaf=0.157679409
					44:[shotDistance<30.4138126] yes=85,no=86,missing=86
						85:leaf=-0.0473351926
						86:leaf=0.00498260325
				22:[shotAngle<20.9245014] yes=45,no=46,missing=46
					45:[speedFromLastEvent<51] yes=87,no=88,missing=88
						87:leaf=-0.0295097139
						88:leaf=0.074313052
					46:[xStd<90] yes=89,no=90,missing=90
						89:leaf=-0.0555596724
						90:leaf=0.0800472945
	2:[goalieInNet<1] yes=5,no=6,missing=6
		5:[speedFromLastEvent<17] yes=11,no=12,missing=11
			11:[distFromLastEvent<127.121986] yes=23,no=24,missing=23
				23:[xStd<-20] yes=47,no=48,missing=48
					47:[speedFromLastEvent<3.89310288] yes=91,no=92,missing=91
						91:leaf=0.0469344482
						92:leaf=0.104875289
					48:[xStd<14] yes=93,no=94,missing=94
						93:leaf=0.017148938
						94:leaf=0.0518879108
				24:[yStd<-27] yes=49,no=50,missing=50
					49:[timeSinceLastEvent<14] yes=95,no=96,missing=96
						95:leaf=-0.0643675998
						96:leaf=0.0949924961
					50:[manAdvantage<-1] yes=97,no=98,missing=98
						97:leaf=-0.00280022528
						98:leaf=0.133875579
			12:[shotType_backhand<1] yes=25,no=26,missing=26
				25:[xStd<59] yes=51,no=52,missing=52
					51:[angleChangeSpeed<4.59193182] yes=99,no=100,missing=99
						99:leaf=0.1108227
						100:leaf=-0.00887426548
					52:[distFromLastEvent<106.381386] yes=101,no=102,missing=102
						101:leaf=-0.0786594078
						102:leaf=0.103951931
				26:[xStd<41] yes=53,no=54,missing=54
					53:[speedFromLastEvent<18.8709068] yes=103,no=104,missing=104
						103:leaf=0.0265515111
						104:leaf=-0.0906115025
					54:leaf=0.0945535749
		6:[manAdvantage<1] yes=13,no=14,missing=14
			13:[timeSinceLastEvent<5] yes=27,no=28,missing=28
				27:[distFromLastEvent<170.496338] yes=55,no=56,missing=56
					55:[lastEventTypeCode_nan<1] yes=105,no=106,missing=106
						105:leaf=-0.0052474211
						106:leaf=-0.0501726903
					56:[shotType_tip-in<1] yes=107,no=108,missing=108
						107:leaf=-0.0911309868
						108:leaf=-0.00779168308
				28:[shotDistance<46.615448] yes=57,no=58,missing=58
					57:[shotAngle<34.9920197] yes=109,no=110,missing=110
						109:leaf=-0.0237189606
						110:leaf=-0.0511128791
					58:[shotType_tip-in<1] yes=111,no=112,missing=112
						111:leaf=-0.0563174337
						112:leaf=0.0396619178
			14:[shotType_deflected<1] yes=29,no=30,missing=30
				29:[defendingSkaters<4] yes=59,no=60,missing=60
					59:[speedFromLastEvent<5.83095169] yes=113,no=114,missing=113
						113:leaf=0.0209648032
						114:leaf=0.0859990641
					60:[timeSinceLastEvent<5] yes=115,no=116,missing=116
						115:leaf=0.0152980192
						116:leaf=-0.0174035989
				30:[lastEventTypeCode_giveaway<1] yes=61,no=62,missing=62
					61:[angleChangeSpeed<0.722366273] yes=117,no=118,missing=117
						117:leaf=0.241638795
						118:leaf=0.00941134617
					62:leaf=-0.035645768
booster[13]:
0:[shotDistance<33.1209908] yes=1,no=2,missing=2
	1:[timeSinceLastEvent<5] yes=3,no=4,missing=4
		3:[distFromLastEvent<2] yes=7,no=8,missing=7
			7:[shotDistance<23.086792] yes=15,no=16,missing=16
				15:[shotAngle<4.08561659] yes=31,no=32,missing=32
					31:[shotType_backhand<1] yes=63,no=64,missing=64
						63:leaf=0.0755715594
						64:leaf=-0.0328834541
					32:[shotDistance<4.47213602] yes=65,no=66,missing=66
						65:leaf=0.0436707623
						66:leaf=-0.0212571491
				16:[speedFromLastEvent<0.681818187] yes=33,no=34,missing=33
					33:[shotType_tip-in<1] yes=67,no=68,missing=68
						67:leaf=-0.0885157138
						68:leaf=0.00426923903
					34:[shotDistance<29.0172367] yes=69,no=70,missing=70
						69:leaf=-0.0675425231
						70:leaf=0.0786187872
			8:[lastEventTypeCode_nan<1] yes=17,no=18,missing=18
				17:[speedFromLastEvent<0.559017003] yes=35,no=36,missing=35
					35:[lastEventTypeCode_takeaway<1] yes=71,no=72,missing=72
						71:leaf=0.0761899054
						72:leaf=-0.0328968205
					36:[shotType_backhand<1] yes=73,no=74,missing=74
						73:leaf=0.0322537497
						74:leaf=0.00932308007
				18:[shotAngle<48.6913872] yes=37,no=38,missing=38
					37:[shotDistance<8.60232544] yes=75,no=76,missing=76
						75:leaf=0.0523138754
						76:leaf=-0.000183201104
					38:[shotDistance<17.8885441] yes=77,no=78,missing=78
						77:leaf=-0.0159661192
						78:leaf=-0.0557954051
		4:[shotAngle<61.9275131] yes=9,no=10,missing=10
			9:[shotDistance<10.630146] yes=19,no=20,missing=20
				19:[shotType_wrap-around<1] yes=39,no=40,missing=40
					39:[distFromLastEvent<20.8806133] yes=79,no=80,missing=80
						79:leaf=0.00353690796
						80:leaf=0.030683998
					40:[speedFromLastEvent<4.56070185] yes=81,no=82,missing=82
						81:leaf=-0.021311583
						82:leaf=-0.0791295245
				20:[shotType_snap<1] yes=41,no=42,missing=42
					41:[goalieInNet<1] yes=83,no=84,missing=84
						83:leaf=0.100018203
						84:leaf=-0.00168996502
					42:[speedFromLastEvent<20.7966347] yes=85,no=86,missing=85
						85:leaf=0.0209483057
						86:leaf=0.0941543132
			10:[shotDistance<20.248457] yes=21,no=22,missing=22
				21:[defendingSkaters<6] yes=43,no=44,missing=44
					43:[xStd<91] yes=87,no=88,missing=88
						87:leaf=-0.0156034809
						88:leaf=0.101671897
					44:[distFromLastEvent<158.268753] yes=89,no=90,missing=90
						89:leaf=0.294567972
						90:leaf=0.0243803728
				22:[manAdvantage<2] yes=45,no=46,missing=46
					45:[xStd<74] yes=91,no=92,missing=92
						91:leaf=0.0449268594
						92:leaf=-0.0448552333
					46:[lastEventTypeCode_shot-on-goal<1] yes=93,no=94,missing=94
						93:leaf=0.0873220414
						94:leaf=-0.055352997
	2:[goalieInNet<1] yes=5,no=6,missing=6
		5:[shotType_slap<1] yes=11,no=12,missing=12
			11:[shotType_backhand<1] yes=23,no=24,missing=24
				23:[shotDistance<63.2850685] yes=47,no=48,missing=48
					47:[shotAngle<36.1581841] yes=95,no=96,missing=96
						95:leaf=0.0945864692
						96:leaf=0.0416507237
					48:[timeSinceLastEvent<8] yes=97,no=98,missing=98
						97:leaf=0.0696190149
						98:leaf=0.0380157754
				24:[shotAngle<9.46232224] yes=49,no=50,missing=50
					49:[xStd<-66] yes=99,no=100,missing=100
						99:leaf=0.0640694797
						100:leaf=-0.0906420872
					50:[shotAngle<18.7586498] yes=101,no=102,missing=102
						101:leaf=0.106933981
						102:leaf=0.011269941
			12:[manAdvantage<-1] yes=25,no=26,missing=26
				25:[xStd<-80] yes=51,no=52,missing=52
					51:leaf=0.0103873201
					52:leaf=-0.0873500183
				26:[lastEventTypeCode_missed-shot<1] yes=53,no=54,missing=54
					53:[yStd<-3] yes=103,no=104,missing=104
						103:leaf=0.0897974521
						104:leaf=0.00477200188
					54:leaf=-0.0745771527
		6:[manAdvantage<1] yes=13,no=14,missing=14
			13:[shotAngle<9.46232224] yes=27,no=28,missing=28
				27:[angleChangeSpeed<4.66765261] yes=55,no=56,missing=55
					55:[shotDistance<54.0092583] yes=105,no=106,missing=106
						105:leaf=-0.00464413734
						106:leaf=-0.0369659439
					56:[shotAngle<3.36646056] yes=107,no=108,missing=108
						107:leaf=0.206339613
						108:leaf=0.0227555372
				28:[speedFromLastEvent<10.3387079] yes=57,no=58,missing=57
					57:[shotType_deflected<1] yes=109,no=110,missing=110
						109:leaf=-0.0488749258
						110:leaf=0.1003398
					58:[shotDistance<42.6380119] yes=111,no=112,missing=112
						111:leaf=-0.0111846924
						112:leaf=-0.0374391563
			14:[yStd<-29] yes=29,no=30,missing=30
				29:[lastEventTypeCode_takeaway<1] yes=59,no=60,missing=60
					59:[shotDistance<33.941124] yes=113,no=114,missing=114
						113:leaf=0.0642875731
						114:leaf=-0.0595445707
					60:[shotType_wrist<1] yes=115,no=116,missing=116
						115:leaf=0.0881931633
						116:leaf=-0.0541147739
				30:[timeSinceLastEvent<7] yes=61,no=62,missing=62
					61:[distFromLastEvent<59.9416389] yes=117,no=118,missing=118
						117:leaf=0.0238350052
						118:leaf=-0.0421524756
					62:[shotDistance<46.3249397] yes=119,no=120,missing=120
						119:leaf=-0.00334208761
						120:leaf=-0.0233209301
booster[14]:
0:[shotDistance<24.3310509] yes=1,no=2,missing=2
	1:[goalieInNet<1] yes=3,no=4,missing=4
		3:[shotType_slap<1] yes=7,no=8,missing=8
			7:[shotType_tip-in<1] yes=15,no=16,missing=16
				15:[yStd<10] yes=29,no=30,missing=30
					29:[shotAngle<27.8972702] yes=57,no=58,missing=58
						57:leaf=0.135315731
						58:leaf=0.200826809
					30:[shotDistance<18.8679619] yes=59,no=60,missing=60
						59:leaf=-0.0154333226
						60:leaf=0.107230149
				16:[yStd<-2] yes=31,no=32,missing=32
					31:[shotDistance<9.48683262] yes=61,no=62,missing=62
						61:leaf=0.00280134566
						62:leaf=-0.0605771616
					32:leaf=0.101687938
			8:leaf=-0.0562336817
		4:[shotAngle<20.6744251] yes=9,no=10,missing=10
			9:[shotType_wrist<1] yes=17,no=18,missing=18
				17:[shotType_snap<1] yes=33,no=34,missing=34
					33:[shotDistance<10.1980391] yes=63,no=64,missing=64
						63:leaf=0.0304646976
						64:leaf=0.00191271806
					34:[distFromLastEvent<148.124954] yes=65,no=66,missing=65
						65:leaf=0.0366613343
						66:leaf=0.090357773
				18:[distFromLastEvent<58.3095207] yes=35,no=36,missing=35
					35:[timeSinceLastEvent<3] yes=67,no=68,missing=68
						67:leaf=0.0395209417
						68:leaf=0.017732162
					36:[speedFromLastEvent<1.20185041] yes=69,no=70,missing=69
						69:leaf=0.16331853
						70:leaf=0.0457010902
			10:[shotDistance<9.05538559] yes=19,no=20,missing=20
				19:[shotType_wrap-around<1] yes=37,no=38,missing=38
					37:[shotDistance<4.47213602] yes=71,no=72,missing=72
						71:leaf=0.0919123143
						72:leaf=0.0262631215
					38:[distFromLastEvent<170.496338] yes=73,no=74,missing=73
						73:leaf=-0.0371699147
						74:leaf=0.0604597256
				20:[shotType_snap<1] yes=39,no=40,missing=40
					39:[shotType_wrist<1] yes=75,no=76,missing=76
						75:leaf=-0.0163041241
						76:leaf=0.00414633052
					40:[defendingSkaters<5] yes=77,no=78,missing=78
						77:leaf=0.0541035347
						78:leaf=0.0171394907
	2:[goalieInNet<1] yes=5,no=6,missing=6
		5:[timeSinceLastEvent<9] yes=11,no=12,missing=12
			11:[shotDistance<34.2052612] yes=21,no=22,missing=22
				21:[yStd<18] yes=41,no=42,missing=42
					41:[shotDistance<25.0798721] yes=79,no=80,missing=80
						79:leaf=0.00421390776
						80:leaf=0.136000082
					42:leaf=-0.00361507526
				22:[shotDistance<54.3783035] yes=43,no=44,missing=44
					43:[shotDistance<49.0102043] yes=81,no=82,missing=82
						81:leaf=0.0494635589
						82:leaf=-0.0940910876
					44:[distFromLastEvent<111.462997] yes=83,no=84,missing=84
						83:leaf=0.0739153326
						84:leaf=0.00233046571
			12:[manAdvantage<-1] yes=23,no=24,missing=24
				23:[yStd<23] yes=45,no=46,missing=46
					45:[xStd<21] yes=85,no=86,missing=86
						85:leaf=0.0469836295
						86:leaf=-0.0626172498
					46:[shotDistance<74.793045] yes=87,no=88,missing=88
						87:leaf=-0.00111402909
						88:leaf=-0.100279786
				24:[distFromLastEvent<112.729767] yes=47,no=48,missing=48
					47:[yStd<12] yes=89,no=90,missing=90
						89:leaf=0.046217598
						90:leaf=0.0131709827
					48:[shotAngle<2.29061007] yes=91,no=92,missing=92
						91:leaf=-0.0644238666
						92:leaf=0.0738704726
		6:[shotDistance<39.2173424] yes=13,no=14,missing=14
			13:[shotAngle<54.4623222] yes=25,no=26,missing=26
				25:[shotType_wrist<1] yes=49,no=50,missing=50
					49:[shotType_backhand<1] yes=93,no=94,missing=94
						93:leaf=0.0104790805
						94:leaf=-0.0549654439
					50:[shotAngle<35.2724228] yes=95,no=96,missing=96
						95:leaf=-0.00980094261
						96:leaf=-0.0289185122
				26:[manAdvantage<1] yes=51,no=52,missing=52
					51:[xStd<88] yes=97,no=98,missing=98
						97:leaf=-0.0478293225
						98:leaf=0.0259544197
					52:[shotDistance<31.0161247] yes=99,no=100,missing=100
						99:leaf=0.0138282152
						100:leaf=-0.0413727984
			14:[shotType_wrist<1] yes=27,no=28,missing=28
				27:[shotType_tip-in<1] yes=53,no=54,missing=54
					53:[shotDistance<61.7170982] yes=101,no=102,missing=102
						101:leaf=-0.0223636348
						102:leaf=-0.0562671423
					54:[shotAngle<27.7585411] yes=103,no=104,missing=104
						103:leaf=0.05968301
						104:leaf=0.175443903
				28:[xStd<-75] yes=55,no=56,missing=56
					55:[shotAngle<2.48955297] yes=105,no=106,missing=106
						105:leaf=0.354362518
						106:leaf=-0.0275382865
					56:[distFromLastEvent<53.7587204] yes=107,no=108,missing=108
						107:leaf=-0.0422796346
						108:leaf=-0.0590966381
booster[15]:
0:[shotDistance<31.3847103] yes=1,no=2,missing=2
	1:[shotDistance<12.0415945] yes=3,no=4,missing=4
		3:[shotType_wrap-around<1] yes=7,no=8,missing=8
			7:[shotDistance<6.08276272] yes=15,no=16,missing=16
				15:[shotType_tip-in<1] yes=31,no=32,missing=32
					31:[speedFromLastEvent<7.01783419] yes=63,no=64,missing=64
						63:leaf=0.0263185911
						64:leaf=0.0580881201
					32:[shotAngle<34.0771942] yes=65,no=66,missing=66
						65:leaf=0.0705140978
						66:leaf=0.128731489
				16:[xStd<93] yes=33,no=34,missing=34
					33:[angleChangeSpeed<10.0606899] yes=67,no=68,missing=68
						67:leaf=0.00441354094
						68:leaf=0.0241805576
					34:[yStd<-9] yes=69,no=70,missing=70
						69:leaf=-0.0332770385
						70:leaf=0.303322941
			8:[angleChangeSpeed<22.1663456] yes=17,no=18,missing=17
				17:[defendingSkaters<6] yes=35,no=36,missing=36
					35:[distFromLastEvent<115.069542] yes=71,no=72,missing=71
						71:leaf=-0.0410774723
						72:leaf=-0.00213197619
					36:leaf=0.136098668
				18:[shotDistance<7.21110249] yes=37,no=38,missing=38
					37:[angleChangeSpeed<31.6754684] yes=73,no=74,missing=74
						73:leaf=0.0220027249
						74:leaf=0.119795725
					38:[timeSinceLastEvent<2] yes=75,no=76,missing=76
						75:leaf=-0.0443412587
						76:leaf=0.0219517853
		4:[shotAngle<53.8418159] yes=9,no=10,missing=10
			9:[speedFromLastEvent<9.80815983] yes=19,no=20,missing=20
				19:[manAdvantage<1] yes=39,no=40,missing=40
					39:[yStd<8] yes=77,no=78,missing=78
						77:leaf=0.00124565943
						78:leaf=-0.0179317053
					40:[speedFromLastEvent<5.27046299] yes=79,no=80,missing=80
						79:leaf=0.015836373
						80:leaf=0.0406829044
				20:[distFromLastEvent<174.269913] yes=41,no=42,missing=42
					41:[goalieInNet<1] yes=81,no=82,missing=82
						81:leaf=0.116068207
						82:leaf=0.0213224608
					42:[xStd<70] yes=83,no=84,missing=84
						83:leaf=-0.0794554204
						84:leaf=-0.0325225592
			10:[manAdvantage<1] yes=21,no=22,missing=22
				21:[xStd<92] yes=43,no=44,missing=44
					43:[shotType_backhand<1] yes=85,no=86,missing=86
						85:leaf=-0.0222906079
						86:leaf=-0.0520691536
					44:[timeSinceLastEvent<17] yes=87,no=88,missing=88
						87:leaf=0.0257183686
						88:leaf=0.141790196
				22:[manAdvantage<2] yes=45,no=46,missing=46
					45:[timeSinceLastEvent<25] yes=89,no=90,missing=90
						89:leaf=-0.00947383139
						90:leaf=0.0314951688
					46:[lastEventTypeCode_hit<1] yes=91,no=92,missing=92
						91:leaf=0.0892521739
						92:leaf=0.0116050169
	2:[goalieInNet<1] yes=5,no=6,missing=6
		5:[speedFromLastEvent<17] yes=11,no=12,missing=12
			11:[speedFromLastEvent<16.3469334] yes=23,no=24,missing=24
				23:[angleChangeSpeed<0.0500264168] yes=47,no=48,missing=47
					47:[timeSinceLastEvent<69] yes=93,no=94,missing=94
						93:leaf=0.0367926285
						94:leaf=-0.04876839
					48:[shotType_wrist<1] yes=95,no=96,missing=96
						95:leaf=0.0134171052
						96:leaf=0.0831469372
				24:[shotDistance<84.0059509] yes=49,no=50,missing=50
					49:leaf=-0.100252159
					50:leaf=0.0195956156
			12:[speedFromLastEvent<31.622776] yes=25,no=26,missing=25
				25:[distFromLastEvent<7.6157732] yes=51,no=52,missing=51
					51:leaf=-0.0523817092
					52:[xStd<10] yes=97,no=98,missing=98
						97:leaf=0.13396351
						98:leaf=0.0661307275
				26:[shotAngle<15.7320051] yes=53,no=54,missing=54
					53:[yStd<10] yes=99,no=100,missing=100
						99:leaf=0.0960856155
						100:leaf=0.0171223134
					54:[distFromLastEvent<102.4207] yes=101,no=102,missing=102
						101:leaf=-0.078398712
						102:leaf=0.0410445929
		6:[defendingSkaters<5] yes=13,no=14,missing=14
			13:[shotDistance<42.6380119] yes=27,no=28,missing=28
				27:[manAdvantage<2] yes=55,no=56,missing=56
					55:[speedFromLastEvent<4.40454292] yes=103,no=104,missing=103
						103:leaf=-0.0041559278
						104:leaf=0.0190287791
					56:[speedFromLastEvent<7.90393734] yes=105,no=106,missing=105
						105:leaf=0.0361857489
						106:leaf=0.172110826
				28:[shotType_wrist<1] yes=57,no=58,missing=58
					57:[timeSinceLastEvent<6] yes=107,no=108,missing=108
						107:leaf=0.0177754294
						108:leaf=-0.0155646754
					58:[xStd<-45] yes=109,no=110,missing=110
						109:leaf=0.0843202621
						110:leaf=-0.0457305051
			14:[shotDistance<40.3112869] yes=29,no=30,missing=30
				29:[shotAngle<39.0938606] yes=59,no=60,missing=60
					59:[angleChangeSpeed<10.6684608] yes=111,no=112,missing=111
						111:leaf=-0.0115226228
						112:leaf=0.138149962
					60:[shotType_deflected<1] yes=113,no=114,missing=114
						113:leaf=-0.0420115106
						114:leaf=0.12739943
				30:[shotType_wrist<1] yes=61,no=62,missing=62
					61:[shotDistance<61.7170982] yes=115,no=116,missing=116
						115:leaf=-0.0286321975
						116:leaf=-0.0573650859
					62:[xStd<-43] yes=117,no=118,missing=118
						117:leaf=0.0301147681
						118:leaf=-0.0543526895
booster[16]:
0:[shotDistance<32.2024841] yes=1,no=2,missing=2
	1:[yStd<8] yes=3,no=4,missing=4
		3:[yStd<-6] yes=7,no=8,missing=8
			7:[shotType_backhand<1] yes=15,no=16,missing=16
				15:[speedFromLastEvent<11.74261] yes=31,no=32,missing=32
					31:[manAdvantage<1] yes=63,no=64,missing=64
						63:leaf=-0.00785025582
						64:leaf=0.0135692684
					32:[distFromLastEvent<178.619705] yes=65,no=66,missing=66
						65:leaf=0.0189506412
						66:leaf=-0.0493480153
				16:[yStd<-12] yes=33,no=34,missing=34
					33:[defendingSkaters<6] yes=67,no=68,missing=68
						67:leaf=-0.0545245446
						68:leaf=0.076068446
					34:[angleChangeSpeed<21.1296043] yes=69,no=70,missing=69
						69:leaf=-0.0162607543
						70:leaf=0.054273352
			8:[goalieInNet<1] yes=17,no=18,missing=18
				17:[shotDistance<25.4558449] yes=35,no=36,missing=36
					35:[shotType_tip-in<1] yes=71,no=72,missing=72
						71:leaf=0.135589004
						72:leaf=-0.00381124811
					36:[speedFromLastEvent<5.57874966] yes=73,no=74,missing=74
						73:leaf=-0.0513050072
						74:leaf=0.0608955696
				18:[shotType_wrap-around<1] yes=37,no=38,missing=38
					37:[speedFromLastEvent<7.09068251] yes=75,no=76,missing=76
						75:leaf=0.0142525909
						76:leaf=0.0288753808
					38:[angleChangeSpeed<23.2043152] yes=77,no=78,missing=77
						77:leaf=-0.0359005667
						78:leaf=0.0695925131
		4:[shotType_backhand<1] yes=9,no=10,missing=10
			9:[manAdvantage<1] yes=19,no=20,missing=20
				19:[xStd<92] yes=39,no=40,missing=40
					39:[speedFromLastEvent<4.87601376] yes=79,no=80,missing=80
						79:leaf=-0.0229924805
						80:leaf=-0.00153286569
					40:[shotAngle<67.6198654] yes=81,no=82,missing=82
						81:leaf=0.299604535
						82:leaf=0.0520663522
				20:[defendingSkaters<4] yes=41,no=42,missing=42
					41:[shotDistance<12] yes=83,no=84,missing=84
						83:leaf=0.192029148
						84:leaf=0.044924777
					42:[shotType_snap<1] yes=85,no=86,missing=86
						85:leaf=0.00644687563
						86:leaf=0.0388288125
			10:[speedFromLastEvent<25.04496] yes=21,no=22,missing=21
				21:[goalieInNet<1] yes=43,no=44,missing=44
					43:[shotDistance<19.7989902] yes=87,no=88,missing=88
						87:leaf=0.0985549316
						88:leaf=-0.0416249782
					44:[xStd<92] yes=89,no=90,missing=90
						89:leaf=-0.0570670329
						90:leaf=0.0295699798
				22:[angleChangeSpeed<6.26440382] yes=45,no=46,missing=45
					45:[lastEventTypeCode_blocked-shot<1] yes=91,no=92,missing=92
						91:leaf=-0.0396176949
						92:leaf=0.0750524029
					46:[shotDistance<11.6619034] yes=93,no=94,missing=94
						93:leaf=-0.0210163984
						94:leaf=0.110455245
	2:[goalieInNet<1] yes=5,no=6,missing=6
		5:[distFromLastEvent<19] yes=11,no=12,missing=12
			11:[distFromLastEvent<14.8660688] yes=23,no=24,missing=24
				23:[speedFromLastEvent<5.27046299] yes=47,no=48,missing=47
					47:[speedFromLastEvent<1.03805697] yes=95,no=96,missing=96
						95:leaf=0.0160558634
						96:leaf=0.10701599
					48:[shotAngle<4.5739212] yes=97,no=98,missing=98
						97:leaf=0.0741654783
						98:leaf=-0.114043653
				24:[shotAngle<6.11550379] yes=49,no=50,missing=50
					49:[timeSinceLastEvent<7] yes=99,no=100,missing=100
						99:leaf=0.103934959
						100:leaf=-0.0239472948
					50:leaf=0.152327195
			12:[speedFromLastEvent<11.74261] yes=25,no=26,missing=25
				25:[shotType_backhand<1] yes=51,no=52,missing=52
					51:[shotDistance<45.6070175] yes=101,no=102,missing=102
						101:leaf=0.0684580505
						102:leaf=0.0288701952
					52:[shotAngle<27.1213036] yes=103,no=104,missing=104
						103:leaf=-0.0340138786
						104:leaf=0.0519959256
				26:[distFromLastEvent<30.4795017] yes=53,no=54,missing=54
					53:[yStd<-4] yes=105,no=106,missing=106
						105:leaf=0.0648133308
						106:leaf=-0.120940082
					54:[distFromLastEvent<94.8314285] yes=107,no=108,missing=108
						107:leaf=0.0899452195
						108:leaf=0.0428559594
		6:[shotType_wrist<1] yes=13,no=14,missing=14
			13:[manAdvantage<1] yes=27,no=28,missing=28
				27:[speedFromLastEvent<8.60232544] yes=55,no=56,missing=55
					55:[shotDistance<61.7170982] yes=109,no=110,missing=110
						109:leaf=-0.0265491121
						110:leaf=-0.0610432476
					56:[shotType_deflected<1] yes=111,no=112,missing=112
						111:leaf=-0.00527714286
						112:leaf=0.190302849
				28:[shotDistance<43.6004601] yes=57,no=58,missing=58
					57:[distFromLastEvent<32.0156212] yes=113,no=114,missing=114
						113:leaf=0.0307697542
						114:leaf=0.00430682953
					58:[shotAngle<23.9624882] yes=115,no=116,missing=116
						115:leaf=0.00462302985
						116:leaf=-0.0225704778
			14:[shotAngle<19.6538239] yes=29,no=30,missing=30
				29:[xStd<-75] yes=59,no=60,missing=60
					59:[speedFromLastEvent<24.1568947] yes=117,no=118,missing=118
						117:leaf=0.0258776452
						118:leaf=0.385568142
					60:[shotDistance<54.0092583] yes=119,no=120,missing=120
						119:leaf=-0.0118130418
						120:leaf=-0.0515545309
				30:[shotDistance<46.3249397] yes=61,no=62,missing=62
					61:[shotAngle<37.9716034] yes=121,no=122,missing=122
						121:leaf=-0.0227715895
						122:leaf=-0.0486006774
					62:[speedFromLastEvent<7.17696857] yes=123,no=124,missing=123
						123:leaf=-0.0660801604
						124:leaf=-0.0471862964
booster[17]:
0:[shotDistance<36.1247826] yes=1,no=2,missing=2
	1:[shotDistance<17.2626762] yes=3,no=4,missing=4
		3:[goalieInNet<1] yes=7,no=8,missing=8
			7:[yStd<9] yes=15,no=16,missing=16
				15:[angleChangeSpeed<2.37496161] yes=31,no=32,missing=31
					31:[shotDistance<12.1655254] yes=63,no=64,missing=64
						63:leaf=0.15150705
						64:leaf=0.10007491
					32:leaf=0.0248585343
				16:[timeSinceLastEvent<5] yes=33,no=34,missing=34
					33:leaf=-0.0411716588
					34:leaf=0.0337216705
			8:[timeSinceLastEvent<3] yes=17,no=18,missing=18
				17:[timeSinceLastEvent<2] yes=35,no=36,missing=36
					35:[timeSinceLastEvent<1] yes=65,no=66,missing=66
						65:leaf=0.0385408327
						66:leaf=0.00968204997
					36:[shotType_backhand<1] yes=67,no=68,missing=68
						67:leaf=0.0424954444
						68:leaf=0.0145398984
				18:[angleChangeSpeed<0.722366273] yes=37,no=38,missing=37
					37:[shotType_wrap-around<1] yes=69,no=70,missing=70
						69:leaf=0.0133692017
						70:leaf=-0.0350093283
					38:[distFromLastEvent<74.0607834] yes=71,no=72,missing=72
						71:leaf=-0.0156203946
						72:leaf=0.0205913782
		4:[shotType_slap<1] yes=9,no=10,missing=10
			9:[shotType_snap<1] yes=19,no=20,missing=20
				19:[goalieInNet<1] yes=39,no=40,missing=40
					39:[shotAngle<70.0168915] yes=73,no=74,missing=74
						73:leaf=0.0894943997
						74:leaf=-0.0643551797
					40:[shotAngle<30.529705] yes=75,no=76,missing=76
						75:leaf=-0.00133885571
						76:leaf=-0.0208018906
				20:[speedFromLastEvent<7.09068251] yes=41,no=42,missing=41
					41:[defendingSkaters<5] yes=77,no=78,missing=78
						77:leaf=0.0187483318
						78:leaf=-0.00334233488
					42:[angleChangeSpeed<5.92548656] yes=79,no=80,missing=79
						79:leaf=0.0220522694
						80:leaf=0.0595856495
			10:[timeSinceLastEvent<4] yes=21,no=22,missing=22
				21:[angleChangeSpeed<23.2043152] yes=43,no=44,missing=44
					43:[yStd<-6] yes=81,no=82,missing=82
						81:leaf=0.0411350355
						82:leaf=0.168488324
					44:[shotAngle<24.6235657] yes=83,no=84,missing=84
						83:leaf=0.058644224
						84:leaf=0.0089885816
				22:[shotAngle<76.7594833] yes=45,no=46,missing=46
					45:[angleChangeSpeed<4.30585146] yes=85,no=86,missing=85
						85:leaf=0.022084672
						86:leaf=-0.0382426418
					46:[angleChangeSpeed<8.30643463] yes=87,no=88,missing=87
						87:leaf=-0.070336774
						88:leaf=0.0845202208
	2:[goalieInNet<1] yes=5,no=6,missing=6
		5:[speedFromLastEvent<17] yes=11,no=12,missing=12
			11:[distFromLastEvent<20.8806133] yes=23,no=24,missing=24
				23:[lastEventTypeCode_takeaway<1] yes=47,no=48,missing=48
					47:[timeSinceLastEvent<2] yes=89,no=90,missing=90
						89:leaf=-0.0503505357
						90:leaf=0.0887983441
					48:[timeSinceLastEvent<5] yes=91,no=92,missing=92
						91:leaf=0.0281977654
						92:leaf=-0.0876634493
				24:[distFromLastEvent<39.8120575] yes=49,no=50,missing=50
					49:[xStd<-2] yes=93,no=94,missing=94
						93:leaf=0.0145252328
						94:leaf=-0.0556214154
					50:[speedFromLastEvent<0.82286346] yes=95,no=96,missing=96
						95:leaf=-0.085015744
						96:leaf=0.0256435573
			12:[timeSinceLastEvent<6] yes=25,no=26,missing=26
				25:[distFromLastEvent<77.0584183] yes=51,no=52,missing=51
					51:[xStd<9] yes=97,no=98,missing=98
						97:leaf=0.098326169
						98:leaf=-0.00436854642
					52:[shotAngle<23.4985657] yes=99,no=100,missing=100
						99:leaf=0.0641571209
						100:leaf=0.127792671
				26:[shotType_wrist<1] yes=53,no=54,missing=54
					53:leaf=0.0595114864
					54:[distFromLastEvent<120.70211] yes=101,no=102,missing=102
						101:leaf=0.0217200723
						102:leaf=-0.0523137674
		6:[shotType_wrist<1] yes=13,no=14,missing=14
			13:[shotAngle<15.4221611] yes=27,no=28,missing=28
				27:[shotDistance<60.8358459] yes=55,no=56,missing=56
					55:[manAdvantage<2] yes=103,no=104,missing=104
						103:leaf=0.00520197023
						104:leaf=0.0859719962
					56:[xStd<-62] yes=105,no=106,missing=106
						105:leaf=0.0481485613
						106:leaf=-0.0595203079
				28:[shotType_tip-in<1] yes=57,no=58,missing=58
					57:[shotDistance<51.0098038] yes=107,no=108,missing=108
						107:leaf=-0.0140559189
						108:leaf=-0.0371722467
					58:[shotDistance<50.0099983] yes=109,no=110,missing=110
						109:leaf=0.0131873116
						110:leaf=0.133165538
			14:[shotDistance<46.615448] yes=29,no=30,missing=30
				29:[shotAngle<51.3401909] yes=59,no=60,missing=60
					59:[speedFromLastEvent<16.6433163] yes=111,no=112,missing=111
						111:leaf=-0.0270351153
						112:leaf=0.00736376736
					60:[angleChangeSpeed<0.342725217] yes=113,no=114,missing=114
						113:leaf=0.053661406
						114:leaf=-0.0581541322
				30:[xStd<-69] yes=61,no=62,missing=62
					61:[shotAngle<3.57633448] yes=115,no=116,missing=116
						115:leaf=0.14456211
						116:leaf=-0.0479182377
					62:[timeSinceLastEvent<6] yes=117,no=118,missing=118
						117:leaf=-0.0369420052
						118:leaf=-0.0579058602
booster[18]:
0:[shotDistance<32.6496544] yes=1,no=2,missing=2
	1:[timeSinceLastEvent<5] yes=3,no=4,missing=4
		3:[lastEventTypeCode_nan<1] yes=7,no=8,missing=8
			7:[distFromLastEvent<174.269913] yes=15,no=16,missing=16
				15:[speedFromLastEvent<5.51276922] yes=31,no=32,missing=32
					31:[shotAngle<31.7014294] yes=63,no=64,missing=64
						63:leaf=0.021033885
						64:leaf=-0.0104619311
					32:[goalieInNet<1] yes=65,no=66,missing=66
						65:leaf=0.123753972
						66:leaf=0.0261960253
				16:[shotType_tip-in<1] yes=33,no=34,missing=34
					33:[shotDistance<5.83095169] yes=67,no=68,missing=68
						67:leaf=0.0522105433
						68:leaf=-0.0612871349
					34:[yStd<-3] yes=69,no=70,missing=70
						69:leaf=-0.0471042469
						70:leaf=0.0864881426
			8:[timeSinceLastEvent<2] yes=17,no=18,missing=18
				17:[shotDistance<17.8885441] yes=35,no=36,missing=36
					35:[shotType_snap<1] yes=71,no=72,missing=72
						71:leaf=-0.0302115306
						72:leaf=0.0318387002
					36:[speedFromLastEvent<44.4184647] yes=73,no=74,missing=74
						73:leaf=-0.031397488
						74:leaf=-0.0726575851
				18:[yStd<20] yes=37,no=38,missing=38
					37:[shotType_wrap-around<1] yes=75,no=76,missing=76
						75:leaf=0.00646113278
						76:leaf=-0.0615702271
					38:[speedFromLastEvent<4.40454292] yes=77,no=78,missing=78
						77:leaf=0.00597853633
						78:leaf=-0.06833525
		4:[yStd<8] yes=9,no=10,missing=10
			9:[yStd<-5] yes=19,no=20,missing=20
				19:[shotType_snap<1] yes=39,no=40,missing=40
					39:[shotType_slap<1] yes=79,no=80,missing=80
						79:leaf=-0.0115959728
						80:leaf=0.0267960727
					40:[speedFromLastEvent<21.3437481] yes=81,no=82,missing=81
						81:leaf=0.0143319461
						82:leaf=0.10413561
				20:[distFromLastEvent<24.0416298] yes=41,no=42,missing=42
					41:[timeSinceLastEvent<12] yes=83,no=84,missing=84
						83:leaf=-0.0147326812
						84:leaf=0.012493073
					42:[shotType_deflected<1] yes=85,no=86,missing=86
						85:leaf=0.0181251615
						86:leaf=-0.00896964036
			10:[shotType_backhand<1] yes=21,no=22,missing=22
				21:[xStd<91] yes=43,no=44,missing=44
					43:[shotType_wrist<1] yes=87,no=88,missing=88
						87:leaf=0.000905361085
						88:leaf=-0.0173178446
					44:[shotDistance<25.6124973] yes=89,no=90,missing=90
						89:leaf=0.152801529
						90:leaf=-0.0237474199
				22:[xStd<92] yes=45,no=46,missing=46
					45:[speedFromLastEvent<23.3452358] yes=91,no=92,missing=91
						91:leaf=-0.0571694486
						92:leaf=0.0599618182
					46:[speedFromLastEvent<2.36737084] yes=93,no=94,missing=94
						93:leaf=-0.0340430029
						94:leaf=0.145387843
	2:[goalieInNet<1] yes=5,no=6,missing=6
		5:[distFromLastEvent<123.975807] yes=11,no=12,missing=11
			11:[timeSinceLastEvent<6] yes=23,no=24,missing=24
				23:[shotAngle<46.9749336] yes=47,no=48,missing=48
					47:[shotAngle<7.85331345] yes=95,no=96,missing=96
						95:leaf=0.0253786333
						96:leaf=0.0665350333
					48:[shotDistance<44.4072075] yes=97,no=98,missing=98
						97:leaf=-0.0706565827
						98:leaf=0.0446495339
				24:[speedFromLastEvent<15.7314758] yes=49,no=50,missing=50
					49:[xStd<-56] yes=99,no=100,missing=100
						99:leaf=0.0692945495
						100:leaf=0.0208943617
					50:[shotAngle<36.4692345] yes=101,no=102,missing=102
						101:leaf=-0.109479807
						102:leaf=0.0483813398
			12:[distFromLastEvent<141.876709] yes=25,no=26,missing=26
				25:[timeSinceLastEvent<48] yes=51,no=52,missing=52
					51:[timeSinceLastEvent<4] yes=103,no=104,missing=104
						103:leaf=-0.00204393035
						104:leaf=0.121186614
					52:[yStd<-20] yes=105,no=106,missing=106
						105:leaf=-0.0741517842
						106:leaf=0.0470860749
				26:[yStd<-34] yes=53,no=54,missing=54
					53:leaf=-0.0614927039
					54:[shotDistance<39.6988678] yes=107,no=108,missing=108
						107:leaf=-0.00510588894
						108:leaf=0.0638223588
		6:[defendingSkaters<5] yes=13,no=14,missing=14
			13:[shotDistance<48.3838806] yes=27,no=28,missing=28
				27:[speedFromLastEvent<4.50693893] yes=55,no=56,missing=55
					55:[distFromLastEvent<141.876709] yes=109,no=110,missing=110
						109:leaf=-0.00208874862
						110:leaf=-0.0728252903
					56:[distFromLastEvent<29.2745628] yes=111,no=112,missing=112
						111:leaf=0.100806281
						112:leaf=0.0125922291
				28:[shotAngle<22.7824059] yes=57,no=58,missing=58
					57:[defendingSkaters<4] yes=113,no=114,missing=114
						113:leaf=0.0541323312
						114:leaf=-0.0104894824
					58:[shotType_slap<1] yes=115,no=116,missing=116
						115:leaf=-0.050246723
						116:leaf=-0.0249039903
			14:[timeSinceLastEvent<5] yes=29,no=30,missing=30
				29:[distFromLastEvent<170.496338] yes=59,no=60,missing=60
					59:[lastEventTypeCode_nan<1] yes=117,no=118,missing=118
						117:leaf=0.00663749315
						118:leaf=-0.0388261639
					60:leaf=-0.0885132626
				30:[yStd<27] yes=61,no=62,missing=62
					61:[yStd<-22] yes=119,no=120,missing=120
						119:leaf=-0.0452317782
						120:leaf=-0.0227370225
					62:[shotType_tip-in<1] yes=121,no=122,missing=122
						121:leaf=-0.0548838712
						122:leaf=0.105591767
booster[19]:
0:[shotDistance<27.2029419] yes=1,no=2,missing=2
	1:[shotAngle<64.5366516] yes=3,no=4,missing=4
		3:[goalieInNet<1] yes=7,no=8,missing=8
			7:[xStd<74] yes=15,no=16,missing=16
				15:[shotType_wrist<1] yes=31,no=32,missing=32
					31:[lastEventTypeCode_missed-shot<1] yes=63,no=64,missing=64
						63:leaf=0.0363930278
						64:leaf=-0.103799582
					32:[timeSinceLastEvent<7] yes=65,no=66,missing=66
						65:leaf=0.124148153
						66:leaf=0.0540533103
				16:[shotType_tip-in<1] yes=33,no=34,missing=34
					33:[yStd<2] yes=67,no=68,missing=68
						67:leaf=0.140644357
						68:leaf=0.0843719617
					34:[yStd<-5] yes=69,no=70,missing=70
						69:leaf=-0.0513301305
						70:leaf=0.0564564392
			8:[manAdvantage<1] yes=17,no=18,missing=18
				17:[speedFromLastEvent<7.90393734] yes=35,no=36,missing=36
					35:[timeSinceLastEvent<3] yes=71,no=72,missing=72
						71:leaf=0.0216172747
						72:leaf=-0.000946700282
					36:[shotDistance<7.07106781] yes=73,no=74,missing=74
						73:leaf=0.0389565565
						74:leaf=0.0138405226
				18:[shotDistance<6.3245554] yes=37,no=38,missing=38
					37:[xStd<87] yes=75,no=76,missing=76
						75:leaf=0.0572460741
						76:leaf=0.218308628
					38:[defendingSkaters<4] yes=77,no=78,missing=78
						77:leaf=0.0570638068
						78:leaf=0.0188242327
		4:[angleChangeSpeed<24.5504532] yes=9,no=10,missing=9
			9:[shotType_snap<1] yes=19,no=20,missing=20
				19:[manAdvantage<1] yes=39,no=40,missing=40
					39:[xStd<91] yes=79,no=80,missing=80
						79:leaf=-0.0233218968
						80:leaf=0.0497002937
					40:[shotType_deflected<1] yes=81,no=82,missing=82
						81:leaf=0.00112200971
						82:leaf=0.0958225206
				20:[angleChangeSpeed<3.07249141] yes=41,no=42,missing=42
					41:[timeSinceLastEvent<20] yes=83,no=84,missing=84
						83:leaf=0.15682286
						84:leaf=0.0189860072
					42:[distFromLastEvent<25.1793575] yes=85,no=86,missing=85
						85:leaf=-0.0171114597
						86:leaf=0.0303436536
			10:[shotDistance<6.08276272] yes=21,no=22,missing=22
				21:[shotType_wrist<1] yes=43,no=44,missing=44
					43:[speedFromLastEvent<29.887289] yes=87,no=88,missing=88
						87:leaf=0.0527893938
						88:leaf=-0.0268395767
					44:[distFromLastEvent<19] yes=89,no=90,missing=90
						89:leaf=0.156475365
						90:leaf=0.0505119711
				22:[shotAngle<77.9052429] yes=45,no=46,missing=46
					45:[yStd<-5] yes=91,no=92,missing=92
						91:leaf=0.0724755526
						92:leaf=0.00855752546
					46:[shotDistance<9.21954441] yes=93,no=94,missing=94
						93:leaf=0.0111101996
						94:leaf=-0.0462793
	2:[goalieInNet<1] yes=5,no=6,missing=6
		5:[shotAngle<7.12501621] yes=11,no=12,missing=12
			11:[shotDistance<66.0378647] yes=23,no=24,missing=24
				23:[lastEventTypeCode_nan<1] yes=47,no=48,missing=48
					47:[shotType_slap<1] yes=95,no=96,missing=96
						95:leaf=0.087791957
						96:leaf=-0.0364069752
					48:[distFromLastEvent<73.1095047] yes=97,no=98,missing=98
						97:leaf=0.0295471326
						98:leaf=-0.0801491067
				24:[shotAngle<1.06091166] yes=49,no=50,missing=50
					49:[xStd<-42] yes=99,no=100,missing=100
						99:leaf=-0.00974516477
						100:leaf=0.0765373632
					50:[distFromLastEvent<77.0584183] yes=101,no=102,missing=101
						101:leaf=-0.0368647464
						102:leaf=0.0383350998
			12:[xStd<-28] yes=25,no=26,missing=26
				25:[distFromLastEvent<5.38516474] yes=51,no=52,missing=51
					51:[distFromLastEvent<2.82842708] yes=103,no=104,missing=103
						103:leaf=0.00548783923
						104:leaf=-0.074272342
					52:[shotType_snap<1] yes=105,no=106,missing=106
						105:leaf=0.0896581486
						106:leaf=-0.0167793091
				26:[angleChangeSpeed<0.517138839] yes=53,no=54,missing=54
					53:[distFromLastEvent<35.4682961] yes=107,no=108,missing=108
						107:leaf=0.0411513709
						108:leaf=-0.0674655885
					54:[timeSinceLastEvent<45] yes=109,no=110,missing=110
						109:leaf=0.0270862635
						110:leaf=0.0803810358
		6:[shotType_wrist<1] yes=13,no=14,missing=14
			13:[shotDistance<49.0102043] yes=27,no=28,missing=28
				27:[shotType_backhand<1] yes=55,no=56,missing=56
					55:[yStd<28] yes=111,no=112,missing=112
						111:leaf=0.00496689184
						112:leaf=-0.0288060699
					56:[speedFromLastEvent<0.528301895] yes=113,no=114,missing=114
						113:leaf=0.0409609452
						114:leaf=-0.0614308231
				28:[shotType_tip-in<1] yes=57,no=58,missing=58
					57:[shotAngle<9.16234684] yes=115,no=116,missing=116
						115:leaf=0.000563025358
						116:leaf=-0.0299836136
					58:[xStd<29] yes=117,no=118,missing=118
						117:leaf=-0.0184853822
						118:leaf=0.104903735
			14:[shotDistance<46.3249397] yes=29,no=30,missing=30
				29:[shotAngle<37.7756844] yes=59,no=60,missing=60
					59:[lastEventTypeCode_giveaway<1] yes=119,no=120,missing=120
						119:leaf=-0.0150140701
						120:leaf=0.0199697986
					60:[manAdvantage<1] yes=121,no=122,missing=122
						121:leaf=-0.0415184312
						122:leaf=-0.013816515
				30:[xStd<-33] yes=61,no=62,missing=62
					61:[distFromLastEvent<99.6092377] yes=123,no=124,missing=123
						123:leaf=-0.0169786569
						124:leaf=0.160324067
					62:[xStd<28] yes=125,no=126,missing=126
						125:leaf=-0.0779489279
						126:leaf=-0.0449504927
booster[20]:
0:[shotDistance<34.058773] yes=1,no=2,missing=2
	1:[goalieInNet<1] yes=3,no=4,missing=4
		3:[shotDistance<12.8062487] yes=7,no=8,missing=8
			7:[distFromLastEvent<27.0739727] yes=15,no=16,missing=16
				15:[shotDistance<9.05538559] yes=31,no=32,missing=32
					31:leaf=0.0603213198
					32:leaf=-0.0382299498
				16:[shotType_tip-in<1] yes=33,no=34,missing=34
					33:leaf=0.13837637
					34:[speedFromLastEvent<11.2527771] yes=63,no=64,missing=63
						63:leaf=0.075921081
						64:leaf=-0.00677038776
			8:[distFromLastEvent<137.539078] yes=17,no=18,missing=18
				17:[shotDistance<30.4138126] yes=35,no=36,missing=36
					35:[shotType_slap<1] yes=65,no=66,missing=66
						65:leaf=0.103967488
						66:leaf=0.00847105402
					36:[lastEventTypeCode_missed-shot<1] yes=67,no=68,missing=68
						67:leaf=0.0630075783
						68:leaf=-0.0546275973
				18:[shotAngle<43.3634224] yes=37,no=38,missing=38
					37:[shotAngle<9.16234684] yes=69,no=70,missing=70
						69:leaf=-0.0124251405
						70:leaf=0.0815794691
					38:[shotDistance<30.4138126] yes=71,no=72,missing=72
						71:leaf=-0.0627051592
						72:leaf=0.0541112833
		4:[shotDistance<15.6524763] yes=9,no=10,missing=10
			9:[shotType_wrap-around<1] yes=19,no=20,missing=20
				19:[shotType_backhand<1] yes=39,no=40,missing=40
					39:[shotDistance<6.08276272] yes=73,no=74,missing=74
						73:leaf=0.0382012017
						74:leaf=0.0142463166
					40:[yStd<4] yes=75,no=76,missing=76
						75:leaf=0.007297148
						76:leaf=-0.0240475349
				20:[angleChangeSpeed<15.4818783] yes=41,no=42,missing=41
					41:[lastEventTypeCode_blocked-shot<1] yes=77,no=78,missing=78
						77:leaf=-0.0419751741
						78:leaf=0.015947273
					42:[xStd<87] yes=79,no=80,missing=80
						79:leaf=-0.0234945323
						80:leaf=0.0944433808
			10:[shotType_backhand<1] yes=21,no=22,missing=22
				21:[defendingSkaters<5] yes=43,no=44,missing=44
					43:[defendingSkaters<4] yes=81,no=82,missing=82
						81:leaf=0.0499540605
						82:leaf=0.0122310445
					44:[shotAngle<55.3048477] yes=83,no=84,missing=84
						83:leaf=0.000495109416
						84:leaf=-0.0233938359
				22:[shotAngle<28.0724869] yes=45,no=46,missing=46
					45:[speedFromLastEvent<20.248457] yes=85,no=86,missing=86
						85:leaf=-0.0271546971
						86:leaf=0.0320802927
					46:[xStd<91] yes=87,no=88,missing=88
						87:leaf=-0.0482485369
						88:leaf=0.0637708828
	2:[goalieInNet<1] yes=5,no=6,missing=6
		5:[angleChangeSpeed<0.653417349] yes=11,no=12,missing=11
			11:[shotType_slap<1] yes=23,no=24,missing=24
				23:[distFromLastEvent<53.7587204] yes=47,no=48,missing=48
					47:[lastEventTypeCode_giveaway<1] yes=89,no=90,missing=90
						89:leaf=0.0321614295
						90:leaf=0.0821524262
					48:[xStd<25] yes=91,no=92,missing=92
						91:leaf=-0.000150129243
						92:leaf=0.0397305302
				24:[timeSinceLastEvent<19] yes=49,no=50,missing=50
					49:[lastEventTypeCode_nan<1] yes=93,no=94,missing=94
						93:leaf=-0.0659136325
						94:leaf=0.0560534522
