{"learner":{"attributes":{"scikit_learn":"{\"_estimator_type\": \"classifier\"}"},"feature_names":["shotType_backhand","shotType_deflected","shotType_slap","shotType_snap","shotType_tip-in","shotType_wrap-around","shotType_wrist","shotType_None","lastEventTypeCode_blocked-shot","lastEventTypeCode_game-end","lastEventTypeCode_giveaway","lastEventTypeCode_goal","lastEventTypeCode_hit","lastEventTypeCode_missed-shot","lastEventTypeCode_penalty","lastEventTypeCode_period-end","lastEventTypeCode_period-start","lastEventTypeCode_shot-on-goal","lastEventTypeCode_stoppage","lastEventTypeCode_takeaway","lastEventTypeCode_nan","shotDistance","timeSinceLastEvent","speedFromLastEvent","shotAngle","angleChangeSpeed","manAdvantage","defendingSkaters","goalieInNet","distFromLastEvent","xStd","yStd"],"feature_types":["float","float","float","float","float","float","float","float","float","float","float","float","float","float","float","float","float","float","float","float","float","float","float","float","float","float","float","float","float","float","float","float"],"gradient_booster":{"model":{"gbtree_model_param":{"num_parallel_tree":"1","num_trees":"100"},"iteration_indptr":[0,1,2,3,4,5,6,7,8,9,10,11,12,13,14,15,16,17,18,19,20,21,22,23,24,25,26,27,28,29,30,31,32,33,34,35,36,37,38,39,40,41,42,43,44,45,46,47,48,49,50,51,52,53,54,55,56,57,58,59,60,61,62,63,64,65,66,67,68,69,70,71,72,73,74,75,76,77,78,79,80,81,82,83,84,85,86,87,88,89,90,91,92,93,94,95,96,97,98,99,100],"tree_info":[0,0,0,0,0,0,0,0,0,0,0,0,0,0,0,0,0,0,0,0,0,0,0,0,0,0,0,0,0,0,0,0,0,0,0,0,0,0,0,0,0,0,0,0,0,0,0,0,0,0,0,0,0,0,0,0,0,0,0,0,0,0,0,0,0,0,0,0,0,0,0,0,0,0,0,0,0,0,0,0,0,0,0,0,0,0,0,0,0,0,0,0,0,0,0,0,0,0,0,0],"trees":[{"base_weights":[1.7299223E-3,9.824677E-1,-4.647408E-1,2.425382E0,5.487765E-1,8.177173E0,-5.11053E-1,1.7455733E0,3.208768E0,1.2089904E1,5.2229774E-1,7.2903843E0,1.0350689E1,-1.2926018E-1,-6.942649E-1,1.9678787E0,-3.5026732E-1,6.605212E0,2.917223E0,1.240245E1,8.206371E-2,7.85765E-1,-1.1110302E-2,7.472902E0,1.6026595E0,1.8656734E-1,9.3064135E-1,2.666146E-2,-5.7956284E-1,-7.6112044E-1,-3.610327E-1,2.4060261E0,6.474618E-1,1.8330733E0,-4.9202493E-1,4.332639E0,7.147509E0,3.1808221E0,1.6350648E0,1.279993E1,2.3558773E-1,1.6664045E0,5.3321725E-1,-1.3266343E-1,5.753623E-1,7.5200334E0,2.4311962E-2,2.0511177E0,-3.3439793E-2,5.6526226E-1,-9.508196E-2,-6.7691237E-1,7.860539E-2,-5.4529226E-1,-8.072983E-1,-3.741895E-1,3.3495595E0,1.0070331E0,2.0920834E-1,1.14495076E-1,9.298477E-3,2.652495E-2,2.387409E-1,6.79075E-2,-5.1741865E-2,4.8226452E-1,2.0450024E-1,6.440737E-1,4.842603E-2,3.2008013E-1,2.209442E-1,2.939503E-1,1.16859235E-1,1.1647991E0,2.2993289E-1,1.3613771E-1,2.6180598E-1,3.8720515E-2,1.2088028E-1,1.5162828E-2,-2.9550623E-2,1.695821E-1,4.016723E-2,6.8877625E-1,3.8796827E-1,2.2719553E-1,1.1784964E-2,3.9860826E-2,2.2168869E-1,-1.5821926E-2,2.3804123E-2,-6.1536744E-2,6.919124E-2,2.9344189E-3,2.3719674E-1,-4.9537994E-2,2.6315618E-1,-7.2255224E-2,2.9413851E-2,-1.2358791E-2,-4.4634994E-2,5.0102275E-2,3.7629458E-1],"categories":[],"categories_nodes":[],"categories_segments":[],"categories_sizes":[],"default_left":[0,0,0,0,0,1,0,0,0,0,0,0,0,0,0,0,0,0,0,0,0,0,0,0,0,0,0,0,0,0,0,0,0,0,0,0,0,0,0,0,0,1,0,0,0,0,0,0,0,1,0,0,1,0,0,0,0,0,0,0,0,0,0,0,0,0,0,0,0,0,0,0,0,0,0,0,0,0,0,0,0,0,0,0,0,0,0,0,0,0,0,0,0,0,0,0,0,0,0,0,0,0,0],"id":0,"left_children":[1,3,5,7,9,11,13,15,17,19,21,23,25,27,29,31,33,35,37,39,-1,41,43,45,47,-1,-1,49,51,53,55,57,59,61,63,65,67,69,71,73,-1,75,77,79,81,83,-1,85,-1,87,89,91,93,95,97,99,101,-1,-1,-1,-1,-1,-1,-1,-1,-1,-1,-1,-1,-1,-1,-1,-1,-1,-1,-1,-1,-1,-1,-1,-1,-1,-1,-1,-1,-1,-1,-1,-1,-1,-1,-1,-1,-1,-1,-1,-1,-1,-1,-1,-1,-1,-1],"loss_changes":[1.3704665E4,6.0410127E3,8.129081E3,1.1826211E3,2.262891E3,1.3322754E2,1.4124268E3,5.582776E2,1.0060283E3,4.774243E1,1.0413181E3,7.136279E1,2.3305664E0,4.5985455E2,3.0371875E2,6.24501E2,3.6685448E1,6.893408E1,3.1768896E2,2.9773926E1,0E0,1.102188E3,1.7478664E2,2.4248535E1,4.1140366E0,0E0,0E0,3.1910767E2,1.0798523E2,1.1282031E2,1.1266196E2,3.8149268E2,9.381101E1,8.655397E0,1.2665792E1,2.7615906E1,3.2364014E1,2.2021338E2,8.435681E1,1.08688965E1,0E0,1.8898022E2,3.1204053E2,1.22625534E2,6.865854E1,1.8763672E1,0E0,2.7615175E0,0E0,2.0192633E2,1.1889852E2,3.0837585E1,2.5634308E1,7.933722E1,4.4902832E1,6.7991E1,1.7564201E1,0E0,0E0,0E0,0E0,0E0,0E0,0E0,0E0,0E0,0E0,0E0,0E0,0E0,0E0,0E0,0E0,0E0,0E0,0E0,0E0,0E0,0E0,0E0,0E0,0E0,0E0,0E0,0E0,0E0,0E0,0E0,0E0,0E0,0E0,0E0,0E0,0E0,0E0,0E0,0E0,0E0,0E0,0E0,0E0,0E0,0E0],"parents":[2147483647,0,0,1,1,2,2,3,3,4,4,5,5,6,6,7,7,8,8,9,9,10,10,11,11,12,12,13,13,14,14,15,15,16,16,17,17,18,18,19,19,21,21,22,22,23,23,24,24,27,27,28,28,29,29,30,30,31,31,32,32,33,33,34,34,35,35,36,36,37,37,38,38,39,39,41,41,42,42,43,43,44,44,45,45,47,47,49,49,50,50,51,51,52,52,53,53,54,54,55,55,56,56],"right_children":[2,4,6,8,10,12,14,16,18,20,22,24,26,28,30,32,34,36,38,40,-1,42,44,46,48,-1,-1,50,52,54,56,58,60,62,64,66,68,70,72,74,-1,76,78,80,82,84,-1,86,-1,88,90,92,94,96,98,100,102,-1,-1,-1,-1,-1,-1,-1,-1,-1,-1,-1,-1,-1,-1,-1,-1,-1,-1,-1,-1,-1,-1,-1,-1,-1,-1,-1,-1,-1,-1,-1,-1,-1,-1,-1,-1,-1,-1,-1,-1,-1,-1,-1,-1,-1,-1],"split_conditions":[2.2203604E1,4E0,1E0,1E0,1E0,1.174261E1,3.6124783E1,1E0,1E0,1.3E1,4.6080925E1,5.3130104E1,-6.5E1,5.0710594E1,1E0,1E0,5.8309517E0,5E0,1.8000002E2,6.5556046E1,8.206371E-2,9.486833E0,1E0,1.6728719E2,1E0,1.8656734E-1,9.3064135E-1,5E0,1E0,5E0,1E0,1E0,3.0256437E1,8.5E1,3.5763345E0,3.2195732E1,1.4E1,3.940066E1,7.2111025E0,1E0,2.3558773E-1,1.3682105E1,1E0,1.1E1,4E0,1E0,2.4311962E-2,6.9274445E1,-3.3439793E-2,1.8246816E-1,1E0,9E1,1.1814689E1,1E0,1E0,4.5607018E1,4.3863426E1,1.0070331E0,2.0920834E-1,1.14495076E-1,9.298477E-3,2.652495E-2,2.387409E-1,6.79075E-2,-5.1741865E-2,4.8226452E-1,2.0450024E-1,6.440737E-1,4.842603E-2,3.2008013E-1,2.209442E-1,2.939503E-1,1.16859235E-1,1.1647991E0,2.2993289E-1,1.3613771E-1,2.6180598E-1,3.8720515E-2,1.2088028E-1,1.5162828E-2,-2.9550623E-2,1.695821E-1,4.016723E-2,6.8877625E-1,3.8796827E-1,2.2719553E-1,1.1784964E-2,3.9860826E-2,2.2168869E-1,-1.5821926E-2,2.3804123E-2,-6.1536744E-2,6.919124E-2,2.9344189E-3,2.3719674E-1,-4.9537994E-2,2.6315618E-1,-7.2255224E-2,2.9413851E-2,-1.2358791E-2,-4.4634994E-2,5.0102275E-2,3.7629458E-1],"split_indices":[21,22,28,17,28,23,21,18,22,31,24,24,30,24,26,20,21,29,25,24,0,21,26,29,8,0,0,22,26,22,4,28,24,30,24,24,31,24,21,4,0,23,3,21,27,0,0,24,0,25,26,30,25,4,4,21,21,0,0,0,0,0,0,0,0,0,0,0,0,0,0,0,0,0,0,0,0,0,0,0,0,0,0,0,0,0,0,0,0,0,0,0,0,0,0,0,0,0,0,0,0,0,0],"split_type":[0,0,0,0,0,0,0,0,0,0,0,0,0,0,0,0,0,0,0,0,0,0,0,0,0,0,0,0,0,0,0,0,0,0,0,0,0,0,0,0,0,0,0,0,0,0,0,0,0,0,0,0,0,0,0,0,0,0,0,0,0,0,0,0,0,0,0,0,0,0,0,0,0,0,0,0,0,0,0,0,0,0,0,0,0,0,0,0,0,0,0,0,0,0,0,0,0,0,0,0,0,0,0],"sum_hessian":[2.9954504E4,9.654714E3,2.0299791E4,2.2301826E3,7.4245312E3,1.07271255E2,2.019252E4,1.1957554E3,1.0344271E3,1.5952234E1,7.408579E3,7.9279594E1,2.7991657E1,6.548302E3,1.3644217E4,1.0811401E3,1.146153E2,8.006216E1,9.54365E2,1.541046E1,5.41774E-1,4.9587974E3,2.4497817E3,7.651053E1,2.769067E0,6.019711E-1,2.7389685E1,4.8647695E3,1.6835326E3,1.1363168E4,2.281049E3,8.1115607E2,2.6998404E2,6.2604995E0,1.083548E2,1.7156178E1,6.2905983E1,7.9038806E2,1.6397693E2,1.45075035E1,9.0295666E-1,1.1038947E3,3.8549026E3,2.0298466E3,4.1993506E2,7.596876E1,5.41774E-1,2.227293E0,5.41774E-1,8.962146E2,3.9685547E3,1.4665823E3,2.169504E2,2.0049852E3,9.358183E3,2.2738857E3,7.1634564E0,3.852615E0,8.0730347E2,1.2346427E2,1.4651978E2,2.70887E0,3.5516295E0,6.6818795E0,1.0167292E2,1.0113114E1,7.043062E0,6.2003025E1,9.0295666E-1,4.939173E2,2.9647076E2,2.5102196E1,1.3887474E2,1.3845336E1,6.621682E-1,9.983691E2,1.05525536E2,3.4453816E3,4.0952094E2,8.0531696E2,1.2245297E3,3.4673534E1,3.852615E2,6.9768456E1,6.2003026E0,1.5049278E0,7.223653E-1,8.457694E2,5.044518E1,3.232284E3,7.362709E2,1.4529175E3,1.3664744E1,2.1418132E2,2.769067E0,1.9995072E3,5.477937E0,9.324111E3,3.4071564E1,7.980331E2,1.4758525E3,2.1068988E0,5.056557E0],"tree_param":{"num_deleted":"0","num_feature":"32","num_nodes":"103","size_leaf_vector":"1"}},{"base_weights":[-4.8364648E-3,7.748086E-1,-4.728259E-1,1.7734563E0,4.428593E-1,4.0034995E0,-5.179773E-1,1.3264477E0,2.254977E0,6.656746E-1,-3.2086086E-2,4.1146364E0,2.158465E0,-1.7189668E-1,-6.702711E-1,1.480963E0,-4.1535315E-1,3.7117734E0,2.09683E0,1.6129507E0,5.149942E-1,3.6570287E-1,-1.8810652E-1,4.8552423E0,3.7491002E0,1.2067266E-2,2.4918976E0,-3.7182566E-2,-6.068702E-1,-7.396707E-1,-3.3487093E-1,1.7681135E0,5.029007E-1,1.3856269E0,-5.4181796E-1,3.0631876E0,4.1895094E0,4.6340156E0,2.0315242E0,1.6834638E0,-2.1611972E-1,4.0982237E-1,4.9167788E-1,6.456119E-1,-4.8364606E-1,2.9402986E-1,-3.0778056E-1,5.014589E0,2.1793158E0,4.542146E0,3.0861058E0,6.047755E-2,-5.089594E-2,3.082674E-1,1.5012745E0,4.2984027E-1,-1.1329202E-1,-6.956704E-1,-1.6941233E-2,-5.310718E-1,-7.8515726E-1,-3.4707537E-1,2.3000734E0,2.171418E-1,1.2122679E-1,9.4908565E-2,1.0252159E-2,1.5027066E-1,-4.5484528E-2,4.942849E-2,-5.5822033E-2,2.816452E-1,3.8167957E-2,3.781575E-1,-4.3922104E-2,4.2544416E-1,3.550328E-2,1.9455373E-1,1.0814348E-1,2.7088067E-1,1.3867348E-1,-4.3251902E-2,5.923305E-2,3.8871024E-2,1.2724511E-1,2.991923E-1,5.1937927E-2,-4.789357E-2,1.0927499E-1,3.7464228E-2,-5.560947E-2,2.626201E-1,-2.830362E-2,4.4903988E-1,7.840544E-2,-3.6237165E-2,2.3158368E-1,4.232891E-1,1.1345198E-1,1.5102472E-2,2.7696002E-1,-5.449963E-3,1.8514127E-1,-8.864636E-2,5.0440867E-2,-1.684507E-2,1.9230647E-2,-2.9602123E-2,-6.606673E-2,2.5156708E-2,-2.3273502E-2,-4.8140977E-2,1.7503679E-1,-7.022166E-2,6.763249E-2,3.087282E-2,-3.420778E-2,2.8575603E-2,2.614951E-1],"categories":[],"categories_nodes":[],"categories_segments":[],"categories_sizes":[],"default_left":[0,0,0,0,0,0,0,0,0,0,0,0,0,0,0,0,0,0,0,0,0,0,0,0,0,0,0,0,0,0,0,0,0,0,0,0,0,0,0,0,0,0,1,0,0,0,0,0,0,0,0,0,0,0,1,1,0,0,0,0,0,0,0,0,0,0,0,0,0,0,0,0,0,0,0,0,0,0,0,0,0,0,0,0,0,0,0,0,0,0,0,0,0,0,0,0,0,0,0,0,0,0,0,0,0,0,0,0,0,0,0,0,0,0,0,0,0,0,0],"id":1,"left_children":[1,3,5,7,9,11,13,15,17,19,21,23,25,27,29,31,33,35,37,39,41,43,45,47,49,51,53,55,57,59,61,63,65,67,69,71,73,75,77,79,81,-1,83,85,87,89,91,93,95,97,99,-1,-1,-1,101,103,105,107,109,111,113,115,117,-1,-1,-1,-1,-1,-1,-1,-1,-1,-1,-1,-1,-1,-1,-1,-1,-1,-1,-1,-1,-1,-1,-1,-1,-1,-1,-1,-1,-1,-1,-1,-1,-1,-1,-1,-1,-1,-1,-1,-1,-1,-1,-1,-1,-1,-1,-1,-1,-1,-1,-1,-1,-1,-1,-1,-1],"loss_changes":[1.096493E4,3.736065E3,3.7976265E3,6.022471E2,8.9547815E2,2.9595703E1,9.7983496E2,3.9371924E2,3.0375928E2,8.212793E2,1.6782628E2,2.9411377E1,9.105019E0,3.329815E2,3.0027344E2,3.7596362E2,2.8035336E1,2.7795898E1,1.930835E2,1.0224902E2,4.714906E2,1.8143188E2,1.1215232E2,1.2409424E1,5.020642E1,1.4478412E0,5.416176E0,1.5431921E2,7.038342E1,1.0107617E2,7.203746E1,2.79417E2,6.6666565E1,5.525529E0,1.086586E1,1.4266785E1,2.1705688E1,1.633496E1,1.4697314E2,1.2554614E2,7.502507E0,0E0,2.5481763E2,9.502194E1,1.8237484E1,4.5280624E1,5.2112503E1,1.560669E0,6.3407326E0,3.0967163E1,4.429077E0,0E0,0E0,0E0,6.6568394E0,1.1907462E2,9.3319916E1,1.9401794E1,1.3018888E1,4.7009216E1,4.7990234E1,5.6927185E1,1.2093784E1,0E0,0E0,0E0,0E0,0E0,0E0,0E0,0E0,0E0,0E0,0E0,0E0,0E0,0E0,0E0,0E0,0E0,0E0,0E0,0E0,0E0,0E0,0E0,0E0,0E0,0E0,0E0,0E0,0E0,0E0,0E0,0E0,0E0,0E0,0E0,0E0,0E0,0E0,0E0,0E0,0E0,0E0,0E0,0E0,0E0,0E0,0E0,0E0,0E0,0E0,0E0,0E0,0E0,0E0,0E0,0E0],"parents":[2147483647,0,0,1,1,2,2,3,3,4,4,5,5,6,6,7,7,8,8,9,9,10,10,11,11,12,12,13,13,14,14,15,15,16,16,17,17,18,18,19,19,20,20,21,21,22,22,23,23,24,24,25,25,26,26,27,27,28,28,29,29,30,30,31,31,32,32,33,33,34,34,35,35,36,36,37,37,38,38,39,39,40,40,42,42,43,43,44,44,45,45,46,46,47,47,48,48,49,49,50,50,54,54,55,55,56,56,57,57,58,58,59,59,60,60,61,61,62,62],"right_children":[2,4,6,8,10,12,14,16,18,20,22,24,26,28,30,32,34,36,38,40,42,44,46,48,50,52,54,56,58,60,62,64,66,68,70,72,74,76,78,80,82,-1,84,86,88,90,92,94,96,98,100,-1,-1,-1,102,104,106,108,110,112,114,116,118,-1,-1,-1,-1,-1,-1,-1,-1,-1,-1,-1,-1,-1,-1,-1,-1,-1,-1,-1,-1,-1,-1,-1,-1,-1,-1,-1,-1,-1,-1,-1,-1,-1,-1,-1,-1,-1,-1,-1,-1,-1,-1,-1,-1,-1,-1,-1,-1,-1,-1,-1,-1,-1,-1,-1,-1],"split_conditions":[2.4083189E1,4E0,1E0,1E0,4.6080925E1,1E0,3.6124783E1,1E0,1E0,8.485281E0,9.486833E0,7E0,-1E0,5.1115505E1,1E0,1E0,5.8309517E0,1.2083046E1,4.472136E0,1E0,1E0,1E0,5E0,4.6080925E1,6.6037865E1,-2.3E1,4.031129E0,4E0,1E0,5E0,1E0,1.118034E1,2.5201124E1,1E0,3.5763345E0,8E0,6.3245552E1,1E0,1.8000002E2,5.0990195E0,2.6E1,4.0982237E-1,1.8062391E1,4.472136E0,1.5453023E1,1E0,1E0,1.4812495E2,-3.7E1,7E1,5E0,6.047755E-2,-5.089594E-2,3.082674E-1,5.8309517E0,2E0,1E0,4E0,1E0,1E0,1E0,4E0,4.3863426E1,2.171418E-1,1.2122679E-1,9.4908565E-2,1.0252159E-2,1.5027066E-1,-4.5484528E-2,4.942849E-2,-5.5822033E-2,2.816452E-1,3.8167957E-2,3.781575E-1,-4.3922104E-2,4.2544416E-1,3.550328E-2,1.9455373E-1,1.0814348E-1,2.7088067E-1,1.3867348E-1,-4.3251902E-2,5.923305E-2,3.8871024E-2,1.2724511E-1,2.991923E-1,5.1937927E-2,-4.789357E-2,1.0927499E-1,3.7464228E-2,-5.560947E-2,2.626201E-1,-2.830362E-2,4.4903988E-1,7.840544E-2,-3.6237165E-2,2.3158368E-1,4.232891E-1,1.1345198E-1,1.5102472E-2,2.7696002E-1,-5.449963E-3,1.8514127E-1,-8.864636E-2,5.0440867E-2,-1.684507E-2,1.9230647E-2,-2.9602123E-2,-6.606673E-2,2.5156708E-2,-2.3273502E-2,-4.8140977E-2,1.7503679E-1,-7.022166E-2,6.763249E-2,3.087282E-2,-3.420778E-2,2.8575603E-2,2.614951E-1],"split_indices":[21,22,28,17,24,2,21,18,22,21,21,22,26,24,26,20,21,29,21,5,28,5,27,24,21,31,23,22,26,22,4,21,24,5,24,31,29,2,25,21,22,0,23,21,23,0,28,29,31,30,29,0,0,0,23,29,26,22,6,4,1,27,21,0,0,0,0,0,0,0,0,0,0,0,0,0,0,0,0,0,0,0,0,0,0,0,0,0,0,0,0,0,0,0,0,0,0,0,0,0,0,0,0,0,0,0,0,0,0,0,0,0,0,0,0,0,0,0,0],"split_type":[0,0,0,0,0,0,0,0,0,0,0,0,0,0,0,0,0,0,0,0,0,0,0,0,0,0,0,0,0,0,0,0,0,0,0,0,0,0,0,0,0,0,0,0,0,0,0,0,0,0,0,0,0,0,0,0,0,0,0,0,0,0,0,0,0,0,0,0,0,0,0,0,0,0,0,0,0,0,0,0,0,0,0,0,0,0,0,0,0,0,0,0,0,0,0,0,0,0,0,0,0,0,0,0,0,0,0,0,0,0,0,0,0,0,0,0,0,0,0],"sum_hessian":[3.004996E4,1.1271536E4,1.8778426E4,2.8108713E3,8.460665E3,1.8664557E2,1.859178E4,1.4596208E3,1.3512506E3,5.7586543E3,2.7020103E3,1.7488135E2,1.1764221E1,5.6819478E3,1.2909832E4,1.3408258E3,1.1879499E2,1.3012389E2,1.2211267E3,7.8896967E2,4.9696846E3,7.608378E2,1.9411725E3,5.3732464E1,1.2114889E2,1.7211167E0,1.0043105E1,4.339165E3,1.3427823E3,1.0695548E4,2.2142834E3,1.03589E3,3.0493585E2,7.1411777E0,1.1165382E2,5.833663E1,7.1787254E1,2.88869E1,1.1922399E3,7.597595E2,2.9210121E1,2.7072649E1,4.9426123E3,5.724295E2,1.8840836E2,3.8572543E2,1.555447E3,4.988778E1,3.8446865E0,5.2499844E1,6.864905E1,7.267439E-1,9.943727E-1,3.8133817E0,6.229723E0,6.073986E2,3.7317666E3,1.166946E3,1.7583621E2,1.9169923E3,8.778556E3,2.204939E3,9.3444805E0,3.8914453E2,6.467454E2,1.2365151E2,1.8128436E2,6.255039E0,8.861383E-1,7.6419168E0,1.040119E2,5.6011253E1,2.3253763E0,7.100787E1,7.793827E-1,2.7812447E1,1.074453E0,1.00226746E3,1.8997237E2,6.2528015E1,6.972315E2,2.2710936E1,6.4991856E0,4.6694976E3,2.731144E2,1.1655529E1,5.60774E2,1.8328328E2,5.125075E0,3.3943835E2,4.6287067E1,3.9058459E0,1.5515411E3,4.932748E1,5.6030047E-1,5.4371464E-1,3.3009717E0,4.8877842E1,3.6220002E0,6.355636E-1,6.801348E1,1.923731E0,4.305992E0,5.2587425E1,5.5481116E2,3.0330957E3,6.986709E2,1.3290585E2,1.0340403E3,7.895264E1,9.688358E1,1.910435E3,6.5572376E0,8.75923E3,1.9325285E1,1.1152088E2,2.0934182E3,2.640692E0,6.7037888E0],"tree_param":{"num_deleted":"0","num_feature":"32","num_nodes":"119","size_leaf_vector":"1"}},{"base_weights":[-8.268708E-3,6.519995E-1,-4.5342332E-1,1.3935783E0,3.8190085E-1,2.7941222E0,-4.9782568E-1,1.4614085E0,-4.2376283E-1,7.8832144E-1,1.9624427E-1,2.865006E0,1.3726232E0,-1.6957642E-1,-6.487124E-1,1.580427E0,4.3326104E-1,1.3365228E0,-5.109455E-1,9.0206045E-1,-4.479653E-1,4.701204E-1,-4.4354245E-2,2.9955572E-1,2.6589193E0,-3.2050586E-1,1.6298379E0,-3.6505096E-2,-5.79522E-1,-7.1734655E-1,-3.2624128E-1,1.7560471E0,1.061487E0,7.84261E-1,-4.4096623E-2,-4.7514435E-2,1.8125547E0,-6.644974E-1,4.954947E-1,1.0392917E0,2.7824467E-1,-4.9918717E-1,1.1050044E0,4.011628E-1,1.5794404E0,6.315804E-2,-5.3578246E-1,2.68938E0,-3.623807E-2,-5.2039582E-2,2.1063635E-2,2.2854187E0,7.229124E-1,3.3103025E-1,-1.2392731E-1,-6.661381E-1,-4.246259E-2,-5.055678E-1,-7.645951E-1,-3.3828878E-1,1.8902283E0,1.5108806E-1,2.8437078E-1,3.0584145E-1,8.818209E-2,1.4481562E-2,9.752278E-2,1.5616057E-2,-4.6404168E-2,1.9562647E-1,-3.4966264E-2,-6.381876E-2,1.6828464E-2,1.5501586E-1,-3.8679577E-2,8.541832E-2,1.79361E-1,1.940128E-2,2.010025E-1,8.011777E-2,-4.6225984E-2,-4.827338E-2,1.272653E-1,2.8277522E-2,9.176499E-2,2.2864455E-1,1.16524056E-1,-2.8626984E-3,4.6243574E-2,-4.9083553E-2,1.7862508E-1,3.0098936E-1,2.2416994E-1,7.7498935E-2,-5.584602E-2,2.586897E-1,1.1214317E-1,-6.3026436E-2,1.21499486E-1,-8.921298E-2,3.693289E-2,-1.754214E-2,1.5435191E-2,-3.3996664E-2,-6.401627E-2,2.6605459E-2,-3.0485142E-2,-4.5967214E-2,1.6226585E-1,-6.849909E-2,3.767763E-2,-1.1837921E-2,-4.142401E-2,2.8013213E-2,1.9327563E-1],"categories":[],"categories_nodes":[],"categories_segments":[],"categories_sizes":[],"default_left":[0,0,0,0,0,0,0,0,0,0,0,0,0,0,0,0,0,0,0,0,1,0,0,0,0,0,0,0,0,0,0,0,0,0,0,0,0,0,0,0,1,0,0,0,0,0,0,0,0,0,0,0,1,1,0,0,0,0,0,0,0,0,0,0,0,0,0,0,0,0,0,0,0,0,0,0,0,0,0,0,0,0,0,0,0,0,0,0,0,0,0,0,0,0,0,0,0,0,0,0,0,0,0,0,0,0,0,0,0,0,0,0,0,0,0],"id":2,"left_children":[1,3,5,7,9,11,13,15,17,19,21,23,25,27,29,31,33,35,37,39,41,43,45,-1,47,49,51,53,55,57,59,61,63,65,67,-1,69,71,73,75,77,79,81,83,85,87,89,91,93,-1,-1,95,97,99,101,103,105,107,109,111,113,-1,-1,-1,-1,-1,-1,-1,-1,-1,-1,-1,-1,-1,-1,-1,-1,-1,-1,-1,-1,-1,-1,-1,-1,-1,-1,-1,-1,-1,-1,-1,-1,-1,-1,-1,-1,-1,-1,-1,-1,-1,-1,-1,-1,-1,-1,-1,-1,-1,-1,-1,-1,-1,-1],"loss_changes":[8.835196E3,2.4241074E3,2.590427E3,3.9896143E2,6.694774E2,2.048462E1,8.7720215E2,3.8054346E2,1.8645473E1,3.9165857E2,4.0152466E2,1.4709473E1,6.37092E0,3.0435315E2,2.6834033E2,2.525708E2,5.4422295E1,6.1306877E0,1.7675783E1,2.1787012E2,1.9252071E1,2.1734985E2,1.714585E2,0E0,1.3848267E1,5.2154934E-1,5.377241E0,1.3541685E2,6.3573334E1,9.9720215E1,5.7552505E1,1.7196533E2,1.16185425E2,3.5995613E1,1.4592029E1,0E0,4.9757996E0,4.4970207E0,1.8628113E1,1.6092041E2,5.4559437E1,6.8450623E0,4.9508305E0,1.408852E2,4.1183197E1,1.1580472E2,2.4011444E1,1.1147461E1,2.077476E0,0E0,0E0,4.1091537E-1,6.862481E0,9.0836525E1,7.400175E1,1.7406677E1,1.9646156E1,4.640625E1,4.6078125E1,5.52146E1,4.475197E0,0E0,0E0,0E0,0E0,0E0,0E0,0E0,0E0,0E0,0E0,0E0,0E0,0E0,0E0,0E0,0E0,0E0,0E0,0E0,0E0,0E0,0E0,0E0,0E0,0E0,0E0,0E0,0E0,0E0,0E0,0E0,0E0,0E0,0E0,0E0,0E0,0E0,0E0,0E0,0E0,0E0,0E0,0E0,0E0,0E0,0E0,0E0,0E0,0E0,0E0,0E0,0E0,0E0,0E0],"parents":[2147483647,0,0,1,1,2,2,3,3,4,4,5,5,6,6,7,7,8,8,9,9,10,10,11,11,12,12,13,13,14,14,15,15,16,16,17,17,18,18,19,19,20,20,21,21,22,22,24,24,25,25,26,26,27,27,28,28,29,29,30,30,31,31,32,32,33,33,34,34,36,36,37,37,38,38,39,39,40,40,41,41,42,42,43,43,44,44,45,45,46,46,47,47,48,48,51,51,52,52,53,53,54,54,55,55,56,56,57,57,58,58,59,59,60,60],"right_children":[2,4,6,8,10,12,14,16,18,20,22,24,26,28,30,32,34,36,38,40,42,44,46,-1,48,50,52,54,56,58,60,62,64,66,68,-1,70,72,74,76,78,80,82,84,86,88,90,92,94,-1,-1,96,98,100,102,104,106,108,110,112,114,-1,-1,-1,-1,-1,-1,-1,-1,-1,-1,-1,-1,-1,-1,-1,-1,-1,-1,-1,-1,-1,-1,-1,-1,-1,-1,-1,-1,-1,-1,-1,-1,-1,-1,-1,-1,-1,-1,-1,-1,-1,-1,-1,-1,-1,-1,-1,-1,-1,-1,-1,-1,-1,-1],"split_conditions":[2.433105E1,4E0,1E0,1E0,1.0630146E1,1E0,3.6359318E1,1E0,5.0990195E0,1E0,2.8300756E1,6E0,-1E0,4.976364E1,1E0,5.0710594E1,3.7146687E1,5E0,1E0,5.9931416E1,1.5453023E1,1.7691807E1,1E0,2.9955572E-1,6.7619865E1,8.132035E1,4.609772E0,5E0,1E0,5E0,1E0,8.4E1,4.472136E0,2E0,1.7262676E1,-4.7514435E-2,1E0,1E0,1.0440307E1,1.6346933E1,2.0248457E1,0E0,1.1400439E2,1E0,5E0,1E0,6E0,4.20119E1,8E0,-5.2039582E-2,2.1063635E-2,3.5468296E1,7.81025E0,2E0,1E0,5E0,1E0,1E0,1E0,4.632494E1,4.159327E1,1.5108806E-1,2.8437078E-1,3.0584145E-1,8.818209E-2,1.4481562E-2,9.752278E-2,1.5616057E-2,-4.6404168E-2,1.9562647E-1,-3.4966264E-2,-6.381876E-2,1.6828464E-2,1.5501586E-1,-3.8679577E-2,8.541832E-2,1.79361E-1,1.940128E-2,2.010025E-1,8.011777E-2,-4.6225984E-2,-4.827338E-2,1.272653E-1,2.8277522E-2,9.176499E-2,2.2864455E-1,1.16524056E-1,-2.8626984E-3,4.6243574E-2,-4.9083553E-2,1.7862508E-1,3.0098936E-1,2.2416994E-1,7.7498935E-2,-5.584602E-2,2.586897E-1,1.1214317E-1,-6.3026436E-2,1.21499486E-1,-8.921298E-2,3.693289E-2,-1.754214E-2,1.5435191E-2,-3.3996664E-2,-6.401627E-2,2.6605459E-2,-3.0485142E-2,-4.5967214E-2,1.6226585E-1,-6.849909E-2,3.767763E-2,-1.1837921E-2,-4.142401E-2,2.8013213E-2,1.9327563E-1],"split_indices":[21,22,28,18,21,2,21,20,21,5,24,22,26,24,26,24,24,27,4,24,23,23,0,0,24,29,23,22,26,22,4,30,21,22,21,0,5,1,21,23,23,26,29,3,22,3,27,21,22,0,0,29,23,29,26,22,6,4,4,21,21,0,0,0,0,0,0,0,0,0,0,0,0,0,0,0,0,0,0,0,0,0,0,0,0,0,0,0,0,0,0,0,0,0,0,0,0,0,0,0,0,0,0,0,0,0,0,0,0,0,0,0,0,0,0],"split_type":[0,0,0,0,0,0,0,0,0,0,0,0,0,0,0,0,0,0,0,0,0,0,0,0,0,0,0,0,0,0,0,0,0,0,0,0,0,0,0,0,0,0,0,0,0,0,0,0,0,0,0,0,0,0,0,0,0,0,0,0,0,0,0,0,0,0,0,0,0,0,0,0,0,0,0,0,0,0,0,0,0,0,0,0,0,0,0,0,0,0,0,0,0,0,0,0,0,0,0,0,0,0,0,0,0,0,0,0,0,0,0,0,0,0,0],"sum_hessian":[3.0057715E4,1.2104078E4,1.7953637E4,3.230448E3,8.87363E3,2.4132655E2,1.771231E4,3.1144023E3,1.1604567E2,2.7814705E3,6.0921597E3,2.2889699E2,1.2429574E1,5.578526E3,1.2133785E4,2.7908013E3,3.2360092E2,4.799992E0,1.11245674E2,2.5473804E3,2.3408995E2,2.848605E3,3.2435547E3,6.2400227E1,1.6649675E2,1.6067824E0,1.0822792E1,4.212279E3,1.3662473E3,1.0003444E4,2.13034E3,2.0833638E3,7.074375E2,1.8611101E2,1.374899E2,9.4935095E-1,3.8506413E0,9.6814514E1,1.4431165E1,2.0874932E3,4.5988727E2,2.2727234E2,6.817604E0,2.683175E3,1.6543002E2,2.6620383E3,5.815164E2,1.6463817E2,1.858593E0,1.0568728E0,5.499096E-1,5.39964E0,5.4231515E0,8.0887354E2,3.403405E3,1.1762958E3,1.8995148E2,1.8268372E3,8.1766074E3,2.1196663E3,1.0673973E1,2.0030715E3,8.029234E1,1.9207098E1,6.882304E2,6.257098E1,1.2354003E2,9.460027E1,4.2889637E1,3.2820983E0,5.685428E-1,9.1381134E1,5.4333744E0,5.796014E0,8.635151E0,1.9311053E3,1.5638788E2,4.473562E2,1.2531047E1,2.5787933E0,2.2469356E2,1.0109692E0,5.8066344E0,2.3699783E3,3.1319672E2,3.3748608E1,1.3168141E2,2.202767E3,4.5927124E2,5.787772E2,2.7391734E0,2.9056332E1,1.3558183E2,5.4684067E-1,1.3117523E0,2.224024E0,3.1756163E0,1.6471196E0,3.776032E0,4.7173546E1,7.617E2,2.7320596E3,6.7134564E2,1.8558186E2,9.907139E2,8.885199E1,1.0109948E2,1.8192654E3,7.5718355E0,8.1446587E3,3.1948698E1,8.105548E2,1.3091113E3,1.9333215E0,8.740652E0],"tree_param":{"num_deleted":"0","num_feature":"32","num_nodes":"115","size_leaf_vector":"1"}},{"base_weights":[-6.2182294E-3,5.4398745E-1,-4.5517635E-1,1.0799617E0,2.9184893E-1,2.2002535E0,-5.005664E-1,6.2502307E-1,1.228668E0,4.556729E-1,-8.579179E-2,2.5554404E0,2.0560682E0,-2.2775814E-1,-6.412497E-1,4.8336706E-1,1.3142844E0,1.4157921E0,6.422061E-1,9.2040145E-1,2.9005465E-1,-2.015523E-1,4.1955888E-1,2.6432528E0,7.920816E-1,1.9381831E0,2.8426764E0,-1.21255286E-1,-6.721905E-1,-7.10074E-1,-3.292254E-1,5.3357655E-1,-6.239396E-1,1.4801788E0,3.0681694E-1,1.4561441E0,-9.647206E-2,1.4334226E0,4.8247957E-1,1.4384708E0,7.78861E-1,3.0645318E0,2.7042356E-1,2.4032466E-2,-4.5662168E-1,1.4403694E0,3.1466845E-1,2.3713553E-1,1.459954E-2,-2.3806566E-1,1.7294743E0,2.675644E0,1.8511015E0,1.7728996E-1,2.9818115E0,1.7584705E-1,-2.1164785E-1,-7.3607415E-1,-2.1523178E-1,-5.0466704E-1,-7.570958E-1,-3.408021E-1,1.4315884E0,5.752461E-2,-4.197489E-3,4.581644E-2,-5.9181936E-2,7.877184E-2,1.5409575E-1,5.2370925E-2,-1.9024918E-2,1.3610046E-1,6.820677E-2,1.7365985E-1,-2.0084282E-2,4.4887133E-2,1.4856765E-1,1.048521E-1,2.8313797E-2,-1.5056617E-2,1.3306119E-1,3.0477867E-1,6.7515805E-2,2.878523E-1,1.3884458E-1,1.6817478E-2,6.86086E-2,-6.6232593E-3,5.9141617E-2,-4.195268E-2,1.5971127E-1,2.2729238E-2,1.4435746E-1,8.367582E-2,1.388044E-2,7.9484865E-2,-6.939531E-2,1.9455376E-1,9.2892675E-3,4.5416277E-2,2.801503E-1,1.4312352E-1,1.9293636E-1,6.7551084E-2,-4.4376645E-2,2.758106E-1,5.335622E-2,-8.7078154E-2,2.074134E-2,7.0461966E-2,-2.0889964E-2,-6.758769E-2,2.1233689E-2,2.0744245E-1,-2.3627369E-2,4.0577803E-2,-4.6916742E-2,-6.786643E-2,3.5428602E-2,-1.2246261E-2,-3.8484234E-2,1.8975838E-1,5.034931E-2],"categories":[],"categories_nodes":[],"categories_segments":[],"categories_sizes":[],"default_left":[0,0,0,0,0,0,0,1,0,0,0,0,0,0,0,0,0,0,0,0,0,0,0,0,0,0,0,0,0,0,0,0,0,0,0,0,0,1,0,0,0,0,0,0,0,1,0,0,0,0,0,0,0,0,0,1,0,0,0,0,0,0,0,0,0,0,0,0,0,0,0,0,0,0,0,0,0,0,0,0,0,0,0,0,0,0,0,0,0,0,0,0,0,0,0,0,0,0,0,0,0,0,0,0,0,0,0,0,0,0,0,0,0,0,0,0,0,0,0,0,0,0,0],"id":3,"left_children":[1,3,5,7,9,11,13,15,17,19,21,23,25,27,29,31,33,35,37,39,41,43,45,47,49,51,53,55,57,59,61,63,65,67,69,71,73,75,77,79,81,83,85,87,89,91,93,-1,-1,95,97,99,101,103,105,107,109,111,113,115,117,119,121,-1,-1,-1,-1,-1,-1,-1,-1,-1,-1,-1,-1,-1,-1,-1,-1,-1,-1,-1,-1,-1,-1,-1,-1,-1,-1,-1,-1,-1,-1,-1,-1,-1,-1,-1,-1,-1,-1,-1,-1,-1,-1,-1,-1,-1,-1,-1,-1,-1,-1,-1,-1,-1,-1,-1,-1,-1,-1,-1,-1],"loss_changes":[7.414666E3,1.822376E3,1.9933569E3,2.9112646E2,5.675924E2,8.981689E0,6.236028E2,1.0334262E2,3.5582617E2,4.9220032E2,1.6250574E2,9.696686E0,1.3298828E1,2.617213E2,2.3002148E2,4.9534546E1,2.97919E1,1.5047363E2,9.8913055E1,1.2211853E2,2.5618073E2,1.3003116E2,5.4988106E1,3.1367188E0,5.278434E0,6.5769043E0,8.480286E0,1.1989605E2,3.1048035E1,8.445508E1,4.002307E1,5.5361282E1,2.143259E0,2.1604614E1,4.057264E0,1.1869824E2,1.760552E1,2.7973663E1,7.477663E1,3.256897E1,6.941693E1,3.3330688E0,1.9099213E2,7.56608E1,3.5556717E1,9.869141E0,4.6582706E1,0E0,0E0,2.7034304E0,1.8150902E0,1.543457E1,9.122498E0,1.2691777E0,4.495514E0,6.885103E1,7.901639E1,2.1190125E1,1.752479E1,3.5266785E1,4.242993E1,3.5756775E1,6.5871143E0,0E0,0E0,0E0,0E0,0E0,0E0,0E0,0E0,0E0,0E0,0E0,0E0,0E0,0E0,0E0,0E0,0E0,0E0,0E0,0E0,0E0,0E0,0E0,0E0,0E0,0E0,0E0,0E0,0E0,0E0,0E0,0E0,0E0,0E0,0E0,0E0,0E0,0E0,0E0,0E0,0E0,0E0,0E0,0E0,0E0,0E0,0E0,0E0,0E0,0E0,0E0,0E0,0E0,0E0,0E0,0E0,0E0,0E0,0E0,0E0],"parents":[2147483647,0,0,1,1,2,2,3,3,4,4,5,5,6,6,7,7,8,8,9,9,10,10,11,11,12,12,13,13,14,14,15,15,16,16,17,17,18,18,19,19,20,20,21,21,22,22,23,23,24,24,25,25,26,26,27,27,28,28,29,29,30,30,31,31,32,32,33,33,34,34,35,35,36,36,37,37,38,38,39,39,40,40,41,41,42,42,43,43,44,44,45,45,46,46,49,49,50,50,51,51,52,52,53,53,54,54,55,55,56,56,57,57,58,58,59,59,60,60,61,61,62,62],"right_children":[2,4,6,8,10,12,14,16,18,20,22,24,26,28,30,32,34,36,38,40,42,44,46,48,50,52,54,56,58,60,62,64,66,68,70,72,74,76,78,80,82,84,86,88,90,92,94,-1,-1,96,98,100,102,104,106,108,110,112,114,116,118,120,122,-1,-1,-1,-1,-1,-1,-1,-1,-1,-1,-1,-1,-1,-1,-1,-1,-1,-1,-1,-1,-1,-1,-1,-1,-1,-1,-1,-1,-1,-1,-1,-1,-1,-1,-1,-1,-1,-1,-1,-1,-1,-1,-1,-1,-1,-1,-1,-1,-1,-1,-1,-1,-1,-1,-1,-1,-1,-1,-1,-1],"split_conditions":[2.6172504E1,5E0,1E0,-5E0,4.6080925E1,6E0,3.8183765E1,9.069041E0,7E0,1.0198039E1,1E0,4.6080925E1,1.2815616E2,5.4462322E1,1E0,1.6728719E2,7.790524E1,1E0,5E0,7.071068E0,1E0,1.5231546E1,4E0,1.5023315E2,2.4156895E1,-5.6E1,2.745906E1,6E0,1E0,5E0,1E0,1E0,0E0,1.17046995E1,1.0198039E1,1E0,4.472136E0,1.029563E1,4.2064327E1,6E0,1E0,1E0,1E0,1.174261E1,9.2E1,7.0919573E-1,8.944272E0,2.3713553E-1,1.459954E-2,1.6155495E1,4.1773197E1,9.335179E-1,2.6E1,1.3963524E2,1.5826875E2,2E0,4E0,8.8E1,7.716439E1,4.6145763E1,1E0,4.5607018E1,0E0,5.752461E-2,-4.197489E-3,4.581644E-2,-5.9181936E-2,7.877184E-2,1.5409575E-1,5.2370925E-2,-1.9024918E-2,1.3610046E-1,6.820677E-2,1.7365985E-1,-2.0084282E-2,4.4887133E-2,1.4856765E-1,1.048521E-1,2.8313797E-2,-1.5056617E-2,1.3306119E-1,3.0477867E-1,6.7515805E-2,2.878523E-1,1.3884458E-1,1.6817478E-2,6.86086E-2,-6.6232593E-3,5.9141617E-2,-4.195268E-2,1.5971127E-1,2.2729238E-2,1.4435746E-1,8.367582E-2,1.388044E-2,7.9484865E-2,-6.939531E-2,1.9455376E-1,9.2892675E-3,4.5416277E-2,2.801503E-1,1.4312352E-1,1.9293636E-1,6.7551084E-2,-4.4376645E-2,2.758106E-1,5.335622E-2,-8.7078154E-2,2.074134E-2,7.0461966E-2,-2.0889964E-2,-6.758769E-2,2.1233689E-2,2.0744245E-1,-2.3627369E-2,4.0577803E-2,-4.6916742E-2,-6.786643E-2,3.5428602E-2,-1.2246261E-2,-3.8484234E-2,1.8975838E-1,5.034931E-2],"split_indices":[21,22,28,31,24,22,21,25,31,21,26,24,29,24,26,29,24,18,27,21,28,21,27,29,23,30,21,22,26,22,4,20,26,29,21,20,21,29,25,29,28,0,3,23,30,23,21,0,0,29,21,23,30,29,29,29,27,30,25,25,4,21,31,0,0,0,0,0,0,0,0,0,0,0,0,0,0,0,0,0,0,0,0,0,0,0,0,0,0,0,0,0,0,0,0,0,0,0,0,0,0,0,0,0,0,0,0,0,0,0,0,0,0,0,0,0,0,0,0,0,0,0,0],"split_type":[0,0,0,0,0,0,0,0,0,0,0,0,0,0,0,0,0,0,0,0,0,0,0,0,0,0,0,0,0,0,0,0,0,0,0,0,0,0,0,0,0,0,0,0,0,0,0,0,0,0,0,0,0,0,0,0,0,0,0,0,0,0,0,0,0,0,0,0,0,0,0,0,0,0,0,0,0,0,0,0,0,0,0,0,0,0,0,0,0,0,0,0,0,0,0,0,0,0,0,0,0,0,0,0,0,0,0,0,0,0,0,0,0,0,0,0,0,0,0,0,0,0,0],"sum_hessian":[3.0014545E4,1.3486456E4,1.6528088E4,4.3136304E3,9.172825E3,2.7697397E2,1.6251114E4,1.0639329E3,3.2496975E3,6.3973784E3,2.775447E3,7.514297E1,2.0183101E2,5.5300474E3,1.0721067E4,8.839633E2,1.7996956E2,2.46255E3,7.871475E2,1.6796592E3,4.717719E3,2.2586582E3,5.1678894E2,7.110316E1,4.0398097E0,1.785383E2,2.329271E1,4.462045E3,1.0680023E3,8.782585E3,1.9384817E3,8.461153E2,3.7847977E1,1.541219E2,2.5847668E1,2.3985852E3,6.396471E1,1.3087497E2,6.562725E2,3.5845862E2,1.3212006E3,3.2056366E1,4.685663E3,1.1990858E3,1.0595724E3,4.696695E1,4.69822E2,7.046086E1,6.4230126E-1,2.280114E0,1.7596958E0,1.5716393E1,1.628219E2,1.2684015E0,2.2024307E1,1.0406594E3,3.4213855E3,9.364712E2,1.315312E2,1.6381847E3,7.144401E3,1.9266213E3,1.1860361E1,7.0873254E2,1.3738275E2,9.053131E-1,3.6942665E1,4.6971172E1,1.0715073E2,1.6693632E1,9.154036E0,2.1697874E3,2.28798E2,2.957871E0,6.1006836E1,2.7061533E1,1.0381343E2,1.24404785E2,5.3186774E2,1.1982871E1,3.4647574E2,8.936351E0,1.3122642E3,2.7800043E1,4.2563214E0,4.0299207E3,6.557421E2,1.0400747E3,1.5901112E2,1.0535537E3,6.0186687E0,6.5389547E0,4.0427994E1,9.417039E1,3.7565158E2,5.280069E-1,1.752107E0,1.1053576E0,6.543381E-1,3.1781068E0,1.2538287E1,9.5333145E1,6.748876E1,6.1577034E-1,6.5263116E-1,2.0717394E1,1.3069142E0,4.8308563E1,9.923509E2,7.5834816E1,3.3455505E3,9.1509937E2,2.1371807E1,1.6620835E0,1.2986913E2,3.6651714E1,1.601533E3,7.1133037E3,3.1097157E1,5.9842554E2,1.3281958E3,5.753047E0,6.1073146E0],"tree_param":{"num_deleted":"0","num_feature":"32","num_nodes":"123","size_leaf_vector":"1"}},{"base_weights":[-8.122236E-3,4.591884E-1,-4.4616756E-1,9.5595545E-1,2.665225E-1,1.8065561E0,-4.906755E-1,1.0922166E0,5.1885253E-1,4.0842742E-1,-7.666407E-2,1.75548E0,2.6269677E0,-2.5203824E-1,-6.244566E-1,1.1294874E0,-1.8351345E-1,1.1730828E0,3.8150698E-1,6.552845E-1,2.054379E-1,1.24711245E-1,-2.9895237E-1,1.9857879E0,1.5672101E0,2.787113E0,-4.0910028E-2,-1.4557151E-1,-6.391474E-1,-6.9388235E-1,-3.1782466E-1,1.2385404E0,7.761393E-1,9.637797E-1,-3.2870603E-1,1.3111082E0,3.712215E-1,7.8245556E-1,1.5059364E-1,3.04231E0,6.372622E-1,2.4251144E0,1.8840843E-1,2.104702E-1,-4.9290845E-1,-4.1609487E-1,2.0666929E-1,2.0391881E0,6.74635E-1,1.3281964E0,2.0194805E0,2.5574505E-1,1.8713372E-2,3.2611817E-2,-2.864721E-1,-7.091755E-1,-1.8023737E-1,-4.808075E-1,-7.438148E-1,-3.308445E-1,1.3996449E0,1.1870404E-1,7.9358086E-2,6.0270008E-2,1.6019246E-1,-1.4714138E-2,1.17313385E-1,8.358013E-2,-3.7990816E-2,1.2245922E-1,-9.549595E-3,6.2419776E-2,-1.9625863E-2,7.584002E-2,-6.1844785E-2,2.1193747E-3,1.0037656E-1,5.5453807E-2,2.7481028E-1,8.9429885E-2,4.743739E-2,1.2284187E-1,2.383049E-1,8.970721E-3,5.3968634E-2,6.549489E-2,4.2680386E-3,-4.8218127E-2,4.8946705E-2,-3.846109E-2,1.4601597E-1,9.866944E-2,8.805695E-3,2.1938929E-1,1.6669188E-1,-5.953191E-2,9.863829E-2,1.5321021E-1,1.0013878E-1,1.9664092E-1,6.6415355E-2,7.24638E-3,-6.0846895E-2,-8.266903E-3,-3.6025107E-2,-6.363206E-2,1.8782793E-1,-3.6394183E-2,4.6209764E-2,-4.37414E-2,1.4175174E-1,-6.6729076E-2,3.503557E-2,-7.2200485E-3,-3.5503738E-2,-4.6797335E-2,1.409111E-1],"categories":[],"categories_nodes":[],"categories_segments":[],"categories_sizes":[],"default_left":[0,0,0,0,0,0,0,0,0,0,0,0,0,0,0,0,0,0,0,0,0,0,0,0,0,0,0,0,0,0,0,0,1,0,0,0,0,0,0,0,0,0,0,0,0,0,0,0,0,0,0,0,0,0,0,0,0,0,0,0,0,0,0,0,0,0,0,0,0,0,0,0,0,0,0,0,0,0,0,0,0,0,0,0,0,0,0,0,0,0,0,0,0,0,0,0,0,0,0,0,0,0,0,0,0,0,0,0,0,0,0,0,0,0,0,0,0],"id":4,"left_children":[1,3,5,7,9,11,13,15,17,19,21,23,25,27,29,31,33,35,37,39,41,43,45,47,49,51,-1,53,55,57,59,61,63,65,67,69,71,73,75,77,79,81,83,85,87,89,91,93,95,97,99,-1,-1,101,103,105,107,109,111,113,115,-1,-1,-1,-1,-1,-1,-1,-1,-1,-1,-1,-1,-1,-1,-1,-1,-1,-1,-1,-1,-1,-1,-1,-1,-1,-1,-1,-1,-1,-1,-1,-1,-1,-1,-1,-1,-1,-1,-1,-1,-1,-1,-1,-1,-1,-1,-1,-1,-1,-1,-1,-1,-1,-1,-1,-1],"loss_changes":[6.128985E3,1.3862498E3,1.5503994E3,2.4052979E2,5.0843652E2,7.9439697E0,4.8368994E2,1.4689307E2,8.616507E1,3.6996375E2,1.3677823E2,9.249329E0,8.964867E0,2.2435733E2,2.0650342E2,1.1454761E2,1.5047685E1,1.7970337E1,7.37778E1,1.4141687E2,1.5280205E2,8.50341E1,8.610391E1,7.3401794E0,1.4786896E1,2.6697388E0,0E0,1.0727582E2,3.7614136E1,8.387573E1,4.0592224E1,7.401953E1,7.083374E1,4.286978E0,1.023931E1,1.3070465E1,5.2053585E0,3.0421005E1,6.2846897E1,7.1118164E-1,1.2639319E2,4.3946075E0,1.4730688E2,1.2019095E2,1.0224155E1,3.9160736E1,2.6495628E1,3.8412476E0,4.4446073E0,6.7450104E0,1.1337769E1,0E0,0E0,6.596744E1,5.4533432E1,1.7209595E1,2.5268585E1,3.3392853E1,4.1220703E1,3.0183289E1,5.6537952E0,0E0,0E0,0E0,0E0,0E0,0E0,0E0,0E0,0E0,0E0,0E0,0E0,0E0,0E0,0E0,0E0,0E0,0E0,0E0,0E0,0E0,0E0,0E0,0E0,0E0,0E0,0E0,0E0,0E0,0E0,0E0,0E0,0E0,0E0,0E0,0E0,0E0,0E0,0E0,0E0,0E0,0E0,0E0,0E0,0E0,0E0,0E0,0E0,0E0,0E0,0E0,0E0,0E0,0E0,0E0,0E0],"parents":[2147483647,0,0,1,1,2,2,3,3,4,4,5,5,6,6,7,7,8,8,9,9,10,10,11,11,12,12,13,13,14,14,15,15,16,16,17,17,18,18,19,19,20,20,21,21,22,22,23,23,24,24,25,25,27,27,28,28,29,29,30,30,31,31,32,32,33,33,34,34,35,35,36,36,37,37,38,38,39,39,40,40,41,41,42,42,43,43,44,44,45,45,46,46,47,47,48,48,49,49,50,50,53,53,54,54,55,55,56,56,57,57,58,58,59,59,60,60],"right_children":[2,4,6,8,10,12,14,16,18,20,22,24,26,28,30,32,34,36,38,40,42,44,46,48,50,52,-1,54,56,58,60,62,64,66,68,70,72,74,76,78,80,82,84,86,88,90,92,94,96,98,100,-1,-1,102,104,106,108,110,112,114,116,-1,-1,-1,-1,-1,-1,-1,-1,-1,-1,-1,-1,-1,-1,-1,-1,-1,-1,-1,-1,-1,-1,-1,-1,-1,-1,-1,-1,-1,-1,-1,-1,-1,-1,-1,-1,-1,-1,-1,-1,-1,-1,-1,-1,-1,-1,-1,-1,-1,-1,-1,-1,-1,-1,-1,-1],"split_conditions":[2.7202942E1,4E0,1E0,1.7262676E1,4.6080925E1,0E0,3.9217342E1,1.7426991E2,5.6290634E1,1.3601471E1,1.5231546E1,9E0,1E0,5.1115505E1,1E0,5.1952957E1,5.8309517E0,1E0,1.7175903E1,1E0,1E0,1E0,1E0,1E0,9.8045906E1,5.0710594E1,-4.0910028E-2,1E0,1E0,5E0,1E0,1E0,3.7438572E1,-3E0,3.5763345E0,8.4E1,2.0808653E1,1.5023315E2,1E0,-5E0,7.81025E0,1E0,1E0,8E0,1.4395215E1,9.2E1,4E0,-1.4E1,3.17983E0,-1.7E1,1E0,2.5574505E-1,1.8713372E-2,1E0,3.1764761E1,1E0,1E0,1E0,1E0,9.462322E0,4.159327E1,1.1870404E-1,7.9358086E-2,6.0270008E-2,1.6019246E-1,-1.4714138E-2,1.17313385E-1,8.358013E-2,-3.7990816E-2,1.2245922E-1,-9.549595E-3,6.2419776E-2,-1.9625863E-2,7.584002E-2,-6.1844785E-2,2.1193747E-3,1.0037656E-1,5.5453807E-2,2.7481028E-1,8.9429885E-2,4.743739E-2,1.2284187E-1,2.383049E-1,8.970721E-3,5.3968634E-2,6.549489E-2,4.2680386E-3,-4.8218127E-2,4.8946705E-2,-3.846109E-2,1.4601597E-1,9.866944E-2,8.805695E-3,2.1938929E-1,1.6669188E-1,-5.953191E-2,9.863829E-2,1.5321021E-1,1.0013878E-1,1.9664092E-1,6.6415355E-2,7.24638E-3,-6.0846895E-2,-8.266903E-3,-3.6025107E-2,-6.363206E-2,1.8782793E-1,-3.6394183E-2,4.6209764E-2,-4.37414E-2,1.4175174E-1,-6.6729076E-2,3.503557E-2,-7.2200485E-3,-3.5503738E-2,-4.6797335E-2,1.409111E-1],"split_indices":[21,22,28,21,24,26,21,29,25,21,21,22,2,24,26,24,21,0,24,28,28,5,26,2,29,24,0,6,26,22,4,0,25,31,24,30,21,29,26,31,21,6,3,21,23,30,27,30,24,31,0,0,0,0,21,4,2,4,4,24,21,0,0,0,0,0,0,0,0,0,0,0,0,0,0,0,0,0,0,0,0,0,0,0,0,0,0,0,0,0,0,0,0,0,0,0,0,0,0,0,0,0,0,0,0,0,0,0,0,0,0,0,0,0,0,0,0],"split_type":[0,0,0,0,0,0,0,0,0,0,0,0,0,0,0,0,0,0,0,0,0,0,0,0,0,0,0,0,0,0,0,0,0,0,0,0,0,0,0,0,0,0,0,0,0,0,0,0,0,0,0,0,0,0,0,0,0,0,0,0,0,0,0,0,0,0,0,0,0,0,0,0,0,0,0,0,0,0,0,0,0,0,0,0,0,0,0,0,0,0,0,0,0,0,0,0,0,0,0,0,0,0,0,0,0,0,0,0,0,0,0,0,0,0,0,0,0],"sum_hessian":[2.9938828E4,1.448551E4,1.5453318E4,4.04695E3,1.043856E4,2.9863474E2,1.5154684E4,3.0840413E3,9.629086E2,7.3848096E3,3.0537502E3,2.8408817E2,1.4546589E1,5.4449414E3,9.709742E3,2.9966091E3,8.74321E1,1.6576486E2,7.9714374E2,3.331328E3,4.0534817E3,1.6024755E3,1.4512748E3,1.23484245E2,1.6060391E2,1.3921234E1,6.2535477E-1,4.27152E3,1.1734214E3,7.9161514E3,1.7935903E3,2.2879724E3,7.0863684E2,9.188423E0,7.8243675E1,1.4087994E2,2.4884922E1,2.9044254E2,5.067012E2,2.3705915E1,3.3076218E3,2.9785105E1,4.0236965E3,1.4076736E3,1.9480188E2,1.1784325E3,2.7284232E2,1.18118286E2,5.365963E0,1.0765019E2,5.295372E1,1.3365116E1,5.561184E-1,1.8865508E3,2.3849692E3,1.01759454E3,1.558268E2,1.5049153E3,6.4112363E3,1.780897E3,1.2693305E1,1.7958721E3,4.9210034E2,6.4747675E2,6.116007E1,2.3192422E0,6.869181E0,4.9982758E0,7.32454E1,1.3480676E2,6.073174E0,1.5859278E1,9.025645E0,2.7783133E2,1.2611201E1,4.493892E2,5.731204E1,6.9459397E-1,2.3011322E1,7.30982E2,2.57664E3,7.028889E0,2.2756216E1,3.3267847E3,6.969118E2,3.3190012E2,1.0757734E3,1.8658105E2,8.22082E0,1.1701969E3,8.2355585E0,2.8144476E1,2.4469785E2,2.946678E1,8.8651505E1,1.1759162E0,4.190047E0,3.4217457E1,7.343274E1,4.547251E1,7.4812083E0,1.7670667E3,1.1948415E2,9.043418E2,1.4806274E3,1.01636896E3,1.2256154E0,1.1775888E2,3.8067913E1,1.4981276E3,6.787791E0,6.3800947E3,3.1141407E1,3.8111398E2,1.399783E3,9.3878996E-1,1.1754516E1],"tree_param":{"num_deleted":"0","num_feature":"32","num_nodes":"117","size_leaf_vector":"1"}},{"base_weights":[-1.2173211E-2,3.4874126E-1,-4.769171E-1,7.374368E-1,1.6531588E-1,1.4975077E0,-5.2515066E-1,8.904197E-1,4.570659E-1,3.8264966E-1,-2.2241538E-2,1.406636E0,1.9027318E0,-5.985427E-1,-2.075067E-1,1.0557052E0,7.067449E-1,1.0505482E0,3.586915E-1,5.391789E-1,1.5141603E-1,8.10451E-2,-4.3631E-1,1.4299191E0,-1.3423112E-1,1.9534392E0,-2.6954433E-2,-4.137889E-1,-6.8115854E-1,-2.6833978E-2,-3.8536352E-1,1.7264609E0,9.9920875E-1,7.726567E-1,3.1913713E-2,1.1671515E0,3.6031848E-1,6.404394E-1,1.3915604E-1,7.761648E-1,3.787144E-1,2.1731178E-1,-4.9775943E-1,1.9179589E0,6.669477E-2,-5.3697544E-1,1.2569922E-2,1.4428102E0,-3.3679414E-1,3.8944957E-1,-7.573565E-2,-3.971531E-2,1.9918755E0,-2.69133E-1,-6.4796E-1,-4.8353225E-1,-7.284413E-1,6.259805E-1,-8.606066E-2,-3.9452857E-1,2.520592E0,1.4379172E-1,3.2791582E-1,8.4720746E-2,1.6068646E-1,1.7530102E-2,7.652603E-2,1.2589702E-2,-6.007499E-2,8.884293E-2,1.4228395E-1,4.6384748E-2,-5.5411384E-2,6.1179686E-2,-6.468355E-2,4.4887434E-3,6.923966E-2,2.334367E-2,7.597672E-2,1.6926134E-2,6.404488E-2,3.1379394E-2,-1.7298255E-2,-4.980344E-2,6.2685736E-2,8.6532734E-2,1.9155532E-1,-1.4192713E-3,3.5235133E-2,-4.9425654E-2,1.1362341E-1,-1.3883086E-3,2.2040014E-1,1.293063E-1,-5.3875126E-2,2.2174872E-2,-5.3373802E-2,-2.6939001E-2,7.505325E-2,2.0418632E-1,1.4297482E-1,-3.1008562E-2,-2.8719127E-3,1.2660794E-1,-5.8257665E-2,-3.9460503E-2,-9.1119654E-2,-6.5235466E-2,7.829307E-2,4.1029233E-2,2.0555498E-1,2.1383351E-1,-8.773147E-3,-3.6313888E-2,9.65833E-2,-3.5903193E-2,2.8371367E-1],"categories":[],"categories_nodes":[],"categories_segments":[],"categories_sizes":[],"default_left":[0,0,0,0,0,0,0,0,0,0,0,0,0,0,0,0,0,0,0,0,0,0,0,0,0,1,0,0,0,0,0,0,1,1,0,0,0,0,0,1,0,0,1,0,0,0,0,0,0,0,0,0,1,1,0,0,0,1,0,0,1,0,0,0,0,0,0,0,0,0,0,0,0,0,0,0,0,0,0,0,0,0,0,0,0,0,0,0,0,0,0,0,0,0,0,0,0,0,0,0,0,0,0,0,0,0,0,0,0,0,0,0,0,0,0,0,0],"id":5,"left_children":[1,3,5,7,9,11,13,15,17,19,21,23,25,27,29,31,33,35,37,39,41,43,45,47,49,51,-1,53,55,57,59,61,63,65,67,69,71,73,75,77,79,81,83,85,87,89,91,93,95,97,-1,-1,99,101,103,105,107,109,111,113,115,-1,-1,-1,-1,-1,-1,-1,-1,-1,-1,-1,-1,-1,-1,-1,-1,-1,-1,-1,-1,-1,-1,-1,-1,-1,-1,-1,-1,-1,-1,-1,-1,-1,-1,-1,-1,-1,-1,-1,-1,-1,-1,-1,-1,-1,-1,-1,-1,-1,-1,-1,-1,-1,-1,-1,-1],"loss_changes":[5.0115996E3,1.1989388E3,1.2445898E3,2.3085083E2,4.6581375E2,8.801819E0,2.9710767E2,1.0512158E2,1.1086792E2,1.9151581E2,2.6240585E2,9.464081E0,6.6595917E0,1.5779321E2,7.6934296E1,6.775476E1,7.3577515E1,2.1342926E1,1.0110376E2,1.1973218E2,9.157734E1,1.2932368E2,5.5357117E1,6.286438E0,2.117401E0,5.7927246E0,0E0,1.083114E2,6.650391E1,4.6022427E1,3.3129578E1,2.4836212E1,6.336975E1,7.516913E1,1.15665655E1,1.5252472E1,6.7206364E0,4.6180878E1,5.213305E1,5.0251465E1,1.2088165E2,1.08053024E2,1.4997974E1,6.3066406E0,1.3252042E2,3.3577118E1,1.5668271E1,5.757019E0,5.578962E-1,1.3333795E0,0E0,0E0,2.42865E0,3.71241E1,1.6932251E1,2.9703064E1,3.9718018E1,2.6456066E1,3.4075874E1,2.4138336E1,8.932497E0,0E0,0E0,0E0,0E0,0E0,0E0,0E0,0E0,0E0,0E0,0E0,0E0,0E0,0E0,0E0,0E0,0E0,0E0,0E0,0E0,0E0,0E0,0E0,0E0,0E0,0E0,0E0,0E0,0E0,0E0,0E0,0E0,0E0,0E0,0E0,0E0,0E0,0E0,0E0,0E0,0E0,0E0,0E0,0E0,0E0,0E0,0E0,0E0,0E0,0E0,0E0,0E0,0E0,0E0,0E0,0E0],"parents":[2147483647,0,0,1,1,2,2,3,3,4,4,5,5,6,6,7,7,8,8,9,9,10,10,11,11,12,12,13,13,14,14,15,15,16,16,17,17,18,18,19,19,20,20,21,21,22,22,23,23,24,24,25,25,27,27,28,28,29,29,30,30,31,31,32,32,33,33,34,34,35,35,36,36,37,37,38,38,39,39,40,40,41,41,42,42,43,43,44,44,45,45,46,46,47,47,48,48,49,49,52,52,53,53,54,54,55,55,56,56,57,57,58,58,59,59,60,60],"right_children":[2,4,6,8,10,12,14,16,18,20,22,24,26,28,30,32,34,36,38,40,42,44,46,48,50,52,-1,54,56,58,60,62,64,66,68,70,72,74,76,78,80,82,84,86,88,90,92,94,96,98,-1,-1,100,102,104,106,108,110,112,114,116,-1,-1,-1,-1,-1,-1,-1,-1,-1,-1,-1,-1,-1,-1,-1,-1,-1,-1,-1,-1,-1,-1,-1,-1,-1,-1,-1,-1,-1,-1,-1,-1,-1,-1,-1,-1,-1,-1,-1,-1,-1,-1,-1,-1,-1,-1,-1,-1,-1,-1,-1,-1,-1,-1,-1,-1],"split_conditions":[3.138471E1,5E0,1E0,1.5652476E1,1.5231546E1,1.7E1,1E0,3.1159304E1,5.6290634E1,3.7146687E1,5.4782406E1,1.6346933E1,8E0,4.0311287E1,4.632494E1,6.0827627E0,1E0,1E0,2.2619865E1,9.486833E0,1E0,1E0,1E0,6.5556046E1,1E0,7.615773E0,-2.6954433E-2,3.9805573E1,5E0,4E0,1E0,1E0,6.64906E1,4.1231055E0,1E0,3.324154E1,5.813402E1,1.643472E2,1E0,1.720465E1,1E0,1E0,1.4395215E1,1E0,1E0,9.2E1,1E0,9.7E1,3.5468296E1,4E0,-7.573565E-2,-3.971531E-2,2.2638462E1,1.0793516E1,1.2875002E1,1.620864E2,1E0,6.7675695E0,2.5140621E1,1E0,1.3666633E0,1.4379172E-1,3.2791582E-1,8.4720746E-2,1.6068646E-1,1.7530102E-2,7.652603E-2,1.2589702E-2,-6.007499E-2,8.884293E-2,1.4228395E-1,4.6384748E-2,-5.5411384E-2,6.1179686E-2,-6.468355E-2,4.4887434E-3,6.923966E-2,2.334367E-2,7.597672E-2,1.6926134E-2,6.404488E-2,3.1379394E-2,-1.7298255E-2,-4.980344E-2,6.2685736E-2,8.6532734E-2,1.9155532E-1,-1.4192713E-3,3.5235133E-2,-4.9425654E-2,1.1362341E-1,-1.3883086E-3,2.2040014E-1,1.293063E-1,-5.3875126E-2,2.2174872E-2,-5.3373802E-2,-2.6939001E-2,7.505325E-2,2.0418632E-1,1.4297482E-1,-3.1008562E-2,-2.8719127E-3,1.2660794E-1,-5.8257665E-2,-3.9460503E-2,-9.1119654E-2,-6.5235466E-2,7.829307E-2,4.1029233E-2,2.0555498E-1,2.1383351E-1,-8.773147E-3,-3.6313888E-2,9.65833E-2,-3.5903193E-2,2.8371367E-1],"split_indices":[21,22,28,21,21,23,26,24,25,24,24,23,22,21,21,21,20,0,24,21,5,28,26,24,8,29,0,24,22,27,1,13,29,29,5,29,24,29,26,29,6,0,23,6,3,30,1,22,21,31,0,0,23,23,25,29,1,23,25,4,23,0,0,0,0,0,0,0,0,0,0,0,0,0,0,0,0,0,0,0,0,0,0,0,0,0,0,0,0,0,0,0,0,0,0,0,0,0,0,0,0,0,0,0,0,0,0,0,0,0,0,0,0,0,0,0,0],"split_type":[0,0,0,0,0,0,0,0,0,0,0,0,0,0,0,0,0,0,0,0,0,0,0,0,0,0,0,0,0,0,0,0,0,0,0,0,0,0,0,0,0,0,0,0,0,0,0,0,0,0,0,0,0,0,0,0,0,0,0,0,0,0,0,0,0,0,0,0,0,0,0,0,0,0,0,0,0,0,0,0,0,0,0,0,0,0,0,0,0,0,0,0,0,0,0,0,0,0,0,0,0,0,0,0,0,0,0,0,0,0,0,0,0,0,0,0,0],"sum_hessian":[2.987648E4,1.6816916E4,1.3059564E4,5.3906357E3,1.142628E4,3.1070993E2,1.27488545E4,3.4862207E3,1.904415E3,5.292505E3,6.133776E3,2.5744827E2,5.3261654E1,1.0355352E4,2.3935024E3,1.8324691E3,1.6537517E3,2.694106E2,1.6350045E3,3.1552715E3,2.1372334E3,4.9098506E3,1.2239254E3,2.5368697E2,3.761305E0,5.2176292E1,1.0853612E0,3.201606E3,7.1537456E3,1.1879229E3,1.2055797E3,1.4005876E2,1.6924103E3,1.5064678E3,1.4728398E2,2.2988437E2,3.9526253E1,7.152054E2,9.197991E2,1.2723431E3,1.8829283E3,1.9408855E3,1.9634793E2,3.7031116E1,4.8728193E3,9.99567E2,2.243584E2,2.5203131E2,1.6556443E0,2.4364765E0,1.3248285E0,6.554215E-1,5.1520874E1,1.9803944E3,1.2212115E3,1.3832878E3,5.770458E3,9.801396E1,1.0899089E3,1.2026509E3,2.9287908E0,1.3423026E2,5.8285055E0,1.5998088E3,9.260146E1,1.9777782E2,1.30869E3,1.2821815E2,1.9065825E1,1.6739404E2,6.249033E1,3.437682E1,5.149433E0,6.920767E2,2.3128668E1,8.085008E2,1.1129832E2,1.665729E2,1.1057701E3,1.2127941E3,6.701342E2,1.4613342E3,4.795513E2,1.8728621E2,9.061721E0,8.348854E0,2.8682262E1,3.8954395E3,9.7737976E2,9.9036383E2,9.203173E0,2.2280424E2,1.5541579E0,2.5116751E2,8.6380273E-1,5.2851975E-1,1.1271245E0,1.0963014E0,1.340175E0,2.616486E1,2.5356012E1,1.4841863E3,4.962081E2,3.0386927E0,1.2181729E3,1.2887642E3,9.452374E1,5.7559263E3,1.453143E1,9.041175E1,7.6022077E0,4.4805236E0,1.0854283E3,1.192645E3,1.0005826E1,6.163461E-1,2.3124447E0],"tree_param":{"num_deleted":"0","num_feature":"32","num_nodes":"117","size_leaf_vector":"1"}},{"base_weights":[-1.0667456E-2,3.5022298E-1,-4.0626806E-1,6.5932316E-1,1.895071E-1,1.3111783E0,-4.4886774E-1,7.1922237E-1,1.6208044E-1,2.9941702E-1,-8.9182846E-2,1.9161453E0,1.2535031E0,-2.7277082E-1,-6.057337E-1,7.5060016E-1,-4.4865417E-1,4.1753864E-1,-1.4570782E-1,5.746317E-1,1.8471722E-1,2.8200123E-1,-1.916837E-1,2.050924E0,6.013014E-1,1.1887778E0,1.6169305E0,-1.7470796E-1,-6.1828315E-1,-6.768088E-1,-3.0805093E-1,6.9936234E-1,1.390549E0,3.9216455E-2,-7.392416E-1,3.1504945E-3,5.518643E-1,2.90177E-2,-4.7411785E-1,2.3343912E-1,5.5804443E-1,1.2221984E-1,5.149805E-1,2.0682961E-1,1.1065494E0,-1.1183276E-2,-4.3957287E-1,2.099126E0,5.863629E-3,-4.690853E-2,9.4657654E-1,1.4877486E0,1.0911678E0,-4.2296886E-2,1.6622291E0,-2.0290278E-2,-3.0864093E-1,-2.3288183E-1,-6.81495E-1,-6.846023E-1,6.1353374E-1,-4.9973954E-2,-3.8830817E-1,2.829735E-1,6.1299033E-2,1.353223E-1,7.513713E-3,-1.8168382E-2,1.0773973E-1,5.12812E-3,-7.1943715E-2,2.6342567E-2,-3.3283994E-2,1.17487356E-1,4.175991E-2,1.01522235E-2,-5.800776E-2,-1.9932617E-2,-6.0454324E-2,5.1851485E-2,-4.7800846E-2,-7.7882297E-3,2.696435E-2,7.348876E-2,2.929909E-2,2.599169E-2,-3.487709E-2,7.060604E-2,1.4660214E-1,-7.880066E-3,5.1088773E-2,-4.012369E-2,1.4022507E-1,1.9076514E-1,3.9850853E-2,1.3287397E-1,2.3732393E-3,9.5435515E-2,1.5995903E-1,6.804212E-2,1.1157363E-1,1.5561558E-1,5.247347E-2,-3.0565935E-3,1.5411659E-1,-1.111453E-2,-3.7235223E-2,-2.5547901E-2,9.271358E-2,-6.120665E-2,1.9794804E-1,-4.460428E-2,-6.4975716E-2,-2.9178375E-2,1.5097977E-1,2.4651577E-1,-6.005899E-3,-3.546279E-2,9.937083E-2],"categories":[],"categories_nodes":[],"categories_segments":[],"categories_sizes":[],"default_left":[0,0,0,0,0,0,0,0,0,0,0,0,0,0,0,0,0,0,0,0,0,0,0,0,0,0,1,0,0,0,0,0,0,0,0,0,0,0,0,0,0,0,0,0,0,0,0,0,0,0,0,0,0,0,0,1,0,0,0,0,0,0,0,0,0,0,0,0,0,0,0,0,0,0,0,0,0,0,0,0,0,0,0,0,0,0,0,0,0,0,0,0,0,0,0,0,0,0,0,0,0,0,0,0,0,0,0,0,0,0,0,0,0,0,0,0,0,0,0],"id":6,"left_children":[1,3,5,7,9,11,13,15,17,19,21,23,25,27,29,31,33,35,37,39,41,43,45,47,49,51,53,55,57,59,61,63,65,67,69,71,73,75,77,-1,79,81,83,85,87,89,91,93,-1,-1,95,97,99,-1,101,103,105,107,109,111,113,115,117,-1,-1,-1,-1,-1,-1,-1,-1,-1,-1,-1,-1,-1,-1,-1,-1,-1,-1,-1,-1,-1,-1,-1,-1,-1,-1,-1,-1,-1,-1,-1,-1,-1,-1,-1,-1,-1,-1,-1,-1,-1,-1,-1,-1,-1,-1,-1,-1,-1,-1,-1,-1,-1,-1,-1,-1],"loss_changes":[4.248858E3,7.730032E2,1.0393135E3,1.5843896E2,3.1370367E2,9.596863E0,3.8254834E2,1.7443213E2,4.5163002E1,2.3173529E2,1.1028182E2,3.7357712E0,5.531067E0,2.2110754E2,1.5480615E2,1.5074072E2,1.773993E1,1.7460651E1,1.4984915E1,7.188159E1,1.0696678E2,3.865435E1,1.0160208E2,2.2555695E0,2.0652215E0,6.3354187E0,5.065529E0,1.052014E2,3.4995605E1,5.9889404E1,2.9267578E1,1.1381714E2,5.7601196E1,1.379926E1,4.3384476E0,8.695152E0,1.4450676E1,9.979391E0,4.4955864E0,0E0,5.73385E1,1.6521152E2,4.7323532E1,2.9453232E1,7.529499E0,5.952689E1,2.2010666E1,7.8694916E-1,0E0,0E0,1.6855974E0,6.3407135E0,1.0125748E1,0E0,3.040596E0,5.8170055E1,5.4800262E1,1.4404234E1,2.2799988E1,4.8361572E1,3.725341E1,1.6766323E1,1.6619446E1,0E0,0E0,0E0,0E0,0E0,0E0,0E0,0E0,0E0,0E0,0E0,0E0,0E0,0E0,0E0,0E0,0E0,0E0,0E0,0E0,0E0,0E0,0E0,0E0,0E0,0E0,0E0,0E0,0E0,0E0,0E0,0E0,0E0,0E0,0E0,0E0,0E0,0E0,0E0,0E0,0E0,0E0,0E0,0E0,0E0,0E0,0E0,0E0,0E0,0E0,0E0,0E0,0E0,0E0,0E0,0E0],"parents":[2147483647,0,0,1,1,2,2,3,3,4,4,5,5,6,6,7,7,8,8,9,9,10,10,11,11,12,12,13,13,14,14,15,15,16,16,17,17,18,18,19,19,20,20,21,21,22,22,23,23,24,24,25,25,26,26,27,27,28,28,29,29,30,30,31,31,32,32,33,33,34,34,35,35,36,36,37,37,38,38,40,40,41,41,42,42,43,43,44,44,45,45,46,46,47,47,50,50,51,51,52,52,54,54,55,55,56,56,57,57,58,58,59,59,60,60,61,61,62,62],"right_children":[2,4,6,8,10,12,14,16,18,20,22,24,26,28,30,32,34,36,38,40,42,44,46,48,50,52,54,56,58,60,62,64,66,68,70,72,74,76,78,-1,80,82,84,86,88,90,92,94,-1,-1,96,98,100,-1,102,104,106,108,110,112,114,116,118,-1,-1,-1,-1,-1,-1,-1,-1,-1,-1,-1,-1,-1,-1,-1,-1,-1,-1,-1,-1,-1,-1,-1,-1,-1,-1,-1,-1,-1,-1,-1,-1,-1,-1,-1,-1,-1,-1,-1,-1,-1,-1,-1,-1,-1,-1,-1,-1,-1,-1,-1,-1,-1,-1,-1,-1],"split_conditions":[2.7730848E1,5E0,1E0,1E0,4.6080925E1,3.522783E1,4.313931E1,1E0,3.1607502E1,1.0630146E1,5E0,1E0,1.8062391E1,4.9398705E1,1E0,3.6674243E2,1.0630146E1,2E0,1.7888544E1,1E0,1E0,2E0,1.6552946E1,4.8E1,5E0,-2E1,7.615773E0,1E0,5E0,1E0,9.462322E0,1E0,1E0,1E0,3.5763345E0,4.4418465E1,8.062258E0,1E0,4.9398705E1,2.3343912E-1,1E0,1E0,1.6504362E1,1E0,6.819859E1,1.3038404E1,6E0,2.5E1,5.863629E-3,-4.690853E-2,3.0232433E1,6.8427734E0,1.3E1,-4.2296886E-2,1E0,1.0850176E0,3.2984844E1,2E0,1E0,5E0,3E1,1.7650124E1,1E0,2.829735E-1,6.1299033E-2,1.353223E-1,7.513713E-3,-1.8168382E-2,1.0773973E-1,5.12812E-3,-7.1943715E-2,2.6342567E-2,-3.3283994E-2,1.17487356E-1,4.175991E-2,1.01522235E-2,-5.800776E-2,-1.9932617E-2,-6.0454324E-2,5.1851485E-2,-4.7800846E-2,-7.7882297E-3,2.696435E-2,7.348876E-2,2.929909E-2,2.599169E-2,-3.487709E-2,7.060604E-2,1.4660214E-1,-7.880066E-3,5.1088773E-2,-4.012369E-2,1.4022507E-1,1.9076514E-1,3.9850853E-2,1.3287397E-1,2.3732393E-3,9.5435515E-2,1.5995903E-1,6.804212E-2,1.1157363E-1,1.5561558E-1,5.247347E-2,-3.0565935E-3,1.5411659E-1,-1.111453E-2,-3.7235223E-2,-2.5547901E-2,9.271358E-2,-6.120665E-2,1.9794804E-1,-4.460428E-2,-6.4975716E-2,-2.9178375E-2,1.5097977E-1,2.4651577E-1,-6.005899E-3,-3.546279E-2,9.937083E-2],"split_indices":[21,22,28,20,24,21,21,18,24,21,27,13,23,24,26,23,21,22,21,28,3,26,21,22,23,30,29,6,27,4,24,28,10,4,24,23,21,5,24,0,5,6,24,0,24,23,27,31,0,0,21,24,30,0,0,25,21,26,4,22,30,25,4,0,0,0,0,0,0,0,0,0,0,0,0,0,0,0,0,0,0,0,0,0,0,0,0,0,0,0,0,0,0,0,0,0,0,0,0,0,0,0,0,0,0,0,0,0,0,0,0,0,0,0,0,0,0,0,0],"split_type":[0,0,0,0,0,0,0,0,0,0,0,0,0,0,0,0,0,0,0,0,0,0,0,0,0,0,0,0,0,0,0,0,0,0,0,0,0,0,0,0,0,0,0,0,0,0,0,0,0,0,0,0,0,0,0,0,0,0,0,0,0,0,0,0,0,0,0,0,0,0,0,0,0,0,0,0,0,0,0,0,0,0,0,0,0,0,0,0,0,0,0,0,0,0,0,0,0,0,0,0,0,0,0,0,0,0,0,0,0,0,0,0,0,0,0,0,0,0,0],"sum_hessian":[2.975848E4,1.5562007E4,1.4196475E4,5.32243E3,1.0239576E4,3.4288678E2,1.3853588E4,4.7498086E3,5.726216E2,7.343405E3,2.8961716E3,2.7039637E1,3.1584714E2,6.5280127E3,7.325575E3,4.6258804E3,1.2392808E2,3.127165E2,2.5990512E2,2.1590044E3,5.1844004E3,6.2632465E2,2.269847E3,2.4017849E1,3.0217874E0,2.717248E2,4.412233E1,5.0860127E3,1.4419999E3,5.9126016E3,1.4129731E3,4.2849004E3,3.4098E2,4.6583515E1,7.734457E1,7.680384E1,2.3591264E2,1.7024208E2,8.966304E1,1.6091068E1,2.1429133E3,4.3605933E3,8.2380707E2,5.7514154E2,5.1183113E1,1.3140598E3,9.557871E2,2.3392374E1,6.2547517E-1,5.8490443E-1,2.436883E0,6.3374023E1,2.0835077E2,7.340905E-1,4.338824E1,2.3628833E3,2.7231294E3,2.0384503E2,1.2381548E3,5.877571E3,3.503078E1,3.355603E2,1.0774128E3,1.752209E1,4.2673784E3,3.1013007E2,3.0849945E1,3.925333E1,7.3301845E0,6.1560802E0,7.1188484E1,4.3354935E1,3.344891E1,2.1531107E1,2.1438153E2,1.5207841E2,1.8163664E1,4.1299282E1,4.8363758E1,2.096856E3,4.6057568E1,2.0181182E3,2.342475E3,3.0733585E2,5.1647125E2,5.040096E2,7.1131905E1,3.393989E1,1.724322E1,1.1613998E3,1.5266002E2,9.51344E2,4.4430885E0,2.2504635E1,8.877375E-1,1.1390082E0,1.2978748E0,2.8905066E1,3.446896E1,7.08916E1,1.3745917E2,3.9604248E1,3.7839904E0,2.3450647E3,1.7818598E1,1.01764886E3,1.7054803E3,1.9629385E2,7.551187E0,1.2364025E3,1.7523546E0,1.1618405E3,4.7157305E3,1.9107714E1,1.5923068E1,1.097898E0,3.344624E2,1.0710494E3,6.363493E0],"tree_param":{"num_deleted":"0","num_feature":"32","num_nodes":"119","size_leaf_vector":"1"}},{"base_weights":[-1.0108788E-2,2.7848357E-1,-4.2285725E-1,5.568146E-1,1.3742962E-1,1.1601498E0,-4.6888596E-1,5.820004E-1,-4.5187473E-1,3.4424692E-1,-5.7776365E-3,1.3882397E0,1.0675493E0,-5.4116625E-1,-1.7155832E-1,6.4036167E-1,1.1466992E-1,1.5609381E0,-5.1836884E-1,3.8165295E-1,-4.3586883E-1,7.646234E-2,-3.5755235E-1,1.4342207E0,4.693038E-1,1.0076838E0,1.565317E0,-3.872812E-1,-6.493303E-1,-1.787568E-2,-3.3087295E-1,1.1620907E0,5.985098E-1,3.3406135E-1,-1.3983862E-1,2.3803489E-1,2.407372E0,-6.523385E-1,4.083256E-1,9.8255455E-1,3.3605254E-1,-2.0773263E-1,-6.3008666E-1,1.2021478E-1,-3.5775775E-1,-4.6789104E-1,8.20537E-2,1.4507146E0,-3.6529645E-2,-6.077284E-2,9.072349E-1,8.9335614E-1,1.2681448E0,1.937509E-1,1.6605892E0,-2.5306204E-1,-6.192815E-1,-4.5074835E-1,-6.994585E-1,8.441413E-2,-3.0809614E-1,-2.545544E-1,-5.9970385E-1,1.1469614E-1,-5.20686E-3,4.7244612E-2,8.076832E-2,3.8789064E-2,-2.4405122E-2,-4.0583547E-2,-2.9846427E-3,5.7225194E-2,-4.082925E-2,2.3289382E-2,2.463808E-1,-4.4301763E-2,-8.498657E-2,1.7197593E-1,2.200269E-3,7.5955704E-2,1.3040555E-1,3.53442E-2,-6.757943E-3,-2.435985E-2,1.0051372E-1,-5.899299E-2,4.017534E-2,1.5509874E-1,9.617596E-3,-1.3459619E-2,-5.5765104E-2,-4.335727E-2,1.15629055E-1,3.9621856E-4,6.147874E-2,9.376123E-3,1.2982427E-1,1.4505701E-1,3.2438386E-2,8.569994E-2,-3.1358139E-3,6.1414726E-2,1.3082677E-1,6.5997735E-2,-2.733495E-2,1.5722029E-1,2.758919E-2,-3.6465728E-3,-3.0777898E-2,-5.9163455E-2,-2.9092742E-2,-8.438435E-2,-3.5859045E-2,-6.274075E-2,8.0817364E-2,4.952032E-2,2.9248663E-3,-7.454959E-2,-1.9274099E-2,-7.5953326E-4,-3.0135801E-2,1.4740294E-1,-5.4679316E-2],"categories":[],"categories_nodes":[],"categories_segments":[],"categories_sizes":[],"default_left":[0,0,0,0,0,0,0,0,0,0,0,0,0,0,0,0,0,0,0,0,0,0,0,0,0,0,0,0,0,0,0,0,0,0,0,0,0,0,0,0,0,0,0,0,0,0,0,0,0,0,1,0,0,0,0,0,0,1,0,0,0,0,0,0,0,0,0,0,0,0,0,0,0,0,0,0,0,0,0,0,0,0,0,0,0,0,0,0,0,0,0,0,0,0,0,0,0,0,0,0,0,0,0,0,0,0,0,0,0,0,0,0,0,0,0,0,0,0,0,0,0,0,0],"id":7,"left_children":[1,3,5,7,9,11,13,15,17,19,21,23,25,27,29,31,33,35,37,39,41,43,45,47,49,51,53,55,57,59,61,63,65,67,69,71,73,75,77,79,81,83,85,87,89,91,93,95,-1,-1,97,99,101,103,105,107,109,111,113,115,117,119,121,-1,-1,-1,-1,-1,-1,-1,-1,-1,-1,-1,-1,-1,-1,-1,-1,-1,-1,-1,-1,-1,-1,-1,-1,-1,-1,-1,-1,-1,-1,-1,-1,-1,-1,-1,-1,-1,-1,-1,-1,-1,-1,-1,-1,-1,-1,-1,-1,-1,-1,-1,-1,-1,-1,-1,-1,-1,-1,-1,-1],"loss_changes":[3.5340432E3,6.8542017E2,8.9008984E2,1.4944568E2,3.432507E2,5.8098145E0,2.5487793E2,1.5619727E2,2.0030539E1,1.3853107E2,1.9815965E2,3.3984222E0,5.868805E0,1.5859863E2,5.6835938E1,1.1051929E2,3.5632442E1,4.848728E0,1.761898E1,1.2366589E2,9.502609E0,1.05516754E2,6.299431E1,3.3722076E0,3.6851945E0,5.592697E0,2.947544E0,1.22582886E2,5.5458496E1,3.513769E1,2.3233528E1,5.8103912E1,9.837463E1,2.1280594E1,9.919337E0,1.1400396E0,1.4706154E0,5.254307E0,1.0626856E1,1.8642426E1,1.0557733E2,9.239847E0,4.4033165E0,9.961669E1,2.811277E1,3.5550766E1,1.2332175E1,7.4050903E-1,0E0,0E0,1.3007357E0,1.03268585E1,6.7253494E0,9.83377E-1,2.756279E0,4.906482E1,1.886621E1,2.6634048E1,3.7836426E1,2.1273945E1,1.4774441E1,1.835817E1,9.173882E0,0E0,0E0,0E0,0E0,0E0,0E0,0E0,0E0,0E0,0E0,0E0,0E0,0E0,0E0,0E0,0E0,0E0,0E0,0E0,0E0,0E0,0E0,0E0,0E0,0E0,0E0,0E0,0E0,0E0,0E0,0E0,0E0,0E0,0E0,0E0,0E0,0E0,0E0,0E0,0E0,0E0,0E0,0E0,0E0,0E0,0E0,0E0,0E0,0E0,0E0,0E0,0E0,0E0,0E0,0E0,0E0,0E0,0E0,0E0,0E0],"parents":[2147483647,0,0,1,1,2,2,3,3,4,4,5,5,6,6,7,7,8,8,9,9,10,10,11,11,12,12,13,13,14,14,15,15,16,16,17,17,18,18,19,19,20,20,21,21,22,22,23,23,24,24,25,25,26,26,27,27,28,28,29,29,30,30,31,31,32,32,33,33,34,34,35,35,36,36,37,37,38,38,39,39,40,40,41,41,42,42,43,43,44,44,45,45,46,46,47,47,50,50,51,51,52,52,53,53,54,54,55,55,56,56,57,57,58,58,59,59,60,60,61,61,62,62],"right_children":[2,4,6,8,10,12,14,16,18,20,22,24,26,28,30,32,34,36,38,40,42,44,46,48,50,52,54,56,58,60,62,64,66,68,70,72,74,76,78,80,82,84,86,88,90,92,94,96,-1,-1,98,100,102,104,106,108,110,112,114,116,118,120,122,-1,-1,-1,-1,-1,-1,-1,-1,-1,-1,-1,-1,-1,-1,-1,-1,-1,-1,-1,-1,-1,-1,-1,-1,-1,-1,-1,-1,-1,-1,-1,-1,-1,-1,-1,-1,-1,-1,-1,-1,-1,-1,-1,-1,-1,-1,-1,-1,-1,-1,-1,-1,-1,-1,-1,-1,-1,-1,-1,-1],"split_conditions":[3.1144823E1,5E0,1E0,1.7426991E2,1.3453624E1,6E0,1E0,1E0,4.472136E0,1E0,5.4462322E1,4.6080925E1,1.2815616E2,4.313931E1,4.632494E1,1E0,3.0256437E1,1E0,1E0,6.0827627E0,7.071068E0,1E0,1E0,1E0,1.174261E1,2.5E1,-3.6E1,4.0100906E1,5E0,4.0462227E1,1E0,1E0,1E0,4.4418465E1,2E0,3E0,1.42810955E1,2.059126E1,7.81025E0,1E0,6.1927513E1,1.6643316E1,9.1E1,1E0,2.9859016E1,9.2E1,2E0,6.32759E-1,-3.6529645E-2,-6.077284E-2,1.979899E1,2.2E1,1.0222169E1,-3.8E1,1E0,7E0,1E0,7.071068E0,1E0,5E0,-3.1E1,9.462322E0,-7.6E1,1.1469614E-1,-5.20686E-3,4.7244612E-2,8.076832E-2,3.8789064E-2,-2.4405122E-2,-4.0583547E-2,-2.9846427E-3,5.7225194E-2,-4.082925E-2,2.3289382E-2,2.463808E-1,-4.4301763E-2,-8.498657E-2,1.7197593E-1,2.200269E-3,7.5955704E-2,1.3040555E-1,3.53442E-2,-6.757943E-3,-2.435985E-2,1.0051372E-1,-5.899299E-2,4.017534E-2,1.5509874E-1,9.617596E-3,-1.3459619E-2,-5.5765104E-2,-4.335727E-2,1.15629055E-1,3.9621856E-4,6.147874E-2,9.376123E-3,1.2982427E-1,1.4505701E-1,3.2438386E-2,8.569994E-2,-3.1358139E-3,6.1414726E-2,1.3082677E-1,6.5997735E-2,-2.733495E-2,1.5722029E-1,2.758919E-2,-3.6465728E-3,-3.0777898E-2,-5.9163455E-2,-2.9092742E-2,-8.438435E-2,-3.5859045E-2,-6.274075E-2,8.0817364E-2,4.952032E-2,2.9248663E-3,-7.454959E-2,-1.9274099E-2,-7.5953326E-4,-3.0135801E-2,1.4740294E-1,-5.4679316E-2],"split_indices":[21,22,28,29,21,22,26,20,21,5,24,24,29,21,21,22,24,6,4,21,21,0,26,18,23,22,31,24,22,24,6,10,26,23,22,31,24,21,21,4,24,23,30,28,24,30,26,25,0,0,23,22,24,31,10,22,2,29,1,22,31,24,30,0,0,0,0,0,0,0,0,0,0,0,0,0,0,0,0,0,0,0,0,0,0,0,0,0,0,0,0,0,0,0,0,0,0,0,0,0,0,0,0,0,0,0,0,0,0,0,0,0,0,0,0,0,0,0,0,0,0,0,0],"split_type":[0,0,0,0,0,0,0,0,0,0,0,0,0,0,0,0,0,0,0,0,0,0,0,0,0,0,0,0,0,0,0,0,0,0,0,0,0,0,0,0,0,0,0,0,0,0,0,0,0,0,0,0,0,0,0,0,0,0,0,0,0,0,0,0,0,0,0,0,0,0,0,0,0,0,0,0,0,0,0,0,0,0,0,0,0,0,0,0,0,0,0,0,0,0,0,0,0,0,0,0,0,0,0,0,0,0,0,0,0,0,0,0,0,0,0,0,0,0,0,0,0,0,0],"sum_hessian":[2.9666918E4,1.745957E4,1.2207348E4,5.871277E3,1.1588293E4,3.442369E2,1.1863111E4,5.728662E3,1.426145E2,4.7406006E3,6.8476924E3,9.535938E1,2.4887752E2,9.542509E3,2.320602E3,5.0923477E3,6.363146E2,3.841944E0,1.3877255E2,4.52418E3,2.1642058E2,5.5507803E3,1.2969117E3,9.028123E1,5.0781593E0,2.2485857E2,2.4018955E1,3.940682E3,5.601827E3,1.1817452E3,1.1388568E3,3.761731E2,4.716175E3,3.415656E2,2.9474893E2,1.998961E0,1.842983E0,1.2150323E2,1.7269327E1,3.1765958E2,4.2065205E3,1.0047184E2,1.1594874E2,5.0433325E3,5.0744788E2,1.0366532E3,2.6025854E2,8.969265E1,5.885791E-1,1.2450132E0,3.8331459E0,1.5934508E2,6.551349E1,1.7570871E0,2.2261868E1,2.4977493E3,1.4429325E3,1.1310768E3,4.4707505E3,8.743019E2,3.074434E2,8.885522E2,2.5030463E2,3.409116E2,3.5261497E1,3.8677297E3,8.48445E2,2.9292468E2,4.8640923E1,7.338395E1,2.2136497E2,1.3133733E0,6.8558764E-1,5.1254576E-1,1.3304373E0,8.2092415E1,3.9410812E1,2.6626399E0,1.4606688E1,2.5257045E2,6.508912E1,3.664825E3,5.416955E2,9.651226E1,3.959578E0,1.12945724E2,3.0030146E0,3.6601257E1,5.0067314E3,2.8768375E2,2.1976413E2,1.02631E3,1.0343145E1,2.317106E2,2.8547935E1,5.690839E-1,8.9123566E1,7.866078E-1,3.046538E0,1.4827017E2,1.1074905E1,1.8047806E1,4.7465683E1,6.099825E-1,1.1471046E0,2.036921E1,1.8926588E0,7.5950494E2,1.7382444E3,1.2488113E3,1.9412115E2,9.801047E1,1.0330664E3,4.456958E3,1.3792628E1,8.5186935E1,7.891149E2,4.4178482E1,2.632649E2,2.2623453E2,6.623176E2,8.6433923E-1,2.4944028E2],"tree_param":{"num_deleted":"0","num_feature":"32","num_nodes":"123","size_leaf_vector":"1"}},{"base_weights":[-8.75755E-3,2.503611E-1,-4.0565357E-1,5.2831674E-1,1.3652794E-1,9.990695E-1,-4.4918975E-1,6.9334763E-1,3.8269132E-1,2.9440165E-1,-1.1348343E-2,1.7010688E0,9.5991355E-1,-5.229506E-1,-1.5531826E-1,7.275697E-1,-1.4826065E-1,2.4499443E-1,6.442736E-1,2.5486863E-1,8.7976587E-1,6.635344E-2,-3.5259816E-1,1.8314509E0,-1.669241E-2,1.1761719E0,8.780656E-1,-3.7476557E-1,-6.2701625E-1,3.9605013E-1,-1.9231892E-1,1.1367171E0,6.5427285E-1,-3.5452515E-1,4.8580033E-1,4.828163E-1,2.3762304E-2,7.605289E-1,1.0395137E-1,2.2350464E0,2.4471591E-1,1.0627195E0,4.566706E-1,1.0518929E-1,-3.8158187E-1,-4.5256773E-1,4.5886572E-2,1.6900852E-1,2.8687729E-2,1.2012743E0,-2.947002E-1,-6.906845E-2,8.901905E-1,-2.2905754E-1,-5.8674276E-1,-4.3442222E-1,-6.7631644E-1,8.4807545E-1,1.1732165E-1,-5.8550406E-1,-1.4852303E-1,4.3810844E-2,1.2164897E-1,4.603137E-2,6.957974E-2,1.1615377E-1,-3.545475E-2,-4.5134183E-2,7.0797965E-2,1.4159107E-1,3.864888E-2,-5.600265E-3,5.623365E-2,6.07066E-2,1.1921587E-1,7.0231673E-3,2.3575869E-1,2.0965059E-1,5.463934E-2,2.4314463E-2,-4.0484186E-2,1.1548683E-1,6.31513E-2,1.3430044E-1,1.8033609E-2,8.355785E-3,1.4200881E-1,-1.4431079E-2,-5.109787E-2,-4.2217802E-2,7.977675E-2,3.207877E-2,-1.4508257E-2,1.0840612E-1,-1.241622E-2,-4.7517527E-2,1.4700043E-2,1.2477195E-1,7.428587E-2,1.0862649E-2,-2.6022555E-2,-5.6435663E-2,-2.7339889E-2,-8.475795E-2,-3.467219E-2,-6.0864627E-2,3.92312E-2,8.981645E-2,-1.7963203E-2,7.814044E-2,-1.94043E-3,-6.43065E-3,-5.53827E-2,-7.4119645E-4,-2.4510209E-2],"categories":[],"categories_nodes":[],"categories_segments":[],"categories_sizes":[],"default_left":[0,0,0,0,0,0,0,0,0,0,0,0,0,0,0,0,0,0,0,0,0,0,0,0,0,0,0,0,0,0,0,1,0,0,0,0,0,0,0,0,0,0,0,0,0,0,0,0,0,0,0,0,0,0,0,1,0,0,0,0,0,0,0,0,0,0,0,0,0,0,0,0,0,0,0,0,0,0,0,0,0,0,0,0,0,0,0,0,0,0,0,0,0,0,0,0,0,0,0,0,0,0,0,0,0,0,0,0,0,0,0,0,0,0,0],"id":8,"left_children":[1,3,5,7,9,11,13,15,17,19,21,23,25,27,29,31,33,35,37,39,41,43,45,47,-1,49,51,53,55,57,59,61,63,65,67,69,71,73,75,77,79,81,83,85,87,89,91,-1,-1,93,95,-1,97,99,101,103,105,107,109,111,113,-1,-1,-1,-1,-1,-1,-1,-1,-1,-1,-1,-1,-1,-1,-1,-1,-1,-1,-1,-1,-1,-1,-1,-1,-1,-1,-1,-1,-1,-1,-1,-1,-1,-1,-1,-1,-1,-1,-1,-1,-1,-1,-1,-1,-1,-1,-1,-1,-1,-1,-1,-1,-1,-1],"loss_changes":[3.039254E3,5.6564514E2,7.143157E2,1.24572266E2,2.961679E2,8.020935E0,2.4535059E2,7.020459E1,9.931653E1,1.417619E2,1.7373766E2,4.5931892E0,4.895935E0,1.3933203E2,4.6451015E1,6.939636E1,1.2718068E1,9.526767E1,5.970871E1,1.1502954E2,2.9529358E1,9.2884865E1,4.843077E1,1.0222015E0,0E0,3.64077E0,5.6419067E0,1.1526605E2,5.0173584E1,1.7952562E1,3.660669E1,5.170282E1,3.4269836E1,5.80455E0,7.762808E0,4.6426086E1,4.9509163E1,3.4750946E1,1.0614871E1,4.21402E0,1.13580414E2,2.1436646E1,3.1447298E1,8.28783E1,1.7889511E1,2.8693726E1,1.6119385E1,0E0,0E0,2.077713E0,3.4045583E-1,0E0,5.847183E0,4.9197563E1,1.9838501E1,2.4933563E1,3.4542847E1,9.392998E0,9.515577E0,3.9490356E0,3.4092243E1,0E0,0E0,0E0,0E0,0E0,0E0,0E0,0E0,0E0,0E0,0E0,0E0,0E0,0E0,0E0,0E0,0E0,0E0,0E0,0E0,0E0,0E0,0E0,0E0,0E0,0E0,0E0,0E0,0E0,0E0,0E0,0E0,0E0,0E0,0E0,0E0,0E0,0E0,0E0,0E0,0E0,0E0,0E0,0E0,0E0,0E0,0E0,0E0,0E0,0E0,0E0,0E0,0E0,0E0],"parents":[2147483647,0,0,1,1,2,2,3,3,4,4,5,5,6,6,7,7,8,8,9,9,10,10,11,11,12,12,13,13,14,14,15,15,16,16,17,17,18,18,19,19,20,20,21,21,22,22,23,23,25,25,26,26,27,27,28,28,29,29,30,30,31,31,32,32,33,33,34,34,35,35,36,36,37,37,38,38,39,39,40,40,41,41,42,42,43,43,44,44,45,45,46,46,49,49,50,50,52,52,53,53,54,54,55,55,56,56,57,57,58,58,59,59,60,60],"right_children":[2,4,6,8,10,12,14,16,18,20,22,24,26,28,30,32,34,36,38,40,42,44,46,48,-1,50,52,54,56,58,60,62,64,66,68,70,72,74,76,78,80,82,84,86,88,90,92,-1,-1,94,96,-1,98,100,102,104,106,108,110,112,114,-1,-1,-1,-1,-1,-1,-1,-1,-1,-1,-1,-1,-1,-1,-1,-1,-1,-1,-1,-1,-1,-1,-1,-1,-1,-1,-1,-1,-1,-1,-1,-1,-1,-1,-1,-1,-1,-1,-1,-1,-1,-1,-1,-1,-1,-1,-1,-1,-1,-1,-1,-1,-1,-1],"split_conditions":[3.138471E1,4E0,1E0,1.118034E1,1.5231546E1,3.522783E1,1E0,1E0,1E0,1.7691807E1,5.4462322E1,2.4E1,6E0,4.313931E1,4E0,6.0827627E0,1E0,2.5201124E1,3E0,1E0,1E0,1E0,1E0,1E0,-1.669241E-2,5.6309933E1,5.3851647E0,3.747618E1,5E0,3.8600517E1,-2.7E1,5E0,2E0,-9E0,5E0,0E0,1E0,6.819859E1,9.1E1,1.4142136E1,1E0,7E0,9.162347E0,6E0,1.979899E1,9.1E1,1E0,1.6900852E-1,2.8687729E-2,1.5023315E2,1E0,-6.906845E-2,-5.6E1,4E0,1E0,6E0,1E0,1E0,7E0,1.2083046E1,4.5607018E1,4.3810844E-2,1.2164897E-1,4.603137E-2,6.957974E-2,1.1615377E-1,-3.545475E-2,-4.5134183E-2,7.0797965E-2,1.4159107E-1,3.864888E-2,-5.600265E-3,5.623365E-2,6.07066E-2,1.1921587E-1,7.0231673E-3,2.3575869E-1,2.0965059E-1,5.463934E-2,2.4314463E-2,-4.0484186E-2,1.1548683E-1,6.31513E-2,1.3430044E-1,1.8033609E-2,8.355785E-3,1.4200881E-1,-1.4431079E-2,-5.109787E-2,-4.2217802E-2,7.977675E-2,3.207877E-2,-1.4508257E-2,1.0840612E-1,-1.241622E-2,-4.7517527E-2,1.4700043E-2,1.2477195E-1,7.428587E-2,1.0862649E-2,-2.6022555E-2,-5.6435663E-2,-2.7339889E-2,-8.475795E-2,-3.467219E-2,-6.0864627E-2,3.92312E-2,8.981645E-2,-1.7963203E-2,7.814044E-2,-1.94043E-3,-6.43065E-3,-5.53827E-2,-7.4119645E-4,-2.4510209E-2],"split_indices":[21,22,28,21,21,21,26,5,17,23,24,31,22,21,27,21,17,24,22,28,20,0,26,13,0,24,29,24,22,21,31,29,22,31,23,26,26,25,30,21,5,22,24,27,21,30,6,0,0,29,19,0,30,22,2,29,4,8,22,29,21,0,0,0,0,0,0,0,0,0,0,0,0,0,0,0,0,0,0,0,0,0,0,0,0,0,0,0,0,0,0,0,0,0,0,0,0,0,0,0,0,0,0,0,0,0,0,0,0,0,0,0,0,0,0],"split_type":[0,0,0,0,0,0,0,0,0,0,0,0,0,0,0,0,0,0,0,0,0,0,0,0,0,0,0,0,0,0,0,0,0,0,0,0,0,0,0,0,0,0,0,0,0,0,0,0,0,0,0,0,0,0,0,0,0,0,0,0,0,0,0,0,0,0,0,0,0,0,0,0,0,0,0,0,0,0,0,0,0,0,0,0,0,0,0,0,0,0,0,0,0,0,0,0,0,0,0,0,0,0,0,0,0,0,0,0,0,0,0,0,0,0,0],"sum_hessian":[2.9550328E4,1.7878492E4,1.1671834E4,5.1934897E3,1.2685003E4,3.502077E2,1.1321627E4,2.4327737E3,2.7607158E3,6.134635E3,6.5503687E3,1.6259504E1,3.339482E2,9.049461E3,2.272166E3,2.337846E3,9.492775E1,1.809914E3,9.50802E2,5.7478823E3,3.867524E2,5.336146E3,1.2142224E3,1.52377405E1,1.0217638E0,8.801777E1,2.4593044E2,3.735241E3,5.3142197E3,1.4227907E2,2.129887E3,3.5298035E2,1.9848656E3,7.195964E1,2.296811E1,8.7168286E2,9.38231E2,7.821151E2,1.686869E2,2.820219E1,5.71968E3,2.689445E2,1.1780791E2,4.9111187E3,4.250273E2,9.705905E2,2.4363188E2,1.4346408E1,8.913325E-1,8.672105E1,1.2967229E0,1.3316035E0,2.4459883E2,2.2148718E3,1.5203693E3,1.0850848E3,4.229135E3,5.348981E1,8.878925E1,2.1222568E2,1.9176613E3,9.3496315E1,2.5948404E2,9.5685443E2,1.0280112E3,1.1048009E0,7.0854836E1,5.304835E0,1.7663275E1,3.5426308E1,8.362566E2,8.219367E2,1.1629433E2,6.90314E2,9.1801056E1,1.680613E2,6.2560344E-1,2.5844936E1,2.357253E0,5.497395E3,2.2228517E2,1.6013182E2,1.08812675E2,2.1967863E1,9.584005E1,4.875051E3,3.6068253E1,1.9932939E2,2.2569792E2,9.559444E2,1.4646131E1,9.69499E1,1.4668199E2,8.577508E1,9.4596815E-1,7.4755025E-1,5.4917264E-1,2.1739279E1,2.2285956E2,3.377607E2,1.8771111E3,1.3002369E3,2.2013234E2,8.523728E1,9.998476E2,4.2022554E3,2.687916E1,4.6425007E1,7.064802E0,1.2912674E1,7.587658E1,1.4284816E1,1.9794086E2,9.1102515E2,1.00663617E3],"tree_param":{"num_deleted":"0","num_feature":"32","num_nodes":"115","size_leaf_vector":"1"}},{"base_weights":[-8.338831E-3,2.3474748E-1,-3.7171525E-1,4.7241032E-1,1.3311392E-1,8.5763454E-1,-4.1145983E-1,4.962809E-1,-4.7800112E-1,2.6626083E-1,-6.088239E-3,7.816518E-1,1.1345083E0,-2.5591964E-1,-5.3544843E-1,5.424681E-1,4.5368683E-2,-4.750406E-2,-7.336109E-1,1.7301065E0,2.525299E-1,3.7607327E-1,-6.971916E-2,8.036549E-1,-2.6141754E-1,-2.2204584E-2,1.1562638E0,-1.6520244E-1,-5.888669E-1,-6.025276E-1,-2.7889287E-1,5.6560326E-1,-3.2384378E-1,1.4948161E-1,-5.1426554E-1,-2.3129039E-1,6.9013757E-1,8.262109E-2,-8.1007993E-1,1.7587665E0,-4.2408586E-2,2.1963131E-1,7.363274E-1,4.9994776E-1,-2.6440066E-1,-2.1114158E-3,-4.3172294E-1,6.5875816E-1,9.538215E-1,-6.5119755E-1,6.423399E-1,1.5013355E-1,1.0559418E0,-1.8047841E-2,-3.004962E-1,-6.565693E-1,-1.6064356E-1,-6.1152875E-1,6.574419E-1,-2.946066E-1,1.1916844E0,2.2911392E-1,4.956759E-2,4.997756E-3,-5.6663275E-2,-1.7080389E-2,2.7090646E-2,-1.714614E-2,-7.194754E-2,-3.493351E-2,9.752228E-2,9.60175E-2,1.6207391E-2,6.752497E-2,-5.3249195E-2,-7.318336E-2,2.7186278E-2,7.228659E-2,1.6593543E-1,3.3468153E-2,1.1474535E-2,7.233658E-2,1.23277325E-2,4.1086275E-2,1.4936602E-1,1.16691016E-1,-2.6799666E-2,2.409199E-2,-7.6149018E-3,-2.059519E-2,-5.479562E-2,8.662977E-2,3.4128673E-2,5.4048575E-2,9.298914E-2,-8.309465E-2,1.625904E-2,-2.4186578E-2,1.2126847E-1,1.3718592E-1,7.832384E-2,1.2488049E-3,-7.4161805E-2,-2.9793477E-2,1.6609449E-3,-5.9167486E-2,2.3098674E-1,-6.3769355E-2,5.926327E-5,-3.7625633E-2,-5.884489E-2,-1.2844971E-2,1.2512507E-1,-4.9263425E-3,-3.3165812E-2,1.3049173E-1,-3.3814546E-3],"categories":[],"categories_nodes":[],"categories_segments":[],"categories_sizes":[],"default_left":[0,0,0,0,0,0,0,0,0,0,0,0,1,0,0,0,0,0,0,0,0,0,0,0,0,0,0,0,0,0,0,0,0,0,0,0,0,0,0,0,0,0,0,0,0,0,0,0,0,0,0,0,0,0,0,0,0,0,0,0,0,0,0,0,0,0,0,0,0,0,0,0,0,0,0,0,0,0,0,0,0,0,0,0,0,0,0,0,0,0,0,0,0,0,0,0,0,0,0,0,0,0,0,0,0,0,0,0,0,0,0,0,0,0,0,0,0],"id":9,"left_children":[1,3,5,7,9,11,13,15,17,19,21,23,25,27,29,31,33,35,37,39,41,43,45,47,49,-1,51,53,55,57,59,61,63,65,67,69,71,73,75,77,-1,79,81,83,85,87,89,91,93,95,97,-1,99,101,103,105,107,109,111,113,115,-1,-1,-1,-1,-1,-1,-1,-1,-1,-1,-1,-1,-1,-1,-1,-1,-1,-1,-1,-1,-1,-1,-1,-1,-1,-1,-1,-1,-1,-1,-1,-1,-1,-1,-1,-1,-1,-1,-1,-1,-1,-1,-1,-1,-1,-1,-1,-1,-1,-1,-1,-1,-1,-1,-1,-1],"loss_changes":[2.599766E3,4.258968E2,5.767562E2,1.2006848E2,2.2897144E2,6.8924255E0,2.2025977E2,1.0729468E2,1.4261581E1,1.26479675E2,1.4691608E2,6.943039E0,2.6189728E0,1.5306955E2,1.0925354E2,9.386426E1,2.8037046E1,6.866396E0,5.15073E0,4.537384E0,9.9422424E1,6.855079E1,1.26755875E2,5.6283417E0,2.8190284E0,0E0,2.2802658E0,7.936452E1,3.1363739E1,5.755542E1,3.0847328E1,8.005493E1,1.4549304E1,2.1472467E1,6.9792786E0,9.050449E0,1.7997112E0,4.079981E0,1.235199E0,4.2417755E0,0E0,8.305063E1,1.7988022E1,3.201239E1,8.484636E0,9.930803E1,2.9862076E1,1.2571686E1,3.7293396E0,1.4068861E0,2.0517285E0,0E0,4.3626785E0,4.994673E1,2.261702E1,2.5889435E1,1.3398422E1,4.6387817E1,2.1922688E1,2.4325684E1,4.820902E0,0E0,0E0,0E0,0E0,0E0,0E0,0E0,0E0,0E0,0E0,0E0,0E0,0E0,0E0,0E0,0E0,0E0,0E0,0E0,0E0,0E0,0E0,0E0,0E0,0E0,0E0,0E0,0E0,0E0,0E0,0E0,0E0,0E0,0E0,0E0,0E0,0E0,0E0,0E0,0E0,0E0,0E0,0E0,0E0,0E0,0E0,0E0,0E0,0E0,0E0,0E0,0E0,0E0,0E0,0E0,0E0],"parents":[2147483647,0,0,1,1,2,2,3,3,4,4,5,5,6,6,7,7,8,8,9,9,10,10,11,11,12,12,13,13,14,14,15,15,16,16,17,17,18,18,19,19,20,20,21,21,22,22,23,23,24,24,26,26,27,27,28,28,29,29,30,30,31,31,32,32,33,33,34,34,35,35,36,36,37,37,38,38,39,39,41,41,42,42,43,43,44,44,45,45,46,46,47,47,48,48,49,49,50,50,52,52,53,53,54,54,55,55,56,56,57,57,58,58,59,59,60,60],"right_children":[2,4,6,8,10,12,14,16,18,20,22,24,26,28,30,32,34,36,38,40,42,44,46,48,50,-1,52,54,56,58,60,62,64,66,68,70,72,74,76,78,-1,80,82,84,86,88,90,92,94,96,98,-1,100,102,104,106,108,110,112,114,116,-1,-1,-1,-1,-1,-1,-1,-1,-1,-1,-1,-1,-1,-1,-1,-1,-1,-1,-1,-1,-1,-1,-1,-1,-1,-1,-1,-1,-1,-1,-1,-1,-1,-1,-1,-1,-1,-1,-1,-1,-1,-1,-1,-1,-1,-1,-1,-1,-1,-1,-1,-1,-1,-1,-1,-1],"split_conditions":[3.0232433E1,4E0,1E0,1E0,3.0256437E1,1.4395215E1,4.313931E1,1E0,1.0630146E1,1E0,8E0,5.2431408E1,1.5132746E1,4.8691387E1,1E0,1E0,5.9931416E1,1E0,3.5763345E0,1E0,1.7691807E1,1E0,1E0,1.4E1,4.3863426E1,-2.2204584E-2,3.6878178E1,1E0,1E0,1E0,1E0,1E0,2.7512003E1,2E0,1.3038404E1,1E0,8.602325E0,1.9235384E1,8.9E1,6.3E1,-4.2408586E-2,1.2206555E1,1E0,2.2638462E1,0E0,5E0,1.3341664E1,-2E1,1E0,1E0,1.1E1,1.5013355E-1,1E1,1E0,1E0,1E0,-3.1E1,5E0,2.9E1,9.462322E0,6.4884514E1,2.2911392E-1,4.956759E-2,4.997756E-3,-5.6663275E-2,-1.7080389E-2,2.7090646E-2,-1.714614E-2,-7.194754E-2,-3.493351E-2,9.752228E-2,9.60175E-2,1.6207391E-2,6.752497E-2,-5.3249195E-2,-7.318336E-2,2.7186278E-2,7.228659E-2,1.6593543E-1,3.3468153E-2,1.1474535E-2,7.233658E-2,1.23277325E-2,4.1086275E-2,1.4936602E-1,1.16691016E-1,-2.6799666E-2,2.409199E-2,-7.6149018E-3,-2.059519E-2,-5.479562E-2,8.662977E-2,3.4128673E-2,5.4048575E-2,9.298914E-2,-8.309465E-2,1.625904E-2,-2.4186578E-2,1.2126847E-1,1.3718592E-1,7.832384E-2,1.2488049E-3,-7.4161805E-2,-2.9793477E-2,1.6609449E-3,-5.9167486E-2,2.3098674E-1,-6.3769355E-2,5.926327E-5,-3.7625633E-2,-5.884489E-2,-1.2844971E-2,1.2512507E-1,-4.9263425E-3,-3.3165812E-2,1.3049173E-1,-3.3814546E-3],"split_indices":[21,22,28,18,24,23,21,20,21,28,21,24,29,24,26,12,24,4,24,2,23,5,0,30,21,0,21,6,2,4,4,28,24,22,21,1,21,21,30,30,0,21,4,23,26,27,21,30,6,12,22,0,30,0,10,1,31,22,30,24,21,0,0,0,0,0,0,0,0,0,0,0,0,0,0,0,0,0,0,0,0,0,0,0,0,0,0,0,0,0,0,0,0,0,0,0,0,0,0,0,0,0,0,0,0,0,0,0,0,0,0,0,0,0,0,0,0],"split_type":[0,0,0,0,0,0,0,0,0,0,0,0,0,0,0,0,0,0,0,0,0,0,0,0,0,0,0,0,0,0,0,0,0,0,0,0,0,0,0,0,0,0,0,0,0,0,0,0,0,0,0,0,0,0,0,0,0,0,0,0,0,0,0,0,0,0,0,0,0,0,0,0,0,0,0,0,0,0,0,0,0,0,0,0,0,0,0,0,0,0,0,0,0,0,0,0,0,0,0,0,0,0,0,0,0,0,0,0,0,0,0,0,0,0,0,0,0],"sum_hessian":[2.9429826E4,1.7633785E4,1.1796041E4,5.2809683E3,1.2352816E4,3.6877545E2,1.1427266E4,5.152047E3,1.2892114E2,6.313264E3,6.0395522E3,2.9236462E2,7.641085E1,5.070071E3,6.3571943E3,4.673169E3,4.7887814E2,4.8471493E1,8.044965E1,5.7506805E1,6.2557573E3,8.6136456E2,5.1781875E3,2.865495E2,5.8151183E0,1.0207018E0,7.5390144E1,3.985617E3,1.0844539E3,5.0384814E3,1.318713E3,4.551954E3,1.21214615E2,4.0438104E2,7.449712E1,3.935299E1,9.1185055E0,6.8844466E0,7.356521E1,5.696967E1,5.371357E-1,5.858808E3,3.969492E2,7.21951E2,1.3941357E2,4.3641465E3,8.1404114E2,1.4857518E2,1.3797432E2,4.2581034E0,1.5570148E0,9.48519E0,6.590495E1,1.9096675E3,2.0759495E3,9.359468E2,1.4850705E2,5.0032534E3,3.5228195E1,1.3055623E3,1.3150804E1,1.8853445E1,4.5331006E3,5.5075497E1,6.613912E1,1.2608687E2,2.7829416E2,3.6348408E1,3.8148712E1,3.5720722E1,3.6322653E0,4.53288E0,4.585626E0,3.3974001E0,3.4870467E0,7.305326E1,5.119474E-1,6.550095E0,5.0419575E1,2.151642E3,3.707166E3,3.5182272E2,4.512647E1,7.0043506E2,2.1515944E1,2.374307E0,1.3703928E2,1.02171533E3,3.3424312E3,3.9036194E2,4.2367923E2,6.822788E1,8.0347305E1,3.0155758E1,1.0781856E2,3.0927515E0,1.165352E0,9.601089E-1,5.969059E-1,1.5511623E1,5.0393333E1,1.8382943E3,7.137322E1,1.8754513E3,2.0049825E2,9.344616E2,1.4851516E0,3.264365E1,1.158634E2,1.0380995E3,3.9651538E3,1.7391151E1,1.7837042E1,3.209913E2,9.845709E2,1.0598601E1,2.552202E0],"tree_param":{"num_deleted":"0","num_feature":"32","num_nodes":"117","size_leaf_vector":"1"}},{"base_weights":[-1.3161679E-2,1.9635952E-1,-3.6690488E-1,3.1287977E-1,2.227994E-2,7.854415E-1,-4.0743452E-1,5.277856E-1,2.2603974E-1,7.878998E-2,-3.8017923E-1,7.2528756E-1,1.1084934E0,-4.8106888E-1,-1.2855126E-1,3.9908424E-1,6.961061E-1,1.8263844E-1,5.934594E-1,1.1586519E-1,-3.6382735E-1,-4.8376065E-1,7.331169E-2,7.394232E-1,-3.330067E-1,1.1512017E0,-4.32318E-2,-3.21097E-1,-5.64926E-1,3.8003657E-2,-2.37114E-1,3.537046E-1,1.1895195E0,1.057022E0,6.061369E-1,3.036892E-1,6.860817E-2,8.838368E-1,4.86023E-1,2.7931592E-1,3.0519076E-2,-4.0577745E-1,4.4802356E-1,-5.148122E-1,9.22721E-1,4.01899E-1,-1.3842413E-1,6.999721E-1,1.1284924E0,6.3242745E-1,-9.2417145E-1,6.0172164E-1,1.2659916E0,-1.983357E-1,-5.42209E-1,-2.8928277E-1,-6.103689E-1,5.24325E-1,-1.6596284E-2,-1.5943544E-1,-4.9404085E-1,4.607714E-3,4.2800996E-2,1.2430746E-1,4.916176E-2,8.350041E-2,1.9328001E-1,6.1731264E-2,2.5181752E-2,1.5545608E-1,2.6192617E-2,2.2922955E-3,4.8865754E-2,9.13374E-2,2.7928565E-2,1.4974745E-1,3.9437417E-2,3.0337129E-2,-1.0301367E-2,6.933103E-2,3.5872642E-4,9.8932035E-2,-3.821629E-2,7.612089E-2,-6.9550266E-3,-4.6529412E-2,8.610685E-2,1.2731202E-1,1.1561537E-2,5.037142E-2,-4.621875E-2,-2.8919717E-2,2.5666928E-2,6.3568994E-2,-3.0618792E-2,1.2730762E-1,4.4986006E-2,9.025371E-2,-1.0338985E-2,-1.1942678E-2,-9.673573E-2,1.1161133E-1,-1.7425759E-2,1.2523739E-1,8.062791E-2,-2.3999626E-2,3.1326076E-3,1.0326076E-1,-4.8967883E-2,-8.327834E-2,-1.8594578E-2,-5.5053256E-2,4.6788383E-2,1.4974579E-1,3.6440153E-2,2.8280306E-3,-5.54603E-2,7.25191E-3,-2.1652155E-2,1.440797E-1,-4.545837E-2],"categories":[],"categories_nodes":[],"categories_segments":[],"categories_sizes":[],"default_left":[0,0,0,0,0,0,0,0,0,0,0,0,0,0,0,0,0,0,0,0,1,0,0,0,0,0,0,0,0,0,0,0,0,0,0,0,0,1,0,0,0,0,0,0,0,0,1,0,0,0,0,0,0,1,0,1,0,0,0,0,0,0,0,0,0,0,0,0,0,0,0,0,0,0,0,0,0,0,0,0,0,0,0,0,0,0,0,0,0,0,0,0,0,0,0,0,0,0,0,0,0,0,0,0,0,0,0,0,0,0,0,0,0,0,0,0,0,0,0,0,0],"id":10,"left_children":[1,3,5,7,9,11,13,15,17,19,21,23,25,27,29,31,33,35,37,39,41,43,45,47,49,51,-1,53,55,57,59,61,63,65,67,69,71,73,75,77,79,81,83,85,87,89,91,93,95,97,99,101,103,105,107,109,111,113,115,117,119,-1,-1,-1,-1,-1,-1,-1,-1,-1,-1,-1,-1,-1,-1,-1,-1,-1,-1,-1,-1,-1,-1,-1,-1,-1,-1,-1,-1,-1,-1,-1,-1,-1,-1,-1,-1,-1,-1,-1,-1,-1,-1,-1,-1,-1,-1,-1,-1,-1,-1,-1,-1,-1,-1,-1,-1,-1,-1,-1,-1],"loss_changes":[2.174078E3,3.7366034E2,5.0992053E2,2.0582678E2,1.6804674E2,6.406906E0,2.1640552E2,6.850519E1,1.2525012E2,1.0636121E2,4.2770065E1,4.9691467E0,4.3955383E0,1.1168384E2,3.984689E1,6.420459E1,4.3989807E1,9.704703E1,2.5465729E1,8.339611E1,1.7244133E1,3.282544E1,1.1885188E1,3.9969025E0,3.3529985E0,2.7187958E0,0E0,7.780197E1,6.833716E1,2.3116903E1,2.6543968E1,6.5363785E1,1.2052536E1,3.4205658E1,3.0874603E1,4.63302E1,7.454519E1,1.7724548E1,3.0599731E1,4.9777283E1,7.786306E1,1.7422714E1,5.438033E0,8.840759E0,6.391591E0,1.0384733E1,8.375305E0,4.411194E0,4.3622093E0,8.1279206E-1,2.9203486E-1,6.191985E0,9.92836E-1,3.0721626E1,1.413446E1,4.01352E1,4.2601074E1,1.1015469E1,2.2987072E1,2.071008E1,1.1600166E1,0E0,0E0,0E0,0E0,0E0,0E0,0E0,0E0,0E0,0E0,0E0,0E0,0E0,0E0,0E0,0E0,0E0,0E0,0E0,0E0,0E0,0E0,0E0,0E0,0E0,0E0,0E0,0E0,0E0,0E0,0E0,0E0,0E0,0E0,0E0,0E0,0E0,0E0,0E0,0E0,0E0,0E0,0E0,0E0,0E0,0E0,0E0,0E0,0E0,0E0,0E0,0E0,0E0,0E0,0E0,0E0,0E0,0E0,0E0,0E0],"parents":[2147483647,0,0,1,1,2,2,3,3,4,4,5,5,6,6,7,7,8,8,9,9,10,10,11,11,12,12,13,13,14,14,15,15,16,16,17,17,18,18,19,19,20,20,21,21,22,22,23,23,24,24,25,25,27,27,28,28,29,29,30,30,31,31,32,32,33,33,34,34,35,35,36,36,37,37,38,38,39,39,40,40,41,41,42,42,43,43,44,44,45,45,46,46,47,47,48,48,49,49,50,50,51,51,52,52,53,53,54,54,55,55,56,56,57,57,58,58,59,59,60,60],"right_children":[2,4,6,8,10,12,14,16,18,20,22,24,26,28,30,32,34,36,38,40,42,44,46,48,50,52,-1,54,56,58,60,62,64,66,68,70,72,74,76,78,80,82,84,86,88,90,92,94,96,98,100,102,104,106,108,110,112,114,116,118,120,-1,-1,-1,-1,-1,-1,-1,-1,-1,-1,-1,-1,-1,-1,-1,-1,-1,-1,-1,-1,-1,-1,-1,-1,-1,-1,-1,-1,-1,-1,-1,-1,-1,-1,-1,-1,-1,-1,-1,-1,-1,-1,-1,-1,-1,-1,-1,-1,-1,-1,-1,-1,-1,-1,-1,-1,-1,-1,-1,-1],"split_conditions":[3.138471E1,1.6970562E1,1E0,3E0,6.1927513E1,1.7E1,1E0,2E0,1.5180397E1,1E0,1E0,1.6346933E1,8E0,4.060788E1,4.2638012E1,1E0,7.2111025E0,2.6995838E1,8.485281E0,1.5422161E1,4.184916E0,9.1E1,1E0,1.2397581E2,5.7706154E1,1E0,-4.32318E-2,3.9805573E1,4E0,4E0,1E0,1E0,6.603751E1,1E0,1E0,1E0,1E0,1.643472E2,7.3E1,1E0,5.6290634E1,1E0,1.5422161E1,6E0,2.3600847E1,1E0,4.8373547E1,5.2431408E1,4.1054813E1,1.6643316E1,-3.4E1,2.2638462E1,1.0509519E2,1.174261E1,1.6073574E1,6E0,1E0,4.2857143E-1,5.813402E1,9.462322E0,-7.1E1,4.607714E-3,4.2800996E-2,1.2430746E-1,4.916176E-2,8.350041E-2,1.9328001E-1,6.1731264E-2,2.5181752E-2,1.5545608E-1,2.6192617E-2,2.2922955E-3,4.8865754E-2,9.13374E-2,2.7928565E-2,1.4974745E-1,3.9437417E-2,3.0337129E-2,-1.0301367E-2,6.933103E-2,3.5872642E-4,9.8932035E-2,-3.821629E-2,7.612089E-2,-6.9550266E-3,-4.6529412E-2,8.610685E-2,1.2731202E-1,1.1561537E-2,5.037142E-2,-4.621875E-2,-2.8919717E-2,2.5666928E-2,6.3568994E-2,-3.0618792E-2,1.2730762E-1,4.4986006E-2,9.025371E-2,-1.0338985E-2,-1.1942678E-2,-9.673573E-2,1.1161133E-1,-1.7425759E-2,1.2523739E-1,8.062791E-2,-2.3999626E-2,3.1326076E-3,1.0326076E-1,-4.8967883E-2,-8.327834E-2,-1.8594578E-2,-5.5053256E-2,4.6788383E-2,1.4974579E-1,3.6440153E-2,2.8280306E-3,-5.54603E-2,7.25191E-3,-2.1652155E-2,1.440797E-1,-4.545837E-2],"split_indices":[21,21,28,22,24,23,26,22,23,0,26,23,22,21,21,13,21,24,21,24,25,30,6,29,21,6,0,24,22,27,6,17,24,4,0,28,3,29,30,4,25,28,25,27,21,0,29,24,24,23,31,23,29,23,25,29,4,23,24,24,30,0,0,0,0,0,0,0,0,0,0,0,0,0,0,0,0,0,0,0,0,0,0,0,0,0,0,0,0,0,0,0,0,0,0,0,0,0,0,0,0,0,0,0,0,0,0,0,0,0,0,0,0,0,0,0,0,0,0,0,0],"split_type":[0,0,0,0,0,0,0,0,0,0,0,0,0,0,0,0,0,0,0,0,0,0,0,0,0,0,0,0,0,0,0,0,0,0,0,0,0,0,0,0,0,0,0,0,0,0,0,0,0,0,0,0,0,0,0,0,0,0,0,0,0,0,0,0,0,0,0,0,0,0,0,0,0,0,0,0,0,0,0,0,0,0,0,0,0,0,0,0,0,0,0,0,0,0,0,0,0,0,0,0,0,0,0,0,0,0,0,0,0,0,0,0,0,0,0,0,0,0,0,0,0],"sum_hessian":[2.9331201E4,1.8420959E4,1.0910242E4,1.1034328E4,7.386632E3,3.7006622E2,1.0540176E4,3.1741296E3,7.8601987E3,6.4778667E3,9.08765E2,3.1471057E2,5.5355637E1,8.337955E3,2.2022205E3,1.8006704E3,1.3734592E3,7.0311445E3,8.29054E2,5.9778765E3,4.9999017E2,7.397359E2,1.6902913E2,3.1085974E2,3.850848E0,5.418176E1,1.1738762E0,2.869231E3,5.4687246E3,8.692631E2,1.3329573E3,1.7042739E3,9.63965E1,2.7191397E2,1.1015453E3,3.409776E3,3.6213687E3,2.2194855E2,6.0710547E2,2.0498435E3,3.928033E3,4.758996E2,2.4090584E1,7.243775E2,1.5358414E1,6.5885315E1,1.03143814E2,2.8478226E2,2.6077465E1,1.4359658E0,2.4148822E0,1.0441572E1,4.374019E1,1.846148E3,1.0230831E3,7.75024E2,4.6937007E3,8.6873985E1,7.8238916E2,1.0247559E3,3.0820132E2,5.049654E2,1.1993086E3,7.190378E1,2.4492722E1,2.4728056E2,2.46334E1,8.6674744E2,2.347978E2,2.1170689E1,3.3886052E3,3.3255732E3,2.9579544E2,1.7706372E2,4.4884827E1,1.9801004E1,5.873045E2,1.7742122E3,2.7563138E2,1.3335884E2,3.794674E3,6.531508E0,4.6936807E2,1.3232482E1,1.0858103E1,7.212506E2,3.1268778E0,8.877321E0,6.481093E0,5.6263332E1,9.621978E0,7.195416E1,3.1189653E1,2.8133475E2,3.4475353E0,1.670715E1,9.370315E0,7.167959E-1,7.191699E-1,7.226858E-1,1.6921964E0,5.4308124E0,5.0107594E0,2.9382795E1,1.4357393E1,1.4146542E3,4.314937E2,3.9601629E0,1.0191229E3,8.465091E1,6.9037305E2,4.6616187E3,3.2081985E1,6.6245255E0,8.0249466E1,7.2547156E2,5.6917572E1,2.643498E2,7.604061E2,1.6361102E0,3.0656522E2],"tree_param":{"num_deleted":"0","num_feature":"32","num_nodes":"121","size_leaf_vector":"1"}},{"base_weights":[-9.843897E-3,1.785227E-1,-3.479057E-1,3.3407378E-1,7.63997E-2,7.315072E-1,-3.8767672E-1,3.6360633E-1,-3.4027505E-1,2.0514397E-1,-6.432307E-2,1.1205955E0,6.8236166E-1,-4.600774E-1,-1.2167477E-1,9.7476697E-1,3.2972065E-1,-3.540343E-1,2.1533862E-1,2.5590435E-1,-9.521137E-2,-2.836852E-3,-5.015245E-1,1.2074165E0,1.22763574E-1,8.483324E-1,5.5921227E-1,-3.2566977E-1,-5.5825096E-1,6.7826062E-3,-2.5932503E-1,8.116207E-1,1.4188931E0,1.7316335E-1,3.2232037E-1,-2.0456304E-1,-5.5428797E-1,2.929861E-1,-3.06299E-1,-1.8552496E-1,1.8488796E-1,3.0210632E-1,-9.26952E-2,1.253284E0,-5.209158E-1,1.2712873E0,1.3011478E-1,-4.3269175E-1,9.051815E-2,1.1839701E0,6.9145447E-1,1.1294053E0,5.0681454E-1,-2.1724562E-1,-5.7808495E-1,-5.679837E-1,6.164837E-1,9.5617555E-2,-2.6474658E-1,-2.703449E-1,2.5522456E0,5.4136332E-2,1.0083897E-1,5.0965074E-2,1.6105653E-1,2.83747E-2,3.1640062E-1,-2.4327418E-2,2.9648392E-2,-5.82258E-2,-1.4817655E-2,3.939397E-2,1.5796937E-2,-2.9118093E-2,1.7778459E-1,1.1203532E-2,-2.6498005E-2,-1.4513075E-2,3.8780868E-2,4.930606E-2,1.2598214E-2,-1.6643515E-2,8.378204E-3,1.3913108E-1,-5.1937778E-2,-4.7928482E-2,9.912354E-2,9.425047E-3,1.1619455E-1,6.34802E-2,-6.493885E-2,-5.6364153E-2,2.0932255E-2,-6.3682194E-3,1.1218159E-1,6.674487E-2,-3.2481767E-2,1.1578273E-1,-6.1588585E-2,3.152496E-2,7.189527E-2,-2.6731906E-2,-3.1482002E-3,-5.202851E-2,1.9295953E-1,-5.11027E-2,1.05240345E-1,3.0360742E-2,2.539754E-1,1.9614568E-3,2.7402766E-2,-7.174532E-2,-1.5973419E-2,3.4689098E-3,-2.9111894E-2,8.234427E-2,3.2853797E-1],"categories":[],"categories_nodes":[],"categories_segments":[],"categories_sizes":[],"default_left":[0,0,0,0,0,0,0,0,0,0,0,0,0,0,0,0,0,0,0,0,0,0,0,0,0,0,0,0,0,0,0,1,0,0,0,0,0,0,0,0,1,0,0,0,0,0,0,0,0,0,0,0,0,1,0,0,1,1,0,0,0,0,0,0,0,0,0,0,0,0,0,0,0,0,0,0,0,0,0,0,0,0,0,0,0,0,0,0,0,0,0,0,0,0,0,0,0,0,0,0,0,0,0,0,0,0,0,0,0,0,0,0,0,0,0,0,0],"id":11,"left_children":[1,3,5,7,9,11,13,15,17,19,21,23,25,27,29,31,33,35,-1,37,39,41,43,45,47,49,51,53,55,57,59,61,63,-1,65,67,69,71,73,75,77,79,81,83,85,87,89,91,-1,93,95,97,99,101,103,105,107,109,111,113,115,-1,-1,-1,-1,-1,-1,-1,-1,-1,-1,-1,-1,-1,-1,-1,-1,-1,-1,-1,-1,-1,-1,-1,-1,-1,-1,-1,-1,-1,-1,-1,-1,-1,-1,-1,-1,-1,-1,-1,-1,-1,-1,-1,-1,-1,-1,-1,-1,-1,-1,-1,-1,-1,-1,-1,-1],"loss_changes":[1.8600973E3,2.979563E2,4.4898157E2,1.481759E2,2.0519437E2,6.3442383E0,1.9409607E2,1.4718646E2,1.2715313E1,9.0198425E1,1.4547343E2,3.3287392E0,6.3243103E0,1.0437781E2,3.816391E1,2.5922821E1,8.00484E1,9.217941E0,0E0,1.05573E2,2.1682972E1,1.300602E2,2.3357285E1,2.367321E0,2.5875454E0,6.5396957E0,5.2202034E0,9.147925E1,5.269043E1,2.6977608E1,3.29701E1,1.731987E1,3.1657303E1,0E0,7.8067444E1,6.737353E0,5.017975E0,8.191263E1,1.5617989E1,2.2635468E1,1.8309298E1,4.3586014E1,6.4542816E1,5.220564E0,1.9344925E1,1.2213707E0,2.1099083E0,5.995434E-1,0E0,4.1996346E0,6.270546E0,5.7255344E0,7.9521523E0,3.5351723E1,1.8488464E1,4.7917603E1,2.2494244E1,1.314796E1,1.2586811E1,1.819918E1,4.2952175E0,0E0,0E0,0E0,0E0,0E0,0E0,0E0,0E0,0E0,0E0,0E0,0E0,0E0,0E0,0E0,0E0,0E0,0E0,0E0,0E0,0E0,0E0,0E0,0E0,0E0,0E0,0E0,0E0,0E0,0E0,0E0,0E0,0E0,0E0,0E0,0E0,0E0,0E0,0E0,0E0,0E0,0E0,0E0,0E0,0E0,0E0,0E0,0E0,0E0,0E0,0E0,0E0,0E0,0E0,0E0,0E0],"parents":[2147483647,0,0,1,1,2,2,3,3,4,4,5,5,6,6,7,7,8,8,9,9,10,10,11,11,12,12,13,13,14,14,15,15,16,16,17,17,19,19,20,20,21,21,22,22,23,23,24,24,25,25,26,26,27,27,28,28,29,29,30,30,31,31,32,32,34,34,35,35,36,36,37,37,38,38,39,39,40,40,41,41,42,42,43,43,44,44,45,45,46,46,47,47,49,49,50,50,51,51,52,52,53,53,54,54,55,55,56,56,57,57,58,58,59,59,60,60],"right_children":[2,4,6,8,10,12,14,16,18,20,22,24,26,28,30,32,34,36,-1,38,40,42,44,46,48,50,52,54,56,58,60,62,64,-1,66,68,70,72,74,76,78,80,82,84,86,88,90,92,-1,94,96,98,100,102,104,106,108,110,112,114,116,-1,-1,-1,-1,-1,-1,-1,-1,-1,-1,-1,-1,-1,-1,-1,-1,-1,-1,-1,-1,-1,-1,-1,-1,-1,-1,-1,-1,-1,-1,-1,-1,-1,-1,-1,-1,-1,-1,-1,-1,-1,-1,-1,-1,-1,-1,-1,-1,-1,-1,-1,-1,-1,-1,-1,-1],"split_conditions":[3.1764761E1,1.20415945E1,1E0,1E0,2.8950994E1,4.1231056E1,1E0,5.0990195E0,6E0,1E0,1E0,1E0,9E0,4.313931E1,4.632494E1,8.6E1,1E0,7.2111025E0,2.1533862E-1,1E0,1E0,5E0,1E0,1E0,1.3462912E1,-1.4E1,-3.5E1,4.3025066E1,1E0,4.0462227E1,1E0,3.8470768E1,-3E0,1.7316335E-1,9.3E1,2.8E1,8.7E1,1.9235384E1,2E0,6E0,2.3021729E1,1E0,9.944289E0,1.8E1,9.1E1,4.2857143E-1,2.1E1,2.7E1,9.051815E-2,6E0,1E0,1E0,2.8E1,8.944272E0,1E0,1E0,2.0248457E1,4.21637E0,-3.1E1,6E0,1E0,5.4136332E-2,1.0083897E-1,5.0965074E-2,1.6105653E-1,2.83747E-2,3.1640062E-1,-2.4327418E-2,2.9648392E-2,-5.82258E-2,-1.4817655E-2,3.939397E-2,1.5796937E-2,-2.9118093E-2,1.7778459E-1,1.1203532E-2,-2.6498005E-2,-1.4513075E-2,3.8780868E-2,4.930606E-2,1.2598214E-2,-1.6643515E-2,8.378204E-3,1.3913108E-1,-5.1937778E-2,-4.7928482E-2,9.912354E-2,9.425047E-3,1.1619455E-1,6.34802E-2,-6.493885E-2,-5.6364153E-2,2.0932255E-2,-6.3682194E-3,1.1218159E-1,6.674487E-2,-3.2481767E-2,1.1578273E-1,-6.1588585E-2,3.152496E-2,7.189527E-2,-2.6731906E-2,-3.1482002E-3,-5.202851E-2,1.9295953E-1,-5.11027E-2,1.05240345E-1,3.0360742E-2,2.539754E-1,1.9614568E-3,2.7402766E-2,-7.174532E-2,-1.5973419E-2,3.4689098E-3,-2.9111894E-2,8.234427E-2,3.2853797E-1],"split_indices":[21,21,28,5,24,21,26,21,27,4,0,0,22,21,21,30,28,21,0,1,26,27,28,13,23,30,31,24,4,24,1,29,31,0,30,22,30,21,26,22,29,6,23,31,30,23,31,22,0,27,2,2,30,23,4,1,23,23,31,22,12,0,0,0,0,0,0,0,0,0,0,0,0,0,0,0,0,0,0,0,0,0,0,0,0,0,0,0,0,0,0,0,0,0,0,0,0,0,0,0,0,0,0,0,0,0,0,0,0,0,0,0,0,0,0,0,0],"split_type":[0,0,0,0,0,0,0,0,0,0,0,0,0,0,0,0,0,0,0,0,0,0,0,0,0,0,0,0,0,0,0,0,0,0,0,0,0,0,0,0,0,0,0,0,0,0,0,0,0,0,0,0,0,0,0,0,0,0,0,0,0,0,0,0,0,0,0,0,0,0,0,0,0,0,0,0,0,0,0,0,0,0,0,0,0,0,0,0,0,0,0,0,0,0,0,0,0,0,0,0,0,0,0,0,0,0,0,0,0,0,0,0,0,0,0,0,0],"sum_hessian":[2.9208299E4,1.875729E4,1.0451011E4,7.433107E3,1.1324183E4,3.707663E2,1.0080244E4,7.121679E3,3.114275E2,5.9135464E3,5.4106357E3,3.9134464E1,3.3163184E2,7.923019E3,2.157225E3,3.7265897E2,6.7490205E3,3.1074927E2,6.782115E-1,5.058759E3,8.5478766E2,4.744408E3,6.6622766E2,3.5808716E1,3.3257465E0,1.3874883E2,1.9288303E2,3.3461633E3,4.576856E3,1.1163658E3,1.0408594E3,2.7461044E2,9.804854E1,2.9589148E1,6.719431E3,1.7909361E2,1.3165567E2,4.746189E3,3.1256982E2,6.4662976E2,2.0815787E2,1.079308E3,3.6651E3,6.586139E0,6.5964154E2,3.3634537E1,2.1741805E0,2.3693066E0,9.5644E-1,4.2109386E1,9.6639435E1,1.45033E1,1.7837973E2,2.3420176E3,1.0041456E3,4.5397603E3,3.7095577E1,8.416537E2,2.7471213E2,1.0376959E3,3.1633787E0,1.6977448E2,1.0483597E2,3.1698545E1,6.634999E1,6.712952E3,6.478935E0,1.5924619E2,1.9847427E1,1.0420167E2,2.7453999E1,2.0685647E3,2.6776245E3,3.1063263E2,1.9371865E0,1.7111734E2,4.7551242E2,8.7318726E1,1.2083914E2,4.1954483E2,6.597632E2,2.4361714E3,1.2289287E3,5.764587E0,8.215519E-1,6.533698E2,6.2717133E0,1.0610883E0,3.257345E1,1.397158E0,7.7702236E-1,1.8625975E0,5.0670904E-1,2.4047408E0,3.9704643E1,9.187195E1,4.7674847E0,1.3520184E1,9.831162E-1,1.1972259E2,5.865714E1,1.6078616E3,7.3415607E2,1.00265314E3,1.4924825E0,4.525059E3,1.4701017E1,3.4052174E1,3.0434036E0,6.2570746E2,2.1594623E2,3.6282993E1,2.3842912E2,1.6058269E2,8.771133E2,2.0473096E0,1.1160691E0],"tree_param":{"num_deleted":"0","num_feature":"32","num_nodes":"117","size_leaf_vector":"1"}},{"base_weights":[-9.350224E-3,1.590567E-1,-3.336989E-1,2.5558692E-1,1.3366932E-2,6.410801E-1,-3.7157384E-1,1.6994214E-1,3.8816032E-1,5.2793253E-2,-4.444328E-1,5.7975274E-1,9.814344E-1,-4.467571E-1,-1.02798104E-1,1.04026236E-1,3.7430254E-1,1.7793064E0,3.7707344E-1,9.290868E-2,-3.2162538E-1,9.7750455E-1,-4.6435463E-1,5.472815E-1,9.869605E-1,-4.344614E-2,1.0107988E0,-1.700344E-1,-4.9405855E-1,3.633407E-1,-1.3628916E-1,2.0195034E-1,-1.7041871E-2,9.33256E-1,3.217642E-1,1.6328155E-1,-1.8817762E-2,1.1105514E0,3.5936764E-1,1.4556345E0,8.200049E-2,-4.2432046E-1,6.6925555E-2,1.2055744E0,-5.058692E-2,-2.723309E-1,-6.1007684E-1,8.4731233E-1,4.9522763E-1,1.1615194E0,8.8669136E-2,1.32973E0,7.7549064E-1,-9.651583E-2,-1.0042605E0,-3.8634887E-1,-6.028182E-1,7.0351726E-1,1.5913916E-1,1.7222023E0,-1.4507082E-1,4.256611E-2,1.3465195E-2,1.437613E-2,-8.422086E-3,3.2718685E-2,9.118839E-2,3.2893118E-2,-2.2075882E-3,1.10225946E-1,4.076497E-3,3.5705898E-2,4.228681E-3,1.7044906E-1,1.0272965E-1,-9.974566E-4,1.8925335E-2,-4.0689074E-2,7.393284E-2,4.758407E-2,-1.7997975E-2,-4.2632066E-2,1.238556E-1,-3.6750128E-4,-3.4737375E-2,-5.6040213E-2,1.04676776E-1,9.152399E-2,9.590143E-3,4.58091E-2,-3.2957833E-2,2.8785232E-2,1.2615836E-1,6.6296265E-2,-7.956967E-2,6.912409E-2,1.3317606E-1,1.9522272E-2,8.775606E-2,7.6561663E-3,-5.21954E-2,-9.041265E-2,2.7975556E-2,-2.7388517E-2,-5.9699092E-2,-4.5843855E-2,-6.497437E-2,4.934851E-2,1.5870865E-1,1.04531065E-1,6.6786697E-3,2.2876209E-1,2.353309E-2,-6.286645E-3,-2.8406288E-2],"categories":[],"categories_nodes":[],"categories_segments":[],"categories_sizes":[],"default_left":[0,0,0,0,0,0,0,0,0,0,0,0,1,0,0,0,0,0,0,0,0,0,0,0,0,0,0,0,0,0,0,0,0,0,0,0,0,0,0,0,1,0,0,0,0,0,0,0,0,0,0,0,0,0,0,0,0,1,0,0,0,0,0,0,0,0,0,0,0,0,0,0,0,0,0,0,0,0,0,0,0,0,0,0,0,0,0,0,0,0,0,0,0,0,0,0,0,0,0,0,0,0,0,0,0,0,0,0,0,0,0,0,0,0,0],"id":12,"left_children":[1,3,5,7,9,11,13,15,17,19,21,23,25,27,29,31,33,35,37,39,41,43,45,47,49,-1,51,53,55,57,59,61,63,65,67,-1,-1,69,71,73,75,77,79,81,-1,83,85,87,89,91,93,95,97,99,101,103,105,107,109,111,113,-1,-1,-1,-1,-1,-1,-1,-1,-1,-1,-1,-1,-1,-1,-1,-1,-1,-1,-1,-1,-1,-1,-1,-1,-1,-1,-1,-1,-1,-1,-1,-1,-1,-1,-1,-1,-1,-1,-1,-1,-1,-1,-1,-1,-1,-1,-1,-1,-1,-1,-1,-1,-1,-1],"loss_changes":[1.588712E3,2.6924112E2,3.6723254E2,1.3068011E2,1.3775385E2,7.1989594E0,1.9332275E2,9.422258E1,6.902203E1,1.0556908E2,1.7596893E1,3.6616669E0,2.882515E0,9.7788574E1,3.272358E1,6.2747013E1,4.9805008E1,4.2337112E0,5.7835938E1,9.423384E1,2.7170082E1,3.7459936E0,1.6552765E1,4.2118683E0,3.381796E0,0E0,3.0675964E0,6.6941696E1,7.456604E1,9.652464E0,3.2130325E1,4.090583E1,3.2784946E1,7.1336594E0,2.579152E1,0E0,0E0,1.4214218E1,5.6863037E1,4.7624817E0,7.663336E1,2.2426834E1,1.8102348E1,3.1295176E0,0E0,8.200159E0,1.24221115E1,5.55723E0,4.440098E0,3.5071507E0,3.6926281E0,8.3995056E-1,3.7369537E0,8.992256E1,1.6193314E0,7.163751E1,3.506433E1,7.4580364E0,7.5219717E0,1.0760971E1,2.5174393E1,0E0,0E0,0E0,0E0,0E0,0E0,0E0,0E0,0E0,0E0,0E0,0E0,0E0,0E0,0E0,0E0,0E0,0E0,0E0,0E0,0E0,0E0,0E0,0E0,0E0,0E0,0E0,0E0,0E0,0E0,0E0,0E0,0E0,0E0,0E0,0E0,0E0,0E0,0E0,0E0,0E0,0E0,0E0,0E0,0E0,0E0,0E0,0E0,0E0,0E0,0E0,0E0,0E0,0E0],"parents":[2147483647,0,0,1,1,2,2,3,3,4,4,5,5,6,6,7,7,8,8,9,9,10,10,11,11,12,12,13,13,14,14,15,15,16,16,17,17,18,18,19,19,20,20,21,21,22,22,23,23,24,24,26,26,27,27,28,28,29,29,30,30,31,31,32,32,33,33,34,34,37,37,38,38,39,39,40,40,41,41,42,42,43,43,45,45,46,46,47,47,48,48,49,49,50,50,51,51,52,52,53,53,54,54,55,55,56,56,57,57,58,58,59,59,60,60],"right_children":[2,4,6,8,10,12,14,16,18,20,22,24,26,28,30,32,34,36,38,40,42,44,46,48,50,-1,52,54,56,58,60,62,64,66,68,-1,-1,70,72,74,76,78,80,82,-1,84,86,88,90,92,94,96,98,100,102,104,106,108,110,112,114,-1,-1,-1,-1,-1,-1,-1,-1,-1,-1,-1,-1,-1,-1,-1,-1,-1,-1,-1,-1,-1,-1,-1,-1,-1,-1,-1,-1,-1,-1,-1,-1,-1,-1,-1,-1,-1,-1,-1,-1,-1,-1,-1,-1,-1,-1,-1,-1,-1,-1,-1,-1,-1,-1],"split_conditions":[3.2202484E1,1.7029387E1,1E0,8.003905E0,1E0,1.7E1,1E0,1E0,1E0,6.453665E1,1E0,1.2815616E2,7.615773E0,4E0,4E0,3.2195732E1,6.3245554E0,1E1,4.472136E0,1E0,1E0,1.8E1,2.6995838E1,2.1189621E1,1.5138031E2,-4.344614E-2,1.9384516E1,1.620864E2,4.632494E1,3.8327538E1,2.2638395E1,3E0,8E0,4.1231055E0,1E0,1.6328155E-1,-1.8817762E-2,1E0,6.603751E1,7E0,5.8309517E0,9.1E1,1E0,1.118034E0,-5.058692E-2,4E0,9.2E1,1E0,1.603122E1,-3E1,1.7E1,5.042451E0,7.705842E1,1E0,1E0,4.8691387E1,1E0,6.1745443E0,3.5E1,4E0,1E0,4.256611E-2,1.3465195E-2,1.437613E-2,-8.422086E-3,3.2718685E-2,9.118839E-2,3.2893118E-2,-2.2075882E-3,1.10225946E-1,4.076497E-3,3.5705898E-2,4.228681E-3,1.7044906E-1,1.0272965E-1,-9.974566E-4,1.8925335E-2,-4.0689074E-2,7.393284E-2,4.758407E-2,-1.7997975E-2,-4.2632066E-2,1.238556E-1,-3.6750128E-4,-3.4737375E-2,-5.6040213E-2,1.04676776E-1,9.152399E-2,9.590143E-3,4.58091E-2,-3.2957833E-2,2.8785232E-2,1.2615836E-1,6.6296265E-2,-7.956967E-2,6.912409E-2,1.3317606E-1,1.9522272E-2,8.775606E-2,7.6561663E-3,-5.21954E-2,-9.041265E-2,2.7975556E-2,-2.7388517E-2,-5.9699092E-2,-4.5843855E-2,-6.497437E-2,4.934851E-2,1.5870865E-1,1.04531065E-1,6.6786697E-3,2.2876209E-1,2.353309E-2,-6.286645E-3,-2.8406288E-2],"split_indices":[21,21,28,23,0,23,26,26,28,24,28,29,29,22,27,24,21,31,21,28,26,31,24,29,29,0,24,29,21,21,25,22,21,29,0,0,0,5,24,22,23,30,6,23,0,22,30,19,23,31,22,24,29,20,1,24,6,23,30,31,6,0,0,0,0,0,0,0,0,0,0,0,0,0,0,0,0,0,0,0,0,0,0,0,0,0,0,0,0,0,0,0,0,0,0,0,0,0,0,0,0,0,0,0,0,0,0,0,0,0,0,0,0,0,0],"split_type":[0,0,0,0,0,0,0,0,0,0,0,0,0,0,0,0,0,0,0,0,0,0,0,0,0,0,0,0,0,0,0,0,0,0,0,0,0,0,0,0,0,0,0,0,0,0,0,0,0,0,0,0,0,0,0,0,0,0,0,0,0,0,0,0,0,0,0,0,0,0,0,0,0,0,0,0,0,0,0,0,0,0,0,0,0,0,0,0,0,0,0,0,0,0,0,0,0,0,0,0,0,0,0,0,0,0,0,0,0,0,0,0,0,0,0],"sum_hessian":[2.90833E4,1.9143965E4,9.939337E3,1.1514202E4,7.629763E3,3.711521E2,9.568185E3,6.996573E3,4.5176284E3,7.025594E3,6.041689E2,3.167765E2,5.43756E1,7.4762344E3,2.0919504E3,5.2913657E3,1.7052073E3,3.445804E1,4.4831704E3,6.34639E3,6.792041E2,7.683527E0,5.9648535E2,2.9555276E2,2.1223724E1,7.5939596E-1,5.3616203E1,1.0920607E3,6.3841733E3,1.3956688E2,1.9523837E3,2.9249204E3,2.3664456E3,1.450682E2,1.560139E3,3.361664E1,8.414018E-1,1.0421582E2,4.3789546E3,4.9345715E1,6.2970444E3,5.371435E2,1.4206058E2,6.8872786E0,7.962486E-1,2.5859442E2,3.378909E2,4.143721E1,2.5411557E2,1.7525146E1,3.698577E0,2.078869E1,3.282751E1,1.0046396E3,8.742105E1,3.2098577E3,3.1743157E3,5.1435677E1,8.81312E1,8.264327E0,1.9441193E3,4.526433E2,2.472277E3,7.1637476E2,1.6500708E3,2.0772741E1,1.24295456E2,1.371482E3,1.8865692E2,9.293488E1,1.1280931E1,3.862899E3,5.1605585E2,1.7467033E1,3.1878681E1,3.6745586E3,2.6224858E3,5.2413794E2,1.3005601E1,5.153428E1,9.052629E1,5.261369E-1,6.3611417E0,7.923364E1,1.7936078E2,3.3491776E2,2.9731438E0,3.2992043E1,8.4451685E0,2.4898271E2,5.132855E0,4.6212125E0,1.29039345E1,2.3628802E0,1.3356967E0,6.1058087E0,1.4682881E1,9.559902E0,2.3267609E1,7.324763E2,2.7216327E2,8.691561E1,5.05441E-1,2.5148845E3,6.949732E2,1.8778805E3,1.2964353E3,4.6513344E1,4.922334E0,5.755201E0,8.2376E1,4.7452326E0,3.5190947E0,1.3623434E3,5.817759E2],"tree_param":{"num_deleted":"0","num_feature":"32","num_nodes":"115","size_leaf_vector":"1"}},{"base_weights":[-9.353784E-3,1.4340141E-1,-3.150378E-1,2.8985068E-1,6.377037E-2,5.949858E-1,-3.5136136E-1,3.0570254E-1,-4.8368E-1,1.09023415E-1,-2.4264061E-1,5.451187E-1,9.3342817E-1,-1.261604E-1,-4.2034343E-1,1.8637266E0,2.989453E-1,-6.062114E-1,2.6508477E-1,1.2703972E0,1.00333676E-1,-2.661715E-1,8.750563E-1,5.6302524E-1,-6.196852E-1,-2.5904852E-1,9.766842E-1,2.219288E-2,-2.360434E-1,-2.5870943E-1,-4.962891E-1,1.9581615E0,8.7297547E-1,3.3434126E-1,1.1179149E-3,9.107642E-1,-6.7735577E-1,-1.9047206E-2,1.3680029E0,5.6003183E-1,1.3612278E0,3.0497873E-1,5.3977754E-2,1.7412126E-1,-3.2203063E-1,1.0315526E0,-4.912806E-2,5.952065E-1,4.2882796E-2,-8.917629E-2,3.601671E-2,2.7495833E-2,-5.998331E-2,5.9510154E-1,1.137338E0,1.0036204E-2,1.8700172E0,-2.2966247E-2,-3.1788993E-1,-1.6899736E-1,-5.841131E-1,-4.0145835E-1,-6.1809397E-1,7.996617E-2,1.8061596E-1,-5.914722E-2,1.2523922E-1,2.7176157E-2,6.1551407E-2,1.2115846E-2,-1.6588975E-2,1.0067395E-1,-3.527489E-2,-6.4772695E-2,9.184762E-3,1.1131224E-1,-2.4541598E-2,1.8896216E-1,-4.673593E-2,-9.6282195E-3,1.1893567E-1,1.24108925E-1,3.234726E-2,3.217674E-2,4.903435E-3,5.8336026E-4,2.6210124E-2,7.298598E-2,6.8659587E-3,-2.9675018E-2,1.11181036E-1,-6.6572145E-2,1.06784105E-1,-7.497392E-2,1.14223816E-1,6.7583956E-2,4.391938E-2,4.2035397E-2,-4.3548543E-2,8.227096E-2,2.4852859E-2,1.0759725E-1,1.3562365E-2,1.1410545E-2,-1.5186839E-2,2.0022261E-1,-4.627296E-3,1.9448599E-1,-3.601707E-3,-2.1729512E-2,-4.981633E-2,-2.1274462E-3,-2.5645055E-2,-5.2835047E-2,1.8069118E-1,-3.0805422E-2,-5.9658814E-2,7.20581E-2,-5.599411E-2],"categories":[],"categories_nodes":[],"categories_segments":[],"categories_sizes":[],"default_left":[0,0,0,0,0,1,0,0,0,0,0,0,0,0,0,0,0,0,0,0,0,0,0,0,0,0,0,1,0,0,0,0,0,0,0,0,0,0,0,0,0,0,0,0,0,0,0,0,0,0,0,0,0,0,0,0,0,0,0,0,0,0,0,0,0,0,0,0,0,0,0,0,0,0,0,0,0,0,0,0,0,0,0,0,0,0,0,0,0,0,0,0,0,0,0,0,0,0,0,0,0,0,0,0,0,0,0,0,0,0,0,0,0,0,0,0,0,0,0],"id":13,"left_children":[1,3,5,7,9,11,13,15,17,19,21,23,25,27,29,31,33,35,37,39,41,43,45,47,49,51,53,55,57,59,61,63,65,67,69,71,73,75,77,79,81,83,85,87,89,91,93,95,97,-1,-1,-1,-1,99,101,103,105,107,109,111,113,115,117,-1,-1,-1,-1,-1,-1,-1,-1,-1,-1,-1,-1,-1,-1,-1,-1,-1,-1,-1,-1,-1,-1,-1,-1,-1,-1,-1,-1,-1,-1,-1,-1,-1,-1,-1,-1,-1,-1,-1,-1,-1,-1,-1,-1,-1,-1,-1,-1,-1,-1,-1,-1,-1,-1,-1,-1],"loss_changes":[1.3552141E3,2.256655E2,3.1987347E2,8.3725586E1,1.7386743E2,5.7619934E0,1.4442151E2,6.976715E1,1.275415E1,1.10123535E2,4.267193E1,7.153595E0,2.641861E0,3.557781E1,8.7258545E1,9.715271E-1,7.012561E1,1.3380409E1,6.293279E0,4.4671173E0,1.0286007E2,3.8942833E1,4.896475E0,5.3615265E0,2.5229998E0,7.7579284E-1,2.0756874E0,2.0859941E1,2.1856941E1,6.6394394E1,5.5682617E1,6.83136E-2,4.4597125E0,6.1605408E1,1.7923666E1,2.0930624E0,4.5147285E0,5.84424E0,6.9821935E0,5.7874393E0,1.8105011E0,2.8203705E1,1.0081199E2,1.1125811E1,2.5207321E1,9.46085E0,7.212371E0,4.6863327E0,4.7584496E0,0E0,0E0,0E0,0E0,1.3425045E0,1.9512329E0,1.97401E1,4.5340767E0,1.3556881E1,1.6022263E1,3.0853157E1,1.3121536E1,4.0380463E1,3.30636E1,0E0,0E0,0E0,0E0,0E0,0E0,0E0,0E0,0E0,0E0,0E0,0E0,0E0,0E0,0E0,0E0,0E0,0E0,0E0,0E0,0E0,0E0,0E0,0E0,0E0,0E0,0E0,0E0,0E0,0E0,0E0,0E0,0E0,0E0,0E0,0E0,0E0,0E0,0E0,0E0,0E0,0E0,0E0,0E0,0E0,0E0,0E0,0E0,0E0,0E0,0E0,0E0,0E0,0E0,0E0,0E0],"parents":[2147483647,0,0,1,1,2,2,3,3,4,4,5,5,6,6,7,7,8,8,9,9,10,10,11,11,12,12,13,13,14,14,15,15,16,16,17,17,18,18,19,19,20,20,21,21,22,22,23,23,24,24,25,25,26,26,27,27,28,28,29,29,30,30,31,31,32,32,33,33,34,34,35,35,36,36,37,37,38,38,39,39,40,40,41,41,42,42,43,43,44,44,45,45,46,46,47,47,48,48,53,53,54,54,55,55,56,56,57,57,58,58,59,59,60,60,61,61,62,62],"right_children":[2,4,6,8,10,12,14,16,18,20,22,24,26,28,30,32,34,36,38,40,42,44,46,48,50,52,54,56,58,60,62,64,66,68,70,72,74,76,78,80,82,84,86,88,90,92,94,96,98,-1,-1,-1,-1,100,102,104,106,108,110,112,114,116,118,-1,-1,-1,-1,-1,-1,-1,-1,-1,-1,-1,-1,-1,-1,-1,-1,-1,-1,-1,-1,-1,-1,-1,-1,-1,-1,-1,-1,-1,-1,-1,-1,-1,-1,-1,-1,-1,-1,-1,-1,-1,-1,-1,-1,-1,-1,-1,-1,-1,-1,-1,-1,-1,-1,-1,-1],"split_conditions":[3.2202484E1,5E0,1E0,1E0,6.1927513E1,1.1733712E2,5E0,1E0,1E0,1E0,2E0,1.1506954E2,3.0127876E0,4.3382023E1,4.0311287E1,1E1,1E0,4.472136E0,5E0,6.3E1,9.219544E0,7E0,4E0,1E0,1.5E1,9E0,-2.6E1,5.944329E0,1.0784298E1,4.9398705E1,1E0,-1.3E1,2.1213203E1,3.6674243E2,1.7888544E1,1E0,1E0,3.5763345E0,8E0,9.552486E0,1.9E1,1E0,1E0,4.472136E0,9.3E1,8E1,4.7707443E1,8E0,1E0,-8.917629E-2,3.601671E-2,2.7495833E-2,-5.998331E-2,-3.2E1,1E0,1E0,1E0,1.7650124E1,1E0,1E0,1E0,6.17171E1,-6.9E1,7.996617E-2,1.8061596E-1,-5.914722E-2,1.2523922E-1,2.7176157E-2,6.1551407E-2,1.2115846E-2,-1.6588975E-2,1.0067395E-1,-3.527489E-2,-6.4772695E-2,9.184762E-3,1.1131224E-1,-2.4541598E-2,1.8896216E-1,-4.673593E-2,-9.6282195E-3,1.1893567E-1,1.24108925E-1,3.234726E-2,3.217674E-2,4.903435E-3,5.8336026E-4,2.6210124E-2,7.298598E-2,6.8659587E-3,-2.9675018E-2,1.11181036E-1,-6.6572145E-2,1.06784105E-1,-7.497392E-2,1.14223816E-1,6.7583956E-2,4.391938E-2,4.2035397E-2,-4.3548543E-2,8.227096E-2,2.4852859E-2,1.0759725E-1,1.3562365E-2,1.1410545E-2,-1.5186839E-2,2.0022261E-1,-4.627296E-3,1.9448599E-1,-3.601707E-3,-2.1729512E-2,-4.981633E-2,-2.1274462E-3,-2.5645055E-2,-5.2835047E-2,1.8069118E-1,-3.0805422E-2,-5.9658814E-2,7.20581E-2,-5.599411E-2],"split_indices":[21,22,28,18,24,29,27,28,4,28,26,29,24,21,21,31,20,21,31,30,21,21,27,2,22,22,31,25,24,24,6,31,21,23,21,5,1,24,31,23,31,17,3,21,30,30,29,22,31,0,0,0,0,31,